{"learner":{"attributes":{"scikit_learn":"{\"_estimator_type\": \"regressor\"}"},"feature_names":[],"feature_types":[],"gradient_booster":{"model":{"gbtree_model_param":{"num_parallel_tree":"1","num_trees":"100"},"iteration_indptr":[0,1,2,3,4,5,6,7,8,9,10,11,12,13,14,15,16,17,18,19,20,21,22,23,24,25,26,27,28,29,30,31,32,33,34,35,36,37,38,39,40,41,42,43,44,45,46,47,48,49,50,51,52,53,54,55,56,57,58,59,60,61,62,63,64,65,66,67,68,69,70,71,72,73,74,75,76,77,78,79,80,81,82,83,84,85,86,87,88,89,90,91,92,93,94,95,96,97,98,99,100],"tree_info":[0,0,0,0,0,0,0,0,0,0,0,0,0,0,0,0,0,0,0,0,0,0,0,0,0,0,0,0,0,0,0,0,0,0,0,0,0,0,0,0,0,0,0,0,0,0,0,0,0,0,0,0,0,0,0,0,0,0,0,0,0,0,0,0,0,0,0,0,0,0,0,0,0,0,0,0,0,0,0,0,0,0,0,0,0,0,0,0,0,0,0,0,0,0,0,0,0,0,0,0],"trees":[{"base_weights":[-1.2185519E-9,-5.0813556E-2,8.996454E-2,-6.453445E-2,1.7790759E-2,4.9321033E-2,2.9316482E-1,-7.6816685E-2,-3.6000635E-2,-1.3205295E-2,8.9789435E-2,-1.1190783E-1,6.430002E-2,2.3901893E-1,3.9257655E-1,-5.9830844E-3,-7.2835155E-2,-5.989335E-3,-2.8214091E-2,-3.527023E-2,1.037227E-2,6.859715E-2,1.2366293E-1,-1.14283584E-1,1.7222849E-1,2.9313862E-1,4.0352713E-2,1.9007277E-1,2.740917E-1,3.7137973E-1,5.5278635E-1,-1.3204343E-2,-7.9073936E-2,8.977439E-2,-4.056136E-2,-3.903362E-2,-2.6791984E-2,-3.0495638E-3,2.756531E-2,5.5518672E-2,8.302165E-2,1.0632944E-1,1.4235407E-1,-1.1766061E-1,-6.4460956E-2,1.1913584E-1,1.3294798E-2,2.3898597E-1,3.924771E-1,-5.4341108E-2,7.149584E-2,1.720406E-1,2.1160387E-1,2.6123497E-1,2.9396087E-1,3.4002027E-1,4.1429952E-1,2.3765555E-2,6.029768E-1,-1.763265E-3,5.185361E-4,-5.194463E-3,-3.5455525E-3,3.4289237E-3,6.1804536E-3,-4.4631227E-3,-1.227084E-3,-2.0021838E-3,-1.7736553E-3,-1.5275982E-3,-8.8175666E-4,-4.5178327E-4,1.3264042E-4,1.1659659E-3,1.6180909E-3,2.467647E-3,3.1843192E-3,3.950046E-3,4.42311E-3,4.918792E-3,5.559645E-3,6.5234597E-3,7.533902E-3,-5.9425137E-3,-5.2459147E-3,-1.7748779E-3,-3.873786E-3,3.6767423E-3,7.905909E-3,9.500503E-3,1.3701339E-2,1.8563664E-2,2.7579308E-2,4.691219E-3,-5.6636906E-3,1.4656886E-2,1.8246602E-3,8.26656E-3,9.012329E-3,1.0149632E-2,1.105961E-2,1.2253582E-2,1.3439025E-2,1.4307891E-2,1.5170338E-2,1.6300222E-2,1.7688936E-2,1.9846449E-2,2.1561949E-2,2.8244242E-2,3.369313E-2],"categories":[],"categories_nodes":[],"categories_segments":[],"categories_sizes":[],"default_left":[0,0,0,0,0,0,0,0,0,0,0,0,0,0,0,0,0,0,0,0,0,0,0,0,0,0,0,0,0,0,0,0,0,0,0,0,0,0,0,0,0,0,0,0,0,0,0,0,0,0,0,0,0,0,0,0,0,0,0,0,0,0,0,0,0,0,0,0,0,0,0,0,0,0,0,0,0,0,0,0,0,0,0,0,0,0,0,0,0,0,0,0,0,0,0,0,0,0,0,0,0,0,0,0,0,0,0,0,0,0,0],"id":0,"left_children":[1,3,5,7,9,11,13,15,17,19,21,23,25,27,29,-1,31,-1,33,35,37,39,41,43,45,47,49,51,53,55,57,59,61,63,65,67,69,71,73,75,77,79,81,83,85,87,-1,89,91,93,95,97,99,101,103,105,107,-1,109,-1,-1,-1,-1,-1,-1,-1,-1,-1,-1,-1,-1,-1,-1,-1,-1,-1,-1,-1,-1,-1,-1,-1,-1,-1,-1,-1,-1,-1,-1,-1,-1,-1,-1,-1,-1,-1,-1,-1,-1,-1,-1,-1,-1,-1,-1,-1,-1,-1,-1,-1,-1],"loss_changes":[1.1125094E3,1.4639502E2,7.254443E2,4.5417114E1,5.7848427E1,1.7679095E2,7.871484E1,1.5446716E1,2.5441021E1,9.4275875E0,5.5915146E0,4.2204514E0,3.6703778E2,1.6223694E1,1.7321167E1,0E0,3.0839752E1,0E0,5.199227E1,2.9763508E-1,2.021791E0,9.0110207E-1,9.5713806E-1,1.0308685E0,2.2692096E-1,3.4038757E1,1.7882024E2,1.5014648E0,1.3335876E0,5.997986E0,2.0503998E0,4.0846214E0,1.5194672E1,2.4162292E0,2.5202171E1,2.188778E-2,9.865284E-2,1.6800222E-1,7.747078E-2,1.23814106E-1,4.2907715E-2,4.94442E-2,1.228981E-1,7.513428E-2,1.4576876E-1,5.059001E-2,0E0,6.999634E0,7.3422546E0,1.3104865E2,3.5398135E2,8.918381E-2,1.0379791E-1,3.4403992E-1,7.246399E-2,3.939209E-1,3.940735E-1,0E0,5.941162E-1,0E0,0E0,0E0,0E0,0E0,0E0,0E0,0E0,0E0,0E0,0E0,0E0,0E0,0E0,0E0,0E0,0E0,0E0,0E0,0E0,0E0,0E0,0E0,0E0,0E0,0E0,0E0,0E0,0E0,0E0,0E0,0E0,0E0,0E0,0E0,0E0,0E0,0E0,0E0,0E0,0E0,0E0,0E0,0E0,0E0,0E0,0E0,0E0,0E0,0E0,0E0,0E0],"parents":[2147483647,0,0,1,1,2,2,3,3,4,4,5,5,6,6,7,7,8,8,9,9,10,10,11,11,12,12,13,13,14,14,16,16,18,18,19,19,20,20,21,21,22,22,23,23,24,24,25,25,26,26,27,27,28,28,29,29,30,30,31,31,32,32,33,33,34,34,35,35,36,36,37,37,38,38,39,39,40,40,41,41,42,42,43,43,44,44,45,45,47,47,48,48,49,49,50,50,51,51,52,52,53,53,54,54,55,55,56,56,58,58],"right_children":[2,4,6,8,10,12,14,16,18,20,22,24,26,28,30,-1,32,-1,34,36,38,40,42,44,46,48,50,52,54,56,58,60,62,64,66,68,70,72,74,76,78,80,82,84,86,88,-1,90,92,94,96,98,100,102,104,106,108,-1,110,-1,-1,-1,-1,-1,-1,-1,-1,-1,-1,-1,-1,-1,-1,-1,-1,-1,-1,-1,-1,-1,-1,-1,-1,-1,-1,-1,-1,-1,-1,-1,-1,-1,-1,-1,-1,-1,-1,-1,-1,-1,-1,-1,-1,-1,-1,-1,-1,-1,-1,-1,-1],"split_conditions":[3.4914172E-1,2.0410781E-17,2.0410781E-17,1.9946046E-1,1.9946046E-1,-8.847539E-1,5.4751784E-1,-8.847539E-1,-8.847539E-1,1.3822226E-1,2.7197835E-1,1E0,-7.945798E-1,4.4702932E-1,7.4047726E-1,-5.9830844E-3,-7.945798E-1,-5.989335E-3,-7.945798E-1,1.09367765E-1,1.7198086E-1,2.4367504E-1,3.0815038E-1,4.8318484E-1,-9.105625E-1,5.4751784E-1,-3.9091575E-1,3.942838E-1,4.9814773E-1,6.2957233E-1,8.0235547E-1,1.3822226E-1,-3.9091575E-1,2.7197835E-1,-3.9091575E-1,5.6786505E-3,1.1978586E-2,1.4770223E-1,1.8563725E-1,2.2405805E-1,2.5570443E-1,2.8436783E-1,3.298745E-1,1.4285134E-1,1.2945406E-1,-9.427452E-1,1.3294798E-2,4.4702932E-1,7.4047726E-1,-6.515263E-1,0E0,3.6662626E-1,4.1790506E-1,4.7326067E-1,5.2501696E-1,5.773707E-1,6.7221504E-1,2.3765555E-2,7.025195E-1,-1.763265E-3,5.185361E-4,-5.194463E-3,-3.5455525E-3,3.4289237E-3,6.1804536E-3,-4.4631227E-3,-1.227084E-3,-2.0021838E-3,-1.7736553E-3,-1.5275982E-3,-8.8175666E-4,-4.5178327E-4,1.3264042E-4,1.1659659E-3,1.6180909E-3,2.467647E-3,3.1843192E-3,3.950046E-3,4.42311E-3,4.918792E-3,5.559645E-3,6.5234597E-3,7.533902E-3,-5.9425137E-3,-5.2459147E-3,-1.7748779E-3,-3.873786E-3,3.6767423E-3,7.905909E-3,9.500503E-3,1.3701339E-2,1.8563664E-2,2.7579308E-2,4.691219E-3,-5.6636906E-3,1.4656886E-2,1.8246602E-3,8.26656E-3,9.012329E-3,1.0149632E-2,1.105961E-2,1.2253582E-2,1.3439025E-2,1.4307891E-2,1.5170338E-2,1.6300222E-2,1.7688936E-2,1.9846449E-2,2.1561949E-2,2.8244242E-2,3.369313E-2],"split_indices":[12,0,0,12,12,2,12,2,2,12,12,8,2,12,12,0,2,0,2,12,12,12,12,7,2,12,2,12,12,12,12,12,2,12,2,8,11,12,12,12,12,12,12,4,11,2,0,12,12,2,2,12,12,12,12,12,12,0,8,0,0,0,0,0,0,0,0,0,0,0,0,0,0,0,0,0,0,0,0,0,0,0,0,0,0,0,0,0,0,0,0,0,0,0,0,0,0,0,0,0,0,0,0,0,0,0,0,0,0,0,0],"split_type":[0,0,0,0,0,0,0,0,0,0,0,0,0,0,0,0,0,0,0,0,0,0,0,0,0,0,0,0,0,0,0,0,0,0,0,0,0,0,0,0,0,0,0,0,0,0,0,0,0,0,0,0,0,0,0,0,0,0,0,0,0,0,0,0,0,0,0,0,0,0,0,0,0,0,0,0,0,0,0,0,0,0,0,0,0,0,0,0,0,0,0,0,0,0,0,0,0,0,0,0,0,0,0,0,0,0,0,0,0,0,0],"sum_hessian":[2.4336E5,1.5552E5,8.784E4,1.296E5,2.592E4,7.32E4,1.464E4,9.06E4,3.9E4,1.812E4,7.8E3,6.222E3,6.6978E4,9.48E3,5.16E3,7.701E3,8.2899E4,3.315E3,3.5685E4,9.36E3,8.76E3,4.8E3,3E3,6.171E3,5.1E1,6.344E3,6.0634E4,3.96E3,5.52E3,4.56E3,6E2,7.852E3,7.5047E4,3.38E3,3.2305E4,6.48E3,2.88E3,4.92E3,3.84E3,2.52E3,2.28E3,1.56E3,1.44E3,5.778E3,3.93E2,3.4E1,1.7E1,4.108E3,2.236E3,1.5006E4,4.5628E4,2.16E3,1.8E3,3.36E3,2.16E3,2.64E3,1.92E3,2.4E2,3.6E2,4.056E3,3.796E3,1.8573E4,5.6474E4,2.08E3,1.3E3,7.995E3,2.431E4,5.04E3,1.44E3,2.04E3,8.4E2,2.4E3,2.52E3,2.04E3,1.8E3,1.44E3,1.08E3,1.32E3,9.6E2,6E2,9.6E2,6E2,8.4E2,5.277E3,5.01E2,1.23E2,2.7E2,1.7E1,1.7E1,1.716E3,2.392E3,1.976E3,2.6E2,4.27E3,1.0736E4,6.222E3,3.9406E4,1.2E3,9.6E2,9.6E2,8.4E2,1.08E3,2.28E3,1.2E3,9.6E2,1.32E3,1.32E3,9.6E2,9.6E2,2.4E2,1.2E2],"tree_param":{"num_deleted":"0","num_feature":"14","num_nodes":"111","size_leaf_vector":"1"}},{"base_weights":[1.4977529E-6,-4.5869764E-2,9.0133965E-2,-5.941541E-2,2.185816E-2,5.0728124E-2,2.8714508E-1,-7.260469E-2,-3.0397957E-2,-1.1559306E-2,9.5369205E-2,-1.0577615E-1,6.526823E-2,2.4516036E-1,3.9463907E-1,-5.6843385E-3,-6.878702E-2,-5.6901844E-3,-2.2647124E-2,-2.8902764E-2,1.7147135E-2,7.32689E-2,1.37688E-1,-1.0819245E-1,1.6409549E-1,2.871973E-1,4.204363E-2,1.9639985E-1,2.7476215E-1,3.760287E-1,5.7299954E-1,-1.1577169E-2,-7.477254E-2,9.525262E-2,-3.4985095E-2,-3.5156917E-2,-1.1135177E-2,1.8360387E-3,2.720588E-2,5.8114167E-2,8.713574E-2,1.1734469E-1,1.4982206E-1,-1.116157E-1,-6.1252244E-2,1.1350998E-1,1.2666988E-2,2.449405E-1,3.9526814E-1,-4.9937025E-2,7.2294414E-2,1.7633359E-1,2.1511039E-1,2.5922242E-1,3.0080926E-1,3.4077314E-1,4.044815E-1,5.3675777E-1,3.2022398E-2,-1.43084E-3,9.1208855E-4,-4.9284394E-3,-3.347246E-3,3.759422E-3,7.09787E-3,-4.171931E-3,-9.523632E-4,-1.8648886E-3,-1.4641976E-3,-8.7219913E-4,-4.5680744E-4,-7.196874E-5,2.1774478E-4,1.1194015E-3,1.6146832E-3,2.6054198E-3,3.3366468E-3,4.0449207E-3,4.872341E-3,5.441965E-3,6.1978297E-3,7.0423866E-3,7.70941E-3,-5.6280443E-3,-4.814698E-3,-3.7254386E-3,-1.7633718E-3,3.5031184E-3,7.5325742E-3,9.818231E-3,1.3719094E-2,1.8823663E-2,2.8669838E-2,4.695263E-3,-5.357534E-3,1.4377448E-2,1.9149985E-3,8.339669E-3,9.351272E-3,1.0219157E-2,1.13365E-2,1.2597372E-2,1.3484343E-2,1.4412609E-2,1.5485828E-2,1.6450975E-2,1.7522225E-2,1.9492127E-2,2.179925E-2,2.445214E-2,2.9001838E-2],"categories":[],"categories_nodes":[],"categories_segments":[],"categories_sizes":[],"default_left":[0,0,0,0,0,0,0,0,0,0,0,0,0,0,0,0,0,0,0,0,0,0,0,0,0,0,0,0,0,0,0,0,0,0,0,0,0,0,0,0,0,0,0,0,0,0,0,0,0,0,0,0,0,0,0,0,0,0,0,0,0,0,0,0,0,0,0,0,0,0,0,0,0,0,0,0,0,0,0,0,0,0,0,0,0,0,0,0,0,0,0,0,0,0,0,0,0,0,0,0,0,0,0,0,0,0,0,0,0,0,0],"id":1,"left_children":[1,3,5,7,9,11,13,15,17,19,21,23,25,27,29,-1,31,-1,33,35,37,39,41,43,45,47,49,51,53,55,57,59,61,63,65,67,69,71,73,75,77,79,81,83,85,87,-1,89,91,93,95,97,99,101,103,105,107,109,-1,-1,-1,-1,-1,-1,-1,-1,-1,-1,-1,-1,-1,-1,-1,-1,-1,-1,-1,-1,-1,-1,-1,-1,-1,-1,-1,-1,-1,-1,-1,-1,-1,-1,-1,-1,-1,-1,-1,-1,-1,-1,-1,-1,-1,-1,-1,-1,-1,-1,-1,-1,-1],"loss_changes":[1.00617773E3,1.479635E2,6.372121E2,5.143567E1,6.60357E1,1.5565945E2,6.1647095E1,1.4484131E1,2.7149548E1,9.2016115E0,7.8470154E0,3.8096695E0,3.2257468E2,1.4150513E1,1.253418E1,0E0,2.8950592E1,0E0,5.590674E1,1.2798357E0,1.0720165E0,1.1551647E0,6.9358444E-1,9.1937256E-1,2.059958E-1,2.6979279E1,1.5765652E2,1.3591003E0,2.3995972E0,3.3540344E0,5.3868103E-1,4.0699253E0,1.4250153E1,3.4012794E0,2.6865551E1,1.0604286E-1,3.768766E-2,2.2785338E-2,1.0225272E-1,1.332264E-1,1.774044E-1,4.7299385E-2,4.8854828E-2,6.694031E-2,1.3309276E-1,4.5924842E-2,0E0,6.045685E0,5.3583984E0,1.1541575E2,3.119835E2,1.5251541E-1,1.931076E-1,2.2445679E-1,1.6584778E-1,6.2149048E-2,7.159424E-1,2.1401978E-1,0E0,0E0,0E0,0E0,0E0,0E0,0E0,0E0,0E0,0E0,0E0,0E0,0E0,0E0,0E0,0E0,0E0,0E0,0E0,0E0,0E0,0E0,0E0,0E0,0E0,0E0,0E0,0E0,0E0,0E0,0E0,0E0,0E0,0E0,0E0,0E0,0E0,0E0,0E0,0E0,0E0,0E0,0E0,0E0,0E0,0E0,0E0,0E0,0E0,0E0,0E0,0E0,0E0],"parents":[2147483647,0,0,1,1,2,2,3,3,4,4,5,5,6,6,7,7,8,8,9,9,10,10,11,11,12,12,13,13,14,14,16,16,18,18,19,19,20,20,21,21,22,22,23,23,24,24,25,25,26,26,27,27,28,28,29,29,30,30,31,31,32,32,33,33,34,34,35,35,36,36,37,37,38,38,39,39,40,40,41,41,42,42,43,43,44,44,45,45,47,47,48,48,49,49,50,50,51,51,52,52,53,53,54,54,55,55,56,56,57,57],"right_children":[2,4,6,8,10,12,14,16,18,20,22,24,26,28,30,-1,32,-1,34,36,38,40,42,44,46,48,50,52,54,56,58,60,62,64,66,68,70,72,74,76,78,80,82,84,86,88,-1,90,92,94,96,98,100,102,104,106,108,110,-1,-1,-1,-1,-1,-1,-1,-1,-1,-1,-1,-1,-1,-1,-1,-1,-1,-1,-1,-1,-1,-1,-1,-1,-1,-1,-1,-1,-1,-1,-1,-1,-1,-1,-1,-1,-1,-1,-1,-1,-1,-1,-1,-1,-1,-1,-1,-1,-1,-1,-1,-1,-1],"split_conditions":[3.6508158E-1,2.0410781E-17,2.0410781E-17,2.1468325E-1,2.1468325E-1,-8.847539E-1,5.773707E-1,-8.847539E-1,-8.847539E-1,1.4250885E-1,2.9114458E-1,1E0,-7.945798E-1,4.6549252E-1,8.0235547E-1,-5.6843385E-3,-7.945798E-1,-5.6901844E-3,-7.945798E-1,1.2201775E-1,1.7198086E-1,2.459446E-1,3.298745E-1,4.8318484E-1,-9.105625E-1,5.773707E-1,-3.9091575E-1,4.1011027E-1,5.2501696E-1,6.4882797E-1,7.025195E-1,1.4770223E-1,-3.9091575E-1,2.9978123E-1,-3.9091575E-1,1.0899425E-1,1.3378602E-1,1.5326607E-1,1.8835618E-1,2.2882085E-1,2.7197835E-1,3.0815038E-1,3.451418E-1,1.8969311E-1,8.4833527E-1,-9.427452E-1,1.2666988E-2,4.6549252E-1,8.0235547E-1,-6.515263E-1,0E0,3.8810268E-1,4.3466005E-2,4.943584E-1,5.4751784E-1,6.0063285E-1,6.9842285E-1,4.1175184E-1,3.2022398E-2,-1.43084E-3,9.1208855E-4,-4.9284394E-3,-3.347246E-3,3.759422E-3,7.09787E-3,-4.171931E-3,-9.523632E-4,-1.8648886E-3,-1.4641976E-3,-8.7219913E-4,-4.5680744E-4,-7.196874E-5,2.1774478E-4,1.1194015E-3,1.6146832E-3,2.6054198E-3,3.3366468E-3,4.0449207E-3,4.872341E-3,5.441965E-3,6.1978297E-3,7.0423866E-3,7.70941E-3,-5.6280443E-3,-4.814698E-3,-3.7254386E-3,-1.7633718E-3,3.5031184E-3,7.5325742E-3,9.818231E-3,1.3719094E-2,1.8823663E-2,2.8669838E-2,4.695263E-3,-5.357534E-3,1.4377448E-2,1.9149985E-3,8.339669E-3,9.351272E-3,1.0219157E-2,1.13365E-2,1.2597372E-2,1.3484343E-2,1.4412609E-2,1.5485828E-2,1.6450975E-2,1.7522225E-2,1.9492127E-2,2.179925E-2,2.445214E-2,2.9001838E-2],"split_indices":[12,0,0,12,12,2,12,2,2,12,12,8,2,12,12,0,2,0,2,12,12,12,12,7,2,12,2,12,12,12,8,12,2,12,2,12,12,12,12,12,12,12,12,4,7,2,0,12,12,2,2,12,6,12,12,12,12,11,0,0,0,0,0,0,0,0,0,0,0,0,0,0,0,0,0,0,0,0,0,0,0,0,0,0,0,0,0,0,0,0,0,0,0,0,0,0,0,0,0,0,0,0,0,0,0,0,0,0,0,0,0],"split_type":[0,0,0,0,0,0,0,0,0,0,0,0,0,0,0,0,0,0,0,0,0,0,0,0,0,0,0,0,0,0,0,0,0,0,0,0,0,0,0,0,0,0,0,0,0,0,0,0,0,0,0,0,0,0,0,0,0,0,0,0,0,0,0,0,0,0,0,0,0,0,0,0,0,0,0,0,0,0,0,0,0,0,0,0,0,0,0,0,0,0,0,0,0,0,0,0,0,0,0,0,0,0,0,0,0,0,0,0,0,0,0],"sum_hessian":[2.4336E5,1.6128E5,8.208E4,1.344E5,2.688E4,6.84E4,1.368E4,9.24E4,4.2E4,1.848E4,8.4E3,5.814E3,6.2586E4,9.84E3,3.84E3,7.854E3,8.4546E4,3.57E3,3.843E4,1.152E4,6.96E3,5.52E3,2.88E3,5.763E3,5.1E1,5.928E3,5.6658E4,3.72E3,6.12E3,3.48E3,3.6E2,8.008E3,7.6538E4,3.64E3,3.479E4,8.52E3,3E3,2.76E3,4.2E3,2.64E3,2.88E3,1.08E3,1.8E3,5.37E3,3.93E2,3.4E1,1.7E1,4.264E3,1.664E3,1.4022E4,4.2636E4,1.8E3,1.92E3,3.84E3,2.28E3,1.56E3,1.92E3,2.4E2,1.2E2,5.096E3,2.912E3,1.8942E4,5.7596E4,2.548E3,1.092E3,8.61E3,2.618E4,6.24E3,2.28E3,7.2E2,2.28E3,1.2E3,1.56E3,2.16E3,2.04E3,1.56E3,1.08E3,1.8E3,1.08E3,4.8E2,6E2,6E2,1.2E3,5.052E3,3.18E2,2.59E2,1.34E2,1.7E1,1.7E1,1.612E3,2.652E3,1.508E3,1.56E2,3.99E3,1.0032E4,5.814E3,3.6822E4,9.6E2,8.4E2,1.008E3,9.12E2,2.28E3,1.56E3,9.6E2,1.32E3,7.2E2,8.4E2,1.32E3,6E2,1.2E2,1.2E2],"tree_param":{"num_deleted":"0","num_feature":"14","num_nodes":"111","size_leaf_vector":"1"}},{"base_weights":[2.9652074E-6,-4.1874774E-2,8.918643E-2,-5.5114124E-2,2.4321562E-2,5.1172502E-2,2.7923748E-1,-6.7792155E-2,-2.4269624E-2,-1.0981438E-2,9.5849946E-2,-1.0014963E-1,6.5231204E-2,2.389012E-1,3.7494898E-1,-5.3990916E-3,-6.405753E-2,-5.402058E-3,-1.6484842E-2,-2.7458029E-2,1.629019E-2,7.159495E-2,1.3983259E-1,-1.02575E-1,1.5634653E-1,2.7940512E-1,4.2817876E-2,1.9738722E-1,2.6307923E-1,3.5724887E-1,5.445863E-1,-7.898567E-3,-6.9933146E-2,1.0234162E-1,-2.892009E-2,-3.3399463E-2,-1.0578858E-2,1.7442888E-3,2.5846235E-2,5.521071E-2,8.492393E-2,1.2138151E-1,1.489977E-1,-1.0600771E-1,-5.8064327E-2,1.081498E-1,1.2068825E-2,2.4403435E-1,3.906963E-1,-4.6155516E-2,7.20796E-2,1.8136548E-1,2.157458E-1,2.4812724E-1,2.8578192E-1,3.2375625E-1,3.8427892E-1,5.1014173E-1,3.0434508E-2,-1.311574E-3,1.1377536E-3,-4.661208E-3,-3.113593E-3,3.9020106E-3,7.028854E-3,-3.8785327E-3,-6.458791E-4,-1.7990317E-3,-1.4460974E-3,-8.286495E-4,-4.3397697E-4,-6.8373476E-5,2.0686458E-4,1.0634571E-3,1.5339886E-3,2.4172761E-3,3.1017053E-3,3.8427867E-3,4.747442E-3,5.640564E-3,6.4019295E-3,7.144922E-3,7.7479566E-3,-5.341248E-3,-4.4179894E-3,-1.5360996E-3,-3.5203248E-3,3.3376932E-3,7.17687E-3,9.990342E-3,1.3473346E-2,1.8507155E-2,2.7245477E-2,4.6468345E-3,-5.074012E-3,1.401437E-2,1.9598796E-3,8.444186E-3,9.373027E-3,1.0165069E-2,1.1054174E-2,1.2169718E-2,1.3014242E-2,1.3692729E-2,1.4712122E-2,1.5958903E-2,1.7375367E-2,1.851826E-2,2.0711102E-2,2.3239639E-2,2.756373E-2],"categories":[],"categories_nodes":[],"categories_segments":[],"categories_sizes":[],"default_left":[0,0,0,0,0,0,0,0,0,0,0,0,0,0,0,0,0,0,0,0,0,0,0,0,0,0,0,0,0,0,0,0,0,0,0,0,0,0,0,0,0,0,0,0,0,0,0,0,0,0,0,0,0,0,0,0,0,0,0,0,0,0,0,0,0,0,0,0,0,0,0,0,0,0,0,0,0,0,0,0,0,0,0,0,0,0,0,0,0,0,0,0,0,0,0,0,0,0,0,0,0,0,0,0,0,0,0,0,0,0,0],"id":2,"left_children":[1,3,5,7,9,11,13,15,17,19,21,23,25,27,29,-1,31,-1,33,35,37,39,41,43,45,47,49,51,53,55,57,59,61,63,65,67,69,71,73,75,77,79,81,83,85,87,-1,89,91,93,95,97,99,101,103,105,107,109,-1,-1,-1,-1,-1,-1,-1,-1,-1,-1,-1,-1,-1,-1,-1,-1,-1,-1,-1,-1,-1,-1,-1,-1,-1,-1,-1,-1,-1,-1,-1,-1,-1,-1,-1,-1,-1,-1,-1,-1,-1,-1,-1,-1,-1,-1,-1,-1,-1,-1,-1,-1,-1],"loss_changes":[9.089089E2,1.4513348E2,5.6177686E2,5.3963318E1,6.969817E1,1.3786366E2,4.9948242E1,1.4672394E1,2.6215021E1,8.304764E0,9.720261E0,3.4431686E0,2.8461517E2,9.103088E0,1.133844E1,0E0,2.952768E1,0E0,5.4356342E1,1.1550465E0,9.6754277E-1,1.2796345E0,5.2998734E-1,8.277855E-1,1.8699992E-1,2.2015717E1,1.3975218E2,9.494629E-1,1.8846436E0,3.0269775E0,4.865799E-1,4.7644205E0,1.444989E1,3.2272072E0,2.5924086E1,9.7439766E-2,3.4021854E-2,2.0565296E-2,9.2288494E-2,1.2071514E-1,2.5484276E-1,4.7228813E-2,5.643463E-2,6.3625336E-2,1.3046026E-1,4.1689932E-2,0E0,4.7435303E0,4.0867615E0,1.0224066E2,2.7653113E2,1.05358124E-1,5.873871E-2,1.3694763E-1,1.4961243E-1,5.882263E-2,6.469116E-1,1.9331741E-1,0E0,0E0,0E0,0E0,0E0,0E0,0E0,0E0,0E0,0E0,0E0,0E0,0E0,0E0,0E0,0E0,0E0,0E0,0E0,0E0,0E0,0E0,0E0,0E0,0E0,0E0,0E0,0E0,0E0,0E0,0E0,0E0,0E0,0E0,0E0,0E0,0E0,0E0,0E0,0E0,0E0,0E0,0E0,0E0,0E0,0E0,0E0,0E0,0E0,0E0,0E0,0E0,0E0],"parents":[2147483647,0,0,1,1,2,2,3,3,4,4,5,5,6,6,7,7,8,8,9,9,10,10,11,11,12,12,13,13,14,14,16,16,18,18,19,19,20,20,21,21,22,22,23,23,24,24,25,25,26,26,27,27,28,28,29,29,30,30,31,31,32,32,33,33,34,34,35,35,36,36,37,37,38,38,39,39,40,40,41,41,42,42,43,43,44,44,45,45,47,47,48,48,49,49,50,50,51,51,52,52,53,53,54,54,55,55,56,56,57,57],"right_children":[2,4,6,8,10,12,14,16,18,20,22,24,26,28,30,-1,32,-1,34,36,38,40,42,44,46,48,50,52,54,56,58,60,62,64,66,68,70,72,74,76,78,80,82,84,86,88,-1,90,92,94,96,98,100,102,104,106,108,110,-1,-1,-1,-1,-1,-1,-1,-1,-1,-1,-1,-1,-1,-1,-1,-1,-1,-1,-1,-1,-1,-1,-1,-1,-1,-1,-1,-1,-1,-1,-1,-1,-1,-1,-1,-1,-1,-1,-1,-1,-1,-1,-1,-1,-1,-1,-1,-1,-1,-1,-1,-1,-1],"split_conditions":[3.7341806E-1,2.0410781E-17,2.0410781E-17,2.2405805E-1,2.1468325E-1,-8.847539E-1,5.773707E-1,-8.847539E-1,-8.847539E-1,1.4250885E-1,2.9978123E-1,1E0,-7.945798E-1,4.7326067E-1,8.0235547E-1,-5.3990916E-3,-7.945798E-1,-5.402058E-3,-7.945798E-1,1.2201775E-1,1.7198086E-1,2.459446E-1,3.4013975E-1,4.8318484E-1,-9.105625E-1,6.0063285E-1,-3.9091575E-1,4.2675188E-1,5.2501696E-1,6.4882797E-1,7.025195E-1,1.5109058E-1,-3.9091575E-1,3.0815038E-1,-3.9091575E-1,1.0603613E-1,1.3378602E-1,1.5326607E-1,1.8835618E-1,2.2767179E-1,2.7197835E-1,3.190126E-1,3.5728142E-1,3.6794576E-1,1.2945406E-1,-9.427452E-1,1.2068825E-2,4.7921512E-1,8.0235547E-1,-6.515263E-1,0E0,4.0061548E-1,4.4702932E-1,5.043196E-1,5.4751784E-1,6.2957233E-1,6.9842285E-1,4.1175184E-1,3.0434508E-2,-1.311574E-3,1.1377536E-3,-4.661208E-3,-3.113593E-3,3.9020106E-3,7.028854E-3,-3.8785327E-3,-6.458791E-4,-1.7990317E-3,-1.4460974E-3,-8.286495E-4,-4.3397697E-4,-6.8373476E-5,2.0686458E-4,1.0634571E-3,1.5339886E-3,2.4172761E-3,3.1017053E-3,3.8427867E-3,4.747442E-3,5.640564E-3,6.4019295E-3,7.144922E-3,7.7479566E-3,-5.341248E-3,-4.4179894E-3,-1.5360996E-3,-3.5203248E-3,3.3376932E-3,7.17687E-3,9.990342E-3,1.3473346E-2,1.8507155E-2,2.7245477E-2,4.6468345E-3,-5.074012E-3,1.401437E-2,1.9598796E-3,8.444186E-3,9.373027E-3,1.0165069E-2,1.1054174E-2,1.2169718E-2,1.3014242E-2,1.3692729E-2,1.4712122E-2,1.5958903E-2,1.7375367E-2,1.851826E-2,2.0711102E-2,2.3239639E-2,2.756373E-2],"split_indices":[12,0,0,12,12,2,12,2,2,12,12,8,2,12,12,0,2,0,2,12,12,12,12,7,2,12,2,12,12,12,8,12,2,12,2,12,12,12,12,12,12,12,12,7,11,2,0,12,12,2,2,12,12,12,12,12,12,11,0,0,0,0,0,0,0,0,0,0,0,0,0,0,0,0,0,0,0,0,0,0,0,0,0,0,0,0,0,0,0,0,0,0,0,0,0,0,0,0,0,0,0,0,0,0,0,0,0,0,0,0,0],"split_type":[0,0,0,0,0,0,0,0,0,0,0,0,0,0,0,0,0,0,0,0,0,0,0,0,0,0,0,0,0,0,0,0,0,0,0,0,0,0,0,0,0,0,0,0,0,0,0,0,0,0,0,0,0,0,0,0,0,0,0,0,0,0,0,0,0,0,0,0,0,0,0,0,0,0,0,0,0,0,0,0,0,0,0,0,0,0,0,0,0,0,0,0,0,0,0,0,0,0,0,0,0,0,0,0,0,0,0,0,0,0,0],"sum_hessian":[2.4336E5,1.656E5,7.776E4,1.38E5,2.76E4,6.48E4,1.296E4,9.78E4,4.02E4,1.848E4,9.12E3,5.508E3,5.9292E4,9.12E3,3.84E3,8.313E3,8.9487E4,3.417E3,3.6783E4,1.152E4,6.96E3,5.88E3,3.24E3,5.457E3,5.1E1,5.616E3,5.3676E4,3.36E3,5.76E3,3.48E3,3.6E2,8.476E3,8.1011E4,3.484E3,3.3299E4,8.52E3,3E3,2.76E3,4.2E3,2.64E3,3.24E3,1.08E3,2.16E3,5.065E3,3.92E2,3.4E1,1.7E1,4.264E3,1.352E3,1.3284E4,4.0392E4,1.8E3,1.56E3,3.48E3,2.28E3,1.56E3,1.92E3,2.4E2,1.2E2,5.304E3,3.172E3,2.0049E4,6.0962E4,2.132E3,1.352E3,8.241E3,2.5058E4,5.4E3,3.12E3,7.2E2,2.28E3,1.2E3,1.56E3,2.16E3,2.04E3,1.32E3,1.32E3,1.8E3,1.44E3,4.8E2,6E2,1.08E3,1.08E3,4.836E3,2.29E2,1.23E2,2.69E2,1.7E1,1.7E1,1.56E3,2.704E3,1.196E3,1.56E2,3.78E3,9.504E3,5.508E3,3.4884E4,6E2,1.2E3,4.8E2,1.08E3,2.52E3,9.6E2,9.6E2,1.32E3,1.32E3,2.4E2,1.32E3,6E2,1.2E2,1.2E2],"tree_param":{"num_deleted":"0","num_feature":"14","num_nodes":"111","size_leaf_vector":"1"}},{"base_weights":[4.320068E-6,-4.4776585E-2,7.534964E-2,-5.6340884E-2,1.3044849E-2,4.089114E-2,2.47628E-1,-7.012439E-2,-3.8702987E-2,-1.2205996E-2,7.143141E-2,-9.616403E-2,5.362425E-2,2.014642E-1,3.3667856E-1,-5.127787E-3,-6.7110114E-2,-5.135696E-3,-3.2754723E-2,-3.0245611E-2,7.8965E-3,5.415722E-2,9.665287E-2,-9.814811E-2,1.489635E-1,2.4772677E-1,3.3312105E-2,1.5754518E-1,2.3345561E-1,3.1837475E-1,4.750264E-1,-2.1212103E-2,-7.191189E-2,5.6682855E-2,-4.21134E-2,-3.330524E-2,-2.2447813E-2,-2.606539E-3,2.2742108E-2,4.2669836E-2,6.562086E-2,8.671672E-2,1.1532357E-1,-1.0040934E-1,-4.4997152E-2,1.03042714E-1,1.14989085E-2,1.9944525E-1,3.345112E-1,-4.718823E-2,5.978725E-2,1.4289303E-1,1.7699118E-1,2.167489E-1,2.4637882E-1,2.914967E-1,3.551611E-1,2.0465508E-2,5.1758206E-1,-1.6248248E-3,-2.257137E-4,-4.5303823E-3,-3.288069E-3,1.6742059E-3,4.3695164E-3,-3.9680894E-3,-1.4930667E-3,-1.7189346E-3,-1.503317E-3,-1.2916633E-3,-7.585594E-4,-3.8843366E-4,1.1554555E-4,8.812802E-4,1.2713048E-3,1.6635479E-3,2.3491846E-3,2.8337114E-3,3.4390239E-3,4.0551457E-3,4.7315243E-3,5.359122E-3,6.0823653E-3,-5.0808275E-3,-4.0556635E-3,-3.0141785E-3,-7.5566437E-4,3.1800799E-3,6.8379617E-3,7.861197E-3,1.1574551E-2,1.5529352E-2,2.2207508E-2,3.9920486E-3,-4.8856926E-3,1.2487243E-2,1.4894273E-3,6.8170778E-3,7.4662766E-3,8.43605E-3,9.202224E-3,1.0204667E-2,1.122006E-2,1.1823726E-2,1.2771477E-2,1.3977073E-2,1.5161562E-2,1.6995488E-2,1.8502148E-2,2.4242273E-2,2.892536E-2],"categories":[],"categories_nodes":[],"categories_segments":[],"categories_sizes":[],"default_left":[0,0,0,0,0,0,0,0,0,0,0,0,0,0,0,0,0,0,0,0,0,0,0,0,0,0,0,0,0,0,0,0,0,0,0,0,0,0,0,0,0,0,0,0,0,0,0,0,0,0,0,0,0,0,0,0,0,0,0,0,0,0,0,0,0,0,0,0,0,0,0,0,0,0,0,0,0,0,0,0,0,0,0,0,0,0,0,0,0,0,0,0,0,0,0,0,0,0,0,0,0,0,0,0,0,0,0,0,0,0,0],"id":3,"left_children":[1,3,5,7,9,11,13,15,17,19,21,23,25,27,29,-1,31,-1,33,35,37,39,41,43,45,47,49,51,53,55,57,59,61,63,65,67,69,71,73,75,77,79,81,83,85,87,-1,89,91,93,95,97,99,101,103,105,107,-1,109,-1,-1,-1,-1,-1,-1,-1,-1,-1,-1,-1,-1,-1,-1,-1,-1,-1,-1,-1,-1,-1,-1,-1,-1,-1,-1,-1,-1,-1,-1,-1,-1,-1,-1,-1,-1,-1,-1,-1,-1,-1,-1,-1,-1,-1,-1,-1,-1,-1,-1,-1,-1],"loss_changes":[8.211111E2,1.02066345E2,5.385509E2,3.0921387E1,3.7508793E1,1.3193935E2,6.2093384E1,6.9730225E0,2.1243095E1,6.4411116E0,3.3412247E0,3.1404037E0,2.7272375E2,1.395871E1,1.2917908E1,0E0,1.4397125E1,0E0,4.273883E1,2.225895E-1,1.3099768E0,5.9782696E-1,5.689926E-1,7.617912E-1,1.697557E-1,2.739087E1,1.334686E2,1.1716843E0,1.1904297E0,4.406128E0,1.4689026E0,1.1660151E0,6.7948914E0,3.44283E0,2.1091957E1,2.2334099E-2,6.466818E-2,1.24935254E-1,4.7355056E-2,9.0920925E-2,6.0580254E-2,8.299923E-2,4.2613983E-2,1.3420105E-1,1.1877501E-1,3.7845522E-2,0E0,5.6638794E0,6.0025635E0,9.948393E1,2.6853357E2,8.0825806E-2,7.400513E-2,1.98349E-1,2.301178E-1,2.8573608E-1,3.1022644E-1,0E0,4.395218E-1,0E0,0E0,0E0,0E0,0E0,0E0,0E0,0E0,0E0,0E0,0E0,0E0,0E0,0E0,0E0,0E0,0E0,0E0,0E0,0E0,0E0,0E0,0E0,0E0,0E0,0E0,0E0,0E0,0E0,0E0,0E0,0E0,0E0,0E0,0E0,0E0,0E0,0E0,0E0,0E0,0E0,0E0,0E0,0E0,0E0,0E0,0E0,0E0,0E0,0E0,0E0,0E0],"parents":[2147483647,0,0,1,1,2,2,3,3,4,4,5,5,6,6,7,7,8,8,9,9,10,10,11,11,12,12,13,13,14,14,16,16,18,18,19,19,20,20,21,21,22,22,23,23,24,24,25,25,26,26,27,27,28,28,29,29,30,30,31,31,32,32,33,33,34,34,35,35,36,36,37,37,38,38,39,39,40,40,41,41,42,42,43,43,44,44,45,45,47,47,48,48,49,49,50,50,51,51,52,52,53,53,54,54,55,55,56,56,58,58],"right_children":[2,4,6,8,10,12,14,16,18,20,22,24,26,28,30,-1,32,-1,34,36,38,40,42,44,46,48,50,52,54,56,58,60,62,64,66,68,70,72,74,76,78,80,82,84,86,88,-1,90,92,94,96,98,100,102,104,106,108,-1,110,-1,-1,-1,-1,-1,-1,-1,-1,-1,-1,-1,-1,-1,-1,-1,-1,-1,-1,-1,-1,-1,-1,-1,-1,-1,-1,-1,-1,-1,-1,-1,-1,-1,-1,-1,-1,-1,-1,-1,-1,-1,-1,-1,-1,-1,-1,-1,-1,-1,-1,-1,-1],"split_conditions":[3.4013975E-1,2.0410781E-17,2.0410781E-17,1.7198086E-1,1.9424255E-1,-8.847539E-1,5.4751784E-1,-8.847539E-1,-8.847539E-1,1.3822226E-1,2.6112118E-1,1E0,-7.945798E-1,4.288509E-1,7.4047726E-1,-5.127787E-3,-7.945798E-1,-5.135696E-3,-7.945798E-1,1.1120277E-1,1.7198086E-1,2.2882085E-1,2.9978123E-1,6.116641E-1,-9.105625E-1,5.3536344E-1,-3.9091575E-1,3.8810268E-1,4.8849395E-1,6.2957233E-1,8.0235547E-1,1.2201775E-1,-3.9091575E-1,2.4367504E-1,-3.9091575E-1,5.6786505E-3,1.1978586E-2,1.4770223E-1,1.8301882E-1,2.1468325E-1,2.4367504E-1,2.8436783E-1,3.190126E-1,3.6794576E-1,-9.105625E-1,-9.427452E-1,1.14989085E-2,4.288509E-1,6.9842285E-1,-6.515263E-1,0E0,3.5931882E-1,4.1011027E-1,4.6549252E-1,5.1020044E-1,5.773707E-1,6.7221504E-1,2.0465508E-2,7.025195E-1,-1.6248248E-3,-2.257137E-4,-4.5303823E-3,-3.288069E-3,1.6742059E-3,4.3695164E-3,-3.9680894E-3,-1.4930667E-3,-1.7189346E-3,-1.503317E-3,-1.2916633E-3,-7.585594E-4,-3.8843366E-4,1.1554555E-4,8.812802E-4,1.2713048E-3,1.6635479E-3,2.3491846E-3,2.8337114E-3,3.4390239E-3,4.0551457E-3,4.7315243E-3,5.359122E-3,6.0823653E-3,-5.0808275E-3,-4.0556635E-3,-3.0141785E-3,-7.5566437E-4,3.1800799E-3,6.8379617E-3,7.861197E-3,1.1574551E-2,1.5529352E-2,2.2207508E-2,3.9920486E-3,-4.8856926E-3,1.2487243E-2,1.4894273E-3,6.8170778E-3,7.4662766E-3,8.43605E-3,9.202224E-3,1.0204667E-2,1.122006E-2,1.1823726E-2,1.2771477E-2,1.3977073E-2,1.5161562E-2,1.6995488E-2,1.8502148E-2,2.4242273E-2,2.892536E-2],"split_indices":[12,0,0,12,12,2,12,2,2,12,12,8,2,12,12,0,2,0,2,12,12,12,12,7,2,12,2,12,12,12,12,12,2,12,2,8,11,12,12,12,12,12,12,7,2,2,0,12,12,2,2,12,12,12,12,12,12,0,8,0,0,0,0,0,0,0,0,0,0,0,0,0,0,0,0,0,0,0,0,0,0,0,0,0,0,0,0,0,0,0,0,0,0,0,0,0,0,0,0,0,0,0,0,0,0,0,0,0,0,0,0],"split_type":[0,0,0,0,0,0,0,0,0,0,0,0,0,0,0,0,0,0,0,0,0,0,0,0,0,0,0,0,0,0,0,0,0,0,0,0,0,0,0,0,0,0,0,0,0,0,0,0,0,0,0,0,0,0,0,0,0,0,0,0,0,0,0,0,0,0,0,0,0,0,0,0,0,0,0,0,0,0,0,0,0,0,0,0,0,0,0,0,0,0,0,0,0,0,0,0,0,0,0,0,0,0,0,0,0,0,0,0,0,0,0],"sum_hessian":[2.4336E5,1.5264E5,9.072E4,1.272E5,2.544E4,7.56E4,1.512E4,7.14E4,5.58E4,1.776E4,7.68E3,6.426E3,6.9174E4,9.96E3,5.16E3,6.069E3,6.5331E4,4.743E3,5.1057E4,9.36E3,8.4E3,4.56E3,3.12E3,6.375E3,5.1E1,6.552E3,6.2622E4,4.2E3,5.76E3,4.56E3,6E2,6.188E3,5.9143E4,4.836E3,4.6221E4,6.72E3,2.64E3,4.92E3,3.48E3,2.28E3,2.28E3,2.04E3,1.08E3,6.114E3,2.61E2,3.4E1,1.7E1,4.212E3,2.34E3,1.5498E4,4.7124E4,2.4E3,1.8E3,2.52E3,3.24E3,2.64E3,1.92E3,2.4E2,3.6E2,3.692E3,2.496E3,1.4637E4,4.4506E4,2.756E3,2.08E3,1.1439E4,3.4782E4,5.04E3,1.68E3,1.8E3,8.4E2,2.4E3,2.52E3,1.2E3,2.28E3,7.2E2,1.56E3,6E2,1.68E3,1.2E3,8.4E2,4.8E2,6E2,5.75E3,3.64E2,1.72E2,8.9E1,1.7E1,1.7E1,1.82E3,2.392E3,1.924E3,4.16E2,4.41E3,1.1088E4,6.426E3,4.0698E4,1.2E3,1.2E3,8.4E2,9.6E2,9.6E2,1.56E3,1.56E3,1.68E3,1.32E3,1.32E3,9.6E2,9.6E2,2.4E2,1.2E2],"tree_param":{"num_deleted":"0","num_feature":"14","num_nodes":"111","size_leaf_vector":"1"}},{"base_weights":[5.348024E-6,-3.742933E-2,8.193726E-2,-4.9521815E-2,2.3032706E-2,4.7516547E-2,2.5402358E-1,-6.2405556E-2,-2.4083888E-2,-9.910933E-3,8.806939E-2,-9.0263784E-2,6.0317144E-2,2.1986753E-1,3.446246E-1,-9.747582E-2,-5.914655E-2,-4.8720227E-3,-1.7267227E-2,-2.4377039E-2,1.5404614E-2,6.461969E-2,1.2766135E-1,-9.250123E-2,1.419291E-1,2.5436842E-1,4.0009547E-2,1.8257573E-1,2.4114245E-1,3.2748488E-1,4.918502E-1,-4.877429E-3,-8.2342364E-2,-1.0075007E-2,-6.42806E-2,8.783667E-2,-2.8265996E-2,-3.0143907E-2,-9.207688E-3,3.1225588E-3,2.3961883E-2,5.0957765E-2,7.771379E-2,1.12095475E-1,1.3711753E-1,-9.566282E-2,-5.2331775E-2,9.817681E-2,1.0955904E-2,2.2608203E-1,3.6854944E-1,-4.103109E-2,6.666231E-2,1.6815141E-1,1.9910079E-1,2.2626534E-1,2.6261106E-1,3.073915E-1,3.5935155E-1,4.6070373E-1,2.7491042E-2,-1.812286E-3,-4.2415624E-3,-1.4764009E-3,4.6902598E-4,-4.228864E-3,-2.8802068E-3,3.1345503E-3,6.1962097E-3,-3.5443574E-3,-7.1234646E-4,-1.600237E-3,-1.251965E-3,-7.4939936E-4,-3.7754423E-4,7.5380376E-5,4.4621012E-4,9.968979E-4,1.3868742E-3,2.2806346E-3,2.9907897E-3,3.5119045E-3,4.2879046E-3,5.2357353E-3,6.0381717E-3,6.611217E-3,7.1545043E-3,-4.8286747E-3,-4.074232E-3,-1.323255E-3,-3.2008735E-3,3.029909E-3,6.515058E-3,9.866682E-3,1.30760735E-2,1.7341964E-2,2.4788579E-2,4.279056E-3,-4.5695994E-3,1.2810814E-2,1.8363064E-3,8.014749E-3,8.742592E-3,9.585455E-3,1.0260053E-2,1.1038251E-2,1.1826172E-2,1.2601758E-2,1.3553335E-2,1.4576562E-2,1.6146597E-2,1.7289178E-2,1.8947115E-2,2.0885164E-2,2.4994837E-2],"categories":[],"categories_nodes":[],"categories_segments":[],"categories_sizes":[],"default_left":[0,0,0,0,0,0,0,0,0,0,0,0,0,0,0,0,0,0,0,0,0,0,0,0,0,0,0,0,0,0,0,0,0,0,0,0,0,0,0,0,0,0,0,0,0,0,0,0,0,0,0,0,0,0,0,0,0,0,0,0,0,0,0,0,0,0,0,0,0,0,0,0,0,0,0,0,0,0,0,0,0,0,0,0,0,0,0,0,0,0,0,0,0,0,0,0,0,0,0,0,0,0,0,0,0,0,0,0,0,0,0,0,0,0,0],"id":4,"left_children":[1,3,5,7,9,11,13,15,17,19,21,23,25,27,29,31,33,-1,35,37,39,41,43,45,47,49,51,53,55,57,59,-1,61,63,65,67,69,71,73,75,77,79,81,83,85,87,89,91,-1,93,95,97,99,101,103,105,107,109,111,113,-1,-1,-1,-1,-1,-1,-1,-1,-1,-1,-1,-1,-1,-1,-1,-1,-1,-1,-1,-1,-1,-1,-1,-1,-1,-1,-1,-1,-1,-1,-1,-1,-1,-1,-1,-1,-1,-1,-1,-1,-1,-1,-1,-1,-1,-1,-1,-1,-1,-1,-1,-1,-1,-1,-1],"loss_changes":[7.464143E2,1.2213089E2,4.5206274E2,4.561963E1,5.965146E1,1.12176636E2,3.9290283E1,1.0555145E1,2.3401009E1,6.768439E0,8.6826935E0,2.8221703E0,2.2931973E2,7.287628E0,8.622925E0,6.1035156E-4,2.1299744E1,0E0,4.950644E1,1.0285707E0,7.0630825E-1,1.0480957E0,4.9700928E-1,6.752014E-1,1.5410185E-1,1.7722412E1,1.13795746E2,7.676544E-1,1.8189392E0,1.8879395E0,3.985138E-1,0E0,1.973331E-3,3.0314317E0,1.0366943E1,3.6737347E0,2.316262E1,8.013773E-2,3.0925304E-2,2.5855381E-2,5.9625387E-2,1.3367748E-1,1.744461E-1,7.186699E-2,4.4231415E-2,5.6224823E-2,1.17097855E-1,3.435561E-2,0E0,4.4526367E0,2.8469238E0,8.314845E1,2.2495706E2,6.678009E-2,3.1051636E-2,1.441803E-1,1.4639282E-1,3.793335E-1,1.882019E-1,1.9735336E-1,0E0,0E0,0E0,0E0,0E0,0E0,0E0,0E0,0E0,0E0,0E0,0E0,0E0,0E0,0E0,0E0,0E0,0E0,0E0,0E0,0E0,0E0,0E0,0E0,0E0,0E0,0E0,0E0,0E0,0E0,0E0,0E0,0E0,0E0,0E0,0E0,0E0,0E0,0E0,0E0,0E0,0E0,0E0,0E0,0E0,0E0,0E0,0E0,0E0,0E0,0E0,0E0,0E0,0E0,0E0],"parents":[2147483647,0,0,1,1,2,2,3,3,4,4,5,5,6,6,7,7,8,8,9,9,10,10,11,11,12,12,13,13,14,14,15,15,16,16,18,18,19,19,20,20,21,21,22,22,23,23,24,24,25,25,26,26,27,27,28,28,29,29,30,30,32,32,33,33,34,34,35,35,36,36,37,37,38,38,39,39,40,40,41,41,42,42,43,43,44,44,45,45,46,46,47,47,49,49,50,50,51,51,52,52,53,53,54,54,55,55,56,56,57,57,58,58,59,59],"right_children":[2,4,6,8,10,12,14,16,18,20,22,24,26,28,30,32,34,-1,36,38,40,42,44,46,48,50,52,54,56,58,60,-1,62,64,66,68,70,72,74,76,78,80,82,84,86,88,90,92,-1,94,96,98,100,102,104,106,108,110,112,114,-1,-1,-1,-1,-1,-1,-1,-1,-1,-1,-1,-1,-1,-1,-1,-1,-1,-1,-1,-1,-1,-1,-1,-1,-1,-1,-1,-1,-1,-1,-1,-1,-1,-1,-1,-1,-1,-1,-1,-1,-1,-1,-1,-1,-1,-1,-1,-1,-1,-1,-1,-1,-1,-1,-1],"split_conditions":[3.8810268E-1,2.0410781E-17,2.0410781E-17,2.1468325E-1,2.1468325E-1,-8.847539E-1,5.8797306E-1,-8.847539E-1,-8.847539E-1,1.4770223E-1,2.9978123E-1,1E0,-7.945798E-1,4.7921512E-1,8.0235547E-1,3.4341514E-1,-7.945798E-1,-4.8720227E-3,-7.945798E-1,1.2201775E-1,1.7648196E-1,2.5293532E-1,3.451418E-1,4.8318484E-1,-9.105625E-1,6.2957233E-1,-3.9091575E-1,4.288509E-1,5.2829915E-1,6.7221504E-1,7.025195E-1,-4.877429E-3,2.6789524E-2,1.3378602E-1,-3.9091575E-1,2.9114458E-1,-3.9091575E-1,1.0899425E-1,1.3378602E-1,1.5913695E-1,1.8835618E-1,2.3440318E-1,2.7197835E-1,3.298745E-1,3.6508158E-1,1.8969311E-1,1.2945406E-1,-9.427452E-1,1.0955904E-2,5.043196E-1,8.0235547E-1,-6.515263E-1,0E0,4.1011027E-1,4.5560637E-1,5.043196E-1,5.541521E-1,6.2957233E-1,7.084027E-1,4.1175184E-1,2.7491042E-2,-1.812286E-3,-4.2415624E-3,-1.4764009E-3,4.6902598E-4,-4.228864E-3,-2.8802068E-3,3.1345503E-3,6.1962097E-3,-3.5443574E-3,-7.1234646E-4,-1.600237E-3,-1.251965E-3,-7.4939936E-4,-3.7754423E-4,7.5380376E-5,4.4621012E-4,9.968979E-4,1.3868742E-3,2.2806346E-3,2.9907897E-3,3.5119045E-3,4.2879046E-3,5.2357353E-3,6.0381717E-3,6.611217E-3,7.1545043E-3,-4.8286747E-3,-4.074232E-3,-1.323255E-3,-3.2008735E-3,3.029909E-3,6.515058E-3,9.866682E-3,1.30760735E-2,1.7341964E-2,2.4788579E-2,4.279056E-3,-4.5695994E-3,1.2810814E-2,1.8363064E-3,8.014749E-3,8.742592E-3,9.585455E-3,1.0260053E-2,1.1038251E-2,1.1826172E-2,1.2601758E-2,1.3553335E-2,1.4576562E-2,1.6146597E-2,1.7289178E-2,1.8947115E-2,2.0885164E-2,2.4994837E-2],"split_indices":[12,0,0,12,12,2,12,2,2,12,12,8,2,12,12,7,2,0,2,12,12,12,12,7,2,12,2,12,12,12,8,0,4,12,2,12,2,12,12,12,12,12,12,12,12,4,11,2,0,12,12,2,2,12,12,12,12,12,12,11,0,0,0,0,0,0,0,0,0,0,0,0,0,0,0,0,0,0,0,0,0,0,0,0,0,0,0,0,0,0,0,0,0,0,0,0,0,0,0,0,0,0,0,0,0,0,0,0,0,0,0,0,0,0,0],"split_type":[0,0,0,0,0,0,0,0,0,0,0,0,0,0,0,0,0,0,0,0,0,0,0,0,0,0,0,0,0,0,0,0,0,0,0,0,0,0,0,0,0,0,0,0,0,0,0,0,0,0,0,0,0,0,0,0,0,0,0,0,0,0,0,0,0,0,0,0,0,0,0,0,0,0,0,0,0,0,0,0,0,0,0,0,0,0,0,0,0,0,0,0,0,0,0,0,0,0,0,0,0,0,0,0,0,0,0,0,0,0,0,0,0,0,0],"sum_hessian":[2.4336E5,1.6704E5,7.632E4,1.392E5,2.784E4,6.36E4,1.272E4,9.24E4,4.68E4,1.848E4,9.36E3,5.406E3,5.8194E4,9.24E3,3.48E3,7.854E3,8.4546E4,3.978E3,4.2822E4,1.176E4,6.72E3,5.88E3,3.48E3,5.355E3,5.1E1,5.512E3,5.2682E4,3.36E3,5.88E3,3.12E3,3.6E2,7.811E3,4.3E1,8.008E3,7.6538E4,4.056E3,3.8766E4,8.52E3,3.24E3,2.76E3,3.96E3,2.88E3,3E3,1.32E3,2.16E3,4.963E3,3.92E2,3.4E1,1.7E1,4.42E3,1.092E3,1.3038E4,3.9644E4,1.8E3,1.56E3,3.48E3,2.4E3,1.92E3,1.2E3,2.4E2,1.2E2,3E0,4E1,4.004E3,4.004E3,1.8942E4,5.7596E4,2.392E3,1.664E3,9.594E3,2.9172E4,6.24E3,2.28E3,7.2E2,2.52E3,2.16E3,6E2,1.92E3,2.04E3,1.8E3,1.08E3,1.56E3,1.44E3,7.2E2,6E2,1.2E3,9.6E2,4.658E3,3.05E2,1.23E2,2.69E2,1.7E1,1.7E1,2.444E3,1.976E3,9.36E2,1.56E2,3.71E3,9.328E3,5.406E3,3.4238E4,8.4E2,9.6E2,7.2E2,8.4E2,2.28E3,1.2E3,1.08E3,1.32E3,9.6E2,9.6E2,7.2E2,4.8E2,1.2E2,1.2E2],"tree_param":{"num_deleted":"0","num_feature":"14","num_nodes":"115","size_leaf_vector":"1"}},{"base_weights":[6.4411242E-6,-3.5079345E-2,7.894887E-2,-4.668552E-2,2.295113E-2,4.6104148E-2,2.4315564E-1,-5.783338E-2,-1.889831E-2,-9.415445E-3,8.525128E-2,-8.5706204E-2,5.8350112E-2,2.1283616E-1,3.3401677E-1,-9.26018E-2,-5.4602552E-2,-4.621525E-3,-1.2065125E-2,-2.3744544E-2,1.3656929E-2,6.2004328E-2,1.23968214E-1,-8.787652E-2,1.352269E-1,2.4355593E-1,3.8968105E-2,1.899883E-1,2.4393648E-1,3.16448E-1,4.6746093E-1,-4.643434E-3,-4.4114497E-3,-5.6472393E-3,-5.972451E-2,9.349258E-2,-2.3111869E-2,-2.8637046E-2,-9.265977E-3,1.2340598E-3,2.2173146E-2,4.8411705E-2,7.453183E-2,1.10056914E-1,1.3318719E-1,-9.0362735E-2,-4.016068E-2,9.3540676E-2,1.0438542E-2,2.1650882E-1,3.501605E-1,-3.8549963E-2,6.446235E-2,1.6497102E-1,2.0373958E-1,2.2910507E-1,2.5777638E-1,2.9703683E-1,3.4141415E-1,4.378589E-1,2.6127849E-2,-9.985515E-4,1.3463807E-3,-3.9924993E-3,-2.6552265E-3,3.5692663E-3,6.3084983E-3,-3.2941536E-3,-4.521668E-4,-1.5473199E-3,-1.2432637E-3,-7.4871763E-4,-3.9071843E-4,-1.0963337E-4,1.645086E-4,9.1083813E-4,1.3175642E-3,2.1178417E-3,2.7764991E-3,3.4603886E-3,4.3213237E-3,5.0483905E-3,5.821068E-3,6.4531863E-3,7.062183E-3,-4.5840424E-3,-3.6598009E-3,-2.731813E-3,-5.944585E-4,2.88683E-3,6.207403E-3,9.5330505E-3,1.2506738E-2,1.6475791E-2,2.3557043E-2,4.1266964E-3,-4.335604E-3,1.2287262E-2,1.7916135E-3,7.892484E-3,8.696424E-3,9.60948E-3,1.048658E-2,1.11474395E-2,1.1751148E-2,1.2523891E-2,1.3285904E-2,1.4046395E-2,1.5340107E-2,1.642592E-2,1.8001731E-2,1.9849535E-2,2.3755424E-2],"categories":[],"categories_nodes":[],"categories_segments":[],"categories_sizes":[],"default_left":[0,0,0,0,0,0,0,0,0,0,0,0,0,0,0,0,0,0,0,0,0,0,0,0,0,0,0,0,0,0,0,0,0,0,0,0,0,0,0,0,0,0,0,0,0,0,0,0,0,0,0,0,0,0,0,0,0,0,0,0,0,0,0,0,0,0,0,0,0,0,0,0,0,0,0,0,0,0,0,0,0,0,0,0,0,0,0,0,0,0,0,0,0,0,0,0,0,0,0,0,0,0,0,0,0,0,0,0,0,0,0,0,0],"id":5,"left_children":[1,3,5,7,9,11,13,15,17,19,21,23,25,27,29,31,33,-1,35,37,39,41,43,45,47,49,51,53,55,57,59,-1,-1,61,63,65,67,69,71,73,75,77,79,81,83,85,87,89,-1,91,93,95,97,99,101,103,105,107,109,111,-1,-1,-1,-1,-1,-1,-1,-1,-1,-1,-1,-1,-1,-1,-1,-1,-1,-1,-1,-1,-1,-1,-1,-1,-1,-1,-1,-1,-1,-1,-1,-1,-1,-1,-1,-1,-1,-1,-1,-1,-1,-1,-1,-1,-1,-1,-1,-1,-1,-1,-1,-1,-1],"loss_changes":[6.740537E2,1.13475006E2,4.038464E2,4.349063E1,5.6624523E1,1.0072925E2,3.4312378E1,1.125061E1,2.0198242E1,6.1102605E0,8.63369E0,2.5555954E0,2.0494937E2,6.6053467E0,7.1691284E0,1.7471313E-3,2.2989136E1,0E0,4.2894836E1,8.0734015E-1,7.491131E-1,1.0182514E0,4.4716644E-1,6.1966324E-1,1.3989139E-1,1.5520203E1,1.0215362E2,1.8244476E0,7.5398254E-1,1.2366028E0,3.5997772E-1,0E0,0E0,4.052919E0,1.1053864E1,2.5085812E0,2.003695E1,7.345152E-2,2.3755908E-2,2.0305978E-2,6.8963766E-2,1.21819496E-1,1.9166565E-1,7.160187E-2,5.355835E-2,1.0626602E-1,1.06573015E-1,3.1187534E-2,0E0,3.7044525E0,2.574646E0,7.461154E1,2.0187221E2,9.508133E-2,2.006073E-1,1.7593384E-2,5.1757812E-2,1.5937805E-1,1.7010498E-1,1.7826462E-1,0E0,0E0,0E0,0E0,0E0,0E0,0E0,0E0,0E0,0E0,0E0,0E0,0E0,0E0,0E0,0E0,0E0,0E0,0E0,0E0,0E0,0E0,0E0,0E0,0E0,0E0,0E0,0E0,0E0,0E0,0E0,0E0,0E0,0E0,0E0,0E0,0E0,0E0,0E0,0E0,0E0,0E0,0E0,0E0,0E0,0E0,0E0,0E0,0E0,0E0,0E0,0E0,0E0],"parents":[2147483647,0,0,1,1,2,2,3,3,4,4,5,5,6,6,7,7,8,8,9,9,10,10,11,11,12,12,13,13,14,14,15,15,16,16,18,18,19,19,20,20,21,21,22,22,23,23,24,24,25,25,26,26,27,27,28,28,29,29,30,30,33,33,34,34,35,35,36,36,37,37,38,38,39,39,40,40,41,41,42,42,43,43,44,44,45,45,46,46,47,47,49,49,50,50,51,51,52,52,53,53,54,54,55,55,56,56,57,57,58,58,59,59],"right_children":[2,4,6,8,10,12,14,16,18,20,22,24,26,28,30,32,34,-1,36,38,40,42,44,46,48,50,52,54,56,58,60,-1,-1,62,64,66,68,70,72,74,76,78,80,82,84,86,88,90,-1,92,94,96,98,100,102,104,106,108,110,112,-1,-1,-1,-1,-1,-1,-1,-1,-1,-1,-1,-1,-1,-1,-1,-1,-1,-1,-1,-1,-1,-1,-1,-1,-1,-1,-1,-1,-1,-1,-1,-1,-1,-1,-1,-1,-1,-1,-1,-1,-1,-1,-1,-1,-1,-1,-1,-1,-1,-1,-1,-1,-1],"split_conditions":[3.942838E-1,2.0410781E-17,2.0410781E-17,2.2882085E-1,2.1468325E-1,-8.847539E-1,6.0063285E-1,-8.847539E-1,-8.847539E-1,1.4187913E-1,3.0815038E-1,1E0,-7.945798E-1,5.043196E-1,8.0235547E-1,6.224477E-2,-7.945798E-1,-4.621525E-3,-7.945798E-1,1.2201775E-1,1.7198086E-1,2.5293532E-1,3.4914172E-1,6.116641E-1,-9.105625E-1,6.2957233E-1,-3.9091575E-1,4.503305E-1,5.4751784E-1,6.7221504E-1,7.025195E-1,-4.643434E-3,-4.4114497E-3,1.5913695E-1,-3.9091575E-1,3.190126E-1,-3.9091575E-1,1.0515482E-1,1.3235975E-2,1.5150607E-1,1.8835618E-1,2.2882085E-1,2.8436783E-1,3.298745E-1,3.699648E-1,3.6794576E-1,-9.105625E-1,-9.427452E-1,1.0438542E-2,5.1020044E-1,8.0235547E-1,-6.515263E-1,0E0,4.1996887E-1,4.7921512E-1,5.2501696E-1,5.6847435E-1,6.2957233E-1,7.084027E-1,4.1175184E-1,2.6127849E-2,-9.985515E-4,1.3463807E-3,-3.9924993E-3,-2.6552265E-3,3.5692663E-3,6.3084983E-3,-3.2941536E-3,-4.521668E-4,-1.5473199E-3,-1.2432637E-3,-7.4871763E-4,-3.9071843E-4,-1.0963337E-4,1.645086E-4,9.1083813E-4,1.3175642E-3,2.1178417E-3,2.7764991E-3,3.4603886E-3,4.3213237E-3,5.0483905E-3,5.821068E-3,6.4531863E-3,7.062183E-3,-4.5840424E-3,-3.6598009E-3,-2.731813E-3,-5.944585E-4,2.88683E-3,6.207403E-3,9.5330505E-3,1.2506738E-2,1.6475791E-2,2.3557043E-2,4.1266964E-3,-4.335604E-3,1.2287262E-2,1.7916135E-3,7.892484E-3,8.696424E-3,9.60948E-3,1.048658E-2,1.11474395E-2,1.1751148E-2,1.2523891E-2,1.3285904E-2,1.4046395E-2,1.5340107E-2,1.642592E-2,1.8001731E-2,1.9849535E-2,2.3755424E-2],"split_indices":[12,0,0,12,12,2,12,2,2,12,12,8,2,12,12,5,2,0,2,12,12,12,12,7,2,12,2,12,12,12,8,0,0,12,2,12,2,12,6,12,12,12,12,12,12,7,2,2,0,12,12,2,2,12,12,12,12,12,12,11,0,0,0,0,0,0,0,0,0,0,0,0,0,0,0,0,0,0,0,0,0,0,0,0,0,0,0,0,0,0,0,0,0,0,0,0,0,0,0,0,0,0,0,0,0,0,0,0,0,0,0,0,0],"split_type":[0,0,0,0,0,0,0,0,0,0,0,0,0,0,0,0,0,0,0,0,0,0,0,0,0,0,0,0,0,0,0,0,0,0,0,0,0,0,0,0,0,0,0,0,0,0,0,0,0,0,0,0,0,0,0,0,0,0,0,0,0,0,0,0,0,0,0,0,0,0,0,0,0,0,0,0,0,0,0,0,0,0,0,0,0,0,0,0,0,0,0,0,0,0,0,0,0,0,0,0,0,0,0,0,0,0,0,0,0,0,0,0,0],"sum_hessian":[2.4336E5,1.6848E5,7.488E4,1.404E5,2.808E4,6.24E4,1.248E4,1.002E5,4.02E4,1.848E4,9.6E3,5.304E3,5.7096E4,9.36E3,3.12E3,8.517E3,9.1683E4,3.417E3,3.6783E4,1.14E4,7.08E3,6E3,3.6E3,5.253E3,5.1E1,5.408E3,5.1688E4,5.4E3,3.96E3,2.76E3,3.6E2,8.008E3,5.09E2,8.684E3,8.2999E4,3.484E3,3.3299E4,8.52E3,2.88E3,2.88E3,4.2E3,2.88E3,3.12E3,1.44E3,2.16E3,4.992E3,2.61E2,3.4E1,1.7E1,4.316E3,1.092E3,1.2792E4,3.8896E4,1.92E3,3.48E3,1.92E3,2.04E3,1.56E3,1.2E3,2.4E2,1.2E2,6.032E3,2.652E3,2.0541E4,6.2458E4,2.08E3,1.404E3,8.241E3,2.5058E4,5.28E3,3.24E3,5.82E2,2.298E3,1.08E3,1.8E3,2.16E3,2.04E3,1.56E3,1.32E3,2.16E3,9.6E2,6E2,8.4E2,1.44E3,7.2E2,4.632E3,3.6E2,1.72E2,8.9E1,1.7E1,1.7E1,2.444E3,1.872E3,9.36E2,1.56E2,3.64E3,9.152E3,5.304E3,3.3592E4,1.08E3,8.4E2,1.2E3,2.28E3,9.6E2,9.6E2,1.08E3,9.6E2,6E2,9.6E2,7.2E2,4.8E2,1.2E2,1.2E2],"tree_param":{"num_deleted":"0","num_feature":"14","num_nodes":"113","size_leaf_vector":"1"}},{"base_weights":[7.4517857E-6,-3.2188404E-2,7.773216E-2,-4.3510098E-2,2.4419615E-2,4.6221454E-2,2.3526856E-1,-5.4377507E-2,-1.5611024E-2,-6.347355E-3,9.040013E-2,-8.106078E-2,5.804676E-2,2.059981E-1,3.173587E-1,-8.797178E-2,-5.125583E-2,-4.3926896E-3,-8.897741E-3,-2.160911E-2,1.787731E-2,6.550892E-2,1.2459959E-1,-8.3227985E-2,1.2884119E-1,2.3583987E-1,3.944025E-2,1.858204E-1,2.3327832E-1,3.0064872E-1,4.4428104E-1,-4.4075632E-3,-8.206039E-2,-1.5858378E-2,-5.7921298E-2,9.600785E-2,-1.9876333E-2,-2.7205521E-2,-7.903677E-3,5.1111276E-3,2.6273152E-2,5.512547E-2,7.9141185E-2,1.140558E-1,1.3647926E-1,-8.570228E-2,-3.816534E-2,8.912348E-2,9.9456115E-3,2.0968951E-1,3.326891E-1,-3.5471242E-2,6.4077206E-2,1.6541755E-1,1.9710077E-1,2.198858E-1,2.4571282E-1,2.8220382E-1,3.243721E-1,4.161469E-1,2.4832254E-2,-2.2596866E-4,-4.116443E-3,1.4321231E-4,-4.6463083E-3,-4.6166624E-3,-2.491153E-3,3.5771267E-3,6.217861E-3,-3.094497E-3,-3.0285525E-4,-1.445223E-3,-1.1272583E-3,-6.54004E-4,-3.1261556E-4,1.211893E-4,6.802939E-4,1.0843585E-3,1.809375E-3,2.3468414E-3,2.9852379E-3,3.68342E-3,4.4212174E-3,5.321761E-3,5.964857E-3,6.4596185E-3,7.2321803E-3,-4.370509E-3,-3.6530108E-3,-2.5960116E-3,-5.650657E-4,2.7505073E-3,5.9142755E-3,9.445687E-3,1.2139422E-2,1.565288E-2,2.2386692E-2,4.0733945E-3,-4.099257E-3,1.1961511E-2,1.8207425E-3,7.90503E-3,8.722853E-3,9.435351E-3,1.0060419E-2,1.0652662E-2,1.1211976E-2,1.1936198E-2,1.2622299E-2,1.3453466E-2,1.4656432E-2,1.5605763E-2,1.7103516E-2,1.8865261E-2,2.257747E-2],"categories":[],"categories_nodes":[],"categories_segments":[],"categories_sizes":[],"default_left":[0,0,0,0,0,0,0,0,0,0,0,0,0,0,0,0,0,0,0,0,0,0,0,0,0,0,0,0,0,0,0,0,0,0,0,0,0,0,0,0,0,0,0,0,0,0,0,0,0,0,0,0,0,0,0,0,0,0,0,0,0,0,0,0,0,0,0,0,0,0,0,0,0,0,0,0,0,0,0,0,0,0,0,0,0,0,0,0,0,0,0,0,0,0,0,0,0,0,0,0,0,0,0,0,0,0,0,0,0,0,0,0,0,0,0],"id":6,"left_children":[1,3,5,7,9,11,13,15,17,19,21,23,25,27,29,31,33,-1,35,37,39,41,43,45,47,49,51,53,55,57,59,-1,61,63,65,67,69,71,73,75,77,79,81,83,85,87,89,91,-1,93,95,97,99,101,103,105,107,109,111,113,-1,-1,-1,-1,-1,-1,-1,-1,-1,-1,-1,-1,-1,-1,-1,-1,-1,-1,-1,-1,-1,-1,-1,-1,-1,-1,-1,-1,-1,-1,-1,-1,-1,-1,-1,-1,-1,-1,-1,-1,-1,-1,-1,-1,-1,-1,-1,-1,-1,-1,-1,-1,-1,-1,-1],"loss_changes":[6.089924E2,1.1028758E2,3.53834E2,4.347699E1,5.82236E1,8.94122E1,2.8482483E1,1.0818207E1,1.9496143E1,7.2323017E0,7.756233E0,2.3079643E0,1.7979309E2,4.779175E0,6.4856567E0,2.0751953E-3,2.2278717E1,0E0,4.2366615E1,9.2027617E-1,8.102751E-1,7.4316406E-1,4.6554565E-1,5.5410767E-1,1.2699145E-1,1.2970825E1,9.081274E1,1.127594E0,5.656128E-1,1.1166077E0,3.2514954E-1,0E0,5.3110123E-3,2.1593433E1,2.2140411E1,2.4082146E0,1.9333454E1,6.68149E-2,2.9674292E-2,6.847475E-2,2.0659018E-1,1.0972977E-1,1.09371185E-1,6.882477E-2,8.8459015E-2,9.591293E-2,9.622532E-2,2.831158E-2,0E0,2.7439575E0,2.3283691E0,6.624641E1,1.7939249E2,9.1537476E-2,7.3776245E-2,5.79834E-3,3.0136108E-2,1.4511871E-1,1.5375519E-1,1.6102982E-1,0E0,0E0,0E0,0E0,0E0,0E0,0E0,0E0,0E0,0E0,0E0,0E0,0E0,0E0,0E0,0E0,0E0,0E0,0E0,0E0,0E0,0E0,0E0,0E0,0E0,0E0,0E0,0E0,0E0,0E0,0E0,0E0,0E0,0E0,0E0,0E0,0E0,0E0,0E0,0E0,0E0,0E0,0E0,0E0,0E0,0E0,0E0,0E0,0E0,0E0,0E0,0E0,0E0,0E0,0E0],"parents":[2147483647,0,0,1,1,2,2,3,3,4,4,5,5,6,6,7,7,8,8,9,9,10,10,11,11,12,12,13,13,14,14,15,15,16,16,18,18,19,19,20,20,21,21,22,22,23,23,24,24,25,25,26,26,27,27,28,28,29,29,30,30,32,32,33,33,34,34,35,35,36,36,37,37,38,38,39,39,40,40,41,41,42,42,43,43,44,44,45,45,46,46,47,47,49,49,50,50,51,51,52,52,53,53,54,54,55,55,56,56,57,57,58,58,59,59],"right_children":[2,4,6,8,10,12,14,16,18,20,22,24,26,28,30,32,34,-1,36,38,40,42,44,46,48,50,52,54,56,58,60,-1,62,64,66,68,70,72,74,76,78,80,82,84,86,88,90,92,-1,94,96,98,100,102,104,106,108,110,112,114,-1,-1,-1,-1,-1,-1,-1,-1,-1,-1,-1,-1,-1,-1,-1,-1,-1,-1,-1,-1,-1,-1,-1,-1,-1,-1,-1,-1,-1,-1,-1,-1,-1,-1,-1,-1,-1,-1,-1,-1,-1,-1,-1,-1,-1,-1,-1,-1,-1,-1,-1,-1,-1,-1,-1],"split_conditions":[4.1011027E-1,2.0410781E-17,2.0410781E-17,2.4367504E-1,2.2405805E-1,-8.847539E-1,6.0063285E-1,-8.847539E-1,-8.847539E-1,1.4896208E-1,3.190126E-1,1E0,-7.945798E-1,5.1020044E-1,8.0235547E-1,1.4494655E-1,-6.515263E-1,-4.3926896E-3,-7.945798E-1,1.2201775E-1,1.7859684E-1,2.6371598E-1,3.6508158E-1,6.116641E-1,-9.105625E-1,6.2957233E-1,-3.9091575E-1,4.590182E-1,5.498801E-1,6.7221504E-1,7.025195E-1,-4.4075632E-3,1.4665051E-1,6.234898E-1,-3.9091575E-1,3.2152426E-1,-3.9091575E-1,1.0899425E-1,1.3822226E-1,1.7198086E-1,1.9946046E-1,2.4367504E-1,2.9114458E-1,3.451418E-1,3.8810268E-1,1.5236859E-1,-9.105625E-1,-9.427452E-1,9.9456115E-3,5.2501696E-1,8.0235547E-1,-6.515263E-1,0E0,6.5058045E-2,4.8420623E-1,5.2501696E-1,5.6847435E-1,6.375424E-1,7.084027E-1,4.1175184E-1,2.4832254E-2,-2.2596866E-4,-4.116443E-3,1.4321231E-4,-4.6463083E-3,-4.6166624E-3,-2.491153E-3,3.5771267E-3,6.217861E-3,-3.094497E-3,-3.0285525E-4,-1.445223E-3,-1.1272583E-3,-6.54004E-4,-3.1261556E-4,1.211893E-4,6.802939E-4,1.0843585E-3,1.809375E-3,2.3468414E-3,2.9852379E-3,3.68342E-3,4.4212174E-3,5.321761E-3,5.964857E-3,6.4596185E-3,7.2321803E-3,-4.370509E-3,-3.6530108E-3,-2.5960116E-3,-5.650657E-4,2.7505073E-3,5.9142755E-3,9.445687E-3,1.2139422E-2,1.565288E-2,2.2386692E-2,4.0733945E-3,-4.099257E-3,1.1961511E-2,1.8207425E-3,7.90503E-3,8.722853E-3,9.435351E-3,1.0060419E-2,1.0652662E-2,1.1211976E-2,1.1936198E-2,1.2622299E-2,1.3453466E-2,1.4656432E-2,1.5605763E-2,1.7103516E-2,1.8865261E-2,2.257747E-2],"split_indices":[12,0,0,12,12,2,12,2,2,12,12,8,2,12,12,7,2,0,2,12,12,12,12,7,2,12,2,12,12,12,8,0,7,3,2,12,2,12,12,12,12,12,12,12,12,4,2,2,0,12,12,2,2,4,12,12,12,12,12,11,0,0,0,0,0,0,0,0,0,0,0,0,0,0,0,0,0,0,0,0,0,0,0,0,0,0,0,0,0,0,0,0,0,0,0,0,0,0,0,0,0,0,0,0,0,0,0,0,0,0,0,0,0,0,0],"split_type":[0,0,0,0,0,0,0,0,0,0,0,0,0,0,0,0,0,0,0,0,0,0,0,0,0,0,0,0,0,0,0,0,0,0,0,0,0,0,0,0,0,0,0,0,0,0,0,0,0,0,0,0,0,0,0,0,0,0,0,0,0,0,0,0,0,0,0,0,0,0,0,0,0,0,0,0,0,0,0,0,0,0,0,0,0,0,0,0,0,0,0,0,0,0,0,0,0,0,0,0,0,0,0,0,0,0,0,0,0,0,0,0,0,0,0],"sum_hessian":[2.4336E5,1.7208E5,7.128E4,1.434E5,2.868E4,5.94E4,1.188E4,1.032E5,4.02E4,1.956E4,9.12E3,5.049E3,5.4351E4,8.76E3,3.12E3,8.772E3,9.4428E4,3.417E3,3.6783E4,1.2E4,7.56E3,5.28E3,3.84E3,4.998E3,5.1E1,5.148E3,4.9203E4,5.04E3,3.72E3,2.76E3,3.6E2,8.5E3,2.72E2,1.4964E4,7.9464E4,3.484E3,3.3299E4,8.52E3,3.48E3,3E3,4.56E3,3E3,2.28E3,2.04E3,1.8E3,4.737E3,2.61E2,3.4E1,1.7E1,4.056E3,1.092E3,1.2177E4,3.7026E4,1.8E3,3.24E3,1.8E3,1.92E3,1.56E3,1.2E3,2.4E2,1.2E2,1E0,2.71E2,1.204E4,2.924E3,1.5136E4,6.4328E4,1.872E3,1.612E3,8.241E3,2.5058E4,6.24E3,2.28E3,8.4E2,2.64E3,2.28E3,7.2E2,3.12E3,1.44E3,1.08E3,1.92E3,1.44E3,8.4E2,8.4E2,1.2E3,9.6E2,8.4E2,4.168E3,5.69E2,1.72E2,8.9E1,1.7E1,1.7E1,2.496E3,1.56E3,9.36E2,1.56E2,3.465E3,8.712E3,5.049E3,3.1977E4,1.005E3,7.95E2,1.08E3,2.16E3,7.2E2,1.08E3,9.6E2,9.6E2,7.2E2,8.4E2,7.2E2,4.8E2,1.2E2,1.2E2],"tree_param":{"num_deleted":"0","num_feature":"14","num_nodes":"115","size_leaf_vector":"1"}},{"base_weights":[8.356091E-6,-3.01462E-2,7.49278E-2,-4.1017238E-2,2.4208523E-2,4.4880573E-2,2.2514716E-1,-5.2445054E-2,-1.6206237E-2,-6.0299775E-3,8.7393135E-2,-7.68548E-2,5.6190558E-2,1.9714333E-1,3.015315E-1,-4.702215E-2,-7.094382E-2,-4.6537765E-3,-5.5616245E-2,-2.0908792E-2,1.64025E-2,6.2236015E-2,1.1992618E-1,-7.895874E-2,1.2275702E-1,2.2574617E-1,3.8446017E-2,1.7812635E-1,2.2162688E-1,2.856383E-1,4.222506E-1,-5.4373924E-2,1.2512194E-2,-9.884519E-2,-4.3036126E-2,-2.1177497E-2,1.291269E-1,-1.1716291E-1,5.941181E-3,-2.5845544E-2,-7.922987E-3,2.6767496E-3,2.391696E-2,5.3254575E-2,7.646757E-2,1.1120553E-1,1.3582575E-1,-8.1354275E-2,-3.6269132E-2,8.491487E-2,9.475957E-3,2.0070925E-1,3.1608945E-1,-3.3222556E-2,6.2016428E-2,1.600276E-1,1.8781745E-1,2.0890366E-1,2.3343997E-1,2.6811165E-1,3.0818075E-1,3.955115E-1,2.3600904E-2,-2.293491E-3,-4.014942E-3,-4.29862E-4,2.1691083E-3,-3.41654E-3,-4.96067E-3,-4.928954E-3,6.2572455E-4,-1.5567032E-4,-3.812388E-3,4.692444E-3,8.312123E-3,-5.6843357E-3,-6.2310225E-3,-5.8615096E-3,6.455513E-3,-1.3946259E-3,-1.1147453E-3,-6.213427E-4,-3.171058E-4,2.6541105E-5,3.0056402E-4,9.599627E-4,1.6667668E-3,2.2296077E-3,2.8781572E-3,3.5561726E-3,4.2004194E-3,5.1767896E-3,5.8760354E-3,6.426846E-3,7.043652E-3,-4.132345E-3,-3.2908998E-3,-2.4669613E-3,-5.371263E-4,2.6206225E-3,5.6349905E-3,9.054502E-3,1.1532839E-2,1.4871071E-2,2.1274488E-2,3.9309384E-3,-3.885445E-3,1.1478596E-2,1.7776907E-3,7.594425E-3,8.341109E-3,9.08509E-3,9.609944E-3,1.0120768E-2,1.0651897E-2,1.134001E-2,1.1991841E-2,1.2673688E-2,1.3849351E-2,1.4826558E-2,1.6250117E-2,1.7929792E-2,2.1457925E-2],"categories":[],"categories_nodes":[],"categories_segments":[],"categories_sizes":[],"default_left":[0,0,0,0,0,0,0,0,0,0,0,0,0,0,0,0,0,0,0,0,0,0,0,0,0,0,0,0,0,0,0,0,0,0,0,0,0,0,0,0,0,0,0,0,0,0,0,0,0,0,0,0,0,0,0,0,0,0,0,0,0,0,0,0,0,0,0,0,0,0,0,0,0,0,0,0,0,0,0,0,0,0,0,0,0,0,0,0,0,0,0,0,0,0,0,0,0,0,0,0,0,0,0,0,0,0,0,0,0,0,0,0,0,0,0,0,0,0,0,0,0,0,0],"id":7,"left_children":[1,3,5,7,9,11,13,15,17,19,21,23,25,27,29,31,33,35,37,39,41,43,45,47,49,51,53,55,57,59,61,63,65,67,69,71,73,75,77,79,81,83,85,87,89,91,93,95,97,99,-1,101,103,105,107,109,111,113,115,117,119,121,-1,-1,-1,-1,-1,-1,-1,-1,-1,-1,-1,-1,-1,-1,-1,-1,-1,-1,-1,-1,-1,-1,-1,-1,-1,-1,-1,-1,-1,-1,-1,-1,-1,-1,-1,-1,-1,-1,-1,-1,-1,-1,-1,-1,-1,-1,-1,-1,-1,-1,-1,-1,-1,-1,-1,-1,-1,-1,-1,-1,-1],"loss_changes":[5.497943E2,1.025332E2,3.1522943E2,4.0998703E1,5.5257217E1,8.013691E1,2.4841309E1,9.928131E0,2.0761078E1,6.529191E0,7.6539307E0,2.0877056E0,1.6021591E2,3.9279175E0,5.8673706E0,3.3510147E1,1.7469719E1,7.795794E1,3.916402E1,7.5376606E-1,8.0454373E-1,6.709461E-1,5.507431E-1,4.9784088E-1,1.15280986E-1,1.1347961E1,8.144118E1,8.12027E-1,5.1049805E-1,1.0082245E0,2.9370117E-1,1.502034E1,5.484639E0,1.1928558E-1,3.4623016E1,3.1225355E1,5.0608063E0,1.198349E-1,7.843354E1,6.1309338E-2,2.2997215E-2,1.975359E-2,2.2334719E-1,1.18395805E-1,7.627487E-2,1.15753174E-1,3.490448E-2,8.766174E-2,8.688232E-2,2.5700837E-2,0E0,2.2808075E0,2.1056747E0,5.9372715E1,1.6085132E2,6.762314E-2,4.8706055E-2,5.1956177E-3,2.7198792E-2,1.3258362E-1,1.3899231E-1,1.4545059E-1,0E0,0E0,0E0,0E0,0E0,0E0,0E0,0E0,0E0,0E0,0E0,0E0,0E0,0E0,0E0,0E0,0E0,0E0,0E0,0E0,0E0,0E0,0E0,0E0,0E0,0E0,0E0,0E0,0E0,0E0,0E0,0E0,0E0,0E0,0E0,0E0,0E0,0E0,0E0,0E0,0E0,0E0,0E0,0E0,0E0,0E0,0E0,0E0,0E0,0E0,0E0,0E0,0E0,0E0,0E0,0E0,0E0,0E0,0E0,0E0,0E0],"parents":[2147483647,0,0,1,1,2,2,3,3,4,4,5,5,6,6,7,7,8,8,9,9,10,10,11,11,12,12,13,13,14,14,15,15,16,16,17,17,18,18,19,19,20,20,21,21,22,22,23,23,24,24,25,25,26,26,27,27,28,28,29,29,30,30,31,31,32,32,33,33,34,34,35,35,36,36,37,37,38,38,39,39,40,40,41,41,42,42,43,43,44,44,45,45,46,46,47,47,48,48,49,49,51,51,52,52,53,53,54,54,55,55,56,56,57,57,58,58,59,59,60,60,61,61],"right_children":[2,4,6,8,10,12,14,16,18,20,22,24,26,28,30,32,34,36,38,40,42,44,46,48,50,52,54,56,58,60,62,64,66,68,70,72,74,76,78,80,82,84,86,88,90,92,94,96,98,100,-1,102,104,106,108,110,112,114,116,118,120,122,-1,-1,-1,-1,-1,-1,-1,-1,-1,-1,-1,-1,-1,-1,-1,-1,-1,-1,-1,-1,-1,-1,-1,-1,-1,-1,-1,-1,-1,-1,-1,-1,-1,-1,-1,-1,-1,-1,-1,-1,-1,-1,-1,-1,-1,-1,-1,-1,-1,-1,-1,-1,-1,-1,-1,-1,-1,-1,-1,-1,-1],"split_conditions":[4.1313878E-1,2.0410781E-17,2.0410781E-17,2.2767179E-1,2.2405805E-1,-8.847539E-1,6.0063285E-1,7.818315E-1,7.818315E-1,1.4770223E-1,3.190126E-1,1E0,-7.945798E-1,5.1020044E-1,8.0235547E-1,5.21221E-1,8.7837964E-1,5.21221E-1,8.7837964E-1,1.2201775E-1,1.7648196E-1,2.670577E-1,3.733134E-1,6.116641E-1,-9.105625E-1,6.2957233E-1,-3.9091575E-1,4.6549252E-1,5.498801E-1,6.7221504E-1,7.025195E-1,1.3030525E-1,1.4770223E-1,1.00004576E-1,-8.151915E-2,1.3030525E-1,3.0815038E-1,3.5239068E-1,-8.151915E-2,1.0603613E-1,1.3822226E-1,1.5661015E-1,1.9725966E-1,2.4367504E-1,2.9114458E-1,3.5239068E-1,3.942838E-1,3.6794576E-1,-9.105625E-1,-9.427452E-1,9.475957E-3,5.2501696E-1,8.0235547E-1,-6.515263E-1,0E0,4.3466005E-2,4.865652E-1,5.2501696E-1,5.6847435E-1,6.2957233E-1,7.084027E-1,4.1175184E-1,2.3600904E-2,-2.293491E-3,-4.014942E-3,-4.29862E-4,2.1691083E-3,-3.41654E-3,-4.96067E-3,-4.928954E-3,6.2572455E-4,-1.5567032E-4,-3.812388E-3,4.692444E-3,8.312123E-3,-5.6843357E-3,-6.2310225E-3,-5.8615096E-3,6.455513E-3,-1.3946259E-3,-1.1147453E-3,-6.213427E-4,-3.171058E-4,2.6541105E-5,3.0056402E-4,9.599627E-4,1.6667668E-3,2.2296077E-3,2.8781572E-3,3.5561726E-3,4.2004194E-3,5.1767896E-3,5.8760354E-3,6.426846E-3,7.043652E-3,-4.132345E-3,-3.2908998E-3,-2.4669613E-3,-5.371263E-4,2.6206225E-3,5.6349905E-3,9.054502E-3,1.1532839E-2,1.4871071E-2,2.1274488E-2,3.9309384E-3,-3.885445E-3,1.1478596E-2,1.7776907E-3,7.594425E-3,8.341109E-3,9.08509E-3,9.609944E-3,1.0120768E-2,1.0651897E-2,1.134001E-2,1.1991841E-2,1.2673688E-2,1.3849351E-2,1.4826558E-2,1.6250117E-2,1.7929792E-2,2.1457925E-2],"split_indices":[12,0,0,12,12,2,12,2,2,12,12,8,2,12,12,2,2,2,2,12,12,12,12,7,2,12,2,12,12,12,8,2,12,12,3,2,12,12,3,12,12,12,12,12,12,12,12,7,2,2,0,12,12,2,2,6,12,12,12,12,12,11,0,0,0,0,0,0,0,0,0,0,0,0,0,0,0,0,0,0,0,0,0,0,0,0,0,0,0,0,0,0,0,0,0,0,0,0,0,0,0,0,0,0,0,0,0,0,0,0,0,0,0,0,0,0,0,0,0,0,0,0,0],"split_type":[0,0,0,0,0,0,0,0,0,0,0,0,0,0,0,0,0,0,0,0,0,0,0,0,0,0,0,0,0,0,0,0,0,0,0,0,0,0,0,0,0,0,0,0,0,0,0,0,0,0,0,0,0,0,0,0,0,0,0,0,0,0,0,0,0,0,0,0,0,0,0,0,0,0,0,0,0,0,0,0,0,0,0,0,0,0,0,0,0,0,0,0,0,0,0,0,0,0,0,0,0,0,0,0,0,0,0,0,0,0,0,0,0,0,0,0,0,0,0,0,0,0,0],"sum_hessian":[2.4336E5,1.7352E5,6.984E4,1.446E5,2.892E4,5.82E4,1.164E4,9.9E4,4.56E4,1.956E4,9.36E3,4.947E3,5.3253E4,8.52E3,3.12E3,7.656E4,2.244E4,3.5264E4,1.0336E4,1.176E4,7.8E3,5.28E3,4.08E3,4.896E3,5.1E1,5.044E3,4.8209E4,4.8E3,3.72E3,2.76E3,3.6E2,6.8145E4,8.415E3,1.122E4,1.122E4,3.1388E4,3.876E3,5.168E3,5.168E3,8.52E3,3.24E3,2.76E3,5.04E3,3.24E3,2.04E3,2.64E3,1.44E3,4.635E3,2.61E2,3.4E1,1.7E1,3.952E3,1.092E3,1.1931E4,3.6278E4,1.68E3,3.12E3,1.8E3,1.92E3,1.56E3,1.2E3,2.4E2,1.2E2,5.1315E4,1.683E4,4.998E3,3.417E3,1.36E2,1.1084E4,5.61E3,5.61E3,2.3636E4,7.752E3,1.989E3,1.887E3,3.536E3,1.632E3,2.584E3,2.584E3,5.4E3,3.12E3,8.4E2,2.4E3,1.68E3,1.08E3,3.36E3,1.68E3,1.08E3,2.16E3,1.2E3,8.4E2,1.2E3,1.44E3,6E2,8.4E2,4.275E3,3.6E2,1.72E2,8.9E1,1.7E1,1.7E1,2.392E3,1.56E3,9.36E2,1.56E2,3.395E3,8.536E3,4.947E3,3.1331E4,7.75E2,9.05E2,1.32E3,1.8E3,7.2E2,1.08E3,9.6E2,9.6E2,6E2,9.6E2,7.2E2,4.8E2,1.2E2,1.2E2],"tree_param":{"num_deleted":"0","num_feature":"14","num_nodes":"123","size_leaf_vector":"1"}},{"base_weights":[9.14635E-6,-3.5516948E-2,5.7566687E-2,-4.438838E-2,8.840226E-3,3.1179413E-2,1.8949252E-1,-5.513458E-2,-3.0178763E-2,-1.4232074E-2,4.4571966E-2,-7.546175E-2,4.1086897E-2,1.5259598E-1,2.5832504E-1,-5.0713725E-2,-7.021342E-2,-4.1251355E-3,-2.5316497E-2,-2.415502E-2,-3.7577536E-4,2.7893342E-2,6.4845935E-2,-7.698273E-2,1.1696016E-1,1.9120093E-1,2.5378063E-2,1.1998576E-1,1.7950825E-1,2.4442415E-1,3.6894053E-1,-5.6620505E-2,-2.8789376E-3,-9.257312E-2,-4.784505E-2,2.883289E-2,-3.5513908E-2,-2.6102727E-2,-1.9543206E-2,-5.0994256E-3,6.8213358E-3,2.0815339E-2,3.8495805E-2,5.7152938E-2,7.900267E-2,-7.953073E-2,-4.713654E-2,8.0905005E-2,9.028481E-3,1.574046E-1,2.6628596E-1,-3.7393175E-2,4.602243E-2,1.0887215E-1,1.3695672E-1,1.6381352E-1,1.870564E-1,2.2415853E-1,2.7469006E-1,1.5945941E-2,4.0131253E-1,-2.485172E-3,-3.8852475E-3,-7.41944E-4,8.049604E-4,-4.6459693E-3,-2.715802E-3,-4.61035E-3,-1.7356401E-4,2.8840324E-3,-4.495604E-3,-4.4896323E-3,-1.1370076E-3,-1.3379641E-3,-1.1948581E-3,-1.015207E-3,-7.3405326E-4,-3.5818978E-4,-8.28113E-5,1.5973712E-4,6.3525466E-4,9.514163E-4,1.2517639E-3,1.729569E-3,2.1182306E-3,2.6515778E-3,3.1436959E-3,3.7093644E-3,4.328551E-3,-4.0217987E-3,-3.6299843E-3,-1.1479207E-3,-2.8774978E-3,1.3665686E-3,4.78832E-3,6.298482E-3,9.2097055E-3,1.2365488E-2,1.7741125E-2,3.1983852E-3,-3.8854622E-3,9.866593E-3,1.1063652E-3,5.1209554E-3,5.7356134E-3,6.5280395E-3,7.1205744E-3,7.8511555E-3,8.479278E-3,9.04487E-3,9.773148E-3,1.07466495E-2,1.1744525E-2,1.3279237E-2,1.447381E-2,1.8794969E-2,2.2430612E-2],"categories":[],"categories_nodes":[],"categories_segments":[],"categories_sizes":[],"default_left":[0,0,0,0,0,0,0,0,0,0,0,0,0,0,0,0,0,0,0,0,0,0,0,0,0,0,0,0,0,0,0,0,0,0,0,0,0,0,0,0,0,0,0,0,0,0,0,0,0,0,0,0,0,0,0,0,0,0,0,0,0,0,0,0,0,0,0,0,0,0,0,0,0,0,0,0,0,0,0,0,0,0,0,0,0,0,0,0,0,0,0,0,0,0,0,0,0,0,0,0,0,0,0,0,0,0,0,0,0,0,0,0,0,0,0,0,0],"id":8,"left_children":[1,3,5,7,9,11,13,15,17,19,21,23,25,27,29,31,33,-1,35,37,39,41,43,45,47,49,51,53,55,57,59,61,63,65,67,69,71,73,75,77,79,81,83,85,87,89,91,93,-1,95,97,99,101,103,105,107,109,111,113,-1,115,-1,-1,-1,-1,-1,-1,-1,-1,-1,-1,-1,-1,-1,-1,-1,-1,-1,-1,-1,-1,-1,-1,-1,-1,-1,-1,-1,-1,-1,-1,-1,-1,-1,-1,-1,-1,-1,-1,-1,-1,-1,-1,-1,-1,-1,-1,-1,-1,-1,-1,-1,-1,-1,-1,-1,-1],"loss_changes":[4.9762527E2,5.9216446E1,3.23328E2,1.9146988E1,2.0677748E1,8.178078E1,3.9277405E1,4.756119E0,1.3736465E1,2.0955572E0,3.3258438E0,1.9347687E0,1.6700163E2,8.825699E0,8.214691E0,1.5601379E1,8.090492E0,0E0,2.7284964E1,7.926321E-2,2.1628737E-1,4.0451288E-1,4.7914505E-1,4.9277115E-1,1.0465044E-1,1.6982819E1,8.308528E1,8.453369E-1,6.234131E-1,2.8831482E0,8.4521484E-1,7.1640167E0,1.3779924E0,1.0216522E-1,1.5930809E1,2.6830479E1,2.8827873E1,8.398056E-3,9.473085E-3,2.7290098E-2,5.3752497E-2,2.3964167E-2,3.117752E-2,6.459522E-2,5.0466537E-2,3.1894684E-2,1.2859559E-1,2.5248826E-2,0E0,3.8750153E0,3.4085083E0,6.4849106E1,1.7443544E2,9.2300415E-2,4.4239044E-2,4.3956757E-2,1.5730286E-1,2.3475647E-1,1.8174744E-1,0E0,2.6530075E-1,0E0,0E0,0E0,0E0,0E0,0E0,0E0,0E0,0E0,0E0,0E0,0E0,0E0,0E0,0E0,0E0,0E0,0E0,0E0,0E0,0E0,0E0,0E0,0E0,0E0,0E0,0E0,0E0,0E0,0E0,0E0,0E0,0E0,0E0,0E0,0E0,0E0,0E0,0E0,0E0,0E0,0E0,0E0,0E0,0E0,0E0,0E0,0E0,0E0,0E0,0E0,0E0,0E0,0E0,0E0,0E0],"parents":[2147483647,0,0,1,1,2,2,3,3,4,4,5,5,6,6,7,7,8,8,9,9,10,10,11,11,12,12,13,13,14,14,15,15,16,16,18,18,19,19,20,20,21,21,22,22,23,23,24,24,25,25,26,26,27,27,28,28,29,29,30,30,31,31,32,32,33,33,34,34,35,35,36,36,37,37,38,38,39,39,40,40,41,41,42,42,43,43,44,44,45,45,46,46,47,47,49,49,50,50,51,51,52,52,53,53,54,54,55,55,56,56,57,57,58,58,60,60],"right_children":[2,4,6,8,10,12,14,16,18,20,22,24,26,28,30,32,34,-1,36,38,40,42,44,46,48,50,52,54,56,58,60,62,64,66,68,70,72,74,76,78,80,82,84,86,88,90,92,94,-1,96,98,100,102,104,106,108,110,112,114,-1,116,-1,-1,-1,-1,-1,-1,-1,-1,-1,-1,-1,-1,-1,-1,-1,-1,-1,-1,-1,-1,-1,-1,-1,-1,-1,-1,-1,-1,-1,-1,-1,-1,-1,-1,-1,-1,-1,-1,-1,-1,-1,-1,-1,-1,-1,-1,-1,-1,-1,-1,-1,-1,-1,-1,-1,-1],"split_conditions":[3.298745E-1,2.0410781E-17,2.0410781E-17,1.7198086E-1,1.8028446E-1,-8.847539E-1,5.3536344E-1,7.818315E-1,-8.847539E-1,1.2987642E-1,2.4367504E-1,1E0,-7.945798E-1,4.288509E-1,7.4047726E-1,5.21221E-1,8.7837964E-1,-4.1251355E-3,-6.515263E-1,1.0899425E-1,1.5326607E-1,2.1468325E-1,2.8436783E-1,4.150009E-1,-9.105625E-1,5.541521E-1,-3.9091575E-1,3.8810268E-1,4.823644E-1,6.2957233E-1,8.0235547E-1,1.3030525E-1,1.2702955E-1,3.1413433E-1,-8.151915E-2,6.234898E-1,-3.9091575E-1,4.0437267E-3,1.1978586E-2,1.4147453E-1,1.7198086E-1,1.914791E-1,2.2405805E-1,2.6112118E-1,3.0815038E-1,1.1337861E-1,1.2945406E-1,5.166419E-1,9.028481E-3,4.503305E-1,7.084027E-1,-6.515263E-1,0E0,3.5577533E-1,4.1011027E-1,4.590182E-1,5.06212E-1,5.773707E-1,6.771241E-1,1.5945941E-2,7.025195E-1,-2.485172E-3,-3.8852475E-3,-7.41944E-4,8.049604E-4,-4.6459693E-3,-2.715802E-3,-4.61035E-3,-1.7356401E-4,2.8840324E-3,-4.495604E-3,-4.4896323E-3,-1.1370076E-3,-1.3379641E-3,-1.1948581E-3,-1.015207E-3,-7.3405326E-4,-3.5818978E-4,-8.28113E-5,1.5973712E-4,6.3525466E-4,9.514163E-4,1.2517639E-3,1.729569E-3,2.1182306E-3,2.6515778E-3,3.1436959E-3,3.7093644E-3,4.328551E-3,-4.0217987E-3,-3.6299843E-3,-1.1479207E-3,-2.8774978E-3,1.3665686E-3,4.78832E-3,6.298482E-3,9.2097055E-3,1.2365488E-2,1.7741125E-2,3.1983852E-3,-3.8854622E-3,9.866593E-3,1.1063652E-3,5.1209554E-3,5.7356134E-3,6.5280395E-3,7.1205744E-3,7.8511555E-3,8.479278E-3,9.04487E-3,9.773148E-3,1.07466495E-2,1.1744525E-2,1.3279237E-2,1.447381E-2,1.8794969E-2,2.2430612E-2],"split_indices":[12,0,0,12,12,2,12,2,2,12,12,8,2,12,12,2,2,0,2,12,12,12,12,7,2,12,2,12,12,12,12,2,12,4,3,3,2,8,11,12,12,12,12,12,12,4,11,6,0,12,12,2,2,12,12,12,12,12,12,0,8,0,0,0,0,0,0,0,0,0,0,0,0,0,0,0,0,0,0,0,0,0,0,0,0,0,0,0,0,0,0,0,0,0,0,0,0,0,0,0,0,0,0,0,0,0,0,0,0,0,0,0,0,0,0,0,0],"split_type":[0,0,0,0,0,0,0,0,0,0,0,0,0,0,0,0,0,0,0,0,0,0,0,0,0,0,0,0,0,0,0,0,0,0,0,0,0,0,0,0,0,0,0,0,0,0,0,0,0,0,0,0,0,0,0,0,0,0,0,0,0,0,0,0,0,0,0,0,0,0,0,0,0,0,0,0,0,0,0,0,0,0,0,0,0,0,0,0,0,0,0,0,0,0,0,0,0,0,0,0,0,0,0,0,0,0,0,0,0,0,0,0,0,0,0,0,0],"sum_hessian":[2.4336E5,1.5048E5,9.288E4,1.254E5,2.508E4,7.74E4,1.548E4,7.14E4,5.4E4,1.524E4,9.84E3,6.579E3,7.0821E4,1.008E4,5.4E3,5.5216E4,1.6184E4,4.59E3,4.941E4,8.88E3,6.36E3,5.4E3,4.44E3,6.528E3,5.1E1,6.708E3,6.4113E4,4.56E3,5.52E3,4.8E3,6E2,4.9147E4,6.069E3,8.092E3,8.092E3,7.83E3,4.158E4,6.24E3,2.64E3,3.84E3,2.52E3,3.24E3,2.16E3,2.88E3,1.56E3,6.013E3,5.15E2,3.4E1,1.7E1,4.628E3,2.08E3,1.5867E4,4.8246E4,2.76E3,1.8E3,1.8E3,3.72E3,2.88E3,1.92E3,2.4E2,3.6E2,3.7009E4,1.2138E4,3.723E3,2.346E3,8.018E3,7.4E1,4.046E3,4.046E3,6.3E3,1.53E3,7.92E3,3.366E4,4.8E3,1.44E3,2.28E3,3.6E2,2.4E3,1.44E3,1.56E3,9.6E2,2.28E3,9.6E2,1.08E3,1.08E3,1.68E3,1.2E3,9.6E2,6E2,5.309E3,7.04E2,1.56E2,3.59E2,8E0,2.6E1,2.132E3,2.496E3,1.716E3,3.64E2,4.515E3,1.1352E4,6.579E3,4.1667E4,1.32E3,1.44E3,8.4E2,9.6E2,8.4E2,9.6E2,2.16E3,1.56E3,1.56E3,1.32E3,1.2E3,7.2E2,2.4E2,1.2E2],"tree_param":{"num_deleted":"0","num_feature":"14","num_nodes":"117","size_leaf_vector":"1"}},{"base_weights":[9.562666E-6,-2.6601702E-2,7.011386E-2,-3.6662202E-2,2.3700342E-2,4.2903032E-2,2.0615196E-1,-4.921076E-2,-1.7515436E-2,-4.920962E-3,8.272614E-2,-6.901041E-2,5.330051E-2,1.8387164E-1,2.824384E-1,-7.846789E-2,-4.6491954E-2,-6.9015427E-3,-5.3724274E-2,-1.8535225E-2,1.602375E-2,5.7687636E-2,1.118054E-1,-7.099476E-2,1.11404136E-1,2.0687854E-1,3.7227854E-2,1.6635112E-1,2.0834737E-1,2.6578242E-1,3.8136113E-1,-3.9412044E-3,-7.5302705E-2,-1.6994175E-2,-5.20464E-2,-2.1991279E-2,1.1527548E-1,-1.101169E-1,2.6764893E-3,-2.3096532E-2,-6.199483E-3,5.712035E-3,2.4327165E-2,4.9291197E-2,7.049881E-2,1.02722235E-1,1.2849778E-1,-7.3275544E-2,-3.2141946E-2,4.6175502E-2,1.4176731E-1,1.8438347E-1,2.887296E-1,-2.8733317E-2,5.892117E-2,1.5146369E-1,1.7374755E-1,1.9663803E-1,2.1994102E-1,2.5469798E-1,2.8756732E-1,3.5718238E-1,2.131835E-2,-3.7773915E-3,-2.659843E-3,-5.1361927E-5,-4.135693E-3,-4.104886E-3,-2.2487072E-3,-2.691226E-4,-3.6313129E-3,4.043156E-3,8.014026E-3,-5.2605886E-3,-6.0779704E-3,-5.50907E-3,5.7766787E-3,-1.2398998E-3,-9.4376097E-4,-4.914733E-4,-2.6855388E-4,1.0460501E-4,6.2912214E-4,9.956625E-4,1.6567523E-3,2.1617506E-3,2.6852966E-3,3.323111E-3,4.0029963E-3,4.720389E-3,5.382786E-3,6.2020253E-3,6.675935E-3,-3.741264E-3,-3.128982E-3,-2.225777E-3,-4.000011E-4,-3.2343504E-3,2.8250972E-3,5.1807975E-3,8.602136E-3,8.313611E-3,1.0440148E-2,1.3550964E-2,1.9336132E-2,3.6976922E-3,-3.4789424E-3,1.0642779E-2,1.7304731E-3,7.17649E-3,7.786728E-3,8.458382E-3,8.986623E-3,9.4816685E-3,1.0056403E-2,1.0758824E-2,1.1454809E-2,1.2383283E-2,1.3068852E-2,1.3960876E-2,1.5151952E-2,1.6108729E-2,1.9461913E-2],"categories":[],"categories_nodes":[],"categories_segments":[],"categories_sizes":[],"default_left":[0,0,0,0,0,0,0,0,0,0,0,0,0,0,0,0,0,0,0,0,0,0,0,0,0,0,0,0,0,0,0,0,0,0,0,0,0,0,0,0,0,0,0,0,0,0,0,0,0,0,0,0,0,0,0,0,0,0,0,0,0,0,0,0,0,0,0,0,0,0,0,0,0,0,0,0,0,0,0,0,0,0,0,0,0,0,0,0,0,0,0,0,0,0,0,0,0,0,0,0,0,0,0,0,0,0,0,0,0,0,0,0,0,0,0,0,0,0,0,0,0,0,0],"id":9,"left_children":[1,3,5,7,9,11,13,15,17,19,21,23,25,27,29,31,33,35,37,39,41,43,45,47,49,51,53,55,57,59,61,-1,63,65,67,69,71,73,75,77,79,81,83,85,87,89,91,93,95,97,99,101,103,105,107,109,111,113,115,117,119,121,-1,-1,-1,-1,-1,-1,-1,-1,-1,-1,-1,-1,-1,-1,-1,-1,-1,-1,-1,-1,-1,-1,-1,-1,-1,-1,-1,-1,-1,-1,-1,-1,-1,-1,-1,-1,-1,-1,-1,-1,-1,-1,-1,-1,-1,-1,-1,-1,-1,-1,-1,-1,-1,-1,-1,-1,-1,-1,-1,-1,-1],"loss_changes":[4.5400735E2,8.9271034E1,2.4786133E2,3.5318222E1,4.967032E1,6.49347E1,1.8918274E1,7.0599823E0,2.2367249E1,5.6464896E0,6.984047E0,1.7062874E0,1.26024216E2,3.670807E0,4.052368E0,2.58255E-3,1.331192E1,8.298199E1,4.1961777E1,6.7511797E-1,6.6780186E-1,5.516834E-1,6.601486E-1,4.135151E-1,9.64424E-2,8.852875E0,6.614151E1,5.287781E-1,4.4558716E-1,4.4859314E-1,2.4054337E-1,0E0,2.4032593E-4,1.3512292E1,1.4528519E1,3.3691254E1,7.650154E0,3.574829E-1,8.4037476E1,6.2457085E-2,9.69322E-3,8.6547635E-2,1.6732836E-1,8.11224E-2,7.345009E-2,1.0801315E-1,1.8371582E-2,6.87809E-2,7.790914E-2,2.426162E-2,2.2600293E-2,1.644577E0,1.7018356E0,4.7988068E1,1.3016483E2,3.4606934E-2,6.172943E-2,1.8501282E-2,2.9266357E-2,2.9449463E-3,8.529663E-3,1.4504814E-1,0E0,0E0,0E0,0E0,0E0,0E0,0E0,0E0,0E0,0E0,0E0,0E0,0E0,0E0,0E0,0E0,0E0,0E0,0E0,0E0,0E0,0E0,0E0,0E0,0E0,0E0,0E0,0E0,0E0,0E0,0E0,0E0,0E0,0E0,0E0,0E0,0E0,0E0,0E0,0E0,0E0,0E0,0E0,0E0,0E0,0E0,0E0,0E0,0E0,0E0,0E0,0E0,0E0,0E0,0E0,0E0,0E0,0E0,0E0,0E0,0E0],"parents":[2147483647,0,0,1,1,2,2,3,3,4,4,5,5,6,6,7,7,8,8,9,9,10,10,11,11,12,12,13,13,14,14,15,15,16,16,17,17,18,18,19,19,20,20,21,21,22,22,23,23,24,24,25,25,26,26,27,27,28,28,29,29,30,30,32,32,33,33,34,34,35,35,36,36,37,37,38,38,39,39,40,40,41,41,42,42,43,43,44,44,45,45,46,46,47,47,48,48,49,49,50,50,51,51,52,52,53,53,54,54,55,55,56,56,57,57,58,58,59,59,60,60,61,61],"right_children":[2,4,6,8,10,12,14,16,18,20,22,24,26,28,30,32,34,36,38,40,42,44,46,48,50,52,54,56,58,60,62,-1,64,66,68,70,72,74,76,78,80,82,84,86,88,90,92,94,96,98,100,102,104,106,108,110,112,114,116,118,120,122,-1,-1,-1,-1,-1,-1,-1,-1,-1,-1,-1,-1,-1,-1,-1,-1,-1,-1,-1,-1,-1,-1,-1,-1,-1,-1,-1,-1,-1,-1,-1,-1,-1,-1,-1,-1,-1,-1,-1,-1,-1,-1,-1,-1,-1,-1,-1,-1,-1,-1,-1,-1,-1,-1,-1,-1,-1,-1,-1,-1,-1],"split_conditions":[4.2675188E-1,2.0410781E-17,2.0410781E-17,1.9424255E-1,2.2767179E-1,-8.847539E-1,6.2957233E-1,-8.847539E-1,7.818315E-1,1.4896208E-1,3.2152426E-1,1E0,-7.945798E-1,5.2501696E-1,8.0235547E-1,8.0991134E-2,-6.515263E-1,5.21221E-1,8.7837964E-1,1.2702955E-1,1.8301882E-1,2.7197835E-1,3.8810268E-1,6.116641E-1,-9.427452E-1,6.375424E-1,-3.9091575E-1,4.7549573E-1,5.607763E-1,6.888991E-1,7.025195E-1,-3.9412044E-3,3.8414463E-1,6.234898E-1,-3.9091575E-1,1.3030525E-1,2.9978123E-1,3.4914172E-1,-8.151915E-2,1.0899425E-1,1.3822226E-1,1.7198086E-1,2.0247783E-1,2.459446E-1,2.9978123E-1,3.5239068E-1,4.1011027E-1,1.5236859E-1,-9.105625E-1,2.4664225E-1,-9.105625E-1,5.2501696E-1,8.0235547E-1,-6.515263E-1,0E0,4.503305E-1,4.9559382E-1,5.3536344E-1,6.0063285E-1,6.5416044E-1,7.4047726E-1,4.1175184E-1,2.131835E-2,-3.7773915E-3,-2.659843E-3,-5.1361927E-5,-4.135693E-3,-4.104886E-3,-2.2487072E-3,-2.691226E-4,-3.6313129E-3,4.043156E-3,8.014026E-3,-5.2605886E-3,-6.0779704E-3,-5.50907E-3,5.7766787E-3,-1.2398998E-3,-9.4376097E-4,-4.914733E-4,-2.6855388E-4,1.0460501E-4,6.2912214E-4,9.956625E-4,1.6567523E-3,2.1617506E-3,2.6852966E-3,3.323111E-3,4.0029963E-3,4.720389E-3,5.382786E-3,6.2020253E-3,6.675935E-3,-3.741264E-3,-3.128982E-3,-2.225777E-3,-4.000011E-4,-3.2343504E-3,2.8250972E-3,5.1807975E-3,8.602136E-3,8.313611E-3,1.0440148E-2,1.3550964E-2,1.9336132E-2,3.6976922E-3,-3.4789424E-3,1.0642779E-2,1.7304731E-3,7.17649E-3,7.786728E-3,8.458382E-3,8.986623E-3,9.4816685E-3,1.0056403E-2,1.0758824E-2,1.1454809E-2,1.2383283E-2,1.3068852E-2,1.3960876E-2,1.5151952E-2,1.6108729E-2,1.9461913E-2],"split_indices":[12,0,0,12,12,2,12,2,2,12,12,8,2,12,12,7,2,2,2,12,12,12,12,7,2,12,2,12,12,12,8,0,5,3,2,2,12,12,3,12,12,12,12,12,12,12,12,4,2,6,2,12,12,2,2,12,12,12,12,12,12,11,0,0,0,0,0,0,0,0,0,0,0,0,0,0,0,0,0,0,0,0,0,0,0,0,0,0,0,0,0,0,0,0,0,0,0,0,0,0,0,0,0,0,0,0,0,0,0,0,0,0,0,0,0,0,0,0,0,0,0,0,0],"split_type":[0,0,0,0,0,0,0,0,0,0,0,0,0,0,0,0,0,0,0,0,0,0,0,0,0,0,0,0,0,0,0,0,0,0,0,0,0,0,0,0,0,0,0,0,0,0,0,0,0,0,0,0,0,0,0,0,0,0,0,0,0,0,0,0,0,0,0,0,0,0,0,0,0,0,0,0,0,0,0,0,0,0,0,0,0,0,0,0,0,0,0,0,0,0,0,0,0,0,0,0,0,0,0,0,0,0,0,0,0,0,0,0,0,0,0,0,0,0,0,0,0,0,0],"sum_hessian":[2.4336E5,1.764E5,6.696E4,1.47E5,2.94E4,5.58E4,1.116E4,8.88E4,5.82E4,1.98E4,9.6E3,4.743E3,5.1057E4,8.64E3,2.52E3,7.548E3,8.1252E4,4.5008E4,1.3192E4,1.2E4,7.8E3,5.16E3,4.44E3,4.692E3,5.1E1,4.836E3,4.6221E4,5.04E3,3.6E3,2.16E3,3.6E2,6.763E3,7.85E2,1.2876E4,6.8376E4,4.0061E4,4.947E3,6.596E3,6.596E3,8.76E3,3.24E3,3.48E3,4.32E3,3.12E3,2.04E3,2.88E3,1.56E3,4.431E3,2.61E2,1.7E1,3.4E1,3.796E3,1.04E3,1.1439E4,3.4782E4,1.68E3,3.36E3,1.8E3,1.8E3,1.44E3,7.2E2,2.4E2,1.2E2,7.74E2,1.1E1,1.036E4,2.516E3,1.3024E4,5.5352E4,3.0167E4,9.894E3,2.805E3,2.142E3,4.624E3,1.972E3,3.298E3,3.298E3,6.24E3,2.52E3,6E2,2.64E3,2.28E3,1.2E3,2.88E3,1.44E3,1.32E3,1.8E3,1.44E3,6E2,1.08E3,1.8E3,8.4E2,7.2E2,3.865E3,5.66E2,1.72E2,8.9E1,1E0,1.6E1,1.7E1,1.7E1,2.184E3,1.612E3,8.84E2,1.56E2,3.255E3,8.184E3,4.743E3,3.0039E4,6E2,1.08E3,1.92E3,1.44E3,7.2E2,1.08E3,1.2E3,6E2,7.2E2,7.2E2,4.8E2,2.4E2,1.2E2,1.2E2],"tree_param":{"num_deleted":"0","num_feature":"14","num_nodes":"123","size_leaf_vector":"1"}},{"base_weights":[1.0175601E-5,-2.4903484E-2,6.763232E-2,-3.456725E-2,2.3414897E-2,4.170921E-2,1.9723214E-1,-4.412342E-2,-1.0878251E-2,-3.6739912E-3,8.210161E-2,-6.541566E-2,5.166181E-2,1.7586417E-1,2.6836067E-1,-3.887395E-2,-6.203101E-2,-7.858982E-2,-4.5862505E-3,-1.7281076E-2,1.7040847E-2,5.7195522E-2,1.0830026E-1,-6.734398E-2,1.0609111E-1,1.9796573E-1,3.635032E-2,1.6020194E-1,1.9930288E-1,2.5251856E-1,3.6245066E-1,-4.5814987E-2,1.7333698E-2,-8.8452354E-2,-3.5604484E-2,-3.966394E-3,-3.763403E-3,9.473732E-2,-1.4980645E-2,-2.1941952E-2,-5.545594E-3,1.0800633E-2,3.0700179E-2,5.035184E-2,7.1367964E-2,9.828195E-2,1.2359857E-1,-6.955507E-2,-3.0544871E-2,4.384399E-2,1.3507275E-1,1.763877E-1,2.7432472E-1,-1.5743206E-1,4.3216895E-2,1.4636584E-1,1.663605E-1,9.401879E-3,2.0895629E-1,2.4198075E-1,2.7322933E-1,3.394709E-1,2.0261241E-2,-1.8802852E-3,-3.5420884E-3,-1.08437824E-4,2.57266E-3,-4.2876913E-3,-4.718229E-3,-4.4086226E-3,8.4847177E-4,3.425761E-3,5.873149E-3,-2.7438942E-3,-9.288937E-5,-1.1779146E-3,-8.965918E-4,-3.367783E-4,-1.20907986E-4,1.5281314E-4,8.123875E-4,1.1781505E-3,1.6770189E-3,2.2948578E-3,2.7942238E-3,3.353862E-3,3.9055047E-3,4.6441015E-3,5.2049006E-3,5.9880964E-3,6.55299E-3,-3.5560892E-3,-2.979071E-3,-2.9500923E-4,-2.0869558E-3,-3.1534915E-3,2.6921516E-3,4.936149E-3,8.195924E-3,8.008418E-3,9.987804E-3,1.2874181E-2,1.8375484E-2,-7.940063E-3,-2.2442902E-3,1.4382367E-2,1.6843509E-3,7.042661E-3,7.545892E-3,8.11525E-3,8.69622E-3,1.0102928E-2,1.0738764E-2,1.1764977E-2,1.2416316E-2,1.3264283E-2,1.4397499E-2,1.5309951E-2,1.8496862E-2],"categories":[],"categories_nodes":[],"categories_segments":[],"categories_sizes":[],"default_left":[0,0,0,0,0,0,0,0,0,0,0,0,0,0,0,0,0,0,0,0,0,0,0,0,0,0,0,0,0,0,0,0,0,0,0,0,0,0,0,0,0,0,0,0,0,0,0,0,0,0,0,0,0,0,0,0,0,0,0,0,0,0,0,0,0,0,0,0,0,0,0,0,0,0,0,0,0,0,0,0,0,0,0,0,0,0,0,0,0,0,0,0,0,0,0,0,0,0,0,0,0,0,0,0,0,0,0,0,0,0,0,0,0,0,0,0,0,0,0],"id":10,"left_children":[1,3,5,7,9,11,13,15,17,19,21,23,25,27,29,31,33,35,37,39,41,43,45,47,49,51,53,55,57,59,61,63,65,67,69,-1,-1,71,73,75,77,79,81,83,85,87,89,91,93,95,97,99,101,103,105,107,109,-1,111,113,115,117,-1,-1,-1,-1,-1,-1,-1,-1,-1,-1,-1,-1,-1,-1,-1,-1,-1,-1,-1,-1,-1,-1,-1,-1,-1,-1,-1,-1,-1,-1,-1,-1,-1,-1,-1,-1,-1,-1,-1,-1,-1,-1,-1,-1,-1,-1,-1,-1,-1,-1,-1,-1,-1,-1,-1,-1,-1],"loss_changes":[4.099956E2,8.304148E1,2.2011813E2,3.3548676E1,4.7122314E1,5.8217377E1,1.65513E1,9.924652E0,1.8149422E1,5.7168713E0,6.1019135E0,1.5423527E0,1.11909744E2,3.052124E0,3.6662445E0,3.1861526E1,1.6710236E1,2.9087067E-3,4.0244698E1,6.694324E-1,6.850605E-1,4.620657E-1,6.8688583E-1,3.7142563E-1,8.788711E-2,7.7500763E0,6.0188126E1,4.0518188E-1,3.262024E-1,4.0551758E-1,2.1727753E-1,1.4931442E1,5.9735336E0,1.8286133E-1,3.3080273E1,0E0,0E0,2.192669E0,1.8475489E1,5.6363583E-2,1.2938462E-2,2.3285091E-1,5.031252E-2,7.731247E-2,3.9917946E-2,7.7041626E-2,3.586197E-2,6.342316E-2,7.203394E-2,2.263851E-2,2.0516217E-2,1.3677292E0,1.5390549E0,2.314148E-1,1.0174049E2,1.7917633E-2,7.854462E-2,0E0,2.8892517E-2,2.6626587E-3,7.9193115E-3,1.310215E-1,0E0,0E0,0E0,0E0,0E0,0E0,0E0,0E0,0E0,0E0,0E0,0E0,0E0,0E0,0E0,0E0,0E0,0E0,0E0,0E0,0E0,0E0,0E0,0E0,0E0,0E0,0E0,0E0,0E0,0E0,0E0,0E0,0E0,0E0,0E0,0E0,0E0,0E0,0E0,0E0,0E0,0E0,0E0,0E0,0E0,0E0,0E0,0E0,0E0,0E0,0E0,0E0,0E0,0E0,0E0,0E0,0E0],"parents":[2147483647,0,0,1,1,2,2,3,3,4,4,5,5,6,6,7,7,8,8,9,9,10,10,11,11,12,12,13,13,14,14,15,15,16,16,17,17,18,18,19,19,20,20,21,21,22,22,23,23,24,24,25,25,26,26,27,27,28,28,29,29,30,30,31,31,32,32,33,33,34,34,37,37,38,38,39,39,40,40,41,41,42,42,43,43,44,44,45,45,46,46,47,47,48,48,49,49,50,50,51,51,52,52,53,53,54,54,55,55,56,56,58,58,59,59,60,60,61,61],"right_children":[2,4,6,8,10,12,14,16,18,20,22,24,26,28,30,32,34,36,38,40,42,44,46,48,50,52,54,56,58,60,62,64,66,68,70,-1,-1,72,74,76,78,80,82,84,86,88,90,92,94,96,98,100,102,104,106,108,110,-1,112,114,116,118,-1,-1,-1,-1,-1,-1,-1,-1,-1,-1,-1,-1,-1,-1,-1,-1,-1,-1,-1,-1,-1,-1,-1,-1,-1,-1,-1,-1,-1,-1,-1,-1,-1,-1,-1,-1,-1,-1,-1,-1,-1,-1,-1,-1,-1,-1,-1,-1,-1,-1,-1,-1,-1,-1,-1,-1,-1],"split_conditions":[4.288509E-1,2.0410781E-17,2.0410781E-17,2.459446E-1,2.3440318E-1,-8.847539E-1,6.2957233E-1,7.818315E-1,-8.847539E-1,1.5109058E-1,3.298745E-1,1E0,-7.945798E-1,5.2829915E-1,8.0235547E-1,5.21221E-1,8.7837964E-1,8.358101E-2,-7.945798E-1,1.2702955E-1,1.9424255E-1,2.8436783E-1,3.8810268E-1,6.116641E-1,-9.427452E-1,6.375424E-1,-7.044058E-1,4.7921512E-1,5.607763E-1,6.888991E-1,7.025195E-1,1.3030525E-1,1.5661015E-1,1.7648196E-1,-8.151915E-2,-3.966394E-3,-3.763403E-3,3.298745E-1,-3.9091575E-1,1.0899425E-1,1.4147453E-1,1.7648196E-1,2.1468325E-1,2.5656942E-1,3.0815038E-1,3.5728142E-1,4.1790506E-1,1.4285134E-1,1.2945406E-1,2.4664225E-1,-9.105625E-1,5.2829915E-1,8.0235547E-1,1.6866302E0,-6.515263E-1,4.5560637E-1,5.043196E-1,9.401879E-3,5.8797306E-1,6.5416044E-1,7.4047726E-1,4.1175184E-1,2.0261241E-2,-1.8802852E-3,-3.5420884E-3,-1.08437824E-4,2.57266E-3,-4.2876913E-3,-4.718229E-3,-4.4086226E-3,8.4847177E-4,3.425761E-3,5.873149E-3,-2.7438942E-3,-9.288937E-5,-1.1779146E-3,-8.965918E-4,-3.367783E-4,-1.20907986E-4,1.5281314E-4,8.123875E-4,1.1781505E-3,1.6770189E-3,2.2948578E-3,2.7942238E-3,3.353862E-3,3.9055047E-3,4.6441015E-3,5.2049006E-3,5.9880964E-3,6.55299E-3,-3.5560892E-3,-2.979071E-3,-2.9500923E-4,-2.0869558E-3,-3.1534915E-3,2.6921516E-3,4.936149E-3,8.195924E-3,8.008418E-3,9.987804E-3,1.2874181E-2,1.8375484E-2,-7.940063E-3,-2.2442902E-3,1.4382367E-2,1.6843509E-3,7.042661E-3,7.545892E-3,8.11525E-3,8.69622E-3,1.0102928E-2,1.0738764E-2,1.1764977E-2,1.2416316E-2,1.3264283E-2,1.4397499E-2,1.5309951E-2,1.8496862E-2],"split_indices":[12,0,0,12,12,2,12,2,2,12,12,8,2,12,12,2,2,5,2,12,12,12,12,7,2,12,2,12,12,12,8,2,12,12,3,0,0,12,2,12,12,12,12,12,12,12,12,4,11,6,2,12,12,4,2,12,12,0,12,12,12,11,0,0,0,0,0,0,0,0,0,0,0,0,0,0,0,0,0,0,0,0,0,0,0,0,0,0,0,0,0,0,0,0,0,0,0,0,0,0,0,0,0,0,0,0,0,0,0,0,0,0,0,0,0,0,0,0,0],"split_type":[0,0,0,0,0,0,0,0,0,0,0,0,0,0,0,0,0,0,0,0,0,0,0,0,0,0,0,0,0,0,0,0,0,0,0,0,0,0,0,0,0,0,0,0,0,0,0,0,0,0,0,0,0,0,0,0,0,0,0,0,0,0,0,0,0,0,0,0,0,0,0,0,0,0,0,0,0,0,0,0,0,0,0,0,0,0,0,0,0,0,0,0,0,0,0,0,0,0,0,0,0,0,0,0,0,0,0,0,0,0,0,0,0,0,0,0,0,0,0],"sum_hessian":[2.4336E5,1.7784E5,6.552E4,1.482E5,2.964E4,5.46E4,1.092E4,1.056E5,4.26E4,2.028E4,9.36E3,4.641E3,4.9959E4,8.4E3,2.52E3,8.1664E4,2.3936E4,3.621E3,3.8979E4,1.224E4,8.04E3,4.8E3,4.56E3,4.59E3,5.1E1,4.732E3,4.5227E4,5.04E3,3.36E3,2.16E3,3.6E2,7.2688E4,8.976E3,1.1968E4,1.1968E4,2.944E3,6.77E2,3.692E3,3.5287E4,8.76E3,3.48E3,5.52E3,2.52E3,3.24E3,1.56E3,2.76E3,1.8E3,4.329E3,2.61E2,1.7E1,3.4E1,3.692E3,1.04E3,1.547E3,4.368E4,1.56E3,3.48E3,1.56E3,1.8E3,1.44E3,7.2E2,2.4E2,1.2E2,5.4736E4,1.7952E4,5.712E3,3.264E3,8.228E3,3.74E3,5.984E3,5.984E3,1.716E3,1.976E3,8.733E3,2.6554E4,6.24E3,2.52E3,2.52E3,9.6E2,2.28E3,3.24E3,7.2E2,1.8E3,1.8E3,1.44E3,9.6E2,6E2,1.44E3,1.32E3,1.2E3,6E2,3.736E3,5.93E2,8.2E1,1.79E2,1E0,1.6E1,1.7E1,1.7E1,2.184E3,1.508E3,8.84E2,1.56E2,1.528E3,1.9E1,1.638E3,4.2042E4,7.2E2,8.4E2,2.28E3,1.2E3,8.4E2,9.6E2,7.2E2,7.2E2,4.8E2,2.4E2,1.2E2,1.2E2],"tree_param":{"num_deleted":"0","num_feature":"14","num_nodes":"119","size_leaf_vector":"1"}},{"base_weights":[1.0676876E-5,-2.383669E-2,6.377586E-2,-3.296771E-2,2.1817986E-2,3.918134E-2,1.8673375E-1,-4.6024956E-2,-1.7345196E-2,-3.4902263E-3,7.735895E-2,5.6600984E-2,-2.0250164E-2,1.6651931E-1,2.5498468E-1,-7.277223E-2,-4.3539282E-2,-7.661472E-3,-5.038111E-2,-1.5636517E-2,1.7471205E-2,5.4338317E-2,1.0222828E-1,2.5424536E-2,3.0900985E-1,-1.2966774E-1,8.917066E-2,1.5071593E-1,1.8806942E-1,2.3991662E-1,3.444779E-1,-3.6575997E-3,-6.968146E-2,-1.7099705E-2,-4.851781E-2,-2.1230107E-2,1.0220235E-1,-1.01530656E-1,7.750519E-4,-2.0845091E-2,-4.451035E-3,1.1685595E-2,2.9611059E-2,4.783582E-2,6.780422E-2,9.337143E-2,1.1671463E-1,5.2279055E-2,-5.645226E-2,2.7361247E-1,4.2831993E-1,-1.326156E-1,1.3662067E-1,-1.3066413E-1,3.0897695E-1,1.3750483E-1,1.5680693E-1,1.7751434E-1,1.9852005E-1,2.298985E-1,2.5960624E-1,3.226376E-1,1.9256553E-2,-3.4958192E-3,-2.451754E-3,-1.2991394E-4,-3.8392057E-3,-3.8074858E-3,-2.1007396E-3,-3.0094813E-4,-3.3802297E-3,3.4146444E-3,7.540262E-3,-4.7879242E-3,-5.765004E-3,-5.0852066E-3,5.1627015E-3,-1.1438396E-3,-8.963721E-4,-3.0830153E-4,-4.3159067E-5,1.9179494E-4,7.804067E-4,1.1404799E-3,1.5932145E-3,2.1801786E-3,2.65461E-3,3.1863432E-3,3.7105542E-3,4.332431E-3,4.8819557E-3,5.593244E-3,6.0712793E-3,6.5931265E-4,7.810247E-3,-6.4339833E-3,4.3998747E-3,1.2295197E-2,1.5564771E-2,2.0105796E-2,2.9095594E-2,-6.797135E-3,-4.494093E-3,1.7547406E-3,8.456847E-3,-6.6643613E-3,5.2513047E-3,1.3678734E-2,2.1406014E-2,6.645106E-3,7.1341447E-3,7.6319105E-3,8.112771E-3,8.550546E-3,9.084389E-3,9.707076E-3,1.0346977E-2,1.1177545E-2,1.1796362E-2,1.2602448E-2,1.368061E-2,1.4550778E-2,1.757966E-2],"categories":[],"categories_nodes":[],"categories_segments":[],"categories_sizes":[],"default_left":[0,0,0,0,0,0,0,0,0,0,0,0,0,0,0,0,0,0,0,0,0,0,0,0,0,0,0,0,0,0,0,0,0,0,0,0,0,0,0,0,0,0,0,0,0,0,0,0,0,0,0,0,0,0,0,0,0,0,0,0,0,0,0,0,0,0,0,0,0,0,0,0,0,0,0,0,0,0,0,0,0,0,0,0,0,0,0,0,0,0,0,0,0,0,0,0,0,0,0,0,0,0,0,0,0,0,0,0,0,0,0,0,0,0,0,0,0,0,0,0,0,0,0],"id":11,"left_children":[1,3,5,7,9,11,13,15,17,19,21,23,25,27,29,31,33,35,37,39,41,43,45,47,49,51,53,55,57,59,61,-1,63,65,67,69,71,73,75,77,79,81,83,85,87,89,91,93,95,97,99,101,103,105,107,109,111,113,115,117,119,121,-1,-1,-1,-1,-1,-1,-1,-1,-1,-1,-1,-1,-1,-1,-1,-1,-1,-1,-1,-1,-1,-1,-1,-1,-1,-1,-1,-1,-1,-1,-1,-1,-1,-1,-1,-1,-1,-1,-1,-1,-1,-1,-1,-1,-1,-1,-1,-1,-1,-1,-1,-1,-1,-1,-1,-1,-1,-1,-1,-1,-1],"loss_changes":[3.7006393E2,7.3837814E1,2.0031146E2,3.0107895E1,4.1496243E1,5.71494E1,1.5190277E1,5.342285E0,2.1497929E1,5.1638894E0,5.2849884E0,3.359209E2,1.4982423E2,2.8735962E0,3.3168945E0,2.9258728E-3,9.6828E0,7.7472466E1,3.9858974E1,7.4802923E-1,5.222833E-1,4.1714287E-1,5.588989E-1,8.354929E1,1.9702637E1,4.929718E0,3.0238528E2,3.7443542E-1,3.6197662E-1,3.6657715E-1,1.9626617E-1,0E0,3.015995E-4,1.009077E1,1.1121277E1,3.26297E1,9.405277E0,5.943451E-1,8.0003944E1,5.152321E-2,2.51057E-2,1.5515625E-1,3.6068916E-2,6.9785595E-2,3.604889E-2,7.0755005E-2,2.4822235E-2,1.1624552E2,9.792717E1,3.7053223E0,4.0805054E0,8.677292E-1,2.2184968E-1,1.9484634E0,1.3080841E1,1.8241882E-2,5.1567078E-2,1.7810822E-2,2.6222229E-2,2.4032593E-3,7.3509216E-3,1.1834717E-1,0E0,0E0,0E0,0E0,0E0,0E0,0E0,0E0,0E0,0E0,0E0,0E0,0E0,0E0,0E0,0E0,0E0,0E0,0E0,0E0,0E0,0E0,0E0,0E0,0E0,0E0,0E0,0E0,0E0,0E0,0E0,0E0,0E0,0E0,0E0,0E0,0E0,0E0,0E0,0E0,0E0,0E0,0E0,0E0,0E0,0E0,0E0,0E0,0E0,0E0,0E0,0E0,0E0,0E0,0E0,0E0,0E0,0E0,0E0,0E0,0E0],"parents":[2147483647,0,0,1,1,2,2,3,3,4,4,5,5,6,6,7,7,8,8,9,9,10,10,11,11,12,12,13,13,14,14,15,15,16,16,17,17,18,18,19,19,20,20,21,21,22,22,23,23,24,24,25,25,26,26,27,27,28,28,29,29,30,30,32,32,33,33,34,34,35,35,36,36,37,37,38,38,39,39,40,40,41,41,42,42,43,43,44,44,45,45,46,46,47,47,48,48,49,49,50,50,51,51,52,52,53,53,54,54,55,55,56,56,57,57,58,58,59,59,60,60,61,61],"right_children":[2,4,6,8,10,12,14,16,18,20,22,24,26,28,30,32,34,36,38,40,42,44,46,48,50,52,54,56,58,60,62,-1,64,66,68,70,72,74,76,78,80,82,84,86,88,90,92,94,96,98,100,102,104,106,108,110,112,114,116,118,120,122,-1,-1,-1,-1,-1,-1,-1,-1,-1,-1,-1,-1,-1,-1,-1,-1,-1,-1,-1,-1,-1,-1,-1,-1,-1,-1,-1,-1,-1,-1,-1,-1,-1,-1,-1,-1,-1,-1,-1,-1,-1,-1,-1,-1,-1,-1,-1,-1,-1,-1,-1,-1,-1,-1,-1,-1,-1,-1,-1,-1,-1],"split_conditions":[4.285132E-1,2.0410781E-17,2.0410781E-17,1.8477331E-1,2.3440318E-1,7.818315E-1,6.2957233E-1,-8.847539E-1,7.818315E-1,1.5430325E-1,3.298745E-1,5.21221E-1,8.7837964E-1,5.2501696E-1,8.0235547E-1,7.534247E-2,-6.515263E-1,5.21221E-1,8.7837964E-1,1.2702955E-1,1.9725966E-1,2.8436783E-1,3.8810268E-1,1.3030525E-1,6.2957233E-1,1E0,-8.151915E-2,4.7549573E-1,5.607763E-1,6.888991E-1,7.025195E-1,-3.6575997E-3,3.8414463E-1,6.234898E-1,-3.9091575E-1,1.3030525E-1,2.9114458E-1,3.4121028E-1,-8.151915E-2,1.0461526E-1,1.4250885E-1,1.7648196E-1,2.1468325E-1,2.5656942E-1,3.0815038E-1,3.533201E-1,4.1011027E-1,-3.9091575E-1,3.9091575E-1,5.2501696E-1,8.0235547E-1,5.3513217E-1,7.945798E-1,1E0,6.2957233E-1,4.5560637E-1,4.9559382E-1,5.3536344E-1,6.0063285E-1,6.5416044E-1,7.4047726E-1,4.1175184E-1,1.9256553E-2,-3.4958192E-3,-2.451754E-3,-1.2991394E-4,-3.8392057E-3,-3.8074858E-3,-2.1007396E-3,-3.0094813E-4,-3.3802297E-3,3.4146444E-3,7.540262E-3,-4.7879242E-3,-5.765004E-3,-5.0852066E-3,5.1627015E-3,-1.1438396E-3,-8.963721E-4,-3.0830153E-4,-4.3159067E-5,1.9179494E-4,7.804067E-4,1.1404799E-3,1.5932145E-3,2.1801786E-3,2.65461E-3,3.1863432E-3,3.7105542E-3,4.332431E-3,4.8819557E-3,5.593244E-3,6.0712793E-3,6.5931265E-4,7.810247E-3,-6.4339833E-3,4.3998747E-3,1.2295197E-2,1.5564771E-2,2.0105796E-2,2.9095594E-2,-6.797135E-3,-4.494093E-3,1.7547406E-3,8.456847E-3,-6.6643613E-3,5.2513047E-3,1.3678734E-2,2.1406014E-2,6.645106E-3,7.1341447E-3,7.6319105E-3,8.112771E-3,8.550546E-3,9.084389E-3,9.707076E-3,1.0346977E-2,1.1177545E-2,1.1796362E-2,1.2602448E-2,1.368061E-2,1.4550778E-2,1.757966E-2],"split_indices":[12,0,0,12,12,2,12,2,2,12,12,2,2,12,12,7,2,2,2,12,12,12,12,2,12,8,3,12,12,12,8,0,5,3,2,2,12,12,3,12,12,12,12,12,12,12,12,2,2,12,12,7,2,8,12,12,12,12,12,12,12,11,0,0,0,0,0,0,0,0,0,0,0,0,0,0,0,0,0,0,0,0,0,0,0,0,0,0,0,0,0,0,0,0,0,0,0,0,0,0,0,0,0,0,0,0,0,0,0,0,0,0,0,0,0,0,0,0,0,0,0,0,0],"split_type":[0,0,0,0,0,0,0,0,0,0,0,0,0,0,0,0,0,0,0,0,0,0,0,0,0,0,0,0,0,0,0,0,0,0,0,0,0,0,0,0,0,0,0,0,0,0,0,0,0,0,0,0,0,0,0,0,0,0,0,0,0,0,0,0,0,0,0,0,0,0,0,0,0,0,0,0,0,0,0,0,0,0,0,0,0,0,0,0,0,0,0,0,0,0,0,0,0,0,0,0,0,0,0,0,0,0,0,0,0,0,0,0,0,0,0,0,0,0,0,0,0,0,0],"sum_hessian":[2.4336E5,1.7712E5,6.624E4,1.476E5,2.952E4,5.52E4,1.104E4,8.04E4,6.72E4,2.028E4,9.24E3,4.2688E4,1.2512E4,8.52E3,2.52E3,6.834E3,7.3566E4,5.1968E4,1.5232E4,1.284E4,7.44E3,4.8E3,4.44E3,3.7996E4,4.692E3,6.256E3,6.256E3,4.92E3,3.6E3,2.16E3,3.6E2,6.066E3,7.68E2,1.1658E4,6.1908E4,4.6256E4,5.712E3,7.616E3,7.616E3,8.76E3,4.08E3,5.04E3,2.4E3,3.24E3,1.56E3,2.76E3,1.68E3,2.8612E4,9.384E3,3.621E3,1.071E3,6.188E3,6.8E1,3.128E3,3.128E3,1.56E3,3.36E3,1.8E3,1.8E3,1.44E3,7.2E2,2.4E2,1.2E2,7.57E2,1.1E1,9.38E3,2.278E3,1.1792E4,5.0116E4,3.4832E4,1.1424E4,3.366E3,2.346E3,5.372E3,2.244E3,3.808E3,3.808E3,5.16E3,3.6E3,2.76E3,1.32E3,1.68E3,3.36E3,6E2,1.8E3,1.8E3,1.44E3,9.6E2,6E2,1.08E3,1.68E3,8.4E2,8.4E2,2.0792E4,7.82E3,6.256E3,3.128E3,2.091E3,1.53E3,9.18E2,1.53E2,5.739E3,4.49E2,1.7E1,5.1E1,3.094E3,3.4E1,2.414E3,7.14E2,8.4E2,7.2E2,1.92E3,1.44E3,7.2E2,1.08E3,1.2E3,6E2,7.2E2,7.2E2,4.8E2,2.4E2,1.2E2,1.2E2],"tree_param":{"num_deleted":"0","num_feature":"14","num_nodes":"123","size_leaf_vector":"1"}},{"base_weights":[1.1356131E-5,-2.215173E-2,6.2017567E-2,-3.0973045E-2,2.195441E-2,3.8565576E-2,1.7926294E-1,-3.93384E-2,-7.777794E-3,-2.6273374E-3,7.685863E-2,-6.268494E-2,4.797245E-2,1.5977593E-1,2.4227536E-1,-7.05338E-2,-3.643979E-2,-7.4114054E-2,-1.6135335E-3,-1.4128519E-2,1.8840516E-2,5.287825E-2,9.902485E-2,-6.455994E-2,1.00383595E-1,1.8877196E-1,3.3236977E-2,1.4725621E-1,1.8266967E-1,2.2794358E-1,3.2739633E-1,-6.934417E-2,-3.776129E-3,-5.625672E-3,-4.2242315E-2,-3.7506756E-3,-3.53304E-3,9.568787E-2,-1.1796569E-2,-1.9803068E-2,-3.5049675E-3,1.2841877E-2,2.9971335E-2,4.6607133E-2,6.441842E-2,8.870619E-2,1.1293509E-1,-6.642421E-2,-2.4036441E-2,4.1003477E-2,1.2805383E-1,1.6739121E-1,2.577884E-1,-2.9237792E-2,5.3783752E-2,1.3854855E-1,1.551536E-1,1.7622092E-1,9.6622305E-3,2.1841952E-1,2.4666238E-1,3.0663905E-1,1.8301683E-2,-3.4759447E-3,-3.2026158E-3,5.6326773E-4,-3.7579115E-3,-3.732845E-3,-1.7307189E-3,3.5528697E-3,5.6895763E-3,-2.5609059E-3,5.8491034E-5,-1.0639866E-3,-8.06979E-4,-2.822224E-4,1.583091E-5,3.5820925E-4,8.193358E-4,1.3264524E-3,1.7266134E-3,2.161798E-3,2.564342E-3,3.0271919E-3,3.5253353E-3,4.2074686E-3,4.7277533E-3,5.4023475E-3,5.989068E-3,-3.3877355E-3,-2.5809032E-3,-1.9410597E-3,2.1907594E-4,-3.0911372E-3,2.5344356E-3,4.671919E-3,7.7777593E-3,7.7176117E-3,9.557665E-3,1.2114894E-2,1.7429806E-2,3.422465E-3,-3.4047195E-3,9.863902E-3,1.5560342E-3,6.548776E-3,7.112746E-3,7.557299E-3,8.062105E-3,8.563724E-3,9.018316E-3,1.0619443E-2,1.1207363E-2,1.1973636E-2,1.2999418E-2,1.3829253E-2,1.6707942E-2],"categories":[],"categories_nodes":[],"categories_segments":[],"categories_sizes":[],"default_left":[0,0,0,0,0,0,0,0,0,0,0,0,0,0,0,0,0,0,0,0,0,0,0,0,0,0,0,0,0,0,0,0,0,0,0,0,0,0,0,0,0,0,0,0,0,0,0,0,0,0,0,0,0,0,0,0,0,0,0,0,0,0,0,0,0,0,0,0,0,0,0,0,0,0,0,0,0,0,0,0,0,0,0,0,0,0,0,0,0,0,0,0,0,0,0,0,0,0,0,0,0,0,0,0,0,0,0,0,0,0,0,0,0,0,0,0,0],"id":12,"left_children":[1,3,5,7,9,11,13,15,17,19,21,23,25,27,29,31,33,35,37,39,41,43,45,47,49,51,53,55,57,59,61,63,-1,65,67,-1,-1,69,71,73,75,77,79,81,83,85,87,89,91,93,95,97,99,101,103,105,107,109,-1,111,113,115,-1,-1,-1,-1,-1,-1,-1,-1,-1,-1,-1,-1,-1,-1,-1,-1,-1,-1,-1,-1,-1,-1,-1,-1,-1,-1,-1,-1,-1,-1,-1,-1,-1,-1,-1,-1,-1,-1,-1,-1,-1,-1,-1,-1,-1,-1,-1,-1,-1,-1,-1,-1,-1,-1,-1],"loss_changes":[3.3443997E2,6.975429E1,1.7619261E2,2.8988937E1,4.0328842E1,5.0864838E1,1.3076782E1,9.92598E0,1.6193283E1,5.0966463E0,4.9068604E0,1.3946018E0,1.01370026E2,2.3122253E0,3.000824E0,5.0159454E-2,1.7963425E1,5.1574707E-3,3.5903625E1,8.1020594E-1,4.804244E-1,3.1839085E-1,6.790962E-1,3.3753395E-1,8.018857E-2,6.787506E0,5.678277E1,3.4165955E-1,1.6241455E-1,3.3138275E-1,1.7728424E-1,2.5253296E-3,0E0,1.8700857E1,2.0902191E1,0E0,0E0,1.5226955E0,1.6767483E1,4.705143E-2,3.8274623E-2,9.409469E-2,3.8663626E-2,4.3233395E-2,3.2554626E-2,6.562996E-2,5.5360794E-2,8.10318E-2,8.3780445E-2,2.105984E-2,1.8784225E-2,1.0663757E0,1.4530182E0,4.1560944E1,1.0824387E2,5.2127838E-2,4.2999268E-2,6.034851E-3,0E0,2.166748E-3,6.8206787E-3,1.0690117E-1,0E0,0E0,0E0,0E0,0E0,0E0,0E0,0E0,0E0,0E0,0E0,0E0,0E0,0E0,0E0,0E0,0E0,0E0,0E0,0E0,0E0,0E0,0E0,0E0,0E0,0E0,0E0,0E0,0E0,0E0,0E0,0E0,0E0,0E0,0E0,0E0,0E0,0E0,0E0,0E0,0E0,0E0,0E0,0E0,0E0,0E0,0E0,0E0,0E0,0E0,0E0,0E0,0E0,0E0,0E0],"parents":[2147483647,0,0,1,1,2,2,3,3,4,4,5,5,6,6,7,7,8,8,9,9,10,10,11,11,12,12,13,13,14,14,15,15,16,16,17,17,18,18,19,19,20,20,21,21,22,22,23,23,24,24,25,25,26,26,27,27,28,28,29,29,30,30,31,31,33,33,34,34,37,37,38,38,39,39,40,40,41,41,42,42,43,43,44,44,45,45,46,46,47,47,48,48,49,49,50,50,51,51,52,52,53,53,54,54,55,55,56,56,57,57,59,59,60,60,61,61],"right_children":[2,4,6,8,10,12,14,16,18,20,22,24,26,28,30,32,34,36,38,40,42,44,46,48,50,52,54,56,58,60,62,64,-1,66,68,-1,-1,70,72,74,76,78,80,82,84,86,88,90,92,94,96,98,100,102,104,106,108,110,-1,112,114,116,-1,-1,-1,-1,-1,-1,-1,-1,-1,-1,-1,-1,-1,-1,-1,-1,-1,-1,-1,-1,-1,-1,-1,-1,-1,-1,-1,-1,-1,-1,-1,-1,-1,-1,-1,-1,-1,-1,-1,-1,-1,-1,-1,-1,-1,-1,-1,-1,-1,-1,-1,-1,-1,-1,-1],"split_conditions":[4.4702932E-1,2.0410781E-17,2.0410781E-17,2.5570443E-1,2.4367504E-1,-8.847539E-1,6.2957233E-1,-8.847539E-1,-8.847539E-1,1.5661015E-1,3.298745E-1,1E0,-7.945798E-1,5.3536344E-1,8.0235547E-1,1.9424255E-1,-6.515263E-1,1.6604686E-1,-7.945798E-1,1.2702955E-1,1.9946046E-1,2.8436783E-1,3.8810268E-1,7.096124E-1,-9.427452E-1,6.2957233E-1,-3.9091575E-1,4.904442E-1,5.8391875E-1,6.888991E-1,7.025195E-1,9.02045E-2,-3.776129E-3,6.234898E-1,-3.9091575E-1,-3.7506756E-3,-3.53304E-3,3.357844E-1,-3.9091575E-1,1.0899425E-1,1.4770223E-1,1.8028446E-1,2.2405805E-1,2.6112118E-1,3.0815038E-1,3.5931882E-1,4.1790506E-1,9.996287E-2,-9.105625E-1,2.4664225E-1,-9.105625E-1,5.3536344E-1,8.0235547E-1,-6.515263E-1,0E0,4.6642235E-1,5.1322025E-1,5.576191E-1,9.6622305E-3,6.5416044E-1,7.4047726E-1,4.1175184E-1,1.8301683E-2,-3.4759447E-3,-3.2026158E-3,5.6326773E-4,-3.7579115E-3,-3.732845E-3,-1.7307189E-3,3.5528697E-3,5.6895763E-3,-2.5609059E-3,5.8491034E-5,-1.0639866E-3,-8.06979E-4,-2.822224E-4,1.583091E-5,3.5820925E-4,8.193358E-4,1.3264524E-3,1.7266134E-3,2.161798E-3,2.564342E-3,3.0271919E-3,3.5253353E-3,4.2074686E-3,4.7277533E-3,5.4023475E-3,5.989068E-3,-3.3877355E-3,-2.5809032E-3,-1.9410597E-3,2.1907594E-4,-3.0911372E-3,2.5344356E-3,4.671919E-3,7.7777593E-3,7.7176117E-3,9.557665E-3,1.2114894E-2,1.7429806E-2,3.422465E-3,-3.4047195E-3,9.863902E-3,1.5560342E-3,6.548776E-3,7.112746E-3,7.557299E-3,8.062105E-3,8.563724E-3,9.018316E-3,1.0619443E-2,1.1207363E-2,1.1973636E-2,1.2999418E-2,1.3829253E-2,1.6707942E-2],"split_indices":[12,0,0,12,12,2,12,2,2,12,12,8,2,12,12,12,2,7,2,12,12,12,12,7,2,12,2,12,12,12,8,5,0,3,2,0,0,12,2,12,12,12,12,12,12,12,12,6,2,6,2,12,12,2,2,12,12,12,0,12,12,11,0,0,0,0,0,0,0,0,0,0,0,0,0,0,0,0,0,0,0,0,0,0,0,0,0,0,0,0,0,0,0,0,0,0,0,0,0,0,0,0,0,0,0,0,0,0,0,0,0,0,0,0,0,0,0],"split_type":[0,0,0,0,0,0,0,0,0,0,0,0,0,0,0,0,0,0,0,0,0,0,0,0,0,0,0,0,0,0,0,0,0,0,0,0,0,0,0,0,0,0,0,0,0,0,0,0,0,0,0,0,0,0,0,0,0,0,0,0,0,0,0,0,0,0,0,0,0,0,0,0,0,0,0,0,0,0,0,0,0,0,0,0,0,0,0,0,0,0,0,0,0,0,0,0,0,0,0,0,0,0,0,0,0,0,0,0,0,0,0,0,0,0,0,0,0],"sum_hessian":[2.4336E5,1.7928E5,6.408E4,1.494E5,2.988E4,5.34E4,1.068E4,1.098E5,3.96E4,2.064E4,9.24E3,4.539E3,4.8861E4,8.16E3,2.52E3,9.333E3,1.00467E5,3.366E3,3.6234E4,1.344E4,7.2E3,4.44E3,4.8E3,4.488E3,5.1E1,4.628E3,4.4233E4,5.28E3,2.88E3,2.16E3,3.6E2,7.548E3,1.785E3,1.5921E4,8.4546E4,2.654E3,7.12E2,3.432E3,3.2802E4,8.76E3,4.68E3,4.68E3,2.52E3,2.88E3,1.56E3,2.76E3,2.04E3,4.29E3,1.98E2,1.7E1,3.4E1,3.536E3,1.092E3,1.0947E4,3.3286E4,2.52E3,2.76E3,1.8E3,1.08E3,1.44E3,7.2E2,2.4E2,1.2E2,7.295E3,2.53E2,1.281E4,3.111E3,1.6104E4,6.8442E4,1.456E3,1.976E3,8.118E3,2.4684E4,6.24E3,2.52E3,3E3,1.68E3,1.8E3,2.88E3,1.44E3,1.08E3,1.68E3,1.2E3,9.6E2,6E2,1.56E3,1.2E3,1.2E3,8.4E2,3.933E3,3.57E2,1.3E2,6.8E1,1E0,1.6E1,1.7E1,1.7E1,2.288E3,1.248E3,9.36E2,1.56E2,3.115E3,7.832E3,4.539E3,2.8747E4,8.4E2,1.68E3,1.68E3,1.08E3,8.4E2,9.6E2,7.2E2,7.2E2,4.8E2,2.4E2,1.2E2,1.2E2],"tree_param":{"num_deleted":"0","num_feature":"14","num_nodes":"117","size_leaf_vector":"1"}},{"base_weights":[1.1726628E-5,-2.7684E-2,4.4882912E-2,-3.458904E-2,6.841223E-3,2.4521358E-2,1.4668252E-1,-2.883908E-2,-5.420486E-2,-1.0682044E-2,3.509566E-2,3.9592803E-2,-2.6898194E-2,1.1905955E-1,2.0189467E-1,-3.6191776E-2,3.0701147E-2,-8.226304E-2,-2.6142865E-2,-1.870305E-2,1.110564E-4,2.2059962E-2,5.0236877E-2,1.3390277E-2,2.517476E-1,-1.2001981E-1,6.622649E-2,9.28508E-2,1.3978842E-1,1.9077213E-1,2.8596798E-1,-2.7242266E-2,-6.347644E-2,3.2949082E-3,6.6929676E-2,-7.916904E-2,-9.5714785E-2,-8.188999E-2,2.9607933E-2,-2.0029651E-2,-1.4568492E-2,-3.136746E-3,7.3688296E-3,1.6532887E-2,2.9725252E-2,4.4278413E-2,6.1201703E-2,3.6806174E-2,-5.800263E-2,2.0075783E-1,3.5358918E-1,-1.21975146E-1,1.2840416E-1,-1.2105335E-1,2.5349122E-1,8.427412E-2,1.05947606E-1,1.3038963E-1,1.4838898E-1,1.7560713E-1,2.1391469E-1,1.2352145E-2,3.1116182E-1,-2.139916E-3,7.0593075E-4,-4.278224E-3,-9.647279E-4,-4.163614E-4,1.0241183E-3,2.586037E-3,4.657667E-3,-2.7928893E-3,-3.9791423E-3,-4.7878544E-3,4.1143244E-4,-3.9391504E-3,-4.747472E-3,9.663195E-5,3.3094117E-3,-1.0398454E-3,-9.0508396E-4,-7.625666E-4,-5.560752E-4,-2.5706933E-4,1.5039756E-5,1.685803E-4,5.0808745E-4,7.538154E-4,9.804604E-4,1.3307877E-3,1.6403627E-3,2.0537723E-3,2.4362316E-3,2.87599E-3,3.349362E-3,1.1838013E-3,1.3188312E-2,-6.061601E-3,3.422748E-3,7.6238117E-3,1.1945145E-2,1.6665993E-2,2.528661E-2,-5.283913E-3,-6.3695214E-3,1.5983981E-3,7.96583E-3,-6.1395075E-3,4.920663E-3,1.0145019E-2,1.7723255E-2,3.905831E-3,4.4091847E-3,5.044119E-3,5.513505E-3,6.106203E-3,6.7363842E-3,7.1979994E-3,7.745355E-3,8.429956E-3,9.22848E-3,1.0336313E-2,1.1219784E-2,1.4571691E-2,1.739416E-2],"categories":[],"categories_nodes":[],"categories_segments":[],"categories_sizes":[],"default_left":[0,0,0,0,0,0,0,0,0,0,0,0,0,0,0,0,0,0,0,0,0,0,0,0,0,0,0,0,0,0,0,0,0,0,0,0,0,0,0,0,0,0,0,0,0,0,0,0,0,0,0,0,0,0,0,0,0,0,0,0,0,0,0,0,0,0,0,0,0,0,0,0,0,0,0,0,0,0,0,0,0,0,0,0,0,0,0,0,0,0,0,0,0,0,0,0,0,0,0,0,0,0,0,0,0,0,0,0,0,0,0,0,0,0,0,0,0,0,0,0,0,0,0,0,0],"id":13,"left_children":[1,3,5,7,9,11,13,15,17,19,21,23,25,27,29,31,33,35,37,39,41,43,45,47,49,51,53,55,57,59,61,63,65,67,69,71,73,75,77,79,81,83,85,87,89,91,93,95,97,99,101,103,105,107,109,111,113,115,117,119,121,-1,123,-1,-1,-1,-1,-1,-1,-1,-1,-1,-1,-1,-1,-1,-1,-1,-1,-1,-1,-1,-1,-1,-1,-1,-1,-1,-1,-1,-1,-1,-1,-1,-1,-1,-1,-1,-1,-1,-1,-1,-1,-1,-1,-1,-1,-1,-1,-1,-1,-1,-1,-1,-1,-1,-1,-1,-1,-1,-1,-1,-1,-1,-1],"loss_changes":[3.0243567E2,3.5874626E1,1.9251996E2,1.4142456E1,1.241823E1,5.998428E1,2.3586395E1,4.245581E1,2.23788E1,1.3402159E0,1.8939009E0,3.327412E2,1.521568E2,5.5941925E0,4.7715607E0,2.1075783E1,1.0583962E1,5.839691E-1,4.4175667E1,4.8419714E-2,1.5562063E-1,2.1816301E-1,2.874365E-1,8.906851E1,3.4098145E1,4.2771835E0,3.0770776E2,5.033951E-1,4.4634247E-1,1.5631409E0,5.125122E-1,4.182238E1,2.0803368E1,1.2126832E0,1.8262291E0,1.0707092E-1,1.2451172E-2,2.808876E-1,7.1947894E0,9.565353E-3,4.916817E-3,3.1431552E-2,2.2751309E-2,1.3151586E-2,1.9836664E-2,3.9027214E-2,2.9398441E-2,1.19552124E2,1.05225525E2,8.043137E0,6.5973816E0,7.54776E-1,2.0060146E-1,1.6842728E0,2.233844E1,5.9577942E-2,2.8308868E-2,8.2546234E-2,6.4338684E-2,1.4229584E-1,8.930206E-2,0E0,1.6013718E-1,0E0,0E0,0E0,0E0,0E0,0E0,0E0,0E0,0E0,0E0,0E0,0E0,0E0,0E0,0E0,0E0,0E0,0E0,0E0,0E0,0E0,0E0,0E0,0E0,0E0,0E0,0E0,0E0,0E0,0E0,0E0,0E0,0E0,0E0,0E0,0E0,0E0,0E0,0E0,0E0,0E0,0E0,0E0,0E0,0E0,0E0,0E0,0E0,0E0,0E0,0E0,0E0,0E0,0E0,0E0,0E0,0E0,0E0,0E0,0E0,0E0,0E0],"parents":[2147483647,0,0,1,1,2,2,3,3,4,4,5,5,6,6,7,7,8,8,9,9,10,10,11,11,12,12,13,13,14,14,15,15,16,16,17,17,18,18,19,19,20,20,21,21,22,22,23,23,24,24,25,25,26,26,27,27,28,28,29,29,30,30,31,31,32,32,33,33,34,34,35,35,36,36,37,37,38,38,39,39,40,40,41,41,42,42,43,43,44,44,45,45,46,46,47,47,48,48,49,49,50,50,51,51,52,52,53,53,54,54,55,55,56,56,57,57,58,58,59,59,60,60,62,62],"right_children":[2,4,6,8,10,12,14,16,18,20,22,24,26,28,30,32,34,36,38,40,42,44,46,48,50,52,54,56,58,60,62,64,66,68,70,72,74,76,78,80,82,84,86,88,90,92,94,96,98,100,102,104,106,108,110,112,114,116,118,120,122,-1,124,-1,-1,-1,-1,-1,-1,-1,-1,-1,-1,-1,-1,-1,-1,-1,-1,-1,-1,-1,-1,-1,-1,-1,-1,-1,-1,-1,-1,-1,-1,-1,-1,-1,-1,-1,-1,-1,-1,-1,-1,-1,-1,-1,-1,-1,-1,-1,-1,-1,-1,-1,-1,-1,-1,-1,-1,-1,-1,-1,-1,-1,-1],"split_conditions":[3.298745E-1,2.0410781E-17,2.0410781E-17,7.818315E-1,1.8301882E-1,7.818315E-1,5.4751784E-1,5.21221E-1,8.7837964E-1,1.2987642E-1,2.4367504E-1,5.21221E-1,8.7837964E-1,4.288509E-1,7.4047726E-1,1.3030525E-1,1.7198086E-1,2.3525278E-1,-8.151915E-2,1.1120277E-1,1.5661015E-1,2.1468325E-1,2.8436783E-1,1.3030525E-1,5.4751784E-1,1E0,-8.151915E-2,3.8810268E-1,4.904442E-1,6.375424E-1,8.0235547E-1,-3.9091575E-1,3.9091575E-1,1.2201775E-1,2.459446E-1,1.00006886E-1,1.1003816E-1,2.3440318E-1,1.7198086E-1,4.0437267E-3,1.1978586E-2,1.4770223E-1,1.7198086E-1,1.914791E-1,2.2405805E-1,2.6112118E-1,3.0815038E-1,9.934108E-9,3.9091575E-1,4.288509E-1,7.4047726E-1,4.1313878E-1,7.945798E-1,1E0,5.4751784E-1,3.533201E-1,4.1011027E-1,4.6549252E-1,5.162527E-1,5.8391875E-1,6.771241E-1,1.2352145E-2,7.025195E-1,-2.139916E-3,7.0593075E-4,-4.278224E-3,-9.647279E-4,-4.163614E-4,1.0241183E-3,2.586037E-3,4.657667E-3,-2.7928893E-3,-3.9791423E-3,-4.7878544E-3,4.1143244E-4,-3.9391504E-3,-4.747472E-3,9.663195E-5,3.3094117E-3,-1.0398454E-3,-9.0508396E-4,-7.625666E-4,-5.560752E-4,-2.5706933E-4,1.5039756E-5,1.685803E-4,5.0808745E-4,7.538154E-4,9.804604E-4,1.3307877E-3,1.6403627E-3,2.0537723E-3,2.4362316E-3,2.87599E-3,3.349362E-3,1.1838013E-3,1.3188312E-2,-6.061601E-3,3.422748E-3,7.6238117E-3,1.1945145E-2,1.6665993E-2,2.528661E-2,-5.283913E-3,-6.3695214E-3,1.5983981E-3,7.96583E-3,-6.1395075E-3,4.920663E-3,1.0145019E-2,1.7723255E-2,3.905831E-3,4.4091847E-3,5.044119E-3,5.513505E-3,6.106203E-3,6.7363842E-3,7.1979994E-3,7.745355E-3,8.429956E-3,9.22848E-3,1.0336313E-2,1.1219784E-2,1.4571691E-2,1.739416E-2],"split_indices":[12,0,0,2,12,2,12,2,2,12,12,2,2,12,12,2,12,12,3,12,12,12,12,2,12,8,3,12,12,12,12,2,2,12,12,12,6,12,12,8,11,12,12,12,12,12,12,2,2,12,12,12,2,8,12,12,12,12,12,12,12,0,8,0,0,0,0,0,0,0,0,0,0,0,0,0,0,0,0,0,0,0,0,0,0,0,0,0,0,0,0,0,0,0,0,0,0,0,0,0,0,0,0,0,0,0,0,0,0,0,0,0,0,0,0,0,0,0,0,0,0,0,0,0,0],"split_type":[0,0,0,0,0,0,0,0,0,0,0,0,0,0,0,0,0,0,0,0,0,0,0,0,0,0,0,0,0,0,0,0,0,0,0,0,0,0,0,0,0,0,0,0,0,0,0,0,0,0,0,0,0,0,0,0,0,0,0,0,0,0,0,0,0,0,0,0,0,0,0,0,0,0,0,0,0,0,0,0,0,0,0,0,0,0,0,0,0,0,0,0,0,0,0,0,0,0,0,0,0,0,0,0,0,0,0,0,0,0,0,0,0,0,0,0,0,0,0,0,0,0,0,0,0],"sum_hessian":[2.4336E5,1.5048E5,9.288E4,1.254E5,2.508E4,7.74E4,1.548E4,9.6976E4,2.8424E4,1.548E4,9.6E3,5.9856E4,1.7544E4,1.032E4,5.16E3,8.6317E4,1.0659E4,1.4212E4,1.4212E4,8.88E3,6.6E3,5.16E3,4.44E3,5.3277E4,6.579E3,8.772E3,8.772E3,4.56E3,5.76E3,4.56E3,6E2,6.4999E4,2.1318E4,6.069E3,4.59E3,1.156E4,2.652E3,7.106E3,7.106E3,6.72E3,2.16E3,4.56E3,2.04E3,3E3,2.16E3,2.88E3,1.56E3,4.0119E4,1.3158E4,4.386E3,2.193E3,8.704E3,6.8E1,4.386E3,4.386E3,2.76E3,1.8E3,2.76E3,3E3,2.76E3,1.8E3,2.4E2,3.6E2,4.7234E4,1.7765E4,1.4212E4,7.106E3,3.621E3,2.448E3,2.907E3,1.683E3,2.04E2,1.1356E4,2.651E3,1E0,5.746E3,1.36E3,4.046E3,3.06E3,4.8E3,1.92E3,1.8E3,3.6E2,2.88E3,1.68E3,8.4E2,1.2E3,2.04E3,9.6E2,1.08E3,1.08E3,1.68E3,1.2E3,9.6E2,6E2,3.7926E4,2.193E3,8.772E3,4.386E3,1.938E3,2.448E3,1.938E3,2.55E2,2.176E3,6.528E3,1.7E1,5.1E1,4.352E3,3.4E1,2.924E3,1.462E3,1.08E3,1.68E3,8.4E2,9.6E2,9.6E2,1.8E3,1.8E3,1.2E3,1.56E3,1.2E3,1.08E3,7.2E2,2.4E2,1.2E2],"tree_param":{"num_deleted":"0","num_feature":"14","num_nodes":"125","size_leaf_vector":"1"}},{"base_weights":[1.2065979E-5,-1.9367358E-2,5.8611102E-2,-2.7587116E-2,2.1730995E-2,3.7436556E-2,1.6446961E-1,-4.1392826E-2,-1.5223432E-2,-2.3709864E-3,7.228147E-2,4.270546E-2,-1.4315933E-1,1.4635406E-1,2.1873666E-1,-4.0108375E-2,-8.5400805E-2,-1.2409303E-2,-1.1168371E-1,-1.2356671E-2,1.777443E-2,4.882429E-2,9.3543015E-2,6.0858026E-2,-1.6957857E-2,-1.4537705E-1,2.9070865E-2,1.3492298E-1,1.6487631E-1,2.0577984E-1,2.9569227E-1,-3.5694964E-2,-5.4611135E-2,-5.360577E-2,-4.2956364E-3,-2.378087E-3,-4.5377612E-2,-9.519011E-2,-1.2206733E-1,-1.7873153E-2,-2.7668534E-3,1.2740968E-2,2.7831353E-2,4.2066053E-2,5.9608113E-2,8.248662E-2,1.074667E-1,3.1899747E-2,2.8565064E-1,-1.1774299E-1,8.3830245E-2,-7.3835435E-3,-1.14814274E-1,-3.6252134E-3,3.8741942E-2,1.2955211E-1,1.4257215E-1,7.897931E-3,8.646301E-3,1.9712967E-1,2.2278275E-1,2.7692255E-1,1.6531639E-2,-2.0365466E-3,1.704058E-4,-3.6837438E-3,-1.7770355E-3,-3.5468084E-3,-1.6648638E-3,-7.370443E-4,4.6801763E-3,-4.59299E-3,5.5478213E-5,-4.553909E-3,-5.1317564E-3,-5.76999E-3,-6.8929493E-3,-9.819572E-4,-7.6685747E-4,-2.546692E-4,3.276669E-5,3.9950336E-4,7.754296E-4,1.2402278E-3,1.5584202E-3,1.951145E-3,2.3145215E-3,2.7323405E-3,3.260323E-3,3.891139E-3,4.3967674E-3,5.0762217E-3,5.6984597E-3,3.0179627E-3,-2.5064037E-3,1.2592982E-2,1.933471E-2,-6.032703E-3,6.1061275E-3,-5.9481217E-3,1.4329679E-2,-5.783511E-3,-6.877132E-4,3.974659E-3,1.0710326E-3,6.2238136E-3,6.60943E-3,6.951759E-3,7.2980383E-3,9.658339E-3,1.0231868E-2,1.0816376E-2,1.17371E-2,1.242094E-2,1.5156887E-2],"categories":[],"categories_nodes":[],"categories_segments":[],"categories_sizes":[],"default_left":[0,0,0,0,0,0,0,0,0,0,0,0,0,0,0,0,0,0,0,0,0,0,0,0,0,0,0,0,0,0,0,0,0,0,0,0,0,0,0,0,0,0,0,0,0,0,0,0,0,0,0,0,0,0,0,0,0,0,0,0,0,0,0,0,0,0,0,0,0,0,0,0,0,0,0,0,0,0,0,0,0,0,0,0,0,0,0,0,0,0,0,0,0,0,0,0,0,0,0,0,0,0,0,0,0,0,0,0,0,0,0,0,0,0,0],"id":14,"left_children":[1,3,5,7,9,11,13,15,17,19,21,23,25,27,29,31,33,35,37,39,41,43,45,47,49,51,53,55,57,59,61,63,65,67,-1,69,71,73,75,77,79,81,83,85,87,89,91,93,95,97,99,-1,101,-1,103,105,107,-1,-1,109,111,113,-1,-1,-1,-1,-1,-1,-1,-1,-1,-1,-1,-1,-1,-1,-1,-1,-1,-1,-1,-1,-1,-1,-1,-1,-1,-1,-1,-1,-1,-1,-1,-1,-1,-1,-1,-1,-1,-1,-1,-1,-1,-1,-1,-1,-1,-1,-1,-1,-1,-1,-1,-1,-1],"loss_changes":[2.7636566E2,6.1781197E1,1.3556238E2,2.6012604E1,3.713721E1,4.7964813E1,9.878357E0,4.0665207E0,2.18236E1,4.152482E0,4.903492E0,5.3040863E1,5.500488E-1,1.578659E0,2.4528427E0,4.476021E0,