{"learner":{"attributes":{"scikit_learn":"{\"_estimator_type\": \"regressor\"}"},"feature_names":[],"feature_types":[],"gradient_booster":{"model":{"gbtree_model_param":{"num_parallel_tree":"1","num_trees":"100"},"iteration_indptr":[0,1,2,3,4,5,6,7,8,9,10,11,12,13,14,15,16,17,18,19,20,21,22,23,24,25,26,27,28,29,30,31,32,33,34,35,36,37,38,39,40,41,42,43,44,45,46,47,48,49,50,51,52,53,54,55,56,57,58,59,60,61,62,63,64,65,66,67,68,69,70,71,72,73,74,75,76,77,78,79,80,81,82,83,84,85,86,87,88,89,90,91,92,93,94,95,96,97,98,99,100],"tree_info":[0,0,0,0,0,0,0,0,0,0,0,0,0,0,0,0,0,0,0,0,0,0,0,0,0,0,0,0,0,0,0,0,0,0,0,0,0,0,0,0,0,0,0,0,0,0,0,0,0,0,0,0,0,0,0,0,0,0,0,0,0,0,0,0,0,0,0,0,0,0,0,0,0,0,0,0,0,0,0,0,0,0,0,0,0,0,0,0,0,0,0,0,0,0,0,0,0,0,0,0],"trees":[{"base_weights":[2.9375422E-11,-3.558852E-4,1.1976747E-1,-9.704627E-4,1.890461E-2,8.6906075E-2,2.819983E-1,-1.2721872E-3,3.202928E-3,1.3227126E-2,4.718641E-2,9.4137914E-2,8.744206E-3,2.9198733E-1,1.04308715E-2,-1.4462444E-3,-2.8243247E-5,2.0146554E-3,9.080243E-3,9.46624E-3,2.1852149E-2,2.9929696E-2,6.851896E-2,-1.2779956E-3,1.0082322E-1,-5.465459E-4,2.6323767E-2,6.997569E-3,1.47558795E-2,-1.5073164E-3,-8.6278276E-4,-3.7753346E-4,1.7623326E-3,9.783659E-4,3.5224173E-3,4.402526E-3,1.5694547E-2,7.974505E-3,1.8574236E-2,1.8720528E-2,3.359983E-2,1.2366989E-2,3.6608964E-2,5.725548E-2,8.408077E-2,-7.963175E-5,2.9797768E-4,1.2626939E-1,6.678472E-2,7.078236E-3,-1.2231459E-3,5.5686515E-3,3.185604E-2,1.7563158E-7,-7.5911106E-5,-5.0864823E-5,5.7762874E-5,2.10482E-4,-2.408236E-5,4.7211033E-5,2.937021E-4,3.9947295E-4,3.8287584E-5,1.6415468E-4,8.053367E-4,1.689006E-4,4.379137E-4,7.4470177E-4,3.4599267E-3,1.9480071E-4,4.8297853E-4,1.0313928E-3,-3.314344E-5,1.3105719E-3,7.480057E-4,1.324219E-3,2.2350845E-3,5.1883934E-4,1.4531696E-3,1.278214E-3,2.60752E-3,4.761715E-4,3.007982E-3,4.674272E-3,2.889293E-3,1.5002755E-4,-6.9158086E-5,2.8622632E-3,9.284819E-3,6.630094E-4,5.6085037E-3,5.740915E-4,-4.3223805E-5,-8.068443E-5,-4.2522322E-5,1.2211976E-4,4.5184192E-4,1.8207621E-3,1.5002755E-4],"categories":[],"categories_nodes":[],"categories_segments":[],"categories_sizes":[],"default_left":[0,0,0,0,0,0,0,0,0,0,0,0,0,0,0,0,0,0,0,0,0,0,0,0,0,0,0,0,0,0,0,0,0,0,0,0,0,0,0,0,0,0,0,0,0,0,0,0,0,0,0,0,0,0,0,0,0,0,0,0,0,0,0,0,0,0,0,0,0,0,0,0,0,0,0,0,0,0,0,0,0,0,0,0,0,0,0,0,0,0,0,0,0,0,0,0,0,0,0],"id":0,"left_children":[1,3,5,7,9,11,13,15,17,19,21,23,25,27,-1,29,31,33,35,37,39,41,43,45,47,49,51,-1,-1,53,55,57,59,61,63,65,67,69,71,73,75,77,79,81,83,-1,85,87,89,91,93,95,97,-1,-1,-1,-1,-1,-1,-1,-1,-1,-1,-1,-1,-1,-1,-1,-1,-1,-1,-1,-1,-1,-1,-1,-1,-1,-1,-1,-1,-1,-1,-1,-1,-1,-1,-1,-1,-1,-1,-1,-1,-1,-1,-1,-1,-1,-1],"loss_changes":[1.0372933E1,2.8721762E0,3.8192396E0,2.9609445E-1,1.2041287E0,3.3889484E-1,2.777958E-2,4.7479182E-2,1.1070371E-1,2.0252883E-1,4.59584E-1,3.509655E-1,8.50741E-3,8.193016E-3,0E0,6.8534017E-3,1.6836006E-2,2.0604067E-2,8.2416534E-2,5.900842E-2,6.916028E-2,8.107495E-2,9.334278E-2,1.8821505E-5,4.3676853E-1,1.8922017E-4,1.8894179E-3,0E0,0E0,2.8692782E-3,5.6855604E-3,1.0759692E-2,1.4775161E-2,1.1647848E-2,1.6126119E-2,6.945342E-3,4.6254367E-2,2.5686234E-2,2.419117E-2,4.1861236E-2,3.0256003E-2,6.11165E-3,8.500689E-2,4.4894814E-2,5.2217603E-2,0E0,3.5954065E-5,1.1912246E0,5.3780156E-1,1.148552E-4,3.4309596E-6,3.2140684E-5,1.7325478E-3,0E0,0E0,0E0,0E0,0E0,0E0,0E0,0E0,0E0,0E0,0E0,0E0,0E0,0E0,0E0,0E0,0E0,0E0,0E0,0E0,0E0,0E0,0E0,0E0,0E0,0E0,0E0,0E0,0E0,0E0,0E0,0E0,0E0,0E0,0E0,0E0,0E0,0E0,0E0,0E0,0E0,0E0,0E0,0E0,0E0,0E0],"parents":[2147483647,0,0,1,1,2,2,3,3,4,4,5,5,6,6,7,7,8,8,9,9,10,10,11,11,12,12,13,13,15,15,16,16,17,17,18,18,19,19,20,20,21,21,22,22,23,23,24,24,25,25,26,26,29,29,30,30,31,31,32,32,33,33,34,34,35,35,36,36,37,37,38,38,39,39,40,40,41,41,42,42,43,43,44,44,46,46,47,47,48,48,49,49,50,50,51,51,52,52],"right_children":[2,4,6,8,10,12,14,16,18,20,22,24,26,28,-1,30,32,34,36,38,40,42,44,46,48,50,52,-1,-1,54,56,58,60,62,64,66,68,70,72,74,76,78,80,82,84,-1,86,88,90,92,94,96,98,-1,-1,-1,-1,-1,-1,-1,-1,-1,-1,-1,-1,-1,-1,-1,-1,-1,-1,-1,-1,-1,-1,-1,-1,-1,-1,-1,-1,-1,-1,-1,-1,-1,-1,-1,-1,-1,-1,-1,-1,-1,-1,-1,-1,-1,-1],"split_conditions":[1E0,2.3333333E-1,2.0410781E-17,5.8333337E-2,2.0410781E-17,8.847539E-1,8.1174487E-1,1.6666668E-2,2.0410781E-17,6.083333E-1,4.75E-1,-9.105625E-1,-8.151915E-2,1.1666666E0,1.04308715E-2,8.333334E-3,4.6329156E-1,4.5928028E-1,4.5928028E-1,9.6524817E-1,2.9522845E-1,4.1697964E-1,7.583334E-1,1.0458333E0,4.8248804E-1,2.1666665E-1,4.1666666E-1,6.997569E-3,1.47558795E-2,1.0000831E-1,6.1455864E-2,1.0000831E-1,2.0410781E-17,1.00005515E-1,9.6524817E-1,1.4999999E-1,9.6524817E-1,4.1697964E-1,9.372483E-1,-4.4867018E-1,1.0333334E0,4.1666666E-1,1.6666667E-1,2.385348E-2,7.0070547E-1,-7.963175E-5,1.9333333E0,-6.748195E-1,7.489932E-1,9.1056246E-1,5.6666666E-1,3.4333332E0,7.416666E-1,1.7563158E-7,-7.5911106E-5,-5.0864823E-5,5.7762874E-5,2.10482E-4,-2.408236E-5,4.7211033E-5,2.937021E-4,3.9947295E-4,3.8287584E-5,1.6415468E-4,8.053367E-4,1.689006E-4,4.379137E-4,7.4470177E-4,3.4599267E-3,1.9480071E-4,4.8297853E-4,1.0313928E-3,-3.314344E-5,1.3105719E-3,7.480057E-4,1.324219E-3,2.2350845E-3,5.1883934E-4,1.4531696E-3,1.278214E-3,2.60752E-3,4.761715E-4,3.007982E-3,4.674272E-3,2.889293E-3,1.5002755E-4,-6.9158086E-5,2.8622632E-3,9.284819E-3,6.630094E-4,5.6085037E-3,5.740915E-4,-4.3223805E-5,-8.068443E-5,-4.2522322E-5,1.2211976E-4,4.5184192E-4,1.8207621E-3,1.5002755E-4],"split_indices":[8,7,0,7,0,2,3,7,0,7,7,2,3,5,0,7,9,9,9,8,11,9,7,14,3,15,6,0,0,12,16,12,0,12,8,7,8,9,3,3,7,5,5,16,8,0,5,3,3,2,14,4,14,0,0,0,0,0,0,0,0,0,0,0,0,0,0,0,0,0,0,0,0,0,0,0,0,0,0,0,0,0,0,0,0,0,0,0,0,0,0,0,0,0,0,0,0,0,0],"split_type":[0,0,0,0,0,0,0,0,0,0,0,0,0,0,0,0,0,0,0,0,0,0,0,0,0,0,0,0,0,0,0,0,0,0,0,0,0,0,0,0,0,0,0,0,0,0,0,0,0,0,0,0,0,0,0,0,0,0,0,0,0,0,0,0,0,0,0,0,0,0,0,0,0,0,0,0,0,0,0,0,0,0,0,0,0,0,0,0,0,0,0,0,0,0,0,0,0,0,0],"sum_hessian":[2.4336E5,2.4264E5,7.2E2,2.35138E5,7.502E3,6E2,1.2E2,2.19285E5,1.5853E4,6.249E3,1.253E3,5.49E2,5.1E1,1.03E2,1.7E1,1.92368E5,2.6917E4,1.3188E4,2.665E3,4.353E3,1.896E3,6.94E2,5.59E2,3.6E1,5.13E2,3.4E1,1.7E1,3E0,1E2,1.74139E5,1.8229E4,2.2524E4,4.393E3,7.817E3,5.371E3,1.562E3,1.103E3,3.742E3,6.11E2,1.499E3,3.97E2,1.92E2,5.02E2,3.27E2,2.32E2,3E1,6E0,2.92E2,2.21E2,2E0,3.2E1,4E0,1.3E1,1.248E3,1.72891E5,1.6933E4,1.296E3,4.99E2,2.2025E4,3.665E3,7.28E2,2.29E2,7.588E3,5.272E3,9.9E1,1.266E3,2.96E2,1.088E3,1.5E1,1.095E3,2.647E3,5.52E2,5.9E1,4.99E2,1E3,2.44E2,1.53E2,1.73E2,1.9E1,2.95E2,2.07E2,1.9E1,3.08E2,1.69E2,6.3E1,2E0,4E0,1.36E2,1.56E2,1.02E2,1.19E2,1E0,1E0,1.4E1,1.8E1,3E0,1E0,1.1E1,2E0],"tree_param":{"num_deleted":"0","num_feature":"17","num_nodes":"99","size_leaf_vector":"1"}},{"base_weights":[3.46934E-7,-3.3796372E-4,1.1385338E-1,-8.563031E-4,2.0288829E-2,8.259633E-2,2.681644E-1,-1.1668515E-3,4.228885E-3,1.4193698E-2,5.0836407E-2,8.946451E-2,8.363773E-3,2.7759713E-1,9.938302E-3,-1.3739326E-3,1.3060644E-4,2.7376069E-3,1.15045225E-2,1.0122153E-2,2.0762503E-2,3.909449E-2,7.385023E-2,9.754943E-2,1.0159867E-2,-5.075711E-4,2.5148954E-2,6.7351605E-3,1.402539E-2,-1.431951E-3,-8.196432E-4,-2.7997053E-4,1.9788784E-3,2.524463E-3,1.4934225E-2,5.6795795E-3,1.7932724E-2,6.3779936E-3,1.40990205E-2,1.7785873E-2,3.1928785E-2,1.2573265E-2,4.5425855E-2,8.411539E-2,5.0111365E-2,8.508425E-2,2.0306574E-1,4.2241767E-2,-3.3148393E-4,6.90128E-3,-1.1657221E-3,5.405011E-3,3.0404009E-2,1.668541E-7,-7.2115574E-5,-4.9348422E-5,4.328442E-5,1.9128274E-4,-1.8942981E-5,5.7998353E-5,3.044484E-4,7.0529066E-5,1.9014899E-4,1.97684E-3,5.445673E-4,2.2790737E-4,6.451541E-4,8.271664E-4,2.9888554E-3,2.1257116E-4,4.6040938E-4,3.1727052E-4,9.0142107E-4,-1.0356967E-4,9.5801166E-4,1.2582784E-3,2.124056E-3,4.974237E-4,2.5350784E-3,1.1016557E-3,2.6486707E-3,2.065912E-3,4.616385E-3,1.4262417E-3,3.351582E-3,5.336521E-3,1.2514322E-3,8.508071E-3,1.2788246E-2,2.7057917E-3,7.9258456E-4,5.5973924E-4,-4.214321E-5,-7.691916E-5,-4.050811E-5,1.1754026E-4,4.4054585E-4,1.7373106E-3,1.4502663E-4],"categories":[],"categories_nodes":[],"categories_segments":[],"categories_sizes":[],"default_left":[0,0,0,0,0,0,0,0,0,0,0,0,0,0,0,0,0,0,0,0,0,0,0,0,0,0,0,0,0,0,0,0,0,0,0,0,0,0,0,0,0,0,0,0,0,0,0,0,0,0,0,0,0,0,0,0,0,0,0,0,0,0,0,0,0,0,0,0,0,0,0,0,0,0,0,0,0,0,0,0,0,0,0,0,0,0,0,0,0,0,0,0,0,0,0,0,0,0,0],"id":1,"left_children":[1,3,5,7,9,11,13,15,17,19,21,23,25,27,-1,29,31,33,35,37,39,41,43,45,47,49,51,-1,-1,53,55,57,59,61,63,65,67,69,71,73,75,77,79,81,83,85,87,89,-1,91,93,95,97,-1,-1,-1,-1,-1,-1,-1,-1,-1,-1,-1,-1,-1,-1,-1,-1,-1,-1,-1,-1,-1,-1,-1,-1,-1,-1,-1,-1,-1,-1,-1,-1,-1,-1,-1,-1,-1,-1,-1,-1,-1,-1,-1,-1,-1,-1],"loss_changes":[9.373743E0,2.594257E0,3.4554548E0,3.737914E-1,1.1067452E0,3.0566645E-1,2.403164E-2,5.9934944E-2,1.4777805E-1,1.3244599E-1,2.6436663E-1,3.5165358E-1,7.755936E-3,5.470276E-3,0E0,6.185204E-3,2.3300529E-2,2.9356368E-2,8.665568E-2,4.553312E-2,6.2484324E-2,1.0974944E-1,7.693148E-2,6.3904667E-1,2.8289357E-2,1.7870998E-4,1.7032642E-3,0E0,0E0,2.589494E-3,5.1416876E-3,1.020183E-2,1.877746E-2,1.5822262E-2,1.8865652E-2,9.7996965E-3,6.302154E-2,9.470247E-3,4.512918E-2,4.0976256E-2,2.7335316E-2,1.2305686E-2,9.240866E-2,7.737315E-2,3.5708696E-2,5.797169E-1,4.6648502E-2,4.782606E-3,0E0,1.0918423E-4,3.1262716E-6,3.1298943E-5,1.5711766E-3,0E0,0E0,0E0,0E0,0E0,0E0,0E0,0E0,0E0,0E0,0E0,0E0,0E0,0E0,0E0,0E0,0E0,0E0,0E0,0E0,0E0,0E0,0E0,0E0,0E0,0E0,0E0,0E0,0E0,0E0,0E0,0E0,0E0,0E0,0E0,0E0,0E0,0E0,0E0,0E0,0E0,0E0,0E0,0E0,0E0,0E0],"parents":[2147483647,0,0,1,1,2,2,3,3,4,4,5,5,6,6,7,7,8,8,9,9,10,10,11,11,12,12,13,13,15,15,16,16,17,17,18,18,19,19,20,20,21,21,22,22,23,23,24,24,25,25,26,26,29,29,30,30,31,31,32,32,33,33,34,34,35,35,36,36,37,37,38,38,39,39,40,40,41,41,42,42,43,43,44,44,45,45,46,46,47,47,49,49,50,50,51,51,52,52],"right_children":[2,4,6,8,10,12,14,16,18,20,22,24,26,28,-1,30,32,34,36,38,40,42,44,46,48,50,52,-1,-1,54,56,58,60,62,64,66,68,70,72,74,76,78,80,82,84,86,88,90,-1,92,94,96,98,-1,-1,-1,-1,-1,-1,-1,-1,-1,-1,-1,-1,-1,-1,-1,-1,-1,-1,-1,-1,-1,-1,-1,-1,-1,-1,-1,-1,-1,-1,-1,-1,-1,-1,-1,-1,-1,-1,-1,-1,-1,-1,-1,-1,-1,-1],"split_conditions":[1E0,2.9166666E-1,2.0410781E-17,7.5E-2,2.0410781E-17,8.847539E-1,8.1174487E-1,1.6666668E-2,2.0410781E-17,6.083333E-1,6.5000004E-1,9.372483E-1,-8.151915E-2,1.1666666E0,9.938302E-3,8.333334E-3,4.5928028E-1,9.6524817E-1,4.5928028E-1,2.07281E-1,2.9522845E-1,3.80753E-1,2.8432938E-1,8.1174487E-1,0E0,2.1666665E-1,4.1666666E-1,6.7351605E-3,1.402539E-2,1.0000831E-1,5.139184E-2,1.0000831E-1,2.0410781E-17,4.5928028E-1,-5.2405775E-1,1.9999999E-1,9.6524817E-1,6.9449234E-1,5.6979513E-1,-9.105625E-1,1.0333334E0,8.333333E-1,1E-1,6.2042583E-2,4.8333335E-1,4.8248804E-1,2.8925583E-1,5.6666666E-1,-3.3148393E-4,9.1056246E-1,5.6666666E-1,3.4333332E0,7.416666E-1,1.668541E-7,-7.2115574E-5,-4.9348422E-5,4.328442E-5,1.9128274E-4,-1.8942981E-5,5.7998353E-5,3.044484E-4,7.0529066E-5,1.9014899E-4,1.97684E-3,5.445673E-4,2.2790737E-4,6.451541E-4,8.271664E-4,2.9888554E-3,2.1257116E-4,4.6040938E-4,3.1727052E-4,9.0142107E-4,-1.0356967E-4,9.5801166E-4,1.2582784E-3,2.124056E-3,4.974237E-4,2.5350784E-3,1.1016557E-3,2.6486707E-3,2.065912E-3,4.616385E-3,1.4262417E-3,3.351582E-3,5.336521E-3,1.2514322E-3,8.508071E-3,1.2788246E-2,2.7057917E-3,7.9258456E-4,5.5973924E-4,-4.214321E-5,-7.691916E-5,-4.050811E-5,1.1754026E-4,4.4054585E-4,1.7373106E-3,1.4502663E-4],"split_indices":[8,7,0,7,0,2,3,7,0,7,7,3,3,5,0,7,9,8,9,11,11,9,10,3,2,15,6,0,0,12,16,12,0,9,2,7,8,8,9,2,7,4,5,8,5,3,2,14,0,2,14,4,14,0,0,0,0,0,0,0,0,0,0,0,0,0,0,0,0,0,0,0,0,0,0,0,0,0,0,0,0,0,0,0,0,0,0,0,0,0,0,0,0,0,0,0,0,0,0],"split_type":[0,0,0,0,0,0,0,0,0,0,0,0,0,0,0,0,0,0,0,0,0,0,0,0,0,0,0,0,0,0,0,0,0,0,0,0,0,0,0,0,0,0,0,0,0,0,0,0,0,0,0,0,0,0,0,0,0,0,0,0,0,0,0,0,0,0,0,0,0,0,0,0,0,0,0,0,0,0,0,0,0,0,0,0,0,0,0,0,0,0,0,0,0,0,0,0,0,0,0],"sum_hessian":[2.4336E5,2.4264E5,7.2E2,2.36693E5,5.947E3,6E2,1.2E2,2.23071E5,1.3622E4,4.959E3,9.88E2,5.49E2,5.1E1,1.03E2,1.7E1,1.92368E5,3.0703E4,1.1306E4,2.316E3,3.063E3,1.896E3,6.56E2,3.32E2,4.98E2,5.1E1,3.4E1,1.7E1,3E0,1E2,1.74139E5,1.8229E4,2.5123E4,5.58E3,1.1113E4,1.93E2,1.216E3,1.1E3,1.579E3,1.484E3,1.499E3,3.97E2,1.27E2,5.29E2,2.3E2,1.02E2,4.47E2,5.1E1,1.7E1,3.4E1,2E0,3.2E1,4E0,1.3E1,1.248E3,1.72891E5,1.6583E4,1.646E3,5.9E2,2.4533E4,4.654E3,9.26E2,5.94E3,5.173E3,2.6E1,1.67E2,1.054E3,1.62E2,1.066E3,3.4E1,9.03E2,6.76E2,5E2,9.84E2,9.7E1,1.402E3,2.44E2,1.53E2,1.2E2,7E0,1.3E2,3.99E2,3.8E1,1.92E2,4.6E1,5.6E1,3.28E2,1.19E2,3.4E1,1.7E1,1.1E1,6E0,1E0,1E0,1.4E1,1.8E1,3E0,1E0,1.1E1,2E0],"tree_param":{"num_deleted":"0","num_feature":"17","num_nodes":"99","size_leaf_vector":"1"}},{"base_weights":[7.277129E-7,-3.2093242E-4,1.0825029E-1,-8.7668654E-4,1.7096072E-2,7.8522906E-2,2.550099E-1,-1.2113637E-3,2.193511E-3,1.1964945E-2,4.2656243E-2,-3.2031766E-4,8.394567E-2,2.639169E-1,1.8937987E-1,-1.3603539E-3,-5.2654656E-4,1.3205425E-3,6.51241E-3,8.580507E-3,1.972661E-2,2.7006239E-2,6.2002845E-2,9.146555E-2,8.000211E-3,6.4825914E-3,1.3331065E-2,5.366034E-3,1.0257981E-2,3.1704274E-6,-1.3701963E-3,-7.081049E-4,1.3381747E-3,5.2492035E-4,2.7571835E-3,3.1583004E-3,1.260099E-2,7.2392165E-3,1.6769838E-2,1.689715E-2,3.0340843E-2,1.9063782E-2,3.9067212E-2,5.1775075E-2,7.613463E-2,1.0044973E-1,9.712775E-3,-4.7075917E-4,2.4027087E-2,-6.8591406E-5,1.9025574E-4,-6.904282E-5,-1.6940703E-5,1.3250431E-4,-3.802679E-5,2.4114333E-5,2.708565E-4,2.9809642E-4,1.5251877E-5,1.291302E-4,7.0864917E-4,1.21318175E-4,3.7869727E-4,5.999605E-4,3.1576399E-3,-1.0038264E-4,3.9423068E-4,9.35921E-4,-7.345473E-5,9.25807E-4,5.18781E-5,1.1956212E-3,2.0185427E-3,6.531222E-4,1.3923872E-3,2.6860165E-3,1.0125217E-3,3.7980295E-4,2.72335E-3,4.233476E-3,2.6137126E-3,2.4553163E-3,6.08267E-3,2.0162016E-3,-3.1538328E-4,3.364374E-4,-5.554972E-5,2.6231888E-4,1.4509131E-3],"categories":[],"categories_nodes":[],"categories_segments":[],"categories_sizes":[],"default_left":[0,0,0,0,0,0,0,0,0,0,0,0,0,0,0,0,0,0,0,0,0,0,0,0,0,0,0,0,0,0,0,0,0,0,0,0,0,0,0,0,0,0,0,0,0,0,0,0,0,0,0,0,0,0,0,0,0,0,0,0,0,0,0,0,0,0,0,0,0,0,0,0,0,0,0,0,0,0,0,0,0,0,0,0,0,0,0,0,0],"id":2,"left_children":[1,3,5,7,9,11,13,15,17,19,21,-1,23,25,27,29,31,33,35,37,39,41,43,45,47,-1,-1,-1,-1,49,51,53,55,57,59,61,63,65,67,69,71,73,75,77,79,81,83,85,87,-1,-1,-1,-1,-1,-1,-1,-1,-1,-1,-1,-1,-1,-1,-1,-1,-1,-1,-1,-1,-1,-1,-1,-1,-1,-1,-1,-1,-1,-1,-1,-1,-1,-1,-1,-1,-1,-1,-1,-1],"loss_changes":[8.47376E0,2.3486762E0,3.1255398E0,2.4161384E-1,9.835267E-1,2.773285E-1,2.075243E-2,2.1632612E-2,8.713346E-2,1.6401118E-1,3.780048E-1,0E0,3.2194066E-1,3.1943321E-3,1.2897849E-3,2.3370385E-3,1.282815E-2,2.1976609E-2,7.931918E-2,4.77041E-2,5.645907E-2,6.58319E-2,7.699871E-2,3.765483E-1,7.0709963E-3,0E0,0E0,0E0,0E0,6.534578E-3,1.9004047E-3,6.081281E-3,1.173456E-2,1.4793747E-2,1.3621163E-2,8.08418E-3,4.1223317E-2,2.2353679E-2,2.1778032E-2,3.849557E-2,2.46965E-2,2.1829471E-2,7.473636E-2,3.8594186E-2,4.3023348E-2,4.980793E-1,2.5755452E-2,1.6880383E-4,1.5350394E-3,0E0,0E0,0E0,0E0,0E0,0E0,0E0,0E0,0E0,0E0,0E0,0E0,0E0,0E0,0E0,0E0,0E0,0E0,0E0,0E0,0E0,0E0,0E0,0E0,0E0,0E0,0E0,0E0,0E0,0E0,0E0,0E0,0E0,0E0,0E0,0E0,0E0,0E0,0E0,0E0],"parents":[2147483647,0,0,1,1,2,2,3,3,4,4,5,5,6,6,7,7,8,8,9,9,10,10,12,12,13,13,14,14,15,15,16,16,17,17,18,18,19,19,20,20,21,21,22,22,23,23,24,24,29,29,30,30,31,31,32,32,33,33,34,34,35,35,36,36,37,37,38,38,39,39,40,40,41,41,42,42,43,43,44,44,45,45,46,46,47,47,48,48],"right_children":[2,4,6,8,10,12,14,16,18,20,22,-1,24,26,28,30,32,34,36,38,40,42,44,46,48,-1,-1,-1,-1,50,52,54,56,58,60,62,64,66,68,70,72,74,76,78,80,82,84,86,88,-1,-1,-1,-1,-1,-1,-1,-1,-1,-1,-1,-1,-1,-1,-1,-1,-1,-1,-1,-1,-1,-1,-1,-1,-1,-1,-1,-1,-1,-1,-1,-1,-1,-1,-1,-1,-1,-1,-1,-1],"split_conditions":[1E0,2.3333333E-1,2.0410781E-17,4.1666668E-2,2.0410781E-17,-9.105625E-1,8.1174487E-1,8.333334E-3,2.0410781E-17,6.083333E-1,4.75E-1,-3.2031766E-4,8.847539E-1,1.1666666E0,4.3333337E-1,1.0000831E-1,6.441083E-2,4.5928028E-1,4.5928028E-1,9.6524817E-1,2.9522845E-1,2.07281E-1,7.583334E-1,9.372483E-1,-8.151915E-2,6.4825914E-3,1.3331065E-2,5.366034E-3,1.0257981E-2,2.606105E-1,7.705069E-1,1.0000831E-1,2.0410781E-17,1.0000831E-1,9.6524817E-1,1.4166667E-1,9.6524817E-1,-9.105625E-1,9.372483E-1,8.847539E-1,1.0333334E0,6.9449234E-1,2.758644E-1,2.385348E-2,7.0070547E-1,-6.748195E-1,0E0,2.1666665E-1,4.1666666E-1,-6.8591406E-5,1.9025574E-4,-6.904282E-5,-1.6940703E-5,1.3250431E-4,-3.802679E-5,2.4114333E-5,2.708565E-4,2.9809642E-4,1.5251877E-5,1.291302E-4,7.0864917E-4,1.21318175E-4,3.7869727E-4,5.999605E-4,3.1576399E-3,-1.0038264E-4,3.9423068E-4,9.35921E-4,-7.345473E-5,9.25807E-4,5.18781E-5,1.1956212E-3,2.0185427E-3,6.531222E-4,1.3923872E-3,2.6860165E-3,1.0125217E-3,3.7980295E-4,2.72335E-3,4.233476E-3,2.6137126E-3,2.4553163E-3,6.08267E-3,2.0162016E-3,-3.1538328E-4,3.364374E-4,-5.554972E-5,2.6231888E-4,1.4509131E-3],"split_indices":[8,7,0,7,0,2,3,7,0,7,7,0,2,5,6,12,16,9,9,8,11,11,7,3,3,0,0,0,0,2,8,12,0,12,8,7,8,2,3,2,7,8,11,16,8,3,2,15,6,0,0,0,0,0,0,0,0,0,0,0,0,0,0,0,0,0,0,0,0,0,0,0,0,0,0,0,0,0,0,0,0,0,0,0,0,0,0,0,0],"split_type":[0,0,0,0,0,0,0,0,0,0,0,0,0,0,0,0,0,0,0,0,0,0,0,0,0,0,0,0,0,0,0,0,0,0,0,0,0,0,0,0,0,0,0,0,0,0,0,0,0,0,0,0,0,0,0,0,0,0,0,0,0,0,0,0,0,0,0,0,0,0,0,0,0,0,0,0,0,0,0,0,0,0,0,0,0,0,0,0,0],"sum_hessian":[2.4336E5,2.4264E5,7.2E2,2.35138E5,7.502E3,6E2,1.2E2,2.12026E5,2.3112E4,6.249E3,1.253E3,3.6E1,5.64E2,1.03E2,1.7E1,1.74139E5,3.7887E4,1.9227E4,3.885E3,4.353E3,1.896E3,6.94E2,5.59E2,5.13E2,5.1E1,3E0,1E2,4E0,1.3E1,1.248E3,1.72891E5,3.4526E4,3.361E3,1.2375E4,6.852E3,2.506E3,1.379E3,3.742E3,6.11E2,1.499E3,3.97E2,4.2E2,2.74E2,3.27E2,2.32E2,4.62E2,5.1E1,3.4E1,1.7E1,9.17E2,3.31E2,1.71122E5,1.769E3,5.3E2,3.3996E4,2.779E3,5.82E2,4.8E2,1.1895E4,6.75E3,1.02E2,2.151E3,3.55E2,1.364E3,1.5E1,2.44E2,3.498E3,5.52E2,5.9E1,1.36E3,1.39E2,2.44E2,1.53E2,2.51E2,1.69E2,1.53E2,1.21E2,1.9E1,3.08E2,1.69E2,6.3E1,1.36E2,3.26E2,1.7E1,3.4E1,2E0,3.2E1,4E0,1.3E1],"tree_param":{"num_deleted":"0","num_feature":"17","num_nodes":"89","size_leaf_vector":"1"}},{"base_weights":[9.963142E-7,-3.0477505E-4,1.02903455E-1,-7.7341474E-4,1.8344268E-2,7.461658E-2,2.4255225E-1,-1.0549808E-3,3.8371899E-3,1.2837085E-2,4.594516E-2,-3.0473465E-4,7.9770036E-2,2.5091156E-1,1.8077888E-1,-1.2408596E-3,1.0963585E-4,2.4839E-3,1.0439612E-2,9.17671E-3,1.874249E-2,3.241853E-2,6.3310705E-2,8.691219E-2,7.638549E-3,6.239495E-3,1.267111E-2,5.1513924E-3,9.781717E-3,-1.292336E-3,-7.4906927E-4,-1.3261946E-4,2.6428804E-3,2.2926796E-3,1.3425845E-2,5.149594E-3,1.6277498E-2,5.700287E-3,1.286935E-2,-1.5054108E-3,2.0098511E-2,2.2828436E-2,4.5216855E-2,2.1490937E-2,6.775927E-2,1.1030084E-1,5.5651885E-2,-4.391959E-4,2.2920912E-2,1.5546678E-7,-6.508436E-5,-4.4145632E-5,4.995023E-5,-1.8665514E-5,5.2733023E-5,7.781106E-5,4.139185E-4,1.3255714E-4,-5.7281355E-5,1.8416463E-3,4.7920385E-4,2.0698621E-4,5.827138E-4,7.511409E-4,2.7031126E-3,1.8401549E-4,4.194574E-4,2.8354354E-4,8.2588213E-4,-1.4426204E-4,2.2196586E-4,1.0997982E-3,1.6692249E-4,1.6088964E-3,6.428565E-4,2.5632198E-3,4.929713E-4,7.133914E-4,5.652156E-3,3.7228966E-3,1.978133E-3,2.3334464E-3,8.256211E-3,2.6703588E-4,4.9185934E-3,3.2522282E-4,-5.2856405E-5,3.4946474E-4,1.4255409E-3],"categories":[],"categories_nodes":[],"categories_segments":[],"categories_sizes":[],"default_left":[0,0,0,0,0,0,0,0,0,0,0,0,0,0,0,0,0,0,0,0,0,0,0,0,0,0,0,0,0,0,0,0,0,0,0,0,0,0,0,0,0,0,0,0,0,0,0,0,0,0,0,0,0,0,0,0,0,0,0,0,0,0,0,0,0,0,0,0,0,0,0,0,0,0,0,0,0,0,0,0,0,0,0,0,0,0,0,0,0],"id":3,"left_children":[1,3,5,7,9,11,13,15,17,19,21,-1,23,25,27,29,31,33,35,37,39,41,43,45,47,-1,-1,-1,-1,49,51,53,55,57,59,61,63,65,67,69,71,73,75,77,79,81,83,85,87,-1,-1,-1,-1,-1,-1,-1,-1,-1,-1,-1,-1,-1,-1,-1,-1,-1,-1,-1,-1,-1,-1,-1,-1,-1,-1,-1,-1,-1,-1,-1,-1,-1,-1,-1,-1,-1,-1,-1,-1],"loss_changes":[7.657294E0,2.1206193E0,2.8300152E0,3.0727774E-1,9.035251E-1,2.504673E-1,1.7122746E-2,4.8290238E-2,1.21695444E-1,1.07043386E-1,2.3026085E-1,0E0,2.9040956E-1,1.3065338E-3,6.3472986E-4,4.8689544E-3,1.884315E-2,2.3627087E-2,7.1470976E-2,3.925976E-2,5.211538E-2,6.745511E-2,7.891226E-2,3.6966562E-1,6.429312E-3,0E0,0E0,0E0,0E0,2.1094978E-3,4.2661196E-3,8.009024E-3,1.6399054E-2,1.3701107E-2,1.7092358E-2,7.946085E-3,5.1383793E-2,8.550793E-3,3.8905635E-2,9.971341E-4,5.64695E-2,2.9512033E-2,5.0385028E-2,2.6822653E-2,7.0717216E-2,1.0144289E0,4.7661763E-1,1.5705074E-4,1.4037425E-3,0E0,0E0,0E0,0E0,0E0,0E0,0E0,0E0,0E0,0E0,0E0,0E0,0E0,0E0,0E0,0E0,0E0,0E0,0E0,0E0,0E0,0E0,0E0,0E0,0E0,0E0,0E0,0E0,0E0,0E0,0E0,0E0,0E0,0E0,0E0,0E0,0E0,0E0,0E0,0E0],"parents":[2147483647,0,0,1,1,2,2,3,3,4,4,5,5,6,6,7,7,8,8,9,9,10,10,12,12,13,13,14,14,15,15,16,16,17,17,18,18,19,19,20,20,21,21,22,22,23,23,24,24,29,29,30,30,31,31,32,32,33,33,34,34,35,35,36,36,37,37,38,38,39,39,40,40,41,41,42,42,43,43,44,44,45,45,46,46,47,47,48,48],"right_children":[2,4,6,8,10,12,14,16,18,20,22,-1,24,26,28,30,32,34,36,38,40,42,44,46,48,-1,-1,-1,-1,50,52,54,56,58,60,62,64,66,68,70,72,74,76,78,80,82,84,86,88,-1,-1,-1,-1,-1,-1,-1,-1,-1,-1,-1,-1,-1,-1,-1,-1,-1,-1,-1,-1,-1,-1,-1,-1,-1,-1,-1,-1,-1,-1,-1,-1,-1,-1,-1,-1,-1,-1,-1,-1],"split_conditions":[1E0,2.9166666E-1,2.0410781E-17,7.5E-2,2.0410781E-17,-9.105625E-1,8.1174487E-1,1.6666668E-2,2.0410781E-17,6.083333E-1,3.1666666E-1,-3.0473465E-4,8.847539E-1,1.1666666E0,4.3333337E-1,8.333334E-3,6.0923105E-1,9.6524817E-1,4.5928028E-1,2.07281E-1,-9.105625E-1,2.07281E-1,3.676605E-1,4.8248804E-1,-8.151915E-2,6.239495E-3,1.267111E-2,5.1513924E-3,9.781717E-3,1.0000831E-1,6.1455864E-2,2.0410781E-17,2.0410781E-17,8.847539E-1,-5.2405775E-1,1.9999999E-1,9.6524817E-1,6.9449234E-1,5.6979513E-1,2.908585E-1,8.847539E-1,1.1862824E-1,2.994301E-1,2.1499999E0,8.02494E-1,-6.748195E-1,7.489932E-1,2.1666665E-1,1.5833334E0,1.5546678E-7,-6.508436E-5,-4.4145632E-5,4.995023E-5,-1.8665514E-5,5.2733023E-5,7.781106E-5,4.139185E-4,1.3255714E-4,-5.7281355E-5,1.8416463E-3,4.7920385E-4,2.0698621E-4,5.827138E-4,7.511409E-4,2.7031126E-3,1.8401549E-4,4.194574E-4,2.8354354E-4,8.2588213E-4,-1.4426204E-4,2.2196586E-4,1.0997982E-3,1.6692249E-4,1.6088964E-3,6.428565E-4,2.5632198E-3,4.929713E-4,7.133914E-4,5.652156E-3,3.7228966E-3,1.978133E-3,2.3334464E-3,8.256211E-3,2.6703588E-4,4.9185934E-3,3.2522282E-4,-5.2856405E-5,3.4946474E-4,1.4255409E-3],"split_indices":[8,7,0,7,0,2,3,7,0,7,5,0,2,5,6,7,9,8,9,11,2,11,9,3,3,0,0,0,0,12,16,0,0,2,2,7,8,8,9,11,2,11,11,4,12,3,3,15,5,0,0,0,0,0,0,0,0,0,0,0,0,0,0,0,0,0,0,0,0,0,0,0,0,0,0,0,0,0,0,0,0,0,0,0,0,0,0,0,0],"split_type":[0,0,0,0,0,0,0,0,0,0,0,0,0,0,0,0,0,0,0,0,0,0,0,0,0,0,0,0,0,0,0,0,0,0,0,0,0,0,0,0,0,0,0,0,0,0,0,0,0,0,0,0,0,0,0,0,0,0,0,0,0,0,0,0,0,0,0,0,0,0,0,0,0,0,0,0,0,0,0,0,0,0,0,0,0,0,0,0,0],"sum_hessian":[2.4336E5,2.4264E5,7.2E2,2.36693E5,5.947E3,6E2,1.2E2,2.23071E5,1.3622E4,4.959E3,9.88E2,3.6E1,5.64E2,1.03E2,1.7E1,1.92368E5,3.0703E4,1.1306E4,2.316E3,3.063E3,1.896E3,5.57E2,4.31E2,5.13E2,5.1E1,3E0,1E2,4E0,1.3E1,1.74139E5,1.8229E4,2.8024E4,2.679E3,1.1113E4,1.93E2,1.216E3,1.1E3,1.579E3,1.484E3,1.19E2,1.777E3,3.2E2,2.37E2,4.2E1,3.89E2,2.92E2,2.21E2,3.4E1,1.7E1,1.248E3,1.72891E5,1.6933E4,1.296E3,2.3301E4,4.723E3,2.247E3,4.32E2,1.0064E4,1.049E3,2.6E1,1.67E2,1.054E3,1.62E2,1.066E3,3.4E1,9.03E2,6.76E2,5E2,9.84E2,9.7E1,2.2E1,1.596E3,1.81E2,1.64E2,1.56E2,2.02E2,3.5E1,4E1,2E0,3.13E2,7.6E1,1.36E2,1.56E2,1.02E2,1.19E2,2E0,3.2E1,5E0,1.2E1],"tree_param":{"num_deleted":"0","num_feature":"17","num_nodes":"89","size_leaf_vector":"1"}},{"base_weights":[1.270682E-6,-2.8942284E-4,9.782951E-2,-7.920672E-4,1.5463153E-2,7.09149E-2,2.3070435E-1,-1.039012E-3,2.6236223E-3,1.08261155E-2,3.8562056E-2,7.707126E-2,4.43584E-3,2.3854783E-1,1.7256956E-1,-1.178817E-3,-3.9859922E-5,1.6499561E-3,7.439474E-3,5.9785186E-3,1.5250481E-2,2.4326881E-2,5.6160066E-2,6.592688E-2,1.825323E-1,3.3774506E-2,-5.389677E-4,3.4861767E-3,2.3950997E-1,4.945337E-3,9.327565E-3,-1.196028E-3,2.5091323E-4,-2.2998685E-4,2.255718E-3,7.797433E-4,2.9160904E-3,3.6432098E-3,1.2807338E-2,5.216345E-3,1.3378608E-2,-1.8954761E-3,1.6351344E-2,9.539173E-3,2.995253E-2,1.2882104E-2,5.9020724E-2,8.125707E-2,1.6831877E-2,1.512095E-1,2.3329705E-1,4.5278627E-2,9.228222E-3,1.2024137E-2,3.5071794E-3,-6.188411E-5,-3.952823E-5,2.1404959E-4,-3.0884883E-5,1.824828E-4,-1.5480278E-5,6.075049E-5,3.8622212E-4,3.5596066E-4,2.9375506E-5,1.3596103E-4,6.6339347E-4,1.67137E-4,8.7363954E-4,2.1247303E-3,5.8401487E-4,-1.1496252E-4,2.879487E-4,8.535129E-4,3.2656893E-4,-1.4205238E-4,1.2946787E-4,8.9153554E-4,7.1483984E-5,3.810385E-4,1.2876162E-3,1.0308785E-3,2.1546446E-3,2.1857284E-4,2.3758004E-3,3.3427184E-3,2.1945E-3,3.0373435E-3,8.64106E-3,2.5381372E-4,4.158247E-3,5.0751804E-3,8.798367E-3,5.9690992E-3,1.2865846E-2,4.954682E-4,2.798367E-3,6.4304593E-4,-3.1419887E-4],"categories":[],"categories_nodes":[],"categories_segments":[],"categories_sizes":[],"default_left":[0,0,0,0,0,0,0,0,0,0,0,0,0,0,0,0,0,0,0,0,0,0,0,0,0,0,0,0,0,0,0,0,0,0,0,0,0,0,0,0,0,0,0,0,0,0,0,0,0,0,0,0,0,0,0,0,0,0,0,0,0,0,0,0,0,0,0,0,0,0,0,0,0,0,0,0,0,0,0,0,0,0,0,0,0,0,0,0,0,0,0,0,0,0,0,0,0,0,0],"id":4,"left_children":[1,3,5,7,9,11,13,15,17,19,21,23,25,27,29,31,33,35,37,39,41,43,45,47,49,51,-1,-1,53,-1,-1,55,57,59,61,63,65,67,69,71,73,75,77,79,81,83,85,87,89,91,93,95,97,-1,-1,-1,-1,-1,-1,-1,-1,-1,-1,-1,-1,-1,-1,-1,-1,-1,-1,-1,-1,-1,-1,-1,-1,-1,-1,-1,-1,-1,-1,-1,-1,-1,-1,-1,-1,-1,-1,-1,-1,-1,-1,-1,-1,-1,-1],"loss_changes":[6.9207377E0,1.92123E0,2.5621343E0,1.983394E-1,8.0323267E-1,2.4562883E-1,1.40070915E-2,3.0631244E-2,7.432764E-2,1.339559E-1,3.1277418E-1,6.343801E-1,2.3576532E-2,1.9407272E-4,8.767843E-5,4.73392E-3,1.1748913E-2,1.4529452E-2,5.428064E-2,1.6760424E-2,6.169671E-2,5.7531625E-2,6.856966E-2,3.7419748E-1,4.7408104E-2,4.66506E-3,0E0,0E0,1.0061264E-4,0E0,0E0,3.2093525E-3,8.015449E-3,7.6801907E-3,1.1709098E-2,9.523275E-3,1.09117925E-2,6.436439E-3,3.6442116E-2,1.1052869E-2,6.9156736E-3,8.4702094E-4,6.774366E-2,5.8066975E-3,6.0811907E-2,1.0403536E-2,5.929339E-2,7.0314145E-1,9.3152046E-2,2.5210083E-2,1.853311E-2,3.9820224E-3,4.7527545E-4,0E0,0E0,0E0,0E0,0E0,0E0,0E0,0E0,0E0,0E0,0E0,0E0,0E0,0E0,0E0,0E0,0E0,0E0,0E0,0E0,0E0,0E0,0E0,0E0,0E0,0E0,0E0,0E0,0E0,0E0,0E0,0E0,0E0,0E0,0E0,0E0,0E0,0E0,0E0,0E0,0E0,0E0,0E0,0E0,0E0,0E0],"parents":[2147483647,0,0,1,1,2,2,3,3,4,4,5,5,6,6,7,7,8,8,9,9,10,10,11,11,12,12,13,13,14,14,15,15,16,16,17,17,18,18,19,19,20,20,21,21,22,22,23,23,24,24,25,25,28,28,31,31,32,32,33,33,34,34,35,35,36,36,37,37,38,38,39,39,40,40,41,41,42,42,43,43,44,44,45,45,46,46,47,47,48,48,49,49,50,50,51,51,52,52],"right_children":[2,4,6,8,10,12,14,16,18,20,22,24,26,28,30,32,34,36,38,40,42,44,46,48,50,52,-1,-1,54,-1,-1,56,58,60,62,64,66,68,70,72,74,76,78,80,82,84,86,88,90,92,94,96,98,-1,-1,-1,-1,-1,-1,-1,-1,-1,-1,-1,-1,-1,-1,-1,-1,-1,-1,-1,-1,-1,-1,-1,-1,-1,-1,-1,-1,-1,-1,-1,-1,-1,-1,-1,-1,-1,-1,-1,-1,-1,-1,-1,-1,-1,-1],"split_conditions":[1E0,2.3333333E-1,2.0410781E-17,5.8333337E-2,2.0410781E-17,9.372483E-1,8.1174487E-1,1.6666668E-2,2.0410781E-17,4.2499998E-1,4.75E-1,8.1174487E-1,0E0,6.166667E-1,4.3333337E-1,7.705069E-1,6.0923105E-1,4.5928028E-1,4.5928028E-1,9.6524817E-1,-9.105625E-1,4.1697964E-1,6.666667E-2,4.8248804E-1,2.8925583E-1,5.6666666E-1,-5.389677E-4,3.4861767E-3,1.5666667E0,4.945337E-3,9.327565E-3,8.333334E-3,3.0477312E-1,1.0000831E-1,2.0410781E-17,1.00005515E-1,9.6524817E-1,1.5000002E-1,4.6146488E-1,-9.105625E-1,4.8248804E-1,1.0333334E0,8.847539E-1,4.1666666E-1,1.6666667E-1,1.3333334E-1,2.8432938E-1,5.9482634E-2,7.489932E-1,4.5000005E-1,3.5E-1,3.458333E-1,2.8833332E0,1.2024137E-2,3.5071794E-3,-6.188411E-5,-3.952823E-5,2.1404959E-4,-3.0884883E-5,1.824828E-4,-1.5480278E-5,6.075049E-5,3.8622212E-4,3.5596066E-4,2.9375506E-5,1.3596103E-4,6.6339347E-4,1.67137E-4,8.7363954E-4,2.1247303E-3,5.8401487E-4,-1.1496252E-4,2.879487E-4,8.535129E-4,3.2656893E-4,-1.4205238E-4,1.2946787E-4,8.9153554E-4,7.1483984E-5,3.810385E-4,1.2876162E-3,1.0308785E-3,2.1546446E-3,2.1857284E-4,2.3758004E-3,3.3427184E-3,2.1945E-3,3.0373435E-3,8.64106E-3,2.5381372E-4,4.158247E-3,5.0751804E-3,8.798367E-3,5.9690992E-3,1.2865846E-2,4.954682E-4,2.798367E-3,6.4304593E-4,-3.1419887E-4],"split_indices":[8,7,0,7,0,3,3,7,0,7,7,3,2,5,6,8,9,9,9,8,2,9,5,3,2,14,0,0,14,0,0,7,10,12,0,12,8,6,9,2,3,7,2,5,5,6,10,3,3,6,6,15,4,0,0,0,0,0,0,0,0,0,0,0,0,0,0,0,0,0,0,0,0,0,0,0,0,0,0,0,0,0,0,0,0,0,0,0,0,0,0,0,0,0,0,0,0,0,0],"split_type":[0,0,0,0,0,0,0,0,0,0,0,0,0,0,0,0,0,0,0,0,0,0,0,0,0,0,0,0,0,0,0,0,0,0,0,0,0,0,0,0,0,0,0,0,0,0,0,0,0,0,0,0,0,0,0,0,0,0,0,0,0,0,0,0,0,0,0,0,0,0,0,0,0,0,0,0,0,0,0,0,0,0,0,0,0,0,0,0,0,0,0,0,0,0,0,0,0,0,0],"sum_hessian":[2.4336E5,2.4264E5,7.2E2,2.35138E5,7.502E3,6E2,1.2E2,2.19285E5,1.5853E4,6.249E3,1.253E3,5.49E2,5.1E1,1.03E2,1.7E1,1.92368E5,2.6917E4,1.3188E4,2.665E3,2.983E3,3.266E3,6.94E2,5.59E2,4.98E2,5.1E1,1.7E1,3.4E1,1E0,1.02E2,4E0,1.3E1,1.9008E5,2.288E3,2.4859E4,2.058E3,7.817E3,5.371E3,1.562E3,1.103E3,2.706E3,2.77E2,1.97E2,3.069E3,1.92E2,5.02E2,3.5E1,5.24E2,3.79E2,1.19E2,3.4E1,1.7E1,1.1E1,6E0,1.01E2,1E0,1.7237E5,1.771E4,4.05E2,1.883E3,4.99E2,2.436E4,1.73E3,3.28E2,2.29E2,7.588E3,5.272E3,9.9E1,1.53E3,3.2E1,3.9E1,1.064E3,1.82E2,2.524E3,1.79E2,9.8E1,1.63E2,3.4E1,2.792E3,2.77E2,1.73E2,1.9E1,2.95E2,2.07E2,2.9E1,6E0,3.43E2,1.81E2,3.11E2,6.8E1,1.02E2,1.7E1,1.3E1,2.1E1,4E0,1.3E1,3E0,8E0,5E0,1E0],"tree_param":{"num_deleted":"0","num_feature":"17","num_nodes":"99","size_leaf_vector":"1"}},{"base_weights":[1.643071E-6,-2.748655E-4,9.305617E-2,-7.524399E-4,1.4692034E-2,6.7455485E-2,2.1944426E-1,-1.0407981E-3,1.8928454E-3,1.0285178E-2,3.664431E-2,-4.3767234E-4,7.2326764E-2,2.2680329E-1,8.236701E-3,-1.1664518E-3,-4.6324386E-4,1.1388907E-3,5.62294E-3,7.3340368E-3,1.7053224E-2,2.3117522E-2,5.3366583E-2,7.907084E-2,4.2733494E-3,5.6613325E-3,1.145279E-2,6.478855E-5,-1.1753398E-3,-6.4783014E-4,9.867231E-4,4.3756605E-4,2.405264E-3,2.7593984E-3,1.0820966E-2,4.622631E-3,1.0517156E-2,1.4367595E-2,2.7132092E-2,9.07086E-3,2.8461237E-2,4.3954227E-2,6.638756E-2,6.823457E-2,1.7403468E-1,3.228704E-2,-5.1278935E-4,-6.20825E-5,1.8384874E-4,-6.139694E-5,-4.8637532E-5,1.1119025E-4,-3.4598346E-5,1.6523838E-5,2.1177751E-4,2.6923625E-4,1.1874853E-5,1.127627E-4,6.10706E-4,1.0526446E-4,3.3528506E-4,1.9370537E-3,4.947018E-4,2.6410318E-4,-1.08367254E-4,2.4107883E-4,7.140136E-4,1.0518043E-3,5.511164E-4,1.0513932E-3,1.833359E-3,3.6209606E-4,1.2264544E-3,9.795087E-4,2.0474305E-3,1.7458287E-3,2.8072174E-3,1.5736433E-3,3.5501432E-3,4.3124068E-3,8.013525E-4,7.202271E-3,1.113393E-2,2.164459E-3,4.4068947E-4],"categories":[],"categories_nodes":[],"categories_segments":[],"categories_sizes":[],"default_left":[0,0,0,0,0,0,0,0,0,0,0,0,0,0,0,0,0,0,0,0,0,0,0,0,0,0,0,0,0,0,0,0,0,0,0,0,0,0,0,0,0,0,0,0,0,0,0,0,0,0,0,0,0,0,0,0,0,0,0,0,0,0,0,0,0,0,0,0,0,0,0,0,0,0,0,0,0,0,0,0,0,0,0,0,0],"id":5,"left_children":[1,3,5,7,9,11,13,15,17,19,21,-1,23,25,-1,27,29,31,33,35,37,39,41,43,45,-1,-1,47,49,51,53,55,57,59,61,63,65,67,69,71,73,75,77,79,81,83,-1,-1,-1,-1,-1,-1,-1,-1,-1,-1,-1,-1,-1,-1,-1,-1,-1,-1,-1,-1,-1,-1,-1,-1,-1,-1,-1,-1,-1,-1,-1,-1,-1,-1,-1,-1,-1,-1,-1],"loss_changes":[6.2617955E0,1.7343622E0,2.3180804E0,1.7936358E-1,7.254671E-1,2.2374558E-1,1.135397E-2,1.5386641E-2,6.49948E-2,1.2470907E-1,2.8241944E-1,0E0,2.5897288E-1,6.713867E-4,0E0,1.9057244E-3,1.0141136E-2,1.707608E-2,5.7812333E-2,3.7529573E-2,5.0958335E-2,5.1909477E-2,6.571448E-2,5.170584E-1,2.1495894E-2,0E0,0E0,5.8987206E-3,1.8411428E-3,4.2614257E-3,9.1215605E-3,1.2248151E-2,1.0056138E-2,6.457232E-3,3.53311E-2,1.0547075E-2,4.2840302E-2,3.3229947E-2,2.239427E-2,5.278887E-3,5.491829E-2,3.4175456E-2,3.531146E-2,4.3404317E-1,4.378152E-2,4.2670686E-3,0E0,0E0,0E0,0E0,0E0,0E0,0E0,0E0,0E0,0E0,0E0,0E0,0E0,0E0,0E0,0E0,0E0,0E0,0E0,0E0,0E0,0E0,0E0,0E0,0E0,0E0,0E0,0E0,0E0,0E0,0E0,0E0,0E0,0E0,0E0,0E0,0E0,0E0,0E0],"parents":[2147483647,0,0,1,1,2,2,3,3,4,4,5,5,6,6,7,7,8,8,9,9,10,10,12,12,13,13,15,15,16,16,17,17,18,18,19,19,20,20,21,21,22,22,23,23,24,24,27,27,28,28,29,29,30,30,31,31,32,32,33,33,34,34,35,35,36,36,37,37,38,38,39,39,40,40,41,41,42,42,43,43,44,44,45,45],"right_children":[2,4,6,8,10,12,14,16,18,20,22,-1,24,26,-1,28,30,32,34,36,38,40,42,44,46,-1,-1,48,50,52,54,56,58,60,62,64,66,68,70,72,74,76,78,80,82,84,-1,-1,-1,-1,-1,-1,-1,-1,-1,-1,-1,-1,-1,-1,-1,-1,-1,-1,-1,-1,-1,-1,-1,-1,-1,-1,-1,-1,-1,-1,-1,-1,-1,-1,-1,-1,-1,-1,-1],"split_conditions":[1E0,2.3333333E-1,2.0410781E-17,4.1666668E-2,2.0410781E-17,-9.105625E-1,8.1174487E-1,8.333334E-3,2.0410781E-17,6.083333E-1,4.75E-1,-4.3767234E-4,9.372483E-1,1.1666666E0,8.236701E-3,1.0000831E-1,5.3543918E-2,4.5928028E-1,4.5928028E-1,2.07281E-1,2.9522845E-1,4.1697964E-1,7.583334E-1,8.1174487E-1,0E0,5.6613325E-3,1.145279E-2,2.606105E-1,8.333334E-3,1.0000831E-1,2.0410781E-17,1.0000831E-1,9.6524817E-1,1.4166667E-1,4.6146488E-1,8.847539E-1,5.6979513E-1,-4.4867018E-1,1.0333334E0,4.1666666E-1,1.6666667E-1,7.215366E-1,6.2042583E-2,4.8248804E-1,2.8925583E-1,5.6666666E-1,-5.1278935E-4,-6.20825E-5,1.8384874E-4,-6.139694E-5,-4.8637532E-5,1.1119025E-4,-3.4598346E-5,1.6523838E-5,2.1177751E-4,2.6923625E-4,1.1874853E-5,1.127627E-4,6.10706E-4,1.0526446E-4,3.3528506E-4,1.9370537E-3,4.947018E-4,2.6410318E-4,-1.08367254E-4,2.4107883E-4,7.140136E-4,1.0518043E-3,5.511164E-4,1.0513932E-3,1.833359E-3,3.6209606E-4,1.2264544E-3,9.795087E-4,2.0474305E-3,1.7458287E-3,2.8072174E-3,1.5736433E-3,3.5501432E-3,4.3124068E-3,8.013525E-4,7.202271E-3,1.113393E-2,2.164459E-3,4.4068947E-4],"split_indices":[8,7,0,7,0,2,3,7,0,7,7,0,3,5,0,12,16,9,9,11,11,9,7,3,2,0,0,2,14,12,0,12,8,7,9,2,9,3,7,5,5,12,8,3,2,14,0,0,0,0,0,0,0,0,0,0,0,0,0,0,0,0,0,0,0,0,0,0,0,0,0,0,0,0,0,0,0,0,0,0,0,0,0,0,0],"split_type":[0,0,0,0,0,0,0,0,0,0,0,0,0,0,0,0,0,0,0,0,0,0,0,0,0,0,0,0,0,0,0,0,0,0,0,0,0,0,0,0,0,0,0,0,0,0,0,0,0,0,0,0,0,0,0,0,0,0,0,0,0,0,0,0,0,0,0,0,0,0,0,0,0,0,0,0,0,0,0,0,0,0,0,0,0],"sum_hessian":[2.4336E5,2.4264E5,7.2E2,2.35138E5,7.502E3,6E2,1.2E2,2.12026E5,2.3112E4,6.249E3,1.253E3,3.6E1,5.64E2,1.03E2,1.7E1,1.74139E5,3.7887E4,1.9227E4,3.885E3,4.353E3,1.896E3,6.94E2,5.59E2,5.13E2,5.1E1,3E0,1E2,1.248E3,1.72891E5,3.3609E4,4.278E3,1.2375E4,6.852E3,2.506E3,1.379E3,2.352E3,2.001E3,1.499E3,3.97E2,1.92E2,5.02E2,3.27E2,2.32E2,4.62E2,5.1E1,1.7E1,3.4E1,9.17E2,3.31E2,1.37251E5,3.564E4,5.08E2,3.3101E4,3.56E3,7.18E2,4.8E2,1.1895E4,6.75E3,1.02E2,2.151E3,3.55E2,4.3E1,1.336E3,2.144E3,2.08E2,7.97E2,1.204E3,4.99E2,1E3,2.44E2,1.53E2,1.73E2,1.9E1,2.95E2,2.07E2,1.9E2,1.37E2,2.8E1,2.04E2,3.43E2,1.19E2,3.4E1,1.7E1,1.1E1,6E0],"tree_param":{"num_deleted":"0","num_feature":"17","num_nodes":"85","size_leaf_vector":"1"}},{"base_weights":[1.8672398E-6,-2.6102294E-4,8.847334E-2,-7.1480003E-4,1.3960083E-2,6.412448E-2,2.0868155E-1,-9.389872E-4,2.3861092E-3,9.771815E-3,3.4823492E-2,7.006229E-2,8.758566E-5,2.1562769E-1,1.569549E-1,-1.0645951E-3,-4.1298164E-5,1.5036513E-3,6.750832E-3,6.96759E-3,1.6202928E-2,2.1968286E-2,5.0715532E-2,7.679571E-2,4.09992E-3,-7.5492114E-3,1.4932047E-2,2.1650438E-1,3.1331803E-3,4.4180555E-3,8.512082E-3,-1.0807604E-3,2.782583E-4,-2.1412839E-4,2.0454433E-3,7.1678497E-4,2.6485166E-3,3.2079853E-3,1.1534282E-2,4.3915655E-3,9.991775E-3,1.3650285E-2,2.5782736E-2,1.5228824E-2,3.220591E-2,5.8578104E-2,3.59303E-2,6.6306725E-2,1.6568558E-1,3.081742E-2,-4.8788247E-4,1.3878079E-3,-4.066452E-4,-1.338065E-3,1.9676227E-2,1.8266714E-1,1.1426808E-2,-5.7147507E-5,-4.346025E-5,2.0396143E-4,-2.704973E-5,1.6625943E-4,-1.4338135E-5,5.4879267E-5,3.5131423E-4,3.2483673E-4,2.7075874E-5,1.5342595E-4,-6.851138E-5,1.17057425E-4,3.366799E-4,5.439466E-4,2.8323524E-3,2.5090418E-4,-1.0297482E-4,2.2904E-4,6.7834253E-4,9.993193E-4,5.2358815E-4,1.3848617E-3,-7.748552E-5,5.0277775E-4,1.1403926E-3,2.2528754E-3,7.8597077E-4,1.109407E-3,3.320738E-3,3.893748E-4,2.3117166E-3,4.2367065E-3,7.616188E-4,6.8524457E-3,1.0608161E-2,2.0652548E-3,4.218028E-4,3.4546046E-4,-2.4137487E-4,-1.98876E-4,2.3049387E-4,1.1934665E-3,-1.8274649E-4,2.0851053E-3,9.293458E-3],"categories":[],"categories_nodes":[],"categories_segments":[],"categories_sizes":[],"default_left":[0,0,0,0,0,0,0,0,0,0,0,0,0,0,0,0,0,0,0,0,0,0,0,0,0,0,0,0,0,0,0,0,0,0,0,0,0,0,0,0,0,0,0,0,0,0,0,0,0,0,0,0,0,0,0,0,0,0,0,0,0,0,0,0,0,0,0,0,0,0,0,0,0,0,0,0,0,0,0,0,0,0,0,0,0,0,0,0,0,0,0,0,0,0,0,0,0,0,0,0,0,0,0],"id":6,"left_children":[1,3,5,7,9,11,13,15,17,19,21,23,25,27,29,31,33,35,37,39,41,43,45,47,49,51,53,55,-1,-1,-1,57,59,61,63,65,67,69,71,73,75,77,79,81,83,85,87,89,91,93,-1,95,-1,97,99,101,-1,-1,-1,-1,-1,-1,-1,-1,-1,-1,-1,-1,-1,-1,-1,-1,-1,-1,-1,-1,-1,-1,-1,-1,-1,-1,-1,-1,-1,-1,-1,-1,-1,-1,-1,-1,-1,-1,-1,-1,-1,-1,-1,-1,-1,-1,-1],"loss_changes":[5.660182E0,1.5658239E0,2.0969372E0,1.6346708E-1,6.5528345E-1,2.2851753E-1,9.631157E-3,2.4725944E-2,6.1054446E-2,1.126014E-1,2.5507247E-1,2.4396896E-1,6.0076597E-3,3.8003922E-4,1.3622046E-3,4.1761994E-3,9.708469E-3,1.1879493E-2,4.5143783E-2,3.3875406E-2,4.603696E-2,4.7461838E-2,6.2995195E-2,4.5426416E-1,1.9553164E-2,1.9386318E-4,1.4157183E-3,1.8787384E-4,0E0,0E0,0E0,2.499804E-3,7.130052E-3,6.3918578E-3,9.713093E-3,7.916409E-3,9.07151E-3,4.6692844E-3,3.291014E-2,9.520464E-3,3.866583E-2,2.9999882E-2,2.0869434E-2,1.6277365E-2,5.755809E-2,1.0233021E-1,5.6766868E-2,4.2035234E-1,4.0133357E-2,3.8766619E-3,0E0,1.3630578E-4,0E0,9.6832504E-5,1.45686E-3,6.6928864E-3,0E0,0E0,0E0,0E0,0E0,0E0,0E0,0E0,0E0,0E0,0E0,0E0,0E0,0E0,0E0,0E0,0E0,0E0,0E0,0E0,0E0,0E0,0E0,0E0,0E0,0E0,0E0,0E0,0E0,0E0,0E0,0E0,0E0,0E0,0E0,0E0,0E0,0E0,0E0,0E0,0E0,0E0,0E0,0E0,0E0,0E0,0E0],"parents":[2147483647,0,0,1,1,2,2,3,3,4,4,5,5,6,6,7,7,8,8,9,9,10,10,11,11,12,12,13,13,14,14,15,15,16,16,17,17,18,18,19,19,20,20,21,21,22,22,23,23,24,24,25,25,26,26,27,27,31,31,32,32,33,33,34,34,35,35,36,36,37,37,38,38,39,39,40,40,41,41,42,42,43,43,44,44,45,45,46,46,47,47,48,48,49,49,51,51,53,53,54,54,55,55],"right_children":[2,4,6,8,10,12,14,16,18,20,22,24,26,28,30,32,34,36,38,40,42,44,46,48,50,52,54,56,-1,-1,-1,58,60,62,64,66,68,70,72,74,76,78,80,82,84,86,88,90,92,94,-1,96,-1,98,100,102,-1,-1,-1,-1,-1,-1,-1,-1,-1,-1,-1,-1,-1,-1,-1,-1,-1,-1,-1,-1,-1,-1,-1,-1,-1,-1,-1,-1,-1,-1,-1,-1,-1,-1,-1,-1,-1,-1,-1,-1,-1,-1,-1,-1,-1,-1,-1],"split_conditions":[1E0,2.3333333E-1,2.0410781E-17,5.8333337E-2,2.0410781E-17,8.847539E-1,8.1174487E-1,1.6666668E-2,2.0410781E-17,6.083333E-1,4.75E-1,9.372483E-1,-8.151915E-2,1.5666667E0,4.3333337E-1,7.705069E-1,6.0923105E-1,4.5928028E-1,5.692268E-1,2.07281E-1,2.9522845E-1,2.07281E-1,2.8432938E-1,8.1174487E-1,0E0,2.1666665E-1,4.1666666E-1,2.1499999E0,3.1331803E-3,4.4180555E-3,8.512082E-3,8.333334E-3,3.0477312E-1,1.0000831E-1,2.0410781E-17,1.00005515E-1,8.847539E-1,1.4999999E-1,9.6524817E-1,8.847539E-1,5.6979513E-1,-4.4867018E-1,9.372483E-1,6.9449234E-1,2.758644E-1,2.1263741E-1,9.1812277E-1,4.8248804E-1,2.8925583E-1,5.6666666E-1,-4.8788247E-4,9.1056246E-1,-4.066452E-4,3.4333332E0,7.416666E-1,1.375E-1,1.1426808E-2,-5.7147507E-5,-4.346025E-5,2.0396143E-4,-2.704973E-5,1.6625943E-4,-1.4338135E-5,5.4879267E-5,3.5131423E-4,3.2483673E-4,2.7075874E-5,1.5342595E-4,-6.851138E-5,1.17057425E-4,3.366799E-4,5.439466E-4,2.8323524E-3,2.5090418E-4,-1.0297482E-4,2.2904E-4,6.7834253E-4,9.993193E-4,5.2358815E-4,1.3848617E-3,-7.748552E-5,5.0277775E-4,1.1403926E-3,2.2528754E-3,7.8597077E-4,1.109407E-3,3.320738E-3,3.893748E-4,2.3117166E-3,4.2367065E-3,7.616188E-4,6.8524457E-3,1.0608161E-2,2.0652548E-3,4.218028E-4,3.4546046E-4,-2.4137487E-4,-1.98876E-4,2.3049387E-4,1.1934665E-3,-1.8274649E-4,2.0851053E-3,9.293458E-3],"split_indices":[8,7,0,7,0,2,3,7,0,7,7,3,3,14,6,8,9,9,8,11,11,11,10,3,2,15,6,4,0,0,0,14,10,12,0,12,2,7,8,2,9,3,3,8,11,9,8,3,2,14,0,2,0,4,14,15,0,0,0,0,0,0,0,0,0,0,0,0,0,0,0,0,0,0,0,0,0,0,0,0,0,0,0,0,0,0,0,0,0,0,0,0,0,0,0,0,0,0,0,0,0,0,0],"split_type":[0,0,0,0,0,0,0,0,0,0,0,0,0,0,0,0,0,0,0,0,0,0,0,0,0,0,0,0,0,0,0,0,0,0,0,0,0,0,0,0,0,0,0,0,0,0,0,0,0,0,0,0,0,0,0,0,0,0,0,0,0,0,0,0,0,0,0,0,0,0,0,0,0,0,0,0,0,0,0,0,0,0,0,0,0,0,0,0,0,0,0,0,0,0,0,0,0,0,0,0,0,0,0],"sum_hessian":[2.4336E5,2.4264E5,7.2E2,2.35138E5,7.502E3,6E2,1.2E2,2.19285E5,1.5853E4,6.249E3,1.253E3,5.49E2,5.1E1,1.03E2,1.7E1,1.92368E5,2.6917E4,1.3188E4,2.665E3,4.353E3,1.896E3,6.94E2,5.59E2,4.98E2,5.1E1,3.4E1,1.7E1,1.02E2,1E0,4E0,1.3E1,1.9008E5,2.288E3,2.4859E4,2.058E3,7.817E3,5.371E3,1.532E3,1.133E3,2.352E3,2.001E3,1.499E3,3.97E2,4.2E2,2.74E2,3.63E2,1.96E2,4.47E2,5.1E1,1.7E1,3.4E1,2E0,3.2E1,4E0,1.3E1,3.1E1,7.1E1,1.46894E5,4.3186E4,4.05E2,1.883E3,4.99E2,2.436E4,1.73E3,3.28E2,2.29E2,7.588E3,4.863E3,5.08E2,1.231E3,3.01E2,1.118E3,1.5E1,2.144E3,2.08E2,7.97E2,1.204E3,4.99E2,1E3,3.71E2,2.6E1,2.51E2,1.69E2,1.53E2,1.21E2,6.5E1,2.98E2,5.3E1,1.43E2,3.28E2,1.19E2,3.4E1,1.7E1,1.1E1,6E0,1E0,1E0,3E0,1E0,1.1E1,2E0,1E0,3E1],"tree_param":{"num_deleted":"0","num_feature":"17","num_nodes":"103","size_leaf_vector":"1"}},{"base_weights":[2.1217706E-6,-2.478869E-4,8.4138535E-2,-5.8776804E-4,1.6929159E-2,6.096018E-2,1.985687E-1,-8.622496E-4,3.53184E-3,1.20108295E-2,4.175824E-2,-6.2249025E-4,6.565967E-2,2.0509571E-1,1.498255E-1,-9.8477E-4,2.7883917E-4,2.2643062E-3,9.7156875E-3,-3.1809648E-3,1.3061114E-2,3.3731587E-2,6.038825E-2,7.2164685E-2,9.743298E-5,5.073861E-3,1.0358438E-2,4.241333E-3,8.116878E-3,-1.0543506E-3,-5.409615E-4,-4.009706E-5,1.8852813E-3,2.0622988E-3,1.1387766E-2,8.912503E-3,4.4378072E-2,-3.836971E-3,1.0521299E-3,1.6711598E-2,7.442948E-3,7.718936E-3,3.7857343E-2,6.791737E-2,3.944546E-2,3.285063E-2,8.6222515E-2,-7.180395E-3,1.4243352E-2,5.59825E-6,-5.3138512E-5,-3.3864053E-5,3.825425E-5,-1.587623E-5,5.039335E-5,6.4071486E-5,4.2326064E-4,1.2077922E-4,-6.6680004E-5,1.3282009E-3,4.137114E-4,2.2556544E-4,6.80216E-4,2.631991E-4,2.4438258E-3,-2.0926709E-4,2.9483757E-5,-1.7199216E-4,9.755714E-4,2.872081E-4,1.1953756E-3,-1.646272E-5,7.3688105E-4,5.862922E-6,2.2274407E-3,3.7440733E-4,2.1307224E-3,3.0791918E-3,6.462914E-3,2.0293565E-4,2.376679E-3,3.1421331E-3,-8.6916564E-4,7.149043E-3,2.284711E-3,6.765563E-5,-3.8692905E-4,2.163527E-5,9.7609276E-4],"categories":[],"categories_nodes":[],"categories_segments":[],"categories_sizes":[],"default_left":[0,0,0,0,0,0,0,0,0,0,0,0,0,0,0,0,0,0,0,0,0,0,0,0,0,0,0,0,0,0,0,0,0,0,0,0,0,0,0,0,0,0,0,0,0,0,0,0,0,0,0,0,0,0,0,0,0,0,0,0,0,0,0,0,0,0,0,0,0,0,0,0,0,0,0,0,0,0,0,0,0,0,0,0,0,0,0,0,0],"id":7,"left_children":[1,3,5,7,9,11,13,15,17,19,21,-1,23,25,27,29,31,33,35,37,39,41,43,45,47,-1,-1,-1,-1,49,51,53,55,57,59,61,63,65,67,69,71,73,75,77,79,81,83,85,87,-1,-1,-1,-1,-1,-1,-1,-1,-1,-1,-1,-1,-1,-1,-1,-1,-1,-1,-1,-1,-1,-1,-1,-1,-1,-1,-1,-1,-1,-1,-1,-1,-1,-1,-1,-1,-1,-1,-1,-1],"loss_changes":[5.119079E0,1.4165856E0,1.9002051E0,2.6904845E-1,5.7442796E-1,2.0815587E-1,7.7676773E-3,3.1187236E-2,1.1647771E-1,6.276345E-2,1.14302516E-1,0E0,2.4095607E-1,1.3170242E-3,8.6826086E-4,6.2200725E-3,1.1082262E-2,2.2711828E-2,6.998472E-2,7.1215583E-4,7.528728E-2,5.8305502E-2,3.4060597E-2,2.8124E-1,5.4557547E-3,0E0,0E0,0E0,0E0,1.7101467E-3,4.8617143E-3,5.2474886E-3,1.4225495E-2,1.4483865E-2,1.2396444E-2,5.0984412E-2,9.772018E-3,3.4327502E-4,2.9692696E-3,1.756981E-1,8.221357E-2,2.127241E-2,6.7726016E-2,5.808556E-2,1.8124655E-2,2.0749906E-1,8.6298704E-1,1.7718598E-4,1.3037436E-3,0E0,0E0,0E0,0E0,0E0,0E0,0E0,0E0,0E0,0E0,0E0,0E0,0E0,0E0,0E0,0E0,0E0,0E0,0E0,0E0,0E0,0E0,0E0,0E0,0E0,0E0,0E0,0E0,0E0,0E0,0E0,0E0,0E0,0E0,0E0,0E0,0E0,0E0,0E0,0E0],"parents":[2147483647,0,0,1,1,2,2,3,3,4,4,5,5,6,6,7,7,8,8,9,9,10,10,12,12,13,13,14,14,15,15,16,16,17,17,18,18,19,19,20,20,21,21,22,22,23,23,24,24,29,29,30,30,31,31,32,32,33,33,34,34,35,35,36,36,37,37,38,38,39,39,40,40,41,41,42,42,43,43,44,44,45,45,46,46,47,47,48,48],"right_children":[2,4,6,8,10,12,14,16,18,20,22,-1,24,26,28,30,32,34,36,38,40,42,44,46,48,-1,-1,-1,-1,50,52,54,56,58,60,62,64,66,68,70,72,74,76,78,80,82,84,86,88,-1,-1,-1,-1,-1,-1,-1,-1,-1,-1,-1,-1,-1,-1,-1,-1,-1,-1,-1,-1,-1,-1,-1,-1,-1,-1,-1,-1,-1,-1,-1,-1,-1,-1,-1,-1,-1,-1,-1,-1],"split_conditions":[1E0,3.5833332E-1,2.0410781E-17,7.5E-2,2.0410781E-17,-9.105625E-1,8.1174487E-1,2.5E-2,2.0410781E-17,-9.105625E-1,7.583334E-1,-6.2249025E-4,8.847539E-1,1.1666666E0,4.3333337E-1,8.333334E-3,2.0410781E-17,9.6524817E-1,9.6524817E-1,1.0333334E0,4.8248804E-1,2.9941127E-1,7.0070547E-1,-6.748195E-1,-8.151915E-2,5.073861E-3,1.0358438E-2,4.241333E-3,8.116878E-3,1.0000831E-1,5.3543918E-2,4.5928028E-1,9.9566646E-2,8.847539E-1,-5.2405775E-1,4.5928028E-1,1.12500004E-1,3.3807656E-1,2.5869742E-1,-6.748195E-1,7.489932E-1,8.333333E-1,8.3333336E-2,1.3507544E-1,3.5E-1,2.606105E-1,4.8248804E-1,2.1666665E-1,1.5833334E0,5.59825E-6,-5.3138512E-5,-3.3864053E-5,3.825425E-5,-1.587623E-5,5.039335E-5,6.4071486E-5,4.2326064E-4,1.2077922E-4,-6.6680004E-5,1.3282009E-3,4.137114E-4,2.2556544E-4,6.80216E-4,2.631991E-4,2.4438258E-3,-2.0926709E-4,2.9483757E-5,-1.7199216E-4,9.755714E-4,2.872081E-4,1.1953756E-3,-1.646272E-5,7.3688105E-4,5.862922E-6,2.2274407E-3,3.7440733E-4,2.1307224E-3,3.0791918E-3,6.462914E-3,2.0293565E-4,2.376679E-3,3.1421331E-3,-8.6916564E-4,7.149043E-3,2.284711E-3,6.765563E-5,-3.8692905E-4,2.163527E-5,9.7609276E-4],"split_indices":[8,7,0,7,0,2,3,7,0,2,7,0,2,5,6,7,0,8,8,7,3,8,8,3,3,0,0,0,0,12,16,9,16,2,2,9,15,10,11,3,3,4,5,16,5,2,3,15,5,0,0,0,0,0,0,0,0,0,0,0,0,0,0,0,0,0,0,0,0,0,0,0,0,0,0,0,0,0,0,0,0,0,0,0,0,0,0,0,0],"split_type":[0,0,0,0,0,0,0,0,0,0,0,0,0,0,0,0,0,0,0,0,0,0,0,0,0,0,0,0,0,0,0,0,0,0,0,0,0,0,0,0,0,0,0,0,0,0,0,0,0,0,0,0,0,0,0,0,0,0,0,0,0,0,0,0,0,0,0,0,0,0,0,0,0,0,0,0,0,0,0,0,0,0,0,0,0,0,0,0,0],"sum_hessian":[2.4336E5,2.4264E5,7.2E2,2.37933E5,4.707E3,6E2,1.2E2,2.23071E5,1.4862E4,3.93E3,7.77E2,3.6E1,5.64E2,1.03E2,1.7E1,2.01442E5,2.1629E4,1.2335E4,2.527E3,2.54E2,3.676E3,5.45E2,2.32E2,5.13E2,5.1E1,3E0,1E2,4E0,1.3E1,1.74139E5,2.7303E4,1.8047E4,3.582E3,1.2069E4,2.66E2,2.471E3,5.6E1,2.2E2,3.4E1,2.227E3,1.449E3,7.5E1,4.7E2,1.69E2,6.3E1,1.36E2,3.77E2,3.4E1,1.7E1,1.248E3,1.72891E5,2.4723E4,2.58E3,1.427E4,3.777E3,3.282E3,3E2,1.0932E4,1.137E3,4.4E1,2.22E2,1.276E3,1.195E3,6E0,5E1,2.04E2,1.6E1,2.8E1,6E0,8.83E2,1.344E3,7.02E2,7.47E2,6.3E1,1.2E1,6.4E1,4.06E2,1.55E2,1.4E1,1.2E1,5.1E1,8.5E1,5.1E1,1.56E2,2.21E2,2E0,3.2E1,5E0,1.2E1],"tree_param":{"num_deleted":"0","num_feature":"17","num_nodes":"89","size_leaf_vector":"1"}},{"base_weights":[2.283265E-6,-2.353872E-4,7.998647E-2,-6.4655964E-4,1.2650513E-2,5.7931744E-2,1.8886994E-1,-8.9379057E-4,1.6214405E-3,8.8549405E-3,3.1557754E-2,-5.9220695E-4,6.2398605E-2,1.9498931E-1,1.430208E-1,-1.0016335E-3,-3.9810207E-4,9.748841E-4,4.8201964E-3,6.892583E-3,1.6939992E-2,1.997885E-2,4.5871645E-2,6.857922E-2,1.0560849E-4,1.6418491E-1,2.0582153E-1,4.07168E-3,7.740023E-3,1.0637122E-4,-1.009632E-3,-5.412758E-4,1.0723788E-3,3.5989977E-4,2.085357E-3,2.2553322E-3,9.184961E-3,4.1728704E-3,9.648731E-3,1.3920093E-2,2.6533008E-2,1.382121E-2,2.9332984E-2,3.732605E-3,4.8333988E-2,3.1224692E-2,8.1936345E-2,-6.8304976E-3,1.3586614E-2,1.7740168E-3,8.359607E-3,1.0356344E-2,2.79589E-3,-5.6688157E-5,1.7675484E-4,-5.2825973E-5,-4.145211E-5,1.13038746E-4,-2.9251256E-5,1.7704418E-5,2.2478319E-4,2.4307468E-4,8.892658E-6,9.746407E-5,5.492003E-4,7.1613584E-5,3.3388482E-4,4.3494673E-4,2.591846E-3,2.4202582E-4,-1.20507575E-4,1.9093895E-4,6.367259E-4,1.0399217E-3,5.369707E-4,6.2543707E-4,1.5672317E-3,4.5780098E-4,1.0327685E-3,2.057063E-3,7.0935127E-4,-1.3939284E-4,6.1575946E-4,4.0871636E-3,2.1983066E-3,2.9868532E-3,-8.2654314E-4,6.7938673E-3,2.17099E-3,6.540043E-5,-3.6816884E-4,-7.365192E-5,8.9972944E-4],"categories":[],"categories_nodes":[],"categories_segments":[],"categories_sizes":[],"default_left":[0,0,0,0,0,0,0,0,0,0,0,0,0,0,0,0,0,0,0,0,0,0,0,0,0,0,0,0,0,0,0,0,0,0,0,0,0,0,0,0,0,0,0,0,0,0,0,0,0,0,0,0,0,0,0,0,0,0,0,0,0,0,0,0,0,0,0,0,0,0,0,0,0,0,0,0,0,0,0,0,0,0,0,0,0,0,0,0,0,0,0,0,0],"id":8,"left_children":[1,3,5,7,9,11,13,15,17,19,21,-1,23,25,27,29,31,33,35,37,39,41,43,45,47,49,51,-1,-1,53,55,57,59,61,63,65,67,69,71,73,75,77,79,81,83,85,87,89,91,-1,-1,-1,-1,-1,-1,-1,-1,-1,-1,-1,-1,-1,-1,-1,-1,-1,-1,-1,-1,-1,-1,-1,-1,-1,-1,-1,-1,-1,-1,-1,-1,-1,-1,-1,-1,-1,-1,-1,-1,-1,-1,-1,-1],"loss_changes":[4.6262813E0,1.2855995E0,1.7204638E0,1.3184857E-1,5.381644E-1,1.8805838E-1,6.061077E-3,1.1333808E-2,4.779705E-2,9.904429E-2,2.069205E-1,0E0,2.1752262E-1,9.098053E-4,4.5260787E-4,1.5434176E-3,7.9773E-3,1.3130499E-2,4.3483168E-2,3.7671775E-2,3.497398E-2,3.962612E-2,5.7925463E-2,2.5390124E-1,4.955099E-3,6.4534545E-3,2.702713E-3,0E0,0E0,5.3148563E-3,1.4630705E-3,4.233918E-3,8.265272E-3,1.01412665E-2,8.276811E-3,8.904484E-3,2.935882E-2,1.1148922E-2,4.4890344E-2,2.012299E-2,1.9244462E-2,1.3233483E-2,4.8599437E-2,1.8251301E-3,7.3601365E-2,1.8753003E-1,7.794411E-1,1.6142079E-4,1.2213932E-3,0E0,0E0,0E0,0E0,0E0,0E0,0E0,0E0,0E0,0E0,0E0,0E0,0E0,0E0,0E0,0E0,0E0,0E0,0E0,0E0,0E0,0E0,0E0,0E0,0E0,0E0,0E0,0E0,0E0,0E0,0E0,0E0,0E0,0E0,0E0,0E0,0E0,0E0,0E0,0E0,0E0,0E0,0E0,0E0],"parents":[2147483647,0,0,1,1,2,2,3,3,4,4,5,5,6,6,7,7,8,8,9,9,10,10,12,12,13,13,14,14,15,15,16,16,17,17,18,18,19,19,20,20,21,21,22,22,23,23,24,24,25,25,26,26,29,29,30,30,31,31,32,32,33,33,34,34,35,35,36,36,37,37,38,38,39,39,40,40,41,41,42,42,43,43,44,44,45,45,46,46,47,47,48,48],"right_children":[2,4,6,8,10,12,14,16,18,20,22,-1,24,26,28,30,32,34,36,38,40,42,44,46,48,50,52,-1,-1,54,56,58,60,62,64,66,68,70,72,74,76,78,80,82,84,86,88,90,92,-1,-1,-1,-1,-1,-1,-1,-1,-1,-1,-1,-1,-1,-1,-1,-1,-1,-1,-1,-1,-1,-1,-1,-1,-1,-1,-1,-1,-1,-1,-1,-1,-1,-1,-1,-1,-1,-1,-1,-1,-1,-1,-1,-1],"split_conditions":[1E0,2.3333333E-1,2.0410781E-17,4.1666668E-2,2.0410781E-17,-9.105625E-1,8.1174487E-1,8.333334E-3,2.0410781E-17,7.583334E-1,4.75E-1,-5.9220695E-4,8.847539E-1,2.1499999E0,4.3333337E-1,1.0000831E-1,6.441083E-2,4.5928028E-1,4.779508E-2,2.07281E-1,2.908585E-1,2.07281E-1,2.3950886E-2,-6.748195E-1,-8.151915E-2,1.375E-1,1.5666667E0,4.07168E-3,7.740023E-3,2.606105E-1,8.333334E-3,1.0000831E-1,2.0410781E-17,1.0000831E-1,9.6524817E-1,1.4166667E-1,9.6524817E-1,8.847539E-1,5.6979513E-1,-4.4867018E-1,-6.748195E-1,6.9449234E-1,2.758644E-1,1.1333333E0,1.6666667E-3,2.606105E-1,4.8248804E-1,2.1666665E-1,4.1666666E-1,1.7740168E-3,8.359607E-3,1.0356344E-2,2.79589E-3,-5.6688157E-5,1.7675484E-4,-5.2825973E-5,-4.145211E-5,1.13038746E-4,-2.9251256E-5,1.7704418E-5,2.2478319E-4,2.4307468E-4,8.892658E-6,9.746407E-5,5.492003E-4,7.1613584E-5,3.3388482E-4,4.3494673E-4,2.591846E-3,2.4202582E-4,-1.20507575E-4,1.9093895E-4,6.367259E-4,1.0399217E-3,5.369707E-4,6.2543707E-4,1.5672317E-3,4.5780098E-4,1.0327685E-3,2.057063E-3,7.0935127E-4,-1.3939284E-4,6.1575946E-4,4.0871636E-3,2.1983066E-3,2.9868532E-3,-8.2654314E-4,6.7938673E-3,2.17099E-3,6.540043E-5,-3.6816884E-4,-7.365192E-5,8.9972944E-4],"split_indices":[8,7,0,7,0,2,3,7,0,7,7,0,2,4,6,12,16,9,16,11,11,11,16,3,3,15,14,0,0,2,14,12,0,12,8,7,8,2,9,3,3,8,11,4,14,2,3,15,6,0,0,0,0,0,0,0,0,0,0,0,0,0,0,0,0,0,0,0,0,0,0,0,0,0,0,0,0,0,0,0,0,0,0,0,0,0,0,0,0,0,0,0,0],"split_type":[0,0,0,0,0,0,0,0,0,0,0,0,0,0,0,0,0,0,0,0,0,0,0,0,0,0,0,0,0,0,0,0,0,0,0,0,0,0,0,0,0,0,0,0,0,0,0,0,0,0,0,0,0,0,0,0,0,0,0,0,0,0,0,0,0,0,0,0,0,0,0,0,0,0,0,0,0,0,0,0,0,0,0,0,0,0,0,0,0,0,0,0,0],"sum_hessian":[2.4336E5,2.4264E5,7.2E2,2.35138E5,7.502E3,6E2,1.2E2,2.12026E5,2.3112E4,6.249E3,1.253E3,3.6E1,5.64E2,1.03E2,1.7E1,1.74139E5,3.7887E4,1.9227E4,3.885E3,5.03E3,1.219E3,6.94E2,5.59E2,5.13E2,5.1E1,3.1E1,7.2E1,4E0,1.3E1,1.248E3,1.72891E5,3.4526E4,3.361E3,1.2375E4,6.852E3,2.448E3,1.437E3,2.533E3,2.497E3,9.29E2,2.9E2,4.2E2,2.74E2,3.1E1,5.28E2,1.36E2,3.77E2,3.4E1,1.7E1,1E0,3E1,7.1E1,1E0,9.17E2,3.31E2,1.37251E5,3.564E4,5.3E2,3.3996E4,2.779E3,5.82E2,4.8E2,1.1895E4,6.75E3,1.02E2,2.065E3,3.83E2,1.422E3,1.5E1,2.3E3,2.33E2,8.65E2,1.632E3,2.92E2,6.37E2,7.5E1,2.15E2,2.51E2,1.69E2,1.53E2,1.21E2,1.8E1,1.3E1,5.9E1,4.69E2,8.5E1,5.1E1,1.56E2,2.21E2,2E0,3.2E1,4E0,1.3E1],"tree_param":{"num_deleted":"0","num_feature":"17","num_nodes":"93","size_leaf_vector":"1"}},{"base_weights":[2.4426874E-6,-2.2353366E-4,7.605115E-2,-5.702513E-4,1.3573745E-2,5.5053554E-2,1.7971651E-1,-7.7959266E-4,2.8576842E-3,9.498413E-3,3.3998493E-2,6.01998E-2,-4.366448E-4,1.8546376E-1,1.3652596E-1,-9.135484E-4,5.9702186E-5,1.8501069E-3,7.773445E-3,7.590552E-3,1.7209472E-2,2.3269081E-2,4.7778614E-2,5.037035E-2,1.5336706E-1,2.5206557E-2,-6.8060507E-4,1.574118E-1,9.842012E-3,3.9088125E-3,7.3806643E-3,-9.2861947E-4,3.383705E-4,-1.2139996E-4,1.9534812E-3,3.3044238E-3,1.0229333E-3,4.0458334E-3,1.26186535E-2,4.264086E-3,1.0413978E-2,1.3629584E-2,2.8055103E-2,1.5707504E-2,3.336991E-2,3.7628137E-2,6.112748E-2,6.2967844E-2,1.0058534E-2,1.2606387E-1,1.9793622E-1,3.5327554E-2,4.255338E-3,1.7296665E-3,1.6000666E-1,-4.8834598E-5,-3.4385706E-5,1.9514501E-4,-2.1498074E-5,-1.5858686E-5,4.2215794E-5,5.752897E-5,3.058692E-4,3.4507415E-5,4.1774148E-4,-6.694877E-5,9.9441095E-5,1.8025358E-4,1.2845488E-3,5.776125E-4,2.0952064E-3,3.0005348E-4,3.4952882E-5,-2.3671731E-4,5.7354575E-4,1.1108135E-3,4.95693E-4,6.0545333E-4,1.6905032E-3,1.1989048E-3,3.4577172E-4,2.269576E-3,9.947801E-4,5.300641E-4,2.1158599E-3,3.444392E-3,2.1010402E-3,2.2628473E-3,7.106967E-3,-5.676568E-5,3.6776706E-3,3.980135E-3,7.4949944E-3,4.682423E-3,1.1052178E-2,1.5118516E-4,2.287977E-3,4.8582765E-4,-3.132566E-4,8.226145E-3,2.9248905E-3],"categories":[],"categories_nodes":[],"categories_segments":[],"categories_sizes":[],"default_left":[0,0,0,0,0,0,0,0,0,0,0,0,0,0,0,0,0,0,0,0,0,0,0,0,0,0,0,0,0,0,0,0,0,0,0,0,0,0,0,0,0,0,0,0,0,0,0,0,0,0,0,0,0,0,0,0,0,0,0,0,0,0,0,0,0,0,0,0,0,0,0,0,0,0,0,0,0,0,0,0,0,0,0,0,0,0,0,0,0,0,0,0,0,0,0,0,0,0,0,0,0],"id":9,"left_children":[1,3,5,7,9,11,13,15,17,19,21,23,25,27,29,31,33,35,37,39,41,43,45,47,49,51,-1,53,-1,-1,-1,55,57,59,61,63,65,67,69,71,73,75,77,79,81,83,85,87,89,91,93,95,97,-1,99,-1,-1,-1,-1,-1,-1,-1,-1,-1,-1,-1,-1,-1,-1,-1,-1,-1,-1,-1,-1,-1,-1,-1,-1,-1,-1,-1,-1,-1,-1,-1,-1,-1,-1,-1,-1,-1,-1,-1,-1,-1,-1,-1,-1,-1,-1],"loss_changes":[4.1822267E0,1.1607442E0,1.559524E0,1.698559E-1,4.9477446E-1,1.716516E-1,4.714966E-3,2.5079668E-2,6.7460455E-2,7.283905E-2,1.4511454E-1,4.9595547E-1,1.791188E-2,2.2046566E-3,1.0514259E-4,3.629893E-3,1.053071E-2,1.3598628E-2,4.1796416E-2,3.7317097E-2,3.7783742E-2,4.2094857E-2,5.6234777E-2,2.527727E-1,3.832531E-2,3.6665201E-3,0E0,5.6192875E-3,0E0,0E0,0E0,2.2006482E-3,6.270659E-3,5.298725E-3,8.952751E-3,5.4113954E-2,1.6448848E-2,1.2414781E-2,3.0964643E-2,1.131551E-2,3.4493566E-2,2.3421913E-2,2.1890432E-2,2.3175895E-2,3.7648857E-2,3.0980557E-2,2.4536073E-2,5.264026E-1,8.5373744E-2,2.6828289E-2,2.267617E-2,3.9055543E-3,4.6305734E-4,0E0,5.9627295E-3,0E0,0E0,0E0,0E0,0E0,0E0,0E0,0E0,0E0,0E0,0E0,0E0,0E0,0E0,0E0,0E0,0E0,0E0,0E0,0E0,0E0,0E0,0E0,0E0,0E0,0E0,0E0,0E0,0E0,0E0,0E0,0E0,0E0,0E0,0E0,0E0,0E0,0E0,0E0,0E0,0E0,0E0,0E0,0E0,0E0,0E0],"parents":[2147483647,0,0,1,1,2,2,3,3,4,4,5,5,6,6,7,7,8,8,9,9,10,10,11,11,12,12,13,13,14,14,15,15,16,16,17,17,18,18,19,19,20,20,21,21,22,22,23,23,24,24,25,25,27,27,31,31,32,32,33,33,34,34,35,35,36,36,37,37,38,38,39,39,40,40,41,41,42,42,43,43,44,44,45,45,46,46,47,47,48,48,49,49,50,50,51,51,52,52,54,54],"right_children":[2,4,6,8,10,12,14,16,18,20,22,24,26,28,30,32,34,36,38,40,42,44,46,48,50,52,-1,54,-1,-1,-1,56,58,60,62,64,66,68,70,72,74,76,78,80,82,84,86,88,90,92,94,96,98,-1,100,-1,-1,-1,-1,-1,-1,-1,-1,-1,-1,-1,-1,-1,-1,-1,-1,-1,-1,-1,-1,-1,-1,-1,-1,-1,-1,-1,-1,-1,-1,-1,-1,-1,-1,-1,-1,-1,-1,-1,-1,-1,-1,-1,-1,-1,-1],"split_conditions":[1E0,2.9166666E-1,2.0410781E-17,7.5E-2,2.0410781E-17,9.372483E-1,8.1174487E-1,1.6666668E-2,2.0410781E-17,8.333333E-1,3.1666666E-1,8.1174487E-1,0E0,-5.6174487E-1,4.3333337E-1,7.705069E-1,6.0923105E-1,-4.4867018E-1,6.875E-2,2.07281E-1,2.908585E-1,2.07281E-1,6.5000004E-1,4.8248804E-1,2.8925583E-1,5.6666666E-1,-6.8060507E-4,1.375E-1,9.842012E-3,3.9088125E-3,7.3806643E-3,2.0410781E-17,3.0477312E-1,2.0410781E-17,2.0410781E-17,-6.748195E-1,5.9482634E-2,7.7435297E-1,9.6524817E-1,4.8248804E-1,-9.105625E-1,-4.4867018E-1,-6.748195E-1,1.1862824E-1,6.4365095E-1,3.676605E-1,2.8432938E-1,5.9482634E-2,7.489932E-1,4.5000005E-1,3.5E-1,3.458333E-1,3.0083332E0,1.7296665E-3,9.8333335E-1,-4.8834598E-5,-3.4385706E-5,1.9514501E-4,-2.1498074E-5,-1.5858686E-5,4.2215794E-5,5.752897E-5,3.058692E-4,3.4507415E-5,4.1774148E-4,-6.694877E-5,9.9441095E-5,1.8025358E-4,1.2845488E-3,5.776125E-4,2.0952064E-3,3.0005348E-4,3.4952882E-5,-2.3671731E-4,5.7354575E-4,1.1108135E-3,4.95693E-4,6.0545333E-4,1.6905032E-3,1.1989048E-3,3.4577172E-4,2.269576E-3,9.947801E-4,5.300641E-4,2.1158599E-3,3.444392E-3,2.1010402E-3,2.2628473E-3,7.106967E-3,-5.676568E-5,3.6776706E-3,3.980135E-3,7.4949944E-3,4.682423E-3,1.1052178E-2,1.5118516E-4,2.287977E-3,4.8582765E-4,-3.132566E-4,8.226145E-3,2.9248905E-3],"split_indices":[8,7,0,7,0,3,3,7,0,7,5,3,2,3,6,8,9,3,14,11,11,11,4,3,2,14,0,15,0,0,0,0,10,0,0,3,3,9,8,3,2,3,3,11,8,9,10,3,3,6,6,15,7,0,6,0,0,0,0,0,0,0,0,0,0,0,0,0,0,0,0,0,0,0,0,0,0,0,0,0,0,0,0,0,0,0,0,0,0,0,0,0,0,0,0,0,0,0,0,0,0],"split_type":[0,0,0,0,0,0,0,0,0,0,0,0,0,0,0,0,0,0,0,0,0,0,0,0,0,0,0,0,0,0,0,0,0,0,0,0,0,0,0,0,0,0,0,0,0,0,0,0,0,0,0,0,0,0,0,0,0,0,0,0,0,0,0,0,0,0,0,0,0,0,0,0,0,0,0,0,0,0,0,0,0,0,0,0,0,0,0,0,0,0,0,0,0,0,0,0,0,0,0,0,0],"sum_hessian":[2.4336E5,2.4264E5,7.2E2,2.36693E5,5.947E3,6E2,1.2E2,2.23071E5,1.3622E4,4.959E3,9.88E2,5.49E2,5.1E1,1.03E2,1.7E1,1.92368E5,3.0703E4,1.1306E4,2.316E3,3.977E3,9.82E2,5.57E2,4.31E2,4.98E2,5.1E1,1.7E1,3.4E1,3.4E1,6.9E1,4E0,1.3E1,1.9008E5,2.288E3,2.8024E4,2.679E3,4.098E3,7.208E3,1.31E3,1.006E3,1.827E3,2.15E3,7.4E2,2.42E2,3.2E2,2.37E2,2.47E2,1.84E2,3.79E2,1.19E2,3.4E1,1.7E1,1.1E1,6E0,1E0,3.3E1,1.58457E5,3.1623E4,4.05E2,1.883E3,2.3301E4,4.723E3,2.247E3,4.32E2,2.701E3,1.397E3,2.092E3,5.116E3,1.285E3,2.5E1,9.72E2,3.4E1,1.228E3,5.99E2,1.4E2,2.01E3,2.22E2,5.18E2,6.5E1,1.77E2,1.64E2,1.56E2,1.24E2,1.13E2,3.7E1,2.1E2,1.29E2,5.5E1,3.11E2,6.8E1,1.02E2,1.7E1,1.3E1,2.1E1,4E0,1.3E1,3E0,8E0,4E0,2E0,3.1E1,2E0],"tree_param":{"num_deleted":"0","num_feature":"17","num_nodes":"101","size_leaf_vector":"1"}},{"base_weights":[2.7266212E-6,-2.122635E-4,7.2354205E-2,-5.8435084E-4,1.1448733E-2,5.237098E-2,1.7101178E-1,-7.666282E-4,1.9368712E-3,8.017393E-3,2.8541576E-2,-6.734814E-4,5.6589972E-2,1.7640905E-1,6.5163425E-3,-9.0563745E-4,-2.3042782E-4,1.2226019E-3,5.469715E-3,6.4604664E-3,1.6352968E-2,2.150573E-2,4.79365E-2,6.2418286E-2,-2.1089392E-3,4.19627E-3,1.7832515E-1,-6.00042E-4,-9.3262614E-4,-4.3894656E-4,8.0093683E-4,1.8347134E-3,2.9039627E-5,4.6170056E-3,1.9843224E-2,7.281575E-3,-2.5213223E-3,1.2950273E-2,2.6661796E-2,6.6954214E-3,2.6109943E-2,5.597527E-2,2.9442403E-2,6.933615E-2,-3.7767555E-4,-8.695818E-3,1.0816042E-2,8.955013E-3,2.5203393E-3,9.269397E-5,-3.4751574E-5,-4.709321E-5,-5.310792E-6,1.1452054E-4,-2.4154857E-5,2.4335777E-5,3.6030696E-4,5.7460606E-5,3.167944E-4,-6.823083E-5,7.547123E-5,1.5202233E-4,4.7557332E-4,8.199834E-4,2.3721405E-3,3.178324E-4,1.0232541E-3,-2.4972748E-4,1.2127287E-4,1.0555219E-3,4.709561E-4,5.756393E-4,1.6064531E-3,2.7448367E-4,1.8980773E-3,5.713276E-4,1.6086514E-3,2.5334011E-3,5.4716654E-3,5.495449E-4,2.2070135E-3,2.9731912E-3,7.311099E-3,1.2045663E-3,-6.4754713E-4,-1.2207823E-5,-4.60032E-4,7.236034E-4,-2.7990332E-4],"categories":[],"categories_nodes":[],"categories_segments":[],"categories_sizes":[],"default_left":[0,0,0,0,0,0,0,0,0,0,0,0,0,0,0,0,0,0,0,0,0,0,0,0,0,0,0,0,0,0,0,0,0,0,0,0,0,0,0,0,0,0,0,0,0,0,0,0,0,0,0,0,0,0,0,0,0,0,0,0,0,0,0,0,0,0,0,0,0,0,0,0,0,0,0,0,0,0,0,0,0,0,0,0,0,0,0,0,0],"id":10,"left_children":[1,3,5,7,9,11,13,15,17,19,21,-1,23,25,-1,27,29,31,33,35,37,39,41,43,45,-1,47,49,51,53,55,57,59,61,63,65,67,69,71,73,75,77,79,81,83,85,87,-1,-1,-1,-1,-1,-1,-1,-1,-1,-1,-1,-1,-1,-1,-1,-1,-1,-1,-1,-1,-1,-1,-1,-1,-1,-1,-1,-1,-1,-1,-1,-1,-1,-1,-1,-1,-1,-1,-1,-1,-1,-1],"loss_changes":[3.78546E0,1.052804E0,1.4124932E0,1.0806234E-1,4.3983227E-1,1.6770864E-1,3.5791397E-3,1.6344681E-2,3.9999332E-2,8.100608E-2,1.700896E-1,0E0,1.9342697E-1,3.4635067E-3,0E0,1.4356822E-3,9.709613E-3,9.635741E-3,3.258402E-2,3.8869962E-2,3.4136206E-2,6.269616E-2,4.7858953E-2,2.2331476E-1,4.5210887E-3,0E0,9.865761E-4,3.295877E-3,1.2214631E-3,4.526585E-3,1.527855E-2,2.6892642E-2,9.228457E-3,1.9400999E-2,1.3383016E-2,5.872929E-2,5.419768E-3,2.1152921E-2,1.9756258E-2,8.085401E-3,6.221813E-2,5.9993386E-2,2.744823E-2,3.4274173E-1,1.6310079E-2,1.4708447E-4,1.161203E-3,0E0,0E0,0E0,0E0,0E0,0E0,0E0,0E0,0E0,0E0,0E0,0E0,0E0,0E0,0E0,0E0,0E0,0E0,0E0,0E0,0E0,0E0,0E0,0E0,0E0,0E0,0E0,0E0,0E0,0E0,0E0,0E0,0E0,0E0,0E0,0E0,0E0,0E0,0E0,0E0,0E0,0E0],"parents":[2147483647,0,0,1,1,2,2,3,3,4,4,5,5,6,6,7,7,8,8,9,9,10,10,12,12,13,13,15,15,16,16,17,17,18,18,19,19,20,20,21,21,22,22,23,23,24,24,26,26,27,27,28,28,29,29,30,30,31,31,32,32,33,33,34,34,35,35,36,36,37,37,38,38,39,39,40,40,41,41,42,42,43,43,44,44,45,45,46,46],"right_children":[2,4,6,8,10,12,14,16,18,20,22,-1,24,26,-1,28,30,32,34,36,38,40,42,44,46,-1,48,50,52,54,56,58,60,62,64,66,68,70,72,74,76,78,80,82,84,86,88,-1,-1,-1,-1,-1,-1,-1,-1,-1,-1,-1,-1,-1,-1,-1,-1,-1,-1,-1,-1,-1,-1,-1,-1,-1,-1,-1,-1,-1,-1,-1,-1,-1,-1,-1,-1,-1,-1,-1,-1,-1,-1],"split_conditions":[1E0,2.3333333E-1,2.0410781E-17,5.8333337E-2,2.0410781E-17,-9.105625E-1,8.1174487E-1,8.333334E-3,2.0410781E-17,8.333333E-1,6.5000004E-1,-6.734814E-4,8.847539E-1,1.1666666E0,6.5163425E-3,1.02836005E-1,2.0410781E-17,4.8248804E-1,8.546619E-1,8.847539E-1,2.908585E-1,4.1697964E-1,2.8432938E-1,9.372483E-1,-8.151915E-2,4.19627E-3,1.5666667E0,8.218555E-6,7.705069E-1,1.0000831E-1,1.875E-1,2.0048441E-1,7.489932E-1,1.4999999E-1,9.6524817E-1,8.4619695E-1,-8.151915E-2,-4.4867018E-1,-6.748195E-1,8.333333E-1,1E-1,5.6666666E-1,4.8333335E-1,8.1174487E-1,0E0,2.1666665E-1,7.416666E-1,8.955013E-3,2.5203393E-3,9.269397E-5,-3.4751574E-5,-4.709321E-5,-5.310792E-6,1.1452054E-4,-2.4154857E-5,2.4335777E-5,3.6030696E-4,5.7460606E-5,3.167944E-4,-6.823083E-5,7.547123E-5,1.5202233E-4,4.7557332E-4,8.199834E-4,2.3721405E-3,3.178324E-4,1.0232541E-3,-2.4972748E-4,1.2127287E-4,1.0555219E-3,4.709561E-4,5.756393E-4,1.6064531E-3,2.7448367E-4,1.8980773E-3,5.713276E-4,1.6086514E-3,2.5334011E-3,5.4716654E-3,5.495449E-4,2.2070135E-3,2.9731912E-3,7.311099E-3,1.2045663E-3,-6.4754713E-4,-1.2207823E-5,-4.60032E-4,7.236034E-4,-2.7990332E-4],"split_indices":[8,7,0,7,0,2,3,7,0,7,7,0,2,5,0,12,0,3,8,2,11,9,10,3,3,0,14,11,8,12,15,3,3,7,8,2,3,3,3,4,5,14,5,3,2,15,14,0,0,0,0,0,0,0,0,0,0,0,0,0,0,0,0,0,0,0,0,0,0,0,0,0,0,0,0,0,0,0,0,0,0,0,0,0,0,0,0,0,0],"split_type":[0,0,0,0,0,0,0,0,0,0,0,0,0,0,0,0,0,0,0,0,0,0,0,0,0,0,0,0,0,0,0,0,0,0,0,0,0,0,0,0,0,0,0,0,0,0,0,0,0,0,0,0,0,0,0,0,0,0,0,0,0,0,0,0,0,0,0,0,0,0,0,0,0,0,0,0,0,0,0,0,0,0,0,0,0,0,0,0,0],"sum_hessian":[2.4336E5,2.4264E5,7.2E2,2.35138E5,7.502E3,6E2,1.2E2,2.19285E5,1.5853E4,6.249E3,1.253E3,3.6E1,5.64E2,1.03E2,1.7E1,1.74139E5,4.5146E4,1.3188E4,2.665E3,5.267E3,9.82E2,9.21E2,3.32E2,5.13E2,5.1E1,3E0,1E2,1.4133E4,1.60006E5,3.7554E4,7.592E3,8.717E3,4.471E3,2.517E3,1.48E2,4.826E3,4.41E2,7.4E2,2.42E2,2.19E2,7.02E2,2.3E2,1.02E2,4.62E2,5.1E1,3.4E1,1.7E1,9.9E1,1E0,5.26E2,1.3607E4,1.58237E5,1.769E3,5.97E2,3.6957E4,7.238E3,3.54E2,7.566E3,1.151E3,2.303E3,2.168E3,1.905E3,6.12E2,1.33E2,1.5E1,4.511E3,3.15E2,2.94E2,1.47E2,2.22E2,5.18E2,6.5E1,1.77E2,2.12E2,7E0,2.06E2,4.96E2,2.11E2,1.9E1,4.6E1,5.6E1,4.11E2,5.1E1,1.7E1,3.4E1,2E0,3.2E1,1.4E1,3E0],"tree_param":{"num_deleted":"0","num_feature":"17","num_nodes":"89","size_leaf_vector":"1"}},{"base_weights":[2.824731E-6,-2.0154842E-4,6.878133E-2,-4.5645135E-4,1.5337818E-2,4.97693E-2,1.6264455E-1,-6.366654E-4,4.564932E-3,1.0959169E-2,3.7321985E-2,-6.407174E-4,5.3779613E-2,1.4030851E-1,1.7274335E-1,-7.6833996E-4,8.782124E-4,2.9754986E-3,1.247205E-2,1.2132257E-2,-3.004003E-3,3.0133463E-2,5.005795E-2,5.9318464E-2,-2.004041E-3,1.7702032E-3,1.4196327E-1,1.7795041E-1,9.376357E-2,-8.603555E-4,-3.4539984E-4,7.263604E-4,5.73156E-3,2.6087575E-3,9.79823E-3,5.439479E-3,1.6924296E-2,1.0414978E-2,2.9267043E-2,6.247421E-3,-8.032029E-3,2.2627782E-2,4.1505035E-2,7.782099E-2,4.4589475E-2,2.4481408E-2,7.178766E-2,-8.274519E-3,1.0299889E-2,5.792366E-3,1.625627E-1,8.952838E-3,2.4573307E-3,1.6845122E-3,5.5527426E-3,-2.8501789E-5,-4.4299755E-5,-2.3791774E-5,4.9712417E-5,2.0008018E-5,1.1665004E-4,1.7360976E-4,8.5812743E-4,-1.3740138E-4,1.4791475E-4,5.791629E-4,-2.6047972E-4,9.257817E-4,2.0011431E-4,2.0517132E-3,7.517019E-4,6.7546626E-4,6.2543004E-5,5.273409E-4,1.6802227E-3,1.5625452E-4,7.6035166E-4,-4.0711314E-4,3.1735875E-5,1.4008489E-3,-1.8650621E-4,2.73355E-3,1.0463869E-3,4.731268E-3,7.513389E-4,-5.840637E-5,2.3521325E-3,-1.2282771E-3,2.6926517E-3,6.0912985E-3,1.8038426E-3,-1.1800897E-5,-4.3772743E-4,-1.00130754E-4,7.592835E-4,5.9729475E-3,9.544401E-3],"categories":[],"categories_nodes":[],"categories_segments":[],"categories_sizes":[],"default_left":[0,0,0,0,0,0,0,0,0,0,0,0,0,0,0,0,0,0,0,0,0,0,0,0,0,0,0,0,0,0,0,0,0,0,0,0,0,0,0,0,0,0,0,0,0,0,0,0,0,0,0,0,0,0,0,0,0,0,0,0,0,0,0,0,0,0,0,0,0,0,0,0,0,0,0,0,0,0,0,0,0,0,0,0,0,0,0,0,0,0,0,0,0,0,0,0,0],"id":11,"left_children":[1,3,5,7,9,11,13,15,17,19,21,-1,23,25,27,29,31,33,35,37,39,41,43,45,47,-1,49,51,53,55,57,59,61,63,65,67,69,71,73,75,77,79,81,83,85,87,89,91,93,-1,95,-1,-1,-1,-1,-1,-1,-1,-1,-1,-1,-1,-1,-1,-1,-1,-1,-1,-1,-1,-1,-1,-1,-1,-1,-1,-1,-1,-1,-1,-1,-1,-1,-1,-1,-1,-1,-1,-1,-1,-1,-1,-1,-1,-1,-1,-1],"loss_changes":[3.420813E0,9.611153E-1,1.2785518E0,2.1603173E-1,3.765489E-1,1.5152788E-1,3.0562878E-3,4.5969926E-2,1.0391149E-1,5.3550005E-2,5.8000803E-2,0E0,1.746912E-1,2.4384856E-3,1.5803576E-2,8.25116E-3,1.3578573E-2,1.7209433E-2,4.3241963E-2,8.838281E-2,1.1865344E-2,3.4737676E-2,3.19044E-2,2.2151923E-1,4.097106E-3,0E0,3.7623644E-3,1.6028881E-3,3.529746E-3,1.2957454E-3,6.620941E-3,9.365534E-3,1.4377572E-2,1.2249868E-2,9.463426E-3,1.0036502E-2,3.7984326E-2,7.7709526E-2,2.1893635E-2,2.4702149E-3,1.6280543E-4,3.618467E-2,4.3557674E-2,3.762114E-2,2.2168517E-2,1.9868359E-1,6.710564E-1,1.3298914E-4,1.1123429E-3,0E0,2.8362274E-3,0E0,0E0,0E0,0E0,0E0,0E0,0E0,0E0,0E0,0E0,0E0,0E0,0E0,0E0,0E0,0E0,0E0,0E0,0E0,0E0,0E0,0E0,0E0,0E0,0E0,0E0,0E0,0E0,0E0,0E0,0E0,0E0,0E0,0E0,0E0,0E0,0E0,0E0,0E0,0E0,0E0,0E0,0E0,0E0,0E0,0E0],"parents":[2147483647,0,0,1,1,2,2,3,3,4,4,5,5,6,6,7,7,8,8,9,9,10,10,12,12,13,13,14,14,15,15,16,16,17,17,18,18,19,19,20,20,21,21,22,22,23,23,24,24,26,26,27,27,28,28,29,29,30,30,31,31,32,32,33,33,34,34,35,35,36,36,37,37,38,38,39,39,40,40,41,41,42,42,43,43,44,44,45,45,46,46,47,47,48,48,50,50],"right_children":[2,4,6,8,10,12,14,16,18,20,22,-1,24,26,28,30,32,34,36,38,40,42,44,46,48,-1,50,52,54,56,58,60,62,64,66,68,70,72,74,76,78,80,82,84,86,88,90,92,94,-1,96,-1,-1,-1,-1,-1,-1,-1,-1,-1,-1,-1,-1,-1,-1,-1,-1,-1,-1,-1,-1,-1,-1,-1,-1,-1,-1,-1,-1,-1,-1,-1,-1,-1,-1,-1,-1,-1,-1,-1,-1,-1,-1,-1,-1,-1,-1],"split_conditions":[1E0,4.2499998E-1,2.0410781E-17,1.4166667E-1,2.0410781E-17,-9.105625E-1,2.1499999E0,4.1666668E-2,2.0410781E-17,9.372483E-1,7.583334E-1,-6.407174E-4,8.847539E-1,1.6666669E-1,8.1174487E-1,8.333334E-3,8.546619E-1,9.6524817E-1,4.5928028E-1,8.1174487E-1,0E0,7.215366E-1,-8.1401426E-1,-6.748195E-1,-8.151915E-2,1.7702032E-3,5E-1,1.5666667E0,2.4666667E0,1.02836005E-1,6.441083E-2,2.0410781E-17,2.0410781E-17,-9.105625E-1,8.847539E-1,1.0000831E-1,4.6146488E-1,4.8248804E-1,4.760712E-1,3E-1,1.5833334E0,6.118017E-1,8.02494E-1,2.1084481E-1,3.3333334E-1,-2.606105E-1,4.8248804E-1,2.1666665E-1,1.5833334E0,5.792366E-3,5.9482645E-2,8.952838E-3,2.4573307E-3,1.6845122E-3,5.5527426E-3,-2.8501789E-5,-4.4299755E-5,-2.3791774E-5,4.9712417E-5,2.0008018E-5,1.1665004E-4,1.7360976E-4,8.5812743E-4,-1.3740138E-4,1.4791475E-4,5.791629E-4,-2.6047972E-4,9.257817E-4,2.0011431E-4,2.0517132E-3,7.517019E-4,6.7546626E-4,6.2543004E-5,5.273409E-4,1.6802227E-3,1.5625452E-4,7.6035166E-4,-4.0711314E-4,3.1735875E-5,1.4008489E-3,-1.8650621E-4,2.73355E-3,1.0463869E-3,4.731268E-3,7.513389E-4,-5.840637E-5,2.3521325E-3,-1.2282771E-3,2.6926517E-3,6.0912985E-3,1.8038426E-3,-1.1800897E-5,-4.3772743E-4,-1.00130754E-4,7.592835E-4,5.9729475E-3,9.544401E-3],"split_indices":[8,7,0,7,0,2,4,7,0,3,7,0,2,6,3,7,8,8,9,3,2,12,2,3,3,0,15,14,4,12,16,0,0,2,2,12,9,3,9,6,5,9,12,16,4,2,3,15,5,0,3,0,0,0,0,0,0,0,0,0,0,0,0,0,0,0,0,0,0,0,0,0,0,0,0,0,0,0,0,0,0,0,0,0,0,0,0,0,0,0,0,0,0,0,0,0,0],"split_type":[0,0,0,0,0,0,0,0,0,0,0,0,0,0,0,0,0,0,0,0,0,0,0,0,0,0,0,0,0,0,0,0,0,0,0,0,0,0,0,0,0,0,0,0,0,0,0,0,0,0,0,0,0,0,0,0,0,0,0,0,0,0,0,0,0,0,0,0,0,0,0,0,0,0,0,0,0,0,0,0,0,0,0,0,0,0,0,0,0,0,0,0,0,0,0,0,0],"sum_hessian":[2.4336E5,2.4264E5,7.2E2,2.38725E5,3.915E3,6E2,1.2E2,2.30455E5,8.27E3,3.266E3,6.49E2,3.6E1,5.64E2,4.2E1,7.8E1,2.12026E5,1.8429E4,6.887E3,1.383E3,3.013E3,2.53E2,4.17E2,2.32E2,5.13E2,5.1E1,1E0,4.1E1,7.2E1,6E0,1.74139E5,3.7887E4,1.7871E4,5.58E2,6.537E3,3.5E2,5.37E2,8.46E2,2.74E3,2.73E2,8.9E1,1.64E2,2.53E2,1.64E2,3.6E1,1.96E2,1.36E2,3.77E2,3.4E1,1.7E1,2.1E1,2E1,7.1E1,1E0,2E0,4E0,1.4133E4,1.60006E5,3.4526E4,3.361E3,1.4856E4,3.015E3,4.67E2,9.1E1,4E2,6.137E3,3.13E2,3.7E1,5.2E1,4.85E2,6E1,7.86E2,2.048E3,6.92E2,5.2E1,2.21E2,6.7E1,2.2E1,1.62E2,2E0,2.1E2,4.3E1,9.9E1,6.5E1,2.8E1,8E0,1E1,1.86E2,5.1E1,8.5E1,1.56E2,2.21E2,2E0,3.2E1,5E0,1.2E1,1E1,1E1],"tree_param":{"num_deleted":"0","num_feature":"17","num_nodes":"97","size_leaf_vector":"1"}},{"base_weights":[2.9805585E-6,-1.9138183E-4,6.541252E-2,-4.3360624E-4,1.4575079E-2,4.7295693E-2,1.5485717E-1,-6.2770135E-4,3.7777156E-3,1.0412279E-2,3.5475533E-2,-6.0954737E-4,5.1107567E-2,1.596793E-1,1.1839286E-1,-7.6513324E-4,4.066065E-4,2.4209667E-3,1.0445638E-2,1.1654786E-2,-2.9888428E-3,2.8638737E-2,4.7588427E-2,5.6392748E-2,-2.1172336E-3,1.3381563E-1,1.7032999E-1,6.607783E-2,6.431009E-3,-7.9231773E-4,-4.725971E-5,1.3846974E-4,2.2139696E-3,2.1209747E-3,9.26024E-3,4.288962E-3,1.4943567E-2,1.0454739E-2,2.8991973E-2,-6.084293E-3,3.544812E-3,2.1501174E-2,3.945269E-2,7.407811E-2,4.237164E-2,4.718616E-2,1.3728233E-1,2.1250049E-2,-7.037101E-4,1.3927431E-1,2.8346148E-3,3.550613E-3,8.610341E-3,3.6521633E-3,9.554021E-4,3.5491754E-5,-4.0250598E-5,-2.6285552E-5,7.104764E-5,-3.4590198E-6,5.862915E-5,7.0059905E-5,3.1909914E-4,1.5037408E-4,1.9285084E-5,5.45264E-4,-3.0839574E-4,7.014437E-4,1.665718E-4,2.196104E-3,6.707788E-4,5.8893295E-4,-1.4258361E-4,8.258208E-4,2.1397031E-3,-1.8720055E-4,-4.1802647E-4,8.0907885E-5,2.2281671E-3,1.3311384E-3,-1.7739281E-4,2.5982393E-3,9.948602E-4,6.1542816E-3,2.5684226E-3,-5.575154E-5,2.2351549E-3,3.0908962E-3,2.4242776E-4,5.561701E-3,9.01525E-3,1.5503366E-3,7.442931E-5,5.558256E-3,9.14157E-3],"categories":[],"categories_nodes":[],"categories_segments":[],"categories_sizes":[],"default_left":[0,0,0,0,0,0,0,0,0,0,0,0,0,0,0,0,0,0,0,0,0,0,0,0,0,0,0,0,0,0,0,0,0,0,0,0,0,0,0,0,0,0,0,0,0,0,0,0,0,0,0,0,0,0,0,0,0,0,0,0,0,0,0,0,0,0,0,0,0,0,0,0,0,0,0,0,0,0,0,0,0,0,0,0,0,0,0,0,0,0,0,0,0,0,0],"id":12,"left_children":[1,3,5,7,9,11,13,15,17,19,21,-1,23,25,27,29,31,33,35,37,39,41,43,45,47,49,51,53,-1,55,57,59,61,63,65,67,69,71,73,75,77,79,81,83,85,87,89,91,-1,93,-1,-1,-1,-1,-1,-1,-1,-1,-1,-1,-1,-1,-1,-1,-1,-1,-1,-1,-1,-1,-1,-1,-1,-1,-1,-1,-1,-1,-1,-1,-1,-1,-1,-1,-1,-1,-1,-1,-1,-1,-1,-1,-1,-1,-1],"loss_changes":[3.0938985E0,8.67884E-1,1.1610231E0,1.951363E-1,3.4034008E-1,1.3690329E-1,2.3713112E-3,3.24395E-2,9.512785E-2,5.4433644E-2,5.2465796E-2,0E0,1.5905535E-1,5.8557987E-3,1.1318326E-3,3.931135E-3,1.2971531E-2,1.7914511E-2,4.9172804E-2,6.1905175E-2,5.644007E-3,3.1415164E-2,2.9059708E-2,3.7630677E-1,1.4827973E-2,6.8389177E-3,8.1920624E-4,2.4011172E-4,0E0,3.701657E-3,5.164591E-3,5.005525E-3,1.1705523E-2,1.2882367E-2,9.381697E-3,6.9665825E-3,4.488522E-2,4.932487E-2,3.2525614E-2,9.755078E-4,7.040457E-3,3.2680362E-2,3.933823E-2,3.48562E-2,2.0023137E-2,2.8651643E-1,3.8218617E-2,3.4243567E-3,0E0,1.8854916E-2,0E0,0E0,0E0,0E0,0E0,0E0,0E0,0E0,0E0,0E0,0E0,0E0,0E0,0E0,0E0,0E0,0E0,0E0,0E0,0E0,0E0,0E0,0E0,0E0,0E0,0E0,0E0,0E0,0E0,0E0,0E0,0E0,0E0,0E0,0E0,0E0,0E0,0E0,0E0,0E0,0E0,0E0,0E0,0E0,0E0],"parents":[2147483647,0,0,1,1,2,2,3,3,4,4,5,5,6,6,7,7,8,8,9,9,10,10,12,12,13,13,14,14,15,15,16,16,17,17,18,18,19,19,20,20,21,21,22,22,23,23,24,24,25,25,26,26,27,27,29,29,30,30,31,31,32,32,33,33,34,34,35,35,36,36,37,37,38,38,39,39,40,40,41,41,42,42,43,43,44,44,45,45,46,46,47,47,49,49],"right_children":[2,4,6,8,10,12,14,16,18,20,22,-1,24,26,28,30,32,34,36,38,40,42,44,46,48,50,52,54,-1,56,58,60,62,64,66,68,70,72,74,76,78,80,82,84,86,88,90,92,-1,94,-1,-1,-1,-1,-1,-1,-1,-1,-1,-1,-1,-1,-1,-1,-1,-1,-1,-1,-1,-1,-1,-1,-1,-1,-1,-1,-1,-1,-1,-1,-1,-1,-1,-1,-1,-1,-1,-1,-1,-1,-1,-1,-1,-1,-1],"split_conditions":[1E0,4.2499998E-1,2.0410781E-17,1.1666667E-1,2.0410781E-17,-9.105625E-1,8.1174487E-1,2.5E-2,2.0410781E-17,8.847539E-1,7.583334E-1,-6.0954737E-4,9.372483E-1,-5.6174487E-1,4.3333337E-1,5.5482906E-1,6.0923105E-1,9.6524817E-1,4.5928028E-1,8.4619695E-1,-8.151915E-2,7.215366E-1,-8.1401426E-1,8.1174487E-1,0E0,1.0458333E0,1.1666666E0,1.8666667E0,6.431009E-3,1.0000831E-1,6.652698E-1,2.0410781E-17,2.0410781E-17,4.8248804E-1,9.372483E-1,1.0000831E-1,1.1862824E-1,9.372483E-1,2.0828657E-1,9.1056246E-1,6.3333327E-1,6.118017E-1,8.02494E-1,5.298514E-1,3.3333334E-1,4.8248804E-1,2.8925583E-1,5.6666666E-1,-7.037101E-4,6.125E-1,2.8346148E-3,3.550613E-3,8.610341E-3,3.6521633E-3,9.554021E-4,3.5491754E-5,-4.0250598E-5,-2.6285552E-5,7.104764E-5,-3.4590198E-6,5.862915E-5,7.0059905E-5,3.1909914E-4,1.5037408E-4,1.9285084E-5,5.45264E-4,-3.0839574E-4,7.014437E-4,1.665718E-4,2.196104E-3,6.707788E-4,5.8893295E-4,-1.4258361E-4,8.258208E-4,2.1397031E-3,-1.8720055E-4,-4.1802647E-4,8.0907885E-5,2.2281671E-3,1.3311384E-3,-1.7739281E-4,2.5982393E-3,9.948602E-4,6.1542816E-3,2.5684226E-3,-5.575154E-5,2.2351549E-3,3.0908962E-3,2.4242776E-4,5.561701E-3,9.01525E-3,1.5503366E-3,7.442931E-5,5.558256E-3,9.14157E-3],"split_indices":[8,7,0,7,0,2,3,7,0,2,7,0,3,3,6,9,9,8,9,2,3,12,2,3,2,14,5,4,0,12,12,0,0,3,3,12,11,3,11,2,6,9,12,9,4,3,2,14,0,15,0,0,0,0,0,0,0,0,0,0,0,0,0,0,0,0,0,0,0,0,0,0,0,0,0,0,0,0,0,0,0,0,0,0,0,0,0,0,0,0,0,0,0,0,0],"split_type":[0,0,0,0,0,0,0,0,0,0,0,0,0,0,0,0,0,0,0,0,0,0,0,0,0,0,0,0,0,0,0,0,0,0,0,0,0,0,0,0,0,0,0,0,0,0,0,0,0,0,0,0,0,0,0,0,0,0,0,0,0,0,0,0,0,0,0,0,0,0,0,0,0,0,0,0,0,0,0,0,0,0,0,0,0,0,0,0,0,0,0,0,0,0,0],"sum_hessian":[2.4336E5,2.4264E5,7.2E2,2.38725E5,3.915E3,6E2,1.2E2,2.28208E5,1.0517E4,3.266E3,6.49E2,3.6E1,5.64E2,1.03E2,1.7E1,2.01442E5,2.6766E4,8.74E3,1.777E3,2.989E3,2.77E2,4.17E2,2.32E2,5.13E2,5.1E1,3.4E1,6.9E1,4E0,1.3E1,1.94092E5,7.35E3,2.3309E4,3.457E3,8.374E3,3.66E2,7.51E2,1.026E3,2.797E3,1.92E2,1.88E2,8.9E1,2.53E2,1.64E2,3.6E1,1.96E2,4.62E2,5.1E1,1.7E1,3.4E1,3.1E1,3E0,2E0,6.7E1,3E0,1E0,1.626E3,1.92466E5,5.544E3,1.806E3,1.9412E4,3.897E3,2.894E3,5.63E2,5.542E3,2.832E3,3.31E2,3.5E1,6.6E1,6.85E2,5E1,9.76E2,2.544E3,2.53E2,1.02E2,9E1,9.4E1,9.4E1,8.6E1,3E0,2.1E2,4.3E1,9.9E1,6.5E1,1E1,2.6E1,1E1,1.86E2,3.43E2,1.19E2,3.4E1,1.7E1,1.1E1,6E0,2.1E1,1E1],"tree_param":{"num_deleted":"0","num_feature":"17","num_nodes":"95","size_leaf_vector":"1"}},{"base_weights":[3.178121E-6,-1.8170809E-4,6.2223665E-2,-5.1675964E-4,9.485426E-3,4.4961225E-2,1.4745097E-1,-6.9428724E-4,1.1570732E-3,6.6324878E-3,2.3932524E-2,4.959659E-2,-4.9312636E-3,1.2676091E-1,1.5684617E-1,-7.7846454E-4,-3.0737492E-4,6.8373635E-4,3.484714E-3,5.12293E-3,1.351905E-2,1.6141692E-2,3.7242044E-2,4.635476E-2,1.4283533E-1,-1.0876222E-2,6.9023357E-3,2.3656583E-3,1.2948243E-1,1.6155058E-1,8.537922E-2,-8.3446974E-4,-6.516576E-4,-4.8527954E-4,5.724539E-4,1.7160844E-4,1.6461096E-3,2.9021706E-3,1.6548855E-2,-4.269186E-3,5.7515674E-3,-4.817674E-3,1.4673284E-2,7.6647354E-3,2.178347E-2,9.01747E-3,4.172621E-2,5.14746E-2,-1.9936592E-3,1.5501995E-1,6.143417E-2,-2.2887483E-3,-5.663659E-4,-6.1670714E-3,1.1076957E-2,2.4864227E-3,6.614865E-3,3.3184462E-3,1.6329698E-1,1.5052551E-3,5.0733923E-3,2.5166999E-5,-4.2019055E-5,-3.3837176E-5,1.180315E-5,-2.7864638E-5,3.568874E-5,1.9904865E-5,5.157872E-4,1.9706145E-4,1.1445095E-6,-1.19467266E-4,9.561096E-5,8.637661E-5,3.431544E-4,1.4072914E-3,4.6330356E-4,-1.858113E-4,-3.6488657E-4,3.931912E-4,1.1036304E-4,-3.1015612E-4,1.02693346E-4,9.517735E-4,4.1008988E-4,2.0173866E-4,2.1858555E-3,1.8313555E-3,6.902115E-4,2.523262E-4,4.7348063E-3,3.0888931E-3,1.7813273E-3,2.0898415E-3,6.5349266E-3,1.0138906E-3,-6.6952984E-4,5.785758E-3,9.734564E-3,4.6901815E-4,3.7829324E-3,2.0025419E-4,-3.719103E-4,-4.2374275E-4,7.6601515E-5,7.47003E-4,-4.033886E-4,8.215061E-3,2.3250321E-3],"categories":[],"categories_nodes":[],"categories_segments":[],"categories_sizes":[],"default_left":[0,0,0,0,0,0,0,0,0,0,0,0,0,0,0,0,0,0,0,0,0,0,0,0,0,0,0,0,0,0,0,0,0,0,0,0,0,0,0,0,0,0,0,0,0,0,0,0,0,0,0,0,0,0,0,0,0,0,0,0,0,0,0,0,0,0,0,0,0,0,0,0,0,0,0,0,0,0,0,0,0,0,0,0,0,0,0,0,0,0,0,0,0,0,0,0,0,0,0,0,0,0,0,0,0,0,0,0,0],"id":13,"left_children":[1,3,5,7,9,11,13,15,17,19,21,23,25,27,29,31,33,35,37,39,41,43,45,47,49,51,53,-1,55,57,59,61,63,65,67,69,71,73,75,77,79,81,83,85,87,89,91,93,95,97,99,101,-1,103,105,-1,-1,-1,107,-1,-1,-1,-1,-1,-1,-1,-1,-1,-1,-1,-1,-1,-1,-1,-1,-1,-1,-1,-1,-1,-1,-1,-1,-1,-1,-1,-1,-1,-1,-1,-1,-1,-1,-1,-1,-1,-1,-1,-1,-1,-1,-1,-1,-1,-1,-1,-1,-1,-1],"loss_changes":[2.799566E0,7.8591627E-1,1.0541279E0,6.968699E-2,3.3485043E-1,1.3923764E-1,3.6389828E-3,6.9053173E-3,2.4773955E-2,7.050693E-2,1.383465E-1,1.5962398E-1,3.7332843E-3,3.171146E-3,1.2767553E-2,1.2361631E-3,5.93072E-3,9.210744E-3,2.8871603E-2,3.291115E-2,2.589184E-2,4.03409E-2,6.2146127E-2,1.3203943E-1,8.32966E-3,1.0965718E-4,1.0503893E-3,0E0,2.6254058E-3,1.2967587E-3,3.170289E-3,9.556487E-4,1.1882968E-3,2.7217353E-3,1.0822389E-2,6.8388074E-3,6.975077E-3,1.6919121E-2,1.3421439E-2,5.590129E-4,3.9069578E-2,7.077126E-4,3.2251716E-2,4.4318985E-2,5.96624E-2,2.2997662E-2,4.990238E-2,3.64092E-1,1.3470514E-2,8.6036325E-4,2.2520488E-3,1.270201E-4,0E0,1.0182301E-4,1.1559456E-3,0E0,0E0,0E0,6.8736076E-4,0E0,0E0,0E0,0E0,0E0,0E0,0E0,0E0,0E0,0E0,0E0,0E0,0E0,0E0,0E0,0E0,0E0,0E0,0E0,0E0,0E0,0E0,0E0,0E0,0E0,0E0,0E0,0E0,0E0,0E0,0E0,0E0,0E0,0E0,0E0,0E0,0E0,0E0,0E0,0E0,0E0,0E0,0E0,0E0,0E0,0E0,0E0,0E0,0E0,0E0],"parents":[2147483647,0,0,1,1,2,2,3,3,4,4,5,5,6,6,7,7,8,8,9,9,10,10,11,11,12,12,13,13,14,14,15,15,16,16,17,17,18,18,19,19,20,20,21,21,22,22,23,23,24,24,25,25,26,26,28,28,29,29,30,30,31,31,32,32,33,33,34,34,35,35,36,36,37,37,38,38,39,39,40,40,41,41,42,42,43,43,44,44,45,45,46,46,47,47,48,48,49,49,50,50,51,51,53,53,54,54,58,58],"right_children":[2,4,6,8,10,12,14,16,18,20,22,24,26,28,30,32,34,36,38,40,42,44,46,48,50,52,54,-1,56,58,60,62,64,66,68,70,72,74,76,78,80,82,84,86,88,90,92,94,96,98,100,102,-1,104,106,-1,-1,-1,108,-1,-1,-1,-1,-1,-1,-1,-1,-1,-1,-1,-1,-1,-1,-1,-1,-1,-1,-1,-1,-1,-1,-1,-1,-1,-1,-1,-1,-1,-1,-1,-1,-1,-1,-1,-1,-1,-1,-1,-1,-1,-1,-1,-1,-1,-1,-1,-1,-1,-1],"split_conditions":[1E0,2.1666665E-1,2.0410781E-17,4.1666668E-2,2.0410781E-17,8.847539E-1,2.1499999E0,8.333334E-3,2.0410781E-17,7.583334E-1,2.9999998E-1,8.7837964E-1,-8.151915E-2,1.375E-1,8.1174487E-1,4.166667E-3,2.0410781E-17,4.5928028E-1,8.546619E-1,-9.105625E-1,-9.105625E-1,8.3333336E-2,4.1388997E-1,9.372483E-1,1.6338359E-1,2.1666665E-1,4.1666666E-1,2.3656583E-3,1.8333335E-1,2.1666667E-1,2.4666667E0,1.0000831E-1,7.297124E-1,7.297124E-1,1.1736719E-1,1.0000831E-1,-9.105625E-1,1.04166664E-1,8.02494E-1,9.6524817E-1,4.8248804E-1,2.758644E-1,4.8248804E-1,7.960276E-1,5.298514E-1,2.1499999E0,2.2222223E-2,8.1174487E-1,0E0,6E-1,2.4666667E0,9.1056246E-1,-5.663659E-4,3.4333332E0,7.416666E-1,2.4864227E-3,6.614865E-3,3.3184462E-3,1.5666667E0,1.5052551E-3,5.0733923E-3,2.5166999E-5,-4.2019055E-5,-3.3837176E-5,1.180315E-5,-2.7864638E-5,3.568874E-5,1.9904865E-5,5.157872E-4,1.9706145E-4,1.1445095E-6,-1.19467266E-4,9.561096E-5,8.637661E-5,3.431544E-4,1.4072914E-3,4.6330356E-4,-1.858113E-4,-3.6488657E-4,3.931912E-4,1.1036304E-4,-3.1015612E-4,1.02693346E-4,9.517735E-4,4.1008988E-4,2.0173866E-4,2.1858555E-3,1.8313555E-3,6.902115E-4,2.523262E-4,4.7348063E-3,3.0888931E-3,1.7813273E-3,2.0898415E-3,6.5349266E-3,1.0138906E-3,-6.6952984E-4,5.785758E-3,9.734564E-3,4.6901815E-4,3.7829324E-3,2.0025419E-4,-3.719103E-4,-4.2374275E-4,7.6601515E-5,7.47003E-4,-4.033886E-4,8.215061E-3,2.3250321E-3],"split_indices":[8,7,0,7,0,2,4,7,0,7,5,2,3,15,3,14,0,9,8,2,2,14,9,3,16,15,6,0,6,14,4,12,8,8,16,12,2,14,12,8,3,11,3,9,9,4,15,3,2,6,4,2,0,4,14,0,0,0,14,0,0,0,0,0,0,0,0,0,0,0,0,0,0,0,0,0,0,0,0,0,0,0,0,0,0,0,0,0,0,0,0,0,0,0,0,0,0,0,0,0,0,0,0,0,0,0,0,0,0],"split_type":[0,0,0,0,0,0,0,0,0,0,0,0,0,0,0,0,0,0,0,0,0,0,0,0,0,0,0,0,0,0,0,0,0,0,0,0,0,0,0,0,0,0,0,0,0,0,0,0,0,0,0,0,0,0,0,0,0,0,0,0,0,0,0,0,0,0,0,0,0,0,0,0,0,0,0,0,0,0,0,0,0,0,0,0,0,0,0,0,0,0,0,0,0,0,0,0,0,0,0,0,0,0,0,0,0,0,0,0,0],"sum_hessian":[2.4336E5,2.4264E5,7.2E2,2.34513E5,8.127E3,6E2,1.2E2,2.12026E5,2.2487E4,6.788E3,1.339E3,5.49E2,5.1E1,4.2E1,7.8E1,1.74139E5,3.7887E4,1.8688E4,3.799E3,5.569E3,1.219E3,8.46E2,4.93E2,5.32E2,1.7E1,3.4E1,1.7E1,2E0,4E1,7.2E1,6E0,1.20787E5,5.3352E4,3.1515E4,6.372E3,1.2198E4,6.49E3,3.638E3,1.61E2,3.49E2,5.22E3,7.2E1,1.147E3,3.39E2,5.07E2,6.8E1,4.25E2,4.81E2,5.1E1,1.4E1,3E0,2E0,3.2E1,4E0,1.3E1,2E0,3.8E1,2E0,7E1,2E0,4E0,5.31E2,1.20256E5,5.1886E4,1.466E3,2.973E4,1.785E3,6.261E3,1.11E2,4.62E2,1.1736E4,4.01E2,6.089E3,2.807E3,8.31E2,6.1E1,1E2,2.97E2,5.2E1,3.27E3,1.95E3,6E1,1.2E1,6.84E2,4.63E2,3.09E2,3E1,1.76E2,3.31E2,6.6E1,2E0,9.7E1,3.28E2,4.3E2,5.1E1,1.7E1,3.4E1,9E0,5E0,1E0,2E0,1E0,1E0,3E0,1E0,1.1E1,2E0,6.9E1,1E0],"tree_param":{"num_deleted":"0","num_feature":"17","num_nodes":"109","size_leaf_vector":"1"}},{"base_weights":[3.3428348E-6,-1.72545E-4,5.9195567E-2,-3.926967E-4,1.3248321E-2,4.2759754E-2,1.4034209E-1,-5.4758316E-4,3.9229733E-3,9.484398E-3,3.2145992E-2,4.7169015E-2,-4.6989606E-3,1.6040735E-1,1.3031079E-1,-6.595705E-4,7.407992E-4,2.5449938E-3,1.0778175E-2,1.06827095E-2,-3.4380332E-3,-1.7265568E-3,3.425201E-2,1.8125102E-2,5.666623E-2,-1.0353496E-2,6.5570236E-3,6.14267E-3,1.8138143E-1,1.6077173E-1,1.1732779E-1,-6.909489E-4,3.1506302E-4,6.043362E-4,5.102384E-3,2.9878225E-3,-2.0421494E-3,4.659569E-3,1.4651883E-2,2.8473404E-3,1.3235325E-2,-6.3812737E-3,2.7809725E-3,3.8388052E-3,-9.154602E-3,4.2106416E-2,2.1986075E-2,4.615315E-2,-2.8577538E-2,1.5036345E-1,4.2493608E-2,-2.2315297E-3,-5.389058E-4,-5.928146E-3,1.0547654E-2,2.2010224E-1,1.4062232E-1,2.0328294E-3,8.219174E-3,1.2181951E-1,3.9961547E-2,4.0233488E-5,-3.5173172E-5,-3.1211534E-6,1.0638567E-4,1.6618505E-5,9.719286E-5,1.5638948E-4,7.545799E-4,1.18764234E-4,5.8433186E-4,-1.1638903E-4,8.5975503E-4,8.259883E-4,1.6782926E-4,1.8592892E-3,6.443337E-4,5.0784776E-4,-3.9349563E-4,1.6843018E-3,4.62755E-4,-2.0768135E-4,-4.270875E-4,4.6560574E-5,2.1159016E-3,-7.3450988E-6,9.1083656E-4,-6.752646E-4,4.1807303E-4,1.9428676E-3,4.3799407E-3,6.2478334E-4,2.08292E-3,-1.4220998E-3,7.7830786E-3,-1.8105687E-3,-6.073162E-4,4.4682845E-3,8.918997E-3,1.7647464E-3,5.426788E-3,1.9524782E-4,-3.6261254E-4,-4.0785238E-4,7.468648E-5,7.127654E-4,-3.899423E-4,2.741061E-3,1.1695485E-2,3.406627E-3,7.7778E-3,5.1656966E-3,7.1022757E-3,2.4938772E-3,7.4390323E-6],"categories":[],"categories_nodes":[],"categories_segments":[],"categories_sizes":[],"default_left":[0,0,0,0,0,0,0,0,0,0,0,0,0,0,0,0,0,0,0,0,0,0,0,0,0,0,0,0,0,0,0,0,0,0,0,0,0,0,0,0,0,0,0,0,0,0,0,0,0,0,0,0,0,0,0,0,0,0,0,0,0,0,0,0,0,0,0,0,0,0,0,0,0,0,0,0,0,0,0,0,0,0,0,0,0,0,0,0,0,0,0,0,0,0,0,0,0,0,0,0,0,0,0,0,0,0,0,0,0,0,0,0,0,0,0],"id":14,"left_children":[1,3,5,7,9,11,13,15,17,19,21,23,25,27,29,31,33,35,37,39,41,43,45,47,49,51,53,-1,55,57,59,61,63,65,67,69,71,73,75,77,79,81,83,85,87,89,91,93,95,97,99,101,-1,103,105,107,109,-1,-1,111,113,-1,-1,-1,-1,-1,-1,-1,-1,-1,-1,-1,-1,-1,-1,-1,-1,-1,-1,-1,-1,-1,-1,-1,-1,-1,-1,-1,-1,-1,-1,-1,-1,-1,-1,-1,-1,-1,-1,-1,-1,-1,-1,-1,-1,-1,-1,-1,-1,-1,-1,-1,-1,-1,-1],"loss_changes":[2.5336885E0,7.1691877E-1,9.556031E-1,1.5957588E-1,2.782377E-1,1.2598562E-1,3.4520626E-3,3.3251256E-2,7.810314E-2,5.0626516E-2,4.6427727E-2,1.506828E-1,3.377551E-3,6.072402E-3,1.5147924E-2,6.484531E-3,1.0966358E-2,1.3997827E-2,3.273487E-2,5.9764415E-2,5.1062666E-3,1.6473933E-3,5.8035374E-2,1.8064974E-1,5.433756E-1,9.6654054E-5,9.593546E-4,0E0,2.1914244E-3,3.2947063E-3,1.737243E-2,3.8452968E-3,4.525764E-3,6.510199E-3,1.0978873E-2,3.3444967E-2,3.3753447E-3,8.258609E-3,3.3211976E-2,5.7737425E-2,1.8324172E-1,8.7413564E-4,6.542663E-3,1.3207188E-3,1.408442E-3,5.158055E-2,4.447376E-2,7.069438E-1,6.0826875E-3,7.634187E-2,1.6779453E-1,1.20748475E-4,0E0,9.489758E-5,1.0634894E-3,7.7157915E-3,3.4745932E-3,0E0,0E0,7.78234E-3,1.966496E-3,0E0,0E0,0E0,0E0,0E0,0E0,0E0,0E0,0E0,0E0,0E0,0E0,0E0,0E0,0E0,0E0,0E0,0E0,0E0,0E0,0E0,0E0,0E0,0E0,0E0,0E0,0E0,0E0,0E0,0E0,0E0,0E0,0E0,0E0,0E0,0E0,0E0,0E0,0E0,0E0,0E0,0E0,0E0,0E0,0E0,0E0,0E0,0E0,0E0,0E0,0E0,0E0,0E0,0E0],"parents":[2147483647,0,0,1,1,2,2,3,3,4,4,5,5,6,6,7,7,8,8,9,9,10,10,11,11,12,12,13,13,14,14,15,15,16,16,17,17,18,18,19,19,20,20,21,21,22,22,23,23,24,24,25,25,26,26,28,28,29,29,30,30,31,31,32,32,33,33,34,34,35,35,36,36,37,37,38,38,39,39,40,40,41,41,42,42,43,43,44,44,45,45,46,46,47,47,48,48,49,49,50,50,51,51,53,53,54,54,55,55,56,56,59,59,60,60],"right_children":[2,4,6,8,10,12,14,16,18,20,22,24,26,28,30,32,34,36,38,40,42,44,46,48,50,52,54,-1,56,58,60,62,64,66,68,70,72,74,76,78,80,82,84,86,88,90,92,94,96,98,100,102,-1,104,106,108,110,-1,-1,112,114,-1,-1,-1,-1,-1,-1,-1,-1,-1,-1,-1,-1,-1,-1,-1,-1,-1,-1,-1,-1,-1,-1,-1,-1,-1,-1,-1,-1,-1,-1,-1,-1,-1,-1,-1,-1,-1,-1,-1,-1,-1,-1,-1,-1,-1,-1,-1,-1,-1,-1,-1,-1,-1,-1],"split_conditions":[1E0,4.2499998E-1,2.0410781E-17,1.4166667E-1,2.0410781E-17,8.847539E-1,-7.818315E-1,4.1666668E-2,2.0410781E-17,8.847539E-1,2.4048602E-2,-6.748195E-1,-8.151915E-2,2.1499999E0,1.5833334E0,6.441083E-2,8.546619E-1,8.847539E-1,4.5928028E-1,-6.748195E-1,-8.151915E-2,1.9564599E-2,2.8432938E-1,2.606105E-1,-4.4867024E-1,2.1666665E-1,4.1666666E-1,6.14267E-3,5E-1,6.166667E-1,1.0458333E0,1.0000831E-1,2.0410781E-17,2.0410781E-17,2.0410781E-17,8.4619695E-1,2.8333336E-1,1.0000831E-1,4.6146488E-1,2.606105E-1,-4.4867018E-1,9.1056246E-1,6.3333327E-1,7.583334E-1,2.385348E-2,5.6666666E-1,1.025E0,-2.606105E-1,5.21221E-1,-5.6174487E-1,8.4619695E-1,9.1056246E-1,-5.389058E-4,3.4333332E0,7.416666E-1,1.1666666E0,4.375E-1,2.0328294E-3,8.219174E-3,6.125E-1,6.515263E-1,4.0233488E-5,-3.5173172E-5,-3.1211534E-6,1.0638567E-4,1.6618505E-5,9.719286E-5,1.5638948E-4,7.545799E-4,1.18764234E-4,5.8433186E-4,-1.1638903E-4,8.5975503E-4,8.259883E-4,1.6782926E-4,1.8592892E-3,6.443337E-4,5.0784776E-4,-3.9349563E-4,1.6843018E-3,4.62755E-4,-2.0768135E-4,-4.270875E-4,4.6560574E-5,2.1159016E-3,-7.3450988E-6,9.1083656E-4,-6.752646E-4,4.1807303E-4,1.9428676E-3,4.3799407E-3,6.2478334E-4,2.08292E-3,-1.4220998E-3,7.7830786E-3,-1.8105687E-3,-6.073162E-4,4.4682845E-3,8.918997E-3,1.7647464E-3,5.426788E-3,1.9524782E-4,-3.6261254E-4,-4.0785238E-4,7.468648E-5,7.127654E-4,-3.899423E-4,2.741061E-3,1.1695485E-2,3.406627E-3,7.7778E-3,5.1656966E-3,7.1022757E-3,2.4938772E-3,7.4390323E-6],"split_indices":[8,7,0,7,0,2,2,7,0,2,16,3,3,4,5,16,8,2,9,3,3,16,10,2,3,15,6,0,15,5,14,12,0,0,0,2,6,12,9,2,3,2,6,7,16,14,15,2,2,3,2,2,0,4,14,5,14,0,0,15,2,0,0,0,0,0,0,0,0,0,0,0,0,0,0,0,0,0,0,0,0,0,0,0,0,0,0,0,0,0,0,0,0,0,0,0,0,0,0,0,0,0,0,0,0,0,0,0,0,0,0,0,0,0,0],"split_type":[0,0,0,0,0,0,0,0,0,0,0,0,0,0,0,0,0,0,0,0,0,0,0,0,0,0,0,0,0,0,0,0,0,0,0,0,0,0,0,0,0,0,0,0,0,0,0,0,0,0,0,0,0,0,0,0,0,0,0,0,0,0,0,0,0,0,0,0,0,0,0,0,0,0,0,0,0,0,0,0,0,0,0,0,0,0,0,0,0,0,0,0,0,0,0,0,0,0,0,0,0,0,0,0,0,0,0,0,0,0,0,0,0,0,0],"sum_hessian":[2.4336E5,2.4264E5,7.2E2,2.38725E5,3.915E3,6E2,1.2E2,2.30455E5,8.27E3,3.266E3,6.49E2,5.49E2,5.1E1,3.5E1,8.5E1,2.12026E5,1.8429E4,6.887E3,1.383E3,2.989E3,2.77E2,3.8E1,6.11E2,1.36E2,4.13E2,3.4E1,1.7E1,1.5E1,2E1,2.2E1,6.3E1,2.05413E5,6.613E3,1.7871E4,5.58E2,6.281E3,6.06E2,5.37E2,8.46E2,7.35E2,2.254E3,1.88E2,8.9E1,2.2E1,1.6E1,3.71E2,2.4E2,8.5E1,5.1E1,5.3E1,3.6E2,2E0,3.2E1,4E0,1.3E1,8E0,1.2E1,1E0,2.1E1,5.9E1,4E0,1.704E3,2.03709E5,5.474E3,1.139E3,1.4856E4,3.015E3,4.67E2,9.1E1,5.869E3,4.12E2,5.98E2,8E0,5.2E1,4.85E2,6E1,7.86E2,4.37E2,2.98E2,3.66E2,1.888E3,9.4E1,9.4E1,8.6E1,3E0,1.8E1,4E0,1.3E1,3E0,3.48E2,2.3E1,1.63E2,7.7E1,5.1E1,3.4E1,3.4E1,1.7E1,1.8E1,3.5E1,3.26E2,3.4E1,1E0,1E0,3E0,1E0,1.1E1,2E0,1E0,7E0,3E0,9E0,3.4E1,2.5E1,3E0,1E0],"tree_param":{"num_deleted":"0","num_feature":"17","num_nodes":"115","size_leaf_vector":"1"}},{"base_weights":[3.5871283E-6,-1.6383722E-4,5.6347568E-2,-3.7939113E-4,1.221454E-2,4.0661376E-2,1.3379428E-1,-5.64606E-4,2.707414E-3,8.768058E-3,2.9650496E-2,-7.6741417E-4,4.4257298E-2,1.14653766E-1,1.4251894E-1,-6.5770803E-4,2.3186604E-4,1.7078001E-3,7.6180412E-3,9.843647E-3,-3.1011982E-3,2.3463018E-2,4.1552972E-2,4.9101595E-2,-4.4777934E-3,9.201973E-2,1.3207626E-1,1.468957E-1,7.651571E-2,-7.3169847E-4,-4.2905923E-4,4.7302583E-5,1.7054685E-3,-2.6853436E-3,1.9995396E-3,6.020222E-3,2.0135729E-2,8.70643E-3,2.5491454E-2,-6.0950182E-3,3.273896E-3,1.6946722E-2,3.343512E-2,6.644643E-2,3.6666624E-2,1.724763E-2,6.0516648E-2,-9.856001E-3,6.2285974E-3,4.778623E-3,1.8830834E-3,3.2564667E-3,1.4333507E-1,1.7353241E-1,1.3356991E-1,2.004902E-3,5.585329E-3,3.6376692E-5,-3.6957153E-5,-2.4408522E-5,3.970053E-5,-7.935965E-5,7.1123186E-6,5.2193234E-5,2.482362E-4,-1.2739642E-4,-4.3908064E-4,1.5219825E-4,5.8547175E-6,1.7155171E-4,5.5253017E-4,8.8266423E-4,2.958722E-3,-2.6449203E-4,4.876308E-4,6.8579003E-4,1.9448148E-3,-2.0314928E-4,-4.032743E-4,7.863771E-5,2.0365554E-3,1.0882703E-3,-2.1146303E-4,2.2461195E-3,8.148485E-4,4.0928028E-3,4.7051447E-4,1.0305837E-3,2.1216301E-3,2.195973E-3,-1.359758E-3,5.2853874E-3,1.4142293E-3,-1.08787084E-4,-5.1277695E-4,-2.1770042E-4,5.3168775E-4,4.8431125E-3,8.541356E-3,1.05350595E-2,6.722578E-3,8.273831E-3,5.893662E-3],"categories":[],"categories_nodes":[],"categories_segments":[],"categories_sizes":[],"default_left":[0,0,0,0,0,0,0,0,0,0,0,0,0,0,0,0,0,0,0,0,0,0,0,0,0,0,0,0,0,0,0,0,0,0,0,0,0,0,0,0,0,0,0,0,0,0,0,0,0,0,0,0,0,0,0,0,0,0,0,0,0,0,0,0,0,0,0,0,0,0,0,0,0,0,0,0,0,0,0,0,0,0,0,0,0,0,0,0,0,0,0,0,0,0,0,0,0,0,0,0,0,0,0],"id":15,"left_children":[1,3,5,7,9,11,13,15,17,19,21,-1,23,25,27,29,31,33,35,37,39,41,43,45,47,49,51,53,55,57,59,61,63,65,67,69,71,73,75,77,79,81,83,85,87,89,91,93,95,-1,-1,-1,97,99,101,-1,-1,-1,-1,-1,-1,-1,-1,-1,-1,-1,-1,-1,-1,-1,-1,-1,-1,-1,-1,-1,-1,-1,-1,-1,-1,-1,-1,-1,-1,-1,-1,-1,-1,-1,-1,-1,-1,-1,-1,-1,-1,-1,-1,-1,-1,-1,-1],"loss_changes":[2.2957199E0,6.474212E-1,8.704622E-1,1.3635097E-1,2.4930501E-1,1.21724606E-1,3.8659573E-3,1.6683884E-2,6.625486E-2,4.4317275E-2,4.947281E-2,0E0,1.3360906E-1,4.8030615E-3,1.1581898E-2,3.4076571E-3,6.404343E-3,1.4382958E-2,4.5541048E-2,5.638379E-2,5.535775E-3,2.8869882E-2,2.5905311E-2,1.858542E-1,3.0556107E-3,6.492138E-4,7.247001E-3,2.7329922E-3,4.491769E-3,1.6538575E-3,3.5611652E-3,3.2479411E-3,5.6465757E-3,5.631908E-4,2.068273E-2,2.6349925E-2,2.3958527E-2,4.3496504E-2,3.340444E-2,7.560281E-4,5.8619017E-3,2.8255202E-2,3.4310833E-2,3.1749204E-2,1.7362177E-2,1.6359016E-1,5.476059E-1,8.508633E-5,8.854241E-4,0E0,0E0,0E0,6.4507127E-3,2.175212E-3,7.0387125E-3,0E0,0E0,0E0,0E0,0E0,0E0,0E0,0E0,0E0,0E0,0E0,0E0,0E0,0E0,0E0,0E0,0E0,0E0,0E0,0E0,0E0,0E0,0E0,0E0,0E0,0E0,0E0,0E0,0E0,0E0,0E0,0E0,0E0,0E0,0E0,0E0,0E0,0E0,0E0,0E0,0E0,0E0,0E0,0E0,0E0,0E0,0E0,0E0],"parents":[2147483647,0,0,1,1,2,2,3,3,4,4,5,5,6,6,7,7,8,8,9,9,10,10,12,12,13,13,14,14,15,15,16,16,17,17,18,18,19,19,20,20,21,21,22,22,23,23,24,24,25,25,26,26,27,27,28,28,29,29,30,30,31,31,32,32,33,33,34,34,35,35,36,36,37,37,38,38,39,39,40,40,41,41,42,42,43,43,44,44,45,45,46,46,47,47,48,48,52,52,53,53,54,54],"right_children":[2,4,6,8,10,12,14,16,18,20,22,-1,24,26,28,30,32,34,36,38,40,42,44,46,48,50,52,54,56,58,60,62,64,66,68,70,72,74,76,78,80,82,84,86,88,90,92,94,96,-1,-1,-1,98,100,102,-1,-1,-1,-1,-1,-1,-1,-1,-1,-1,-1,-1,-1,-1,-1,-1,-1,-1,-1,-1,-1,-1,-1,-1,-1,-1,-1,-1,-1,-1,-1,-1,-1,-1,-1,-1,-1,-1,-1,-1,-1,-1,-1,-1,-1,-1,-1,-1],"split_conditions":[1E0,3.9999998E-1,2.0410781E-17,9.166667E-2,2.0410781E-17,-9.105625E-1,2.1499999E0,2.5E-2,2.0410781E-17,8.847539E-1,7.583334E-1,-7.6741417E-4,8.847539E-1,5E-1,8.1174487E-1,8.333334E-3,6.0923105E-1,-9.105625E-1,8.23723E-1,8.4619695E-1,-8.151915E-2,7.215366E-1,-8.1401426E-1,-6.748195E-1,-8.151915E-2,7.833333E-1,3.166667E-1,-7.818315E-1,6.166666E-1,1.0000831E-1,7.297124E-1,-9.105625E-1,2.0410781E-17,9.6524817E-1,4.8248804E-1,1.04166664E-1,3.8333333E-1,-9.105625E-1,2.0828657E-1,9.1056246E-1,6.3333327E-1,6.118017E-1,8.02494E-1,2.1084481E-1,3.166667E-1,2.606105E-1,4.8248804E-1,2.1666665E-1,1.5833334E0,4.778623E-3,1.8830834E-3,3.2564667E-3,5.9482645E-2,5E-1,1.5833334E0,2.004902E-3,5.585329E-3,3.6376692E-5,-3.6957153E-5,-2.4408522E-5,3.970053E-5,-7.935965E-5,7.1123186E-6,5.2193234E-5,2.482362E-4,-1.2739642E-4,-4.3908064E-4,1.5219825E-4,5.8547175E-6,1.7155171E-4,5.5253017E-4,8.8266423E-4,2.958722E-3,-2.6449203E-4,4.876308E-4,6.8579003E-4,1.9448148E-3,-2.0314928E-4,-4.032743E-4,7.863771E-5,2.0365554E-3,1.0882703E-3,-2.1146303E-4,2.2461195E-3,8.148485E-4,4.0928028E-3,4.7051447E-4,1.0305837E-3,2.1216301E-3,2.195973E-3,-1.359758E-3,5.2853874E-3,1.4142293E-3,-1.08787084E-4,-5.1277695E-4,-2.1770042E-4,5.3168775E-4,4.8431125E-3,8.541356E-3,1.05350595E-2,6.722578E-3,8.273831E-3,5.893662E-3],"split_indices":[8,7,0,7,0,2,4,7,0,2,7,0,2,15,3,14,9,2,9,2,3,12,2,3,3,6,6,2,6,12,8,2,0,8,3,14,5,2,11,2,6,9,12,16,5,2,3,15,5,0,0,0,3,15,5,0,0,0,0,0,0,0,0,0,0,0,0,0,0,0,0,0,0,0,0,0,0,0,0,0,0,0,0,0,0,0,0,0,0,0,0,0,0,0,0,0,0,0,0,0,0,0,0],"split_type":[0,0,0,0,0,0,0,0,0,0,0,0,0,0,0,0,0,0,0,0,0,0,0,0,0,0,0,0,0,0,0,0,0,0,0,0,0,0,0,0,0,0,0,0,0,0,0,0,0,0,0,0,0,0,0,0,0,0,0,0,0,0,0,0,0,0,0,0,0,0,0,0,0,0,0,0,0,0,0,0,0,0,0,0,0,0,0,0,0,0,0,0,0,0,0,0,0,0,0,0,0,0,0],"sum_hessian":[2.4336E5,2.4264E5,7.2E2,2.38488E5,4.152E3,6E2,1.2E2,2.24989E5,1.3499E4,3.468E3,6.84E2,3.6E1,5.64E2,4.2E1,7.8E1,2.01442E5,2.3547E4,1.1217E4,2.282E3,3.18E3,2.88E2,4.52E2,2.32E2,5.13E2,5.1E1,2.1E1,2.1E1,7.2E1,6E0,1.52191E5,4.9251E4,2.0927E4,2.62E3,6.98E2,1.0519E4,2.025E3,2.57E2,2.966E3,2.14E2,1.96E2,9.2E1,2.75E2,1.77E2,3.6E1,1.96E2,1.36E2,3.77E2,3.4E1,1.7E1,1.9E1,2E0,4E0,1.7E1,2E1,5.2E1,4E0,2E0,7.72E2,1.51419E5,4.6981E4,2.27E3,1.148E3,1.9779E4,2.179E3,4.41E2,6.84E2,1.4E1,6.765E3,3.754E3,1.338E3,6.87E2,2.43E2,1.4E1,2.06E2,2.76E3,1.15E2,9.9E1,9.8E1,9.8E1,8.9E1,3E0,2.24E2,5.1E1,1.05E2,7.2E1,2.8E1,8E0,5.3E1,1.43E2,8.5E1,5.1E1,1.56E2,2.21E2,2E0,3.2E1,5E0,1.2E1,8E0,9E0,8E0,1.2E1,1.4E1,3.8E1],"tree_param":{"num_deleted":"0","num_feature":"17","num_nodes":"103","size_leaf_vector":"1"}},{"base_weights":[3.7742861E-6,-1.6628369E-4,5.048934E-2,-4.453866E-4,7.982833E-3,3.7332647E-2,1.1667846E-1,-5.9576664E-4,9.7248406E-4,5.473656E-3,2.0668406E-2,-1.2660125E-2,4.0628057E-2,4.6570588E-2,1.2706625E-1,-6.7222334E-4,-2.4434234E-4,3.000483E-4,2.2320063E-3,2.6035113E-3,7.9859095E-3,1.1615474E-2,2.9595342E-2,-3.8825884E-3,-7.277744E-4,4.4678893E-2,-4.2334353E-3,-7.0355157E-3,6.621816E-2,1.323751E-1,8.8050924E-2,-4.1268856E-4,-6.9514476E-4,-4.108173E-4,5.789542E-4,3.277614E-3,1.3318866E-4,1.4434772E-3,6.058566E-3,3.213999E-3,-3.3004964E-3,2.1418398E-3,1.052381E-2,5.352291E-3,1.5965013E-2,4.2420747E-3,3.4059335E-2,-2.9328174E-4,2.0387156E-3,5.829558E-2,2.629198E-2,-9.065635E-3,5.934611E-3,-9.1585034E-4,5.175823E-4,8.78872E-2,9.636445E-3,2.9502742E-3,1.3479234E-1,6.684517E-2,7.0129163E-3,8.443416E-5,-2.4701925E-5,-3.647067E-5,-2.6164056E-5,-2.3797504E-5,3.368292E-5,2.08941E-5,4.7897227E-4,1.3966172E-4,1.8399087E-3,4.155857E-6,2.3743103E-4,8.7932596E-5,-8.184826E-5,1.5112715E-3,2.6545784E-4,1.2823012E-4,9.5754204E-4,-1.15893155E-4,-3.019817E-4,3.8472016E-4,4.307202E-5,5.9150154E-4,-2.1348265E-4,1.19856144E-4,2.228826E-3,1.4172759E-3,4.7844602E-4,1.776698E-3,9.458517E-5,2.1083062E-3,1.2363674E-3,-1.7108102E-4,3.2398468E-4,9.284473E-4,4.6628905E-3,-4.57246E-4,3.2366563E-3,-1.3404561E-4,-4.8791507E-4,-2.8370446E-4,4.828337E-4,5.131729E-3,9.632562E-4,-7.3182856E-4,1.5348656E-3,6.150689E-3,7.743669E-3,3.6042219E-3,1.1803205E-3],"categories":[],"categories_nodes":[],"categories_segments":[],"categories_sizes":[],"default_left":[0,0,0,0,0,0,0,0,0,0,0,0,0,0,0,0,0,0,0,0,0,0,0,0,0,0,0,0,0,0,0,0,0,0,0,0,0,0,0,0,0,0,0,0,0,0,0,0,0,0,0,0,0,0,0,0,0,0,0,0,0,0,0,0,0,0,0,0,0,0,0,0,0,0,0,0,0,0,0,0,0,0,0,0,0,0,0,0,0,0,0,0,0,0,0,0,0,0,0,0,0,0,0,0,0,0,0,0,0,0,0],"id":16,"left_children":[1,3,5,7,9,11,13,15,17,19,21,23,25,27,29,31,33,35,37,39,41,43,45,47,-1,49,51,53,55,57,59,61,63,65,67,69,71,73,75,77,79,81,83,85,87,89,91,-1,93,95,97,99,101,-1,-1,103,105,-1,107,109,-1,-1,-1,-1,-1,-1,-1,-1,-1,-1,-1,-1,-1,-1,-1,-1,-1,-1,-1,-1,-1,-1,-1,-1,-1,-1,-1,-1,-1,-1,-1,-1,-1,-1,-1,-1,-1,-1,-1,-1,-1,-1,-1,-1,-1,-1,-1,-1,-1,-1,-1],"loss_changes":[2.0893776E0,5.5165815E-1,7.071121E-1,5.000352E-2,2.5554824E-1,1.13036275E-1,9.2398286E-2,5.6967363E-3,1.904549E-2,4.834026E-2,1.0681683E-1,6.5886136E-4,1.16675854E-1,2.0477246E-2,1.2578011E-2,1.035653E-3,5.1931003E-3,7.2841668E-3,2.3608081E-2,1.1299351E-2,5.3015485E-2,1.7894238E-2,7.53445E-2,1.1763832E-4,0E0,1.4568412E-1,2.7070385E-3,1.36653E-3,1.631808E-2,9.959102E-3,9.445071E-3,2.4169926E-3,9.4198436E-4,2.226451E-3,9.235119E-3,1.2529354E-2,3.2084524E-3,6.3048415E-3,2.405376E-2,2.9332634E-2,7.7732187E-4,7.700068E-3,4.8224032E-2,3.142181E-2,3.053245E-2,7.3610824E-3,4.1852236E-2,0E0,9.4918745E-5,4.6633828E-1,3.4387517E-1,1.3747043E-4,8.3254254E-4,0E0,0E0,8.142695E-3,3.0053572E-3,0E0,3.8915873E-3,1.4698878E-3,0E0,0E0,0E0,0E0,0E0,0E0,0E0,0E0,0E0,0E0,0E0,0E0,0E0,0E0,0E0,0E0,0E0,0E0,0E0,0E0,0E0,0E0,0E0,0E0,0E0,0E0,0E0,0E0,0E0,0E0,0E0,0E0,0E0,0E0,0E0,0E0,0E0,0E0,0E0,0E0,0E0,0E0,0E0,0E0,0E0,0E0,0E0,0E0,0E0,0E0,0E0],"parents":[2147483647,0,0,1,1,2,2,3,3,4,4,5,5,6,6,7,7,8,8,9,9,10,10,11,11,12,12,13,13,14,14,15,15,16,16,17,17,18,18,19,19,20,20,21,21,22,22,23,23,25,25,26,26,27,27,28,28,29,29,30,30,31,31,32,32,33,33,34,34,35,35,36,36,37,37,38,38,39,39,40,40,41,41,42,42,43,43,44,44,45,45,46,46,48,48,49,49,50,50,51,51,52,52,55,55,56,56,58,58,59,59],"right_children":[2,4,6,8,10,12,14,16,18,20,22,24,26,28,30,32,34,36,38,40,42,44,46,48,-1,50,52,54,56,58,60,62,64,66,68,70,72,74,76,78,80,82,84,86,88,90,92,-1,94,96,98,100,102,-1,-1,104,106,-1,108,110,-1,-1,-1,-1,-1,-1,-1,-1,-1,-1,-1,-1,-1,-1,-1,-1,-1,-1,-1,-1,-1,-1,-1,-1,-1,-1,-1,-1,-1,-1,-1,-1,-1,-1,-1,-1,-1,-1,-1,-1,-1,-1,-1,-1,-1,-1,-1,-1,-1,-1,-1],"split_conditions":[1.6249999E0,2.1666665E-1,2.0410781E-17,4.1666668E-2,2.0410781E-17,-9.105625E-1,1E0,8.333334E-3,4.5928028E-1,2.07281E-1,2E-1,1.8333335E-1,8.847539E-1,1.08333334E-1,8.1174487E-1,1.02836005E-1,2.0410781E-17,1.0002232E-1,2.0410781E-17,8.847539E-1,5.6979513E-1,8.3333336E-2,4.1388997E-1,1.6666669E-1,-7.277744E-4,4.8248804E-1,-8.151915E-2,-1.3030525E-1,8.1174487E-1,2.1666667E-1,6.166666E-1,8.218555E-6,2.0410781E-17,7.297124E-1,1.1736719E-1,3.3333334E-1,1.5E-1,8.847539E-1,4.6146488E-1,8.7837964E-1,6.5000004E-1,-7.945798E-1,9.372483E-1,7.960276E-1,5.298514E-1,2.1666665E-1,2.8432938E-1,-2.9328174E-4,-9.427452E-1,-6.748195E-1,7.489932E-1,2.1666665E-1,4.1666666E-1,-9.1585034E-4,5.175823E-4,7.0070547E-1,3.9999998E-1,2.9502742E-3,5.9482645E-2,5.833334E-1,7.0129163E-3,8.443416E-5,-2.4701925E-5,-3.647067E-5,-2.6164056E-5,-2.3797504E-5,3.368292E-5,2.08941E-5,4.7897227E-4,1.3966172E-4,1.8399087E-3,4.155857E-6,2.3743103E-4,8.7932596E-5,-8.184826E-5,1.5112715E-3,2.6545784E-4,1.2823012E-4,9.5754204E-4,-1.15893155E-4,-3.019817E-4,3.8472016E-4,4.307202E-5,5.9150154E-4,-2.1348265E-4,1.19856144E-4,2.228826E-3,1.4172759E-3,4.7844602E-4,1.776698E-3,9.458517E-5,2.1083062E-3,1.2363674E-3,-1.7108102E-4,3.2398468E-4,9.284473E-4,4.6628905E-3,-4.57246E-4,3.2366563E-3,-1.3404561E-4,-4.8791507E-4,-2.8370446E-4,4.828337E-4,5.131729E-3,9.632562E-4,-7.3182856E-4,1.5348656E-3,6.150689E-3,7.743669E-3,3.6042219E-3,1.1803205E-3],"split_indices":[7,7,0,7,0,2,8,7,9,11,5,6,2,14,3,12,0,12,0,2,9,14,9,6,0,3,3,2,3,14,6,11,0,8,16,4,6,2,9,2,4,2,3,9,9,5,10,0,2,3,3,15,6,0,0,8,6,0,3,6,0,0,0,0,0,0,0,0,0,0,0,0,0,0,0,0,0,0,0,0,0,0,0,0,0,0,0,0,0,0,0,0,0,0,0,0,0,0,0,0,0,0,0,0,0,0,0,0,0,0,0],"split_type":[0,0,0,0,0,0,0,0,0,0,0,0,0,0,0,0,0,0,0,0,0,0,0,0,0,0,0,0,0,0,0,0,0,0,0,0,0,0,0,0,0,0,0,0,0,0,0,0,0,0,0,0,0,0,0,0,0,0,0,0,0,0,0,0,0,0,0,0,0,0,0,0,0,0,0,0,0,0,0,0,0,0,0,0,0,0,0,0,0,0,0,0,0,0,0,0,0,0,0,0,0,0,0,0,0,0,0,0,0,0,0],"sum_hessian":[2.4336E5,2.42544E5,8.16E2,2.34513E5,8.031E3,6.82E2,1.34E2,2.12026E5,2.2487E4,6.706E3,1.325E3,4.2E1,6.4E2,1.8E1,1.16E2,1.74139E5,3.7887E4,1.4661E4,7.826E3,3.131E3,3.575E3,6.59E2,6.66E2,8E0,3.4E1,5.87E2,5.3E1,5E0,1.3E1,1E2,1.6E1,1.4133E4,1.60006E5,3.1515E4,6.372E3,7.77E2,1.3884E4,6.49E3,1.336E3,2.838E3,2.93E2,1.083E3,2.492E3,2.71E2,3.88E2,1E2,5.66E2,6E0,2E0,3.36E2,2.51E2,3.6E1,1.7E1,3E0,2E0,9E0,4E0,4E0,9.6E1,1.3E1,3E0,5.26E2,1.3607E4,1.33403E5,2.6603E4,2.973E4,1.785E3,6.261E3,1.11E2,7.67E2,1E1,1.3736E4,1.48E2,5.888E3,6.02E2,3.9E1,1.297E3,2.728E3,1.1E2,2.17E2,7.6E1,2.02E2,8.81E2,2.29E3,2.02E2,2.53E2,1.8E1,1.31E2,2.57E2,6E0,9.4E1,3.01E2,2.65E2,1E0,1E0,1.58E2,1.78E2,1.31E2,1.2E2,4E0,3.2E1,4E0,1.3E1,7E0,2E0,2E0,2E0,6.5E1,3.1E1,1.1E1,2E0],"tree_param":{"num_deleted":"0","num_feature":"17","num_nodes":"111","size_leaf_vector":"1"}},{"base_weights":[3.822516E-6,-1.5790583E-4,4.8016552E-2,-4.2309804E-4,7.585053E-3,3.547638E-2,1.11104846E-1,-5.659759E-4,9.240379E-4,5.200193E-3,1.9642118E-2,1.8374689E-3,4.0190622E-2,4.458415E-2,1.2095774E-1,-5.94149E-4,3.0909348E-4,2.8519737E-4,2.1206338E-3,2.473549E-3,7.5868396E-3,1.5796147E-2,3.9010584E-2,-2.1059332E-2,7.2621025E-2,1.3621286E-1,3.6638536E-2,-6.7501166E-3,6.339997E-2,1.2592313E-1,8.434235E-2,-1.6607044E-4,-6.299704E-4,-3.528929E-5,1.9627658E-3,3.6588947E-3,1.5071733E-4,1.3713043E-3,5.7569663E-3,3.0536817E-3,-3.136893E-3,2.0351426E-3,9.997771E-3,1.1765816E-2,2.5771609E-2,6.4893295E-3,4.2979922E-2,-1.20473085E-2,-3.6992278E-2,1.2904185E-2,9.564748E-2,3.0182132E-3,1.5050875E-1,4.0743936E-2,-4.0295934E-3,-1.7630119E-2,5.003296E-4,8.410234E-2,9.315231E-3,2.832263E-3,1.2819597E-1,6.384467E-2,6.7499327E-3,1.0707503E-4,-1.3956315E-5,-3.3750282E-5,-2.0213345E-5,-2.5129104E-5,2.8720444E-5,8.2243845E-5,1.0843235E-3,1.5126068E-4,1.7562764E-3,