{"learner":{"attributes":{"scikit_learn":"{\"_estimator_type\": \"regressor\"}"},"feature_names":[],"feature_types":[],"gradient_booster":{"model":{"gbtree_model_param":{"num_parallel_tree":"1","num_trees":"100"},"iteration_indptr":[0,1,2,3,4,5,6,7,8,9,10,11,12,13,14,15,16,17,18,19,20,21,22,23,24,25,26,27,28,29,30,31,32,33,34,35,36,37,38,39,40,41,42,43,44,45,46,47,48,49,50,51,52,53,54,55,56,57,58,59,60,61,62,63,64,65,66,67,68,69,70,71,72,73,74,75,76,77,78,79,80,81,82,83,84,85,86,87,88,89,90,91,92,93,94,95,96,97,98,99,100],"tree_info":[0,0,0,0,0,0,0,0,0,0,0,0,0,0,0,0,0,0,0,0,0,0,0,0,0,0,0,0,0,0,0,0,0,0,0,0,0,0,0,0,0,0,0,0,0,0,0,0,0,0,0,0,0,0,0,0,0,0,0,0,0,0,0,0,0,0,0,0,0,0,0,0,0,0,0,0,0,0,0,0,0,0,0,0,0,0,0,0,0,0,0,0,0,0,0,0,0,0,0,0],"trees":[{"base_weights":[-2.714188E-9,-5.4578584E-2,8.842539E-2,-6.5088436E-2,-2.028818E-3,5.039823E-2,2.7854568E-1,-7.1776986E-2,-3.6827497E-2,-1.9369924E-2,6.691289E-2,-1.0053181E-1,6.4420275E-2,2.1431203E-1,3.5011134E-1,-5.371708E-3,-6.846345E-2,-5.3696097E-3,-3.0267715E-2,-2.6168678E-2,-2.0098474E-3,4.336976E-2,1.0512799E-1,-1.02460146E-1,1.435186E-1,2.7852213E-1,4.201528E-2,1.7911159E-1,2.389099E-1,3.2597932E-1,4.1238034E-1,-1.884722E-2,-7.36544E-2,6.9004394E-2,-4.0657286E-2,-3.0278146E-2,-2.130818E-2,-7.735936E-3,1.2961439E-2,3.198908E-2,5.8852907E-2,9.074977E-2,1.1939681E-1,-1.0575944E-1,-5.9005957E-2,6.64664E-2,1.7904492E-1,2.142777E-1,3.500488E-1,-4.655201E-2,7.114339E-2,1.560676E-1,1.9393863E-1,2.2695577E-1,2.6357642E-1,3.0553102E-1,3.445321E-1,3.9558426E-1,2.3301585E-2,-1.3031381E-3,-3.2744476E-5,-4.7150836E-3,-3.34313E-3,2.2452404E-3,5.2528237E-3,-4.086524E-3,-1.3572349E-3,-1.5394276E-3,-1.3875559E-3,-1.1577514E-3,-8.7514624E-4,-4.888667E-4,-5.4906206E-5,2.736421E-4,8.140781E-4,1.4146972E-3,1.8086712E-3,2.468868E-3,3.3334882E-3,4.2056176E-3,4.859926E-3,5.1814276E-3,6.076176E-3,-5.3482666E-3,-4.848059E-3,-1.455805E-3,-3.5231535E-3,-2.2714278E-3,3.7860365E-3,6.767227E-3,1.0639919E-2,8.952096E-3,1.1942242E-2,1.6294932E-2,2.0605816E-2,4.6074274E-3,-5.0860136E-3,1.3926066E-2,1.9196802E-3,7.432285E-3,8.435993E-3,9.254E-3,1.0081724E-2,1.0817514E-2,1.1654262E-2,1.2778665E-2,1.3796742E-2,1.4755382E-2,1.5738813E-2,1.6586944E-2,1.7801043E-2,1.9330105E-2,2.0464426E-2],"categories":[],"categories_nodes":[],"categories_segments":[],"categories_sizes":[],"default_left":[0,0,0,0,0,0,0,0,0,0,0,0,0,0,0,0,0,0,0,0,0,0,0,0,0,0,0,0,0,0,0,0,0,0,0,0,0,0,0,0,0,0,0,0,0,0,0,0,0,0,0,0,0,0,0,0,0,0,0,0,0,0,0,0,0,0,0,0,0,0,0,0,0,0,0,0,0,0,0,0,0,0,0,0,0,0,0,0,0,0,0,0,0,0,0,0,0,0,0,0,0,0,0,0,0,0,0,0,0,0,0,0,0],"id":0,"left_children":[1,3,5,7,9,11,13,15,17,19,21,23,25,27,29,-1,31,-1,33,35,37,39,41,43,45,47,49,51,53,55,57,59,61,63,65,67,69,71,73,75,77,79,81,83,85,87,89,91,93,95,97,99,101,103,105,107,109,111,-1,-1,-1,-1,-1,-1,-1,-1,-1,-1,-1,-1,-1,-1,-1,-1,-1,-1,-1,-1,-1,-1,-1,-1,-1,-1,-1,-1,-1,-1,-1,-1,-1,-1,-1,-1,-1,-1,-1,-1,-1,-1,-1,-1,-1,-1,-1,-1,-1,-1,-1,-1,-1,-1,-1],"loss_changes":[1.1744973E3,8.310904E1,6.7149097E2,2.3701233E1,2.9986273E1,1.6381395E2,7.1089966E1,1.1973267E1,1.1106548E1,2.3653245E0,4.5308437E0,3.1113205E0,3.3971793E2,7.0234375E0,1.0866699E1,0E0,2.3895142E1,0E0,2.265326E1,2.870016E-1,4.836858E-1,5.480652E-1,3.832798E-1,9.298172E-1,1.3044345E-1,3.075415E1,1.6540445E2,1.1180954E0,1.355835E0,1.8981934E0,1.6548462E0,1.1536932E0,1.1772308E1,1.803339E0,1.1031837E1,9.207249E-3,4.5984507E-2,5.5288464E-2,3.8722128E-2,2.6823044E-2,9.4552994E-2,3.2958984E-2,1.963234E-2,5.3993225E-2,1.5650356E-1,2.207911E-2,2.2825241E-2,3.0190277E0,4.621826E0,1.214292E2,3.2766284E2,9.896469E-2,1.0182953E-1,1.6026306E-1,8.387756E-2,1.5002441E-1,2.876587E-1,3.390503E-2,0E0,0E0,0E0,0E0,0E0,0E0,0E0,0E0,0E0,0E0,0E0,0E0,0E0,0E0,0E0,0E0,0E0,0E0,0E0,0E0,0E0,0E0,0E0,0E0,0E0,0E0,0E0,0E0,0E0,0E0,0E0,0E0,0E0,0E0,0E0,0E0,0E0,0E0,0E0,0E0,0E0,0E0,0E0,0E0,0E0,0E0,0E0,0E0,0E0,0E0,0E0,0E0,0E0,0E0,0E0],"parents":[2147483647,0,0,1,1,2,2,3,3,4,4,5,5,6,6,7,7,8,8,9,9,10,10,11,11,12,12,13,13,14,14,16,16,18,18,19,19,20,20,21,21,22,22,23,23,24,24,25,25,26,26,27,27,28,28,29,29,30,30,31,31,32,32,33,33,34,34,35,35,36,36,37,37,38,38,39,39,40,40,41,41,42,42,43,43,44,44,45,45,46,46,47,47,48,48,49,49,50,50,51,51,52,52,53,53,54,54,55,55,56,56,57,57],"right_children":[2,4,6,8,10,12,14,16,18,20,22,24,26,28,30,-1,32,-1,34,36,38,40,42,44,46,48,50,52,54,56,58,60,62,64,66,68,70,72,74,76,78,80,82,84,86,88,90,92,94,96,98,100,102,104,106,108,110,112,-1,-1,-1,-1,-1,-1,-1,-1,-1,-1,-1,-1,-1,-1,-1,-1,-1,-1,-1,-1,-1,-1,-1,-1,-1,-1,-1,-1,-1,-1,-1,-1,-1,-1,-1,-1,-1,-1,-1,-1,-1,-1,-1,-1,-1,-1,-1,-1,-1,-1,-1,-1,-1,-1,-1],"split_conditions":[3.5388064E-1,2.0410781E-17,2.0410781E-17,1.8133448E-1,1.7440857E-1,-8.847539E-1,5.9982914E-1,-8.847539E-1,-8.847539E-1,1.2398229E-1,2.5634816E-1,1E0,-7.945798E-1,4.6860817E-1,7.707762E-1,-5.371708E-3,-7.945798E-1,-5.3696097E-3,-7.945798E-1,1.0797065E-1,1.4736485E-1,2.094291E-1,2.9626358E-1,4.9833474E-1,-9.427452E-1,5.9982914E-1,-3.9091575E-1,4.1591188E-1,5.3595495E-1,6.812758E-1,9.1812277E-1,1.2469386E-1,-3.9091575E-1,2.5634816E-1,-3.9091575E-1,1.03220046E-1,1.1500228E-1,1.3549875E-1,1.6021425E-1,1.8934853E-1,2.2883148E-1,2.7817777E-1,1.0573275E-1,1.2962638E-1,6.490788E-1,3.3333334E-1,-9.105625E-1,4.6860817E-1,7.707762E-1,-6.515263E-1,0E0,3.8986865E-1,4.421889E-1,4.936596E-1,5.786882E-1,6.405625E-1,7.169847E-1,8.3838993E-1,2.3301585E-2,-1.3031381E-3,-3.2744476E-5,-4.7150836E-3,-3.34313E-3,2.2452404E-3,5.2528237E-3,-4.086524E-3,-1.3572349E-3,-1.5394276E-3,-1.3875559E-3,-1.1577514E-3,-8.7514624E-4,-4.888667E-4,-5.4906206E-5,2.736421E-4,8.140781E-4,1.4146972E-3,1.8086712E-3,2.468868E-3,3.3334882E-3,4.2056176E-3,4.859926E-3,5.1814276E-3,6.076176E-3,-5.3482666E-3,-4.848059E-3,-1.455805E-3,-3.5231535E-3,-2.2714278E-3,3.7860365E-3,6.767227E-3,1.0639919E-2,8.952096E-3,1.1942242E-2,1.6294932E-2,2.0605816E-2,4.6074274E-3,-5.0860136E-3,1.3926066E-2,1.9196802E-3,7.432285E-3,8.435993E-3,9.254E-3,1.0081724E-2,1.0817514E-2,1.1654262E-2,1.2778665E-2,1.3796742E-2,1.4755382E-2,1.5738813E-2,1.6586944E-2,1.7801043E-2,1.9330105E-2,2.0464426E-2],"split_indices":[12,0,0,12,12,2,12,2,2,12,12,8,2,12,12,0,2,0,2,12,12,12,12,7,2,12,2,12,12,12,8,12,2,12,2,12,12,12,12,12,12,12,9,4,12,6,2,12,12,2,2,12,12,12,12,12,12,12,0,0,0,0,0,0,0,0,0,0,0,0,0,0,0,0,0,0,0,0,0,0,0,0,0,0,0,0,0,0,0,0,0,0,0,0,0,0,0,0,0,0,0,0,0,0,0,0,0,0,0,0,0,0,0],"split_type":[0,0,0,0,0,0,0,0,0,0,0,0,0,0,0,0,0,0,0,0,0,0,0,0,0,0,0,0,0,0,0,0,0,0,0,0,0,0,0,0,0,0,0,0,0,0,0,0,0,0,0,0,0,0,0,0,0,0,0,0,0,0,0,0,0,0,0,0,0,0,0,0,0,0,0,0,0,0,0,0,0,0,0,0,0,0,0,0,0,0,0,0,0,0,0,0,0,0,0,0,0,0,0,0,0,0,0,0,0,0,0,0,0],"sum_hessian":[2.4336E5,1.5048E5,9.288E4,1.254E5,2.508E4,7.74E4,1.548E4,1.014E5,2.4E4,2.004E4,5.04E3,6.579E3,7.0821E4,8.16E3,7.32E3,8.619E3,9.2781E4,2.04E3,2.196E4,1.44E4,5.64E3,3.12E3,1.92E3,6.528E3,5.1E1,6.708E3,6.4113E4,3.36E3,4.8E3,5.28E3,2.04E3,8.788E3,8.3993E4,2.08E3,1.988E4,7.8E3,6.6E3,4.08E3,1.56E3,1.8E3,1.32E3,9.6E2,9.6E2,6.066E3,4.62E2,1.7E1,3.4E1,3.536E3,3.172E3,1.5867E4,4.8246E4,1.32E3,2.04E3,3.24E3,1.56E3,2.52E3,2.76E3,1.56E3,4.8E2,6.292E3,2.496E3,2.0787E4,6.3206E4,1.248E3,8.32E2,4.92E3,1.496E4,6.48E3,1.32E3,4.44E3,2.16E3,3.12E3,9.6E2,4.8E2,1.08E3,9.6E2,8.4E2,6E2,7.2E2,4.8E2,4.8E2,1.2E2,8.4E2,5.325E3,7.41E2,1.29E2,3.33E2,1E0,1.6E1,1.7E1,1.7E1,1.456E3,2.08E3,2.288E3,8.84E2,4.515E3,1.1352E4,6.579E3,4.1667E4,8.4E2,4.8E2,9.6E2,1.08E3,1.2E3,2.04E3,9.6E2,6E2,1.2E3,1.32E3,1.32E3,1.44E3,9.6E2,6E2],"tree_param":{"num_deleted":"0","num_feature":"14","num_nodes":"113","size_leaf_vector":"1"}},{"base_weights":[1.2131916E-6,-5.0261278E-2,8.674414E-2,-6.058367E-2,1.3510324E-3,5.0145093E-2,2.6972368E-1,-6.70782E-2,-2.6199225E-2,-1.4979651E-2,8.779008E-2,-9.523542E-2,6.365159E-2,2.1064484E-1,3.347716E-1,-5.1032817E-3,-6.382701E-2,-5.1011276E-3,-1.9150442E-2,-2.1849165E-2,1.6789269E-2,6.2786885E-2,1.1940834E-1,-9.714262E-2,1.3670655E-1,2.6975593E-1,4.2083323E-2,1.8411061E-1,2.3478676E-1,3.1161866E-1,3.9179224E-1,-1.5016493E-2,-6.893372E-2,8.7735705E-2,-3.033823E-2,-2.6174303E-2,-1.1623094E-2,5.62659E-3,2.663111E-2,4.9396135E-2,7.760604E-2,1.09944165E-1,6.906113E-3,-1.0039815E-1,-5.6066412E-2,6.322722E-2,1.7059001E-1,2.1161427E-1,3.358251E-1,-4.32582E-2,7.015052E-2,1.6766179E-1,1.9756792E-1,2.2260456E-1,2.5695086E-1,2.9835138E-1,1.6766043E-2,3.7583056E-1,2.2138927E-2,-1.0961741E-3,8.461155E-4,-4.459944E-3,-3.1133874E-3,3.1422772E-3,5.9571206E-3,-3.7222595E-3,-7.9138763E-4,-1.4414223E-3,-1.0961277E-3,-8.063088E-4,-4.3918597E-4,7.840019E-5,5.851925E-4,1.0215052E-3,1.4997725E-3,2.1755248E-3,2.9057893E-3,3.3326063E-3,4.149148E-3,4.83072E-3,5.748392E-3,-5.0789174E-3,-4.602146E-3,-1.3835746E-3,-3.3475233E-3,-2.214642E-3,3.6078698E-3,6.447663E-3,1.0137478E-2,9.278953E-3,1.187631E-2,1.5674058E-2,1.9701561E-2,4.517605E-3,-4.8201038E-3,1.3497445E-2,1.9298727E-3,7.826728E-3,8.791781E-3,9.493689E-3,1.0139562E-2,1.0766876E-2,1.1425339E-2,1.2320316E-2,1.3209035E-2,1.4332279E-2,1.5377584E-2,1.8364606E-2,1.9442907E-2],"categories":[],"categories_nodes":[],"categories_segments":[],"categories_sizes":[],"default_left":[0,0,0,0,0,0,0,0,0,0,0,0,0,0,0,0,0,0,0,0,0,0,0,0,0,0,0,0,0,0,0,0,0,0,0,0,0,0,0,0,0,0,0,0,0,0,0,0,0,0,0,0,0,0,0,0,0,0,0,0,0,0,0,0,0,0,0,0,0,0,0,0,0,0,0,0,0,0,0,0,0,0,0,0,0,0,0,0,0,0,0,0,0,0,0,0,0,0,0,0,0,0,0,0,0,0,0,0,0],"id":1,"left_children":[1,3,5,7,9,11,13,15,17,19,21,23,25,27,29,-1,31,-1,33,35,37,39,41,43,45,47,49,51,53,55,57,59,61,63,65,67,69,71,73,75,77,79,-1,81,83,85,87,89,91,93,95,97,99,101,103,105,-1,107,-1,-1,-1,-1,-1,-1,-1,-1,-1,-1,-1,-1,-1,-1,-1,-1,-1,-1,-1,-1,-1,-1,-1,-1,-1,-1,-1,-1,-1,-1,-1,-1,-1,-1,-1,-1,-1,-1,-1,-1,-1,-1,-1,-1,-1,-1,-1,-1,-1,-1,-1],"loss_changes":[1.0610377E3,8.2088684E1,5.9789026E2,2.86716E1,3.625284E1,1.4609845E2,5.7116455E1,1.2278717E1,1.0901611E1,4.7145057E0,3.2187672E0,2.8111992E0,3.0261227E2,4.9539795E0,9.226196E0,0E0,2.4631226E1,0E0,2.2325027E1,7.852497E-1,4.2182744E-1,4.4880772E-1,3.0379295E-1,8.333626E-1,1.1868024E-1,2.4701935E1,1.4762282E2,7.9055786E-1,1.0447235E0,1.4851685E0,1.4945984E0,2.0654163E0,1.2079437E1,1.3753729E0,1.0814403E1,1.4021397E-1,6.7380786E-2,4.4403467E-2,4.1967034E-2,5.9107542E-2,5.8137894E-2,6.931782E-2,0E0,4.796219E-2,1.4123833E-1,2.0479165E-2,2.0720482E-2,2.2718964E0,3.8002625E0,1.0831369E2,2.9236176E2,1.2536621E-1,4.3518066E-2,6.4071655E-2,4.4761658E-2,2.6089478E-1,0E0,3.0807495E-2,0E0,0E0,0E0,0E0,0E0,0E0,0E0,0E0,0E0,0E0,0E0,0E0,0E0,0E0,0E0,0E0,0E0,0E0,0E0,0E0,0E0,0E0,0E0,0E0,0E0,0E0,0E0,0E0,0E0,0E0,0E0,0E0,0E0,0E0,0E0,0E0,0E0,0E0,0E0,0E0,0E0,0E0,0E0,0E0,0E0,0E0,0E0,0E0,0E0,0E0,0E0],"parents":[2147483647,0,0,1,1,2,2,3,3,4,4,5,5,6,6,7,7,8,8,9,9,10,10,11,11,12,12,13,13,14,14,16,16,18,18,19,19,20,20,21,21,22,22,23,23,24,24,25,25,26,26,27,27,28,28,29,29,30,30,31,31,32,32,33,33,34,34,35,35,36,36,37,37,38,38,39,39,40,40,41,41,43,43,44,44,45,45,46,46,47,47,48,48,49,49,50,50,51,51,52,52,53,53,54,54,55,55,57,57],"right_children":[2,4,6,8,10,12,14,16,18,20,22,24,26,28,30,-1,32,-1,34,36,38,40,42,44,46,48,50,52,54,56,58,60,62,64,66,68,70,72,74,76,78,80,-1,82,84,86,88,90,92,94,96,98,100,102,104,106,-1,108,-1,-1,-1,-1,-1,-1,-1,-1,-1,-1,-1,-1,-1,-1,-1,-1,-1,-1,-1,-1,-1,-1,-1,-1,-1,-1,-1,-1,-1,-1,-1,-1,-1,-1,-1,-1,-1,-1,-1,-1,-1,-1,-1,-1,-1,-1,-1,-1,-1,-1,-1],"split_conditions":[3.7657705E-1,2.0410781E-17,2.0410781E-17,1.9695716E-1,1.9695716E-1,-8.847539E-1,6.096081E-1,-8.847539E-1,-8.847539E-1,1.3986182E-1,2.8714797E-1,1E0,-7.945798E-1,4.8799324E-1,7.707762E-1,-5.1032817E-3,-7.945798E-1,-5.1011276E-3,-7.945798E-1,1.1583496E-1,1.6682242E-1,2.4148996E-1,3.5388064E-1,4.9833474E-1,-9.427452E-1,6.137137E-1,-3.9091575E-1,4.421889E-1,5.453541E-1,7.05755E-1,9.1812277E-1,1.3986182E-1,-3.9091575E-1,2.8714797E-1,-3.9091575E-1,1.0700864E-1,1.2469386E-1,1.53241E-1,1.8133448E-1,2.2212096E-1,2.5634816E-1,2.988484E-2,6.906113E-3,1.2962638E-1,6.490788E-1,3.3333334E-1,-9.105625E-1,4.936596E-1,7.884409E-1,-6.515263E-1,0E0,4.1591188E-1,4.61345E-1,5.1001114E-1,5.786882E-1,6.554385E-1,1.6766043E-2,8.3838993E-1,2.2138927E-2,-1.0961741E-3,8.461155E-4,-4.459944E-3,-3.1133874E-3,3.1422772E-3,5.9571206E-3,-3.7222595E-3,-7.9138763E-4,-1.4414223E-3,-1.0961277E-3,-8.063088E-4,-4.3918597E-4,7.840019E-5,5.851925E-4,1.0215052E-3,1.4997725E-3,2.1755248E-3,2.9057893E-3,3.3326063E-3,4.149148E-3,4.83072E-3,5.748392E-3,-5.0789174E-3,-4.602146E-3,-1.3835746E-3,-3.3475233E-3,-2.214642E-3,3.6078698E-3,6.447663E-3,1.0137478E-2,9.278953E-3,1.187631E-2,1.5674058E-2,1.9701561E-2,4.517605E-3,-4.8201038E-3,1.3497445E-2,1.9298727E-3,7.826728E-3,8.791781E-3,9.493689E-3,1.0139562E-2,1.0766876E-2,1.1425339E-2,1.2320316E-2,1.3209035E-2,1.4332279E-2,1.5377584E-2,1.8364606E-2,1.9442907E-2],"split_indices":[12,0,0,12,12,2,12,2,2,12,12,8,2,12,12,0,2,0,2,12,12,12,12,7,2,12,2,12,12,12,8,12,2,12,2,12,12,12,12,12,12,6,0,4,12,6,2,12,12,2,2,12,12,12,12,12,0,12,0,0,0,0,0,0,0,0,0,0,0,0,0,0,0,0,0,0,0,0,0,0,0,0,0,0,0,0,0,0,0,0,0,0,0,0,0,0,0,0,0,0,0,0,0,0,0,0,0,0,0],"split_type":[0,0,0,0,0,0,0,0,0,0,0,0,0,0,0,0,0,0,0,0,0,0,0,0,0,0,0,0,0,0,0,0,0,0,0,0,0,0,0,0,0,0,0,0,0,0,0,0,0,0,0,0,0,0,0,0,0,0,0,0,0,0,0,0,0,0,0,0,0,0,0,0,0,0,0,0,0,0,0,0,0,0,0,0,0,0,0,0,0,0,0,0,0,0,0,0,0,0,0,0,0,0,0,0,0,0,0,0,0],"sum_hessian":[2.4336E5,1.5408E5,8.928E4,1.284E5,2.568E4,7.44E4,1.488E4,1.08E5,2.04E4,2.16E4,4.08E3,6.324E3,6.8076E4,7.8E3,7.08E3,9.18E3,9.882E4,1.734E3,1.8666E4,1.776E4,3.84E3,2.28E3,1.8E3,6.273E3,5.1E1,6.448E3,6.1628E4,3.72E3,4.08E3,5.04E3,2.04E3,9.36E3,8.946E4,1.768E3,1.6898E4,1.248E4,5.28E3,1.8E3,2.04E3,1.2E3,1.08E3,1.2E3,6E2,5.811E3,4.62E2,1.7E1,3.4E1,3.432E3,3.016E3,1.5252E4,4.6376E4,1.68E3,2.04E3,2.64E3,1.44E3,3.24E3,1.8E3,1.56E3,4.8E2,7.696E3,1.664E3,2.214E4,6.732E4,9.88E2,7.8E2,4.182E3,1.2716E4,7.68E3,4.8E3,2.04E3,3.24E3,1.08E3,7.2E2,7.2E2,1.32E3,7.2E2,4.8E2,3.6E2,7.2E2,3.34E2,8.66E2,5.082E3,7.29E2,1.29E2,3.33E2,1E0,1.6E1,1.7E1,1.7E1,1.716E3,1.716E3,2.184E3,8.32E2,4.34E3,1.0912E4,6.324E3,4.0052E4,7.2E2,9.6E2,8.4E2,1.2E3,1.2E3,1.44E3,6E2,8.4E2,1.44E3,1.8E3,9.6E2,6E2],"tree_param":{"num_deleted":"0","num_feature":"14","num_nodes":"109","size_leaf_vector":"1"}},{"base_weights":[2.3101288E-6,-4.8669048E-2,8.08654E-2,-5.828438E-2,-5.919921E-4,4.6366476E-2,2.5334564E-1,-6.502593E-2,-3.2695614E-2,-1.6524902E-2,6.751045E-2,-9.062161E-2,5.909326E-2,1.971747E-1,3.1804803E-1,-9.697153E-2,-6.2057287E-2,-4.8457044E-3,-2.67262E-2,-2.3525832E-2,4.184477E-4,4.2005114E-2,9.864977E-2,-9.239429E-2,1.3021696E-1,2.533584E-1,3.876404E-2,1.6778952E-1,2.2033165E-1,2.9693958E-1,3.745929E-1,-4.864842E-3,-4.6823807E-3,-1.7540468E-2,-6.671471E-2,6.358615E-2,-3.6177855E-2,-2.7328694E-2,-1.9108387E-2,-6.5429476E-3,1.5207118E-2,3.4155976E-2,5.876408E-2,8.190476E-2,1.1196643E-1,-9.5415354E-2,-5.327331E-2,6.0143266E-2,1.6253437E-1,1.9714668E-1,3.1805944E-1,-4.1633792E-2,6.520536E-2,1.4531542E-1,1.7896135E-1,2.0717826E-1,2.4037395E-1,2.8344297E-1,3.195557E-1,1.794737E-2,2.1034282E-2,-1.1933562E-3,-9.2617855E-5,-4.259699E-3,-3.0318021E-3,1.9645195E-3,4.930032E-3,-3.6801775E-3,-1.1932839E-3,-1.3931646E-3,-1.2586912E-3,-1.0415575E-3,-7.731742E-4,-4.347644E-4,-2.8085617E-5,4.8304812E-4,1.0368725E-3,1.4667078E-3,2.0668996E-3,2.5803458E-3,3.0768157E-3,3.6950212E-3,4.328821E-3,5.322166E-3,6.2261573E-3,-4.8259567E-3,-4.375782E-3,-1.3149282E-3,-3.180648E-3,-2.159276E-3,3.4380876E-3,6.1431895E-3,9.658763E-3,8.378639E-3,1.1019897E-2,1.4609228E-2,1.8228523E-2,4.2170146E-3,-4.587009E-3,1.2678641E-2,1.7728836E-3,6.8101804E-3,7.709272E-3,8.483169E-3,9.32173E-3,1.0099565E-2,1.0687375E-2,1.1541786E-2,1.2549368E-2,1.3654304E-2,1.4644596E-2,1.5554726E-2,1.638422E-2],"categories":[],"categories_nodes":[],"categories_segments":[],"categories_sizes":[],"default_left":[0,0,0,0,0,0,0,0,0,0,0,0,0,0,0,0,0,0,0,0,0,0,0,0,0,0,0,0,0,0,0,0,0,0,0,0,0,0,0,0,0,0,0,0,0,0,0,0,0,0,0,0,0,0,0,0,0,0,0,0,0,0,0,0,0,0,0,0,0,0,0,0,0,0,0,0,0,0,0,0,0,0,0,0,0,0,0,0,0,0,0,0,0,0,0,0,0,0,0,0,0,0,0,0,0,0,0,0,0,0,0,0,0],"id":2,"left_children":[1,3,5,7,9,11,13,15,17,19,21,23,25,27,29,31,33,-1,35,37,39,41,43,45,47,49,51,53,55,57,59,-1,-1,61,63,65,67,69,71,73,75,77,79,81,83,85,87,89,91,93,95,97,99,101,103,105,107,109,111,-1,-1,-1,-1,-1,-1,-1,-1,-1,-1,-1,-1,-1,-1,-1,-1,-1,-1,-1,-1,-1,-1,-1,-1,-1,-1,-1,-1,-1,-1,-1,-1,-1,-1,-1,-1,-1,-1,-1,-1,-1,-1,-1,-1,-1,-1,-1,-1,-1,-1,-1,-1,-1,-1],"loss_changes":[9.578037E2,7.022952E1,5.440971E2,2.1837555E1,2.7476173E1,1.3285556E2,5.53291E1,9.496582E0,1.0118147E1,2.4341946E0,3.8089008E0,2.548008E0,2.753483E2,5.5163574E0,8.340515E0,9.1552734E-5,1.9008026E1,0E0,2.0622746E1,2.4341583E-1,6.1790115E-1,3.453989E-1,4.7270584E-1,7.5450516E-1,1.0798389E-1,2.3959381E1,1.3418478E2,8.781128E-1,1.1526031E0,1.4847717E0,1.234314E0,0E0,0E0,8.6197066E-1,9.318146E0,1.9433861E0,1.00752945E1,8.285522E-3,4.1881084E-2,5.253251E-2,5.8720738E-2,6.115675E-2,1.3510704E-2,2.95372E-2,7.003784E-2,4.3563843E-2,1.2746227E-1,1.8999204E-2,1.8809617E-2,2.395218E0,3.586914E0,9.861546E1,2.661515E2,7.606697E-2,1.3520813E-1,5.089569E-2,1.2438202E-1,2.3718262E-1,3.0181885E-2,0E0,0E0,0E0,0E0,0E0,0E0,0E0,0E0,0E0,0E0,0E0,0E0,0E0,0E0,0E0,0E0,0E0,0E0,0E0,0E0,0E0,0E0,0E0,0E0,0E0,0E0,0E0,0E0,0E0,0E0,0E0,0E0,0E0,0E0,0E0,0E0,0E0,0E0,0E0,0E0,0E0,0E0,0E0,0E0,0E0,0E0,0E0,0E0,0E0,0E0,0E0,0E0,0E0,0E0],"parents":[2147483647,0,0,1,1,2,2,3,3,4,4,5,5,6,6,7,7,8,8,9,9,10,10,11,11,12,12,13,13,14,14,15,15,16,16,18,18,19,19,20,20,21,21,22,22,23,23,24,24,25,25,26,26,27,27,28,28,29,29,30,30,33,33,34,34,35,35,36,36,37,37,38,38,39,39,40,40,41,41,42,42,43,43,44,44,45,45,46,46,47,47,48,48,49,49,50,50,51,51,52,52,53,53,54,54,55,55,56,56,57,57,58,58],"right_children":[2,4,6,8,10,12,14,16,18,20,22,24,26,28,30,32,34,-1,36,38,40,42,44,46,48,50,52,54,56,58,60,-1,-1,62,64,66,68,70,72,74,76,78,80,82,84,86,88,90,92,94,96,98,100,102,104,106,108,110,112,-1,-1,-1,-1,-1,-1,-1,-1,-1,-1,-1,-1,-1,-1,-1,-1,-1,-1,-1,-1,-1,-1,-1,-1,-1,-1,-1,-1,-1,-1,-1,-1,-1,-1,-1,-1,-1,-1,-1,-1,-1,-1,-1,-1,-1,-1,-1,-1,-1,-1,-1,-1,-1,-1],"split_conditions":[3.631973E-1,2.0410781E-17,2.0410781E-17,1.7440857E-1,1.8419361E-1,-8.847539E-1,6.096081E-1,-8.847539E-1,-8.847539E-1,1.2469386E-1,2.5634816E-1,1E0,-7.945798E-1,4.8046264E-1,7.884409E-1,7.341016E-2,-7.945798E-1,-4.8457044E-3,-7.945798E-1,1.0797065E-1,1.5007919E-1,2.2212096E-1,2.9626358E-1,4.9833474E-1,-9.427452E-1,6.096081E-1,-3.9091575E-1,4.2100072E-1,5.3595495E-1,7.05755E-1,9.1812277E-1,-4.864842E-3,-4.6823807E-3,1.2307774E-1,-3.9091575E-1,2.5634816E-1,-3.9091575E-1,1.0250201E-1,1.1544251E-1,1.3549875E-1,1.6682242E-1,1.9695716E-1,2.3551922E-1,2.7366444E-1,3.3468473E-1,1.2962638E-1,6.490788E-1,3.3333334E-1,-9.105625E-1,4.8046264E-1,7.5181645E-1,-6.515263E-1,0E0,3.8986865E-1,4.5166197E-1,5.0465304E-1,5.786882E-1,6.6114306E-1,7.3696446E-1,1.794737E-2,2.1034282E-2,-1.1933562E-3,-9.2617855E-5,-4.259699E-3,-3.0318021E-3,1.9645195E-3,4.930032E-3,-3.6801775E-3,-1.1932839E-3,-1.3931646E-3,-1.2586912E-3,-1.0415575E-3,-7.731742E-4,-4.347644E-4,-2.8085617E-5,4.8304812E-4,1.0368725E-3,1.4667078E-3,2.0668996E-3,2.5803458E-3,3.0768157E-3,3.6950212E-3,4.328821E-3,5.322166E-3,6.2261573E-3,-4.8259567E-3,-4.375782E-3,-1.3149282E-3,-3.180648E-3,-2.159276E-3,3.4380876E-3,6.1431895E-3,9.658763E-3,8.378639E-3,1.1019897E-2,1.4609228E-2,1.8228523E-2,4.2170146E-3,-4.587009E-3,1.2678641E-2,1.7728836E-3,6.8101804E-3,7.709272E-3,8.483169E-3,9.32173E-3,1.0099565E-2,1.0687375E-2,1.1541786E-2,1.2549368E-2,1.3654304E-2,1.4644596E-2,1.5554726E-2,1.638422E-2],"split_indices":[12,0,0,12,12,2,12,2,2,12,12,8,2,12,12,7,2,0,2,12,12,12,12,7,2,12,2,12,12,12,8,0,0,12,2,12,2,12,12,12,12,12,12,12,12,4,12,6,2,12,12,2,2,12,12,12,12,12,12,0,0,0,0,0,0,0,0,0,0,0,0,0,0,0,0,0,0,0,0,0,0,0,0,0,0,0,0,0,0,0,0,0,0,0,0,0,0,0,0,0,0,0,0,0,0,0,0,0,0,0,0,0,0],"split_type":[0,0,0,0,0,0,0,0,0,0,0,0,0,0,0,0,0,0,0,0,0,0,0,0,0,0,0,0,0,0,0,0,0,0,0,0,0,0,0,0,0,0,0,0,0,0,0,0,0,0,0,0,0,0,0,0,0,0,0,0,0,0,0,0,0,0,0,0,0,0,0,0,0,0,0,0,0,0,0,0,0,0,0,0,0,0,0,0,0,0,0,0,0,0,0,0,0,0,0,0,0,0,0,0,0,0,0,0,0,0,0,0,0],"sum_hessian":[2.4336E5,1.5192E5,9.144E4,1.266E5,2.532E4,7.62E4,1.524E4,1.002E5,2.64E4,2.052E4,4.8E3,6.477E3,6.9723E4,8.16E3,7.08E3,8.517E3,9.1683E4,2.244E3,2.4156E4,1.452E4,6E3,2.64E3,2.16E3,6.426E3,5.1E1,6.604E3,6.3119E4,3.6E3,4.56E3,5.16E3,1.92E3,7.732E3,7.85E2,8.684E3,8.2999E4,2.288E3,2.1868E4,7.8E3,6.72E3,4.08E3,1.92E3,1.8E3,8.4E2,9.6E2,1.2E3,5.964E3,4.62E2,1.7E1,3.4E1,3.536E3,3.068E3,1.5621E4,4.7498E4,1.2E3,2.4E3,2.76E3,1.8E3,3.24E3,1.92E3,1.44E3,4.8E2,6.188E3,2.496E3,2.0541E4,6.2458E4,1.352E3,9.36E2,5.412E3,1.6456E4,6.24E3,1.56E3,4.56E3,2.16E3,3E3,1.08E3,9.6E2,9.6E2,1.08E3,7.2E2,2.4E2,6E2,3.6E2,6E2,8.4E2,3.6E2,5.223E3,7.41E2,1.29E2,3.33E2,1E0,1.6E1,1.7E1,1.7E1,1.56E3,1.976E3,1.976E3,1.092E3,4.445E3,1.1176E4,6.477E3,4.1021E4,6E2,6E2,1.08E3,1.32E3,1.56E3,1.2E3,9.6E2,8.4E2,1.56E3,1.68E3,9.6E2,9.6E2],"tree_param":{"num_deleted":"0","num_feature":"14","num_nodes":"113","size_leaf_vector":"1"}},{"base_weights":[3.2254604E-6,-4.4823583E-2,7.936833E-2,-5.427864E-2,2.4519595E-3,4.6190772E-2,2.4524164E-1,-6.0273916E-2,-2.1030739E-2,-1.3519253E-2,8.229267E-2,-8.583345E-2,5.8456413E-2,1.92754E-1,3.0312306E-1,-9.211148E-2,-5.731544E-2,-4.607844E-3,-1.441867E-2,-1.960366E-2,1.5722563E-2,5.6653433E-2,1.1090649E-1,-8.7587714E-2,1.2403458E-1,2.4537706E-1,3.88956E-2,1.6977435E-1,2.1429262E-1,2.829572E-1,3.5588357E-1,-4.6132565E-3,-4.3030167E-3,-1.2783181E-2,-6.197456E-2,8.6259626E-2,-2.4957033E-2,-2.3623971E-2,-1.0309618E-2,5.6181955E-3,2.4036977E-2,4.456096E-2,7.003586E-2,9.924621E-2,6.3713104E-3,-8.984531E-2,-3.8287457E-2,5.720715E-2,1.5485914E-1,1.9375694E-1,3.0415693E-1,-3.862396E-2,6.439029E-2,1.5602866E-1,1.8101233E-1,2.027028E-1,2.3442006E-1,2.7016407E-1,3.0359456E-1,3.4101248E-1,1.9984756E-2,-9.746273E-4,9.434667E-4,-4.0204027E-3,-2.7955563E-3,3.1693354E-3,5.6795417E-3,-3.3167906E-3,-5.672115E-4,-1.308821E-3,-9.999343E-4,-7.273732E-4,-3.866539E-4,1.1591345E-4,5.7721615E-4,9.1872906E-4,1.3554655E-3,1.9636978E-3,2.619667E-3,3.1839106E-3,3.8917006E-3,4.496215E-3,5.266374E-3,-4.5666886E-3,-3.8003046E-3,-2.528467E-3,-7.4360304E-4,-2.1052943E-3,3.2762957E-3,5.853095E-3,9.2026545E-3,8.735086E-3,1.1109476E-2,1.418554E-2,1.7807333E-2,4.1359127E-3,-4.344414E-3,1.2293308E-2,1.7865347E-3,7.2398856E-3,8.019837E-3,8.785926E-3,9.338942E-3,9.854327E-3,1.0435573E-2,1.1196203E-2,1.197148E-2,1.3026846E-2,1.39128035E-2,1.4777799E-2,1.556586E-2,1.6654542E-2,1.7576504E-2],"categories":[],"categories_nodes":[],"categories_segments":[],"categories_sizes":[],"default_left":[0,0,0,0,0,0,0,0,0,0,0,0,0,0,0,0,0,0,0,0,0,0,0,0,0,0,0,0,0,0,0,0,0,0,0,0,0,0,0,0,0,0,0,0,0,0,0,0,0,0,0,0,0,0,0,0,0,0,0,0,0,0,0,0,0,0,0,0,0,0,0,0,0,0,0,0,0,0,0,0,0,0,0,0,0,0,0,0,0,0,0,0,0,0,0,0,0,0,0,0,0,0,0,0,0,0,0,0,0,0,0,0,0],"id":3,"left_children":[1,3,5,7,9,11,13,15,17,19,21,23,25,27,29,31,33,-1,35,37,39,41,43,45,47,49,51,53,55,57,59,-1,-1,61,63,65,67,69,71,73,75,77,79,81,-1,83,85,87,89,91,93,95,97,99,101,103,105,107,109,111,-1,-1,-1,-1,-1,-1,-1,-1,-1,-1,-1,-1,-1,-1,-1,-1,-1,-1,-1,-1,-1,-1,-1,-1,-1,-1,-1,-1,-1,-1,-1,-1,-1,-1,-1,-1,-1,-1,-1,-1,-1,-1,-1,-1,-1,-1,-1,-1,-1,-1,-1,-1,-1],"loss_changes":[8.6580524E2,6.951694E1,4.8340155E2,2.5832153E1,3.305435E1,1.18543945E2,4.4421814E1,1.0336914E1,9.310903E0,3.843539E0,3.163763E0,2.3019485E0,2.448871E2,3.7653503E0,7.305542E0,7.4005127E-4,2.0844452E1,0E0,1.9225067E1,6.678791E-1,3.1247324E-1,3.6600542E-1,3.805008E-1,6.835022E-1,9.8257124E-2,1.9193237E1,1.1983768E2,5.465622E-1,8.764801E-1,1.2488708E0,1.1152802E0,0E0,0E0,2.0214767E0,1.0161224E1,1.0661726E0,9.238187E0,1.14967346E-1,5.8860898E-2,3.284651E-2,3.500867E-2,4.767561E-2,4.863739E-2,5.861187E-2,0E0,1.1461258E-1,7.747108E-2,1.7629925E-2,1.7075181E-2,1.7929611E0,3.0507202E0,8.789567E1,2.3730879E2,5.9238434E-2,2.947998E-2,4.3945312E-2,2.2155762E-2,1.7063904E-1,2.7252197E-2,2.960205E-3,0E0,0E0,0E0,0E0,0E0,0E0,0E0,0E0,0E0,0E0,0E0,0E0,0E0,0E0,0E0,0E0,0E0,0E0,0E0,0E0,0E0,0E0,0E0,0E0,0E0,0E0,0E0,0E0,0E0,0E0,0E0,0E0,0E0,0E0,0E0,0E0,0E0,0E0,0E0,0E0,0E0,0E0,0E0,0E0,0E0,0E0,0E0,0E0,0E0,0E0,0E0,0E0,0E0],"parents":[2147483647,0,0,1,1,2,2,3,3,4,4,5,5,6,6,7,7,8,8,9,9,10,10,11,11,12,12,13,13,14,14,15,15,16,16,18,18,19,19,20,20,21,21,22,22,23,23,24,24,25,25,26,26,27,27,28,28,29,29,30,30,33,33,34,34,35,35,36,36,37,37,38,38,39,39,40,40,41,41,42,42,43,43,45,45,46,46,47,47,48,48,49,49,50,50,51,51,52,52,53,53,54,54,55,55,56,56,57,57,58,58,59,59],"right_children":[2,4,6,8,10,12,14,16,18,20,22,24,26,28,30,32,34,-1,36,38,40,42,44,46,48,50,52,54,56,58,60,-1,-1,62,64,66,68,70,72,74,76,78,80,82,-1,84,86,88,90,92,94,96,98,100,102,104,106,108,110,112,-1,-1,-1,-1,-1,-1,-1,-1,-1,-1,-1,-1,-1,-1,-1,-1,-1,-1,-1,-1,-1,-1,-1,-1,-1,-1,-1,-1,-1,-1,-1,-1,-1,-1,-1,-1,-1,-1,-1,-1,-1,-1,-1,-1,-1,-1,-1,-1,-1,-1,-1,-1,-1],"split_conditions":[3.8986865E-1,2.0410781E-17,2.0410781E-17,2.0950003E-1,1.9695716E-1,-8.847539E-1,6.137137E-1,-8.847539E-1,-8.847539E-1,1.4107722E-1,2.8714797E-1,1E0,-7.945798E-1,4.936596E-1,7.884409E-1,9.1430776E-2,-7.945798E-1,-4.607844E-3,-7.945798E-1,1.1583496E-1,1.6682242E-1,2.4148996E-1,3.5388064E-1,6.590225E-1,-9.427452E-1,6.2832385E-1,-3.9091575E-1,4.5166197E-1,5.4822975E-1,7.05755E-1,9.1812277E-1,-4.6132565E-3,-4.3030167E-3,1.4320867E-1,-3.9091575E-1,2.9626358E-1,-3.9091575E-1,1.0566101E-1,1.2469386E-1,1.6021425E-1,1.8133448E-1,2.2212096E-1,2.6739183E-1,3.148546E-1,6.3713104E-3,3.6841294E-1,-9.105625E-1,3.3333334E-1,-9.105625E-1,5.1001114E-1,7.884409E-1,-6.515263E-1,0E0,4.1591188E-1,4.7470817E-1,5.164864E-1,5.786882E-1,6.6114306E-1,7.3696446E-1,8.3838993E-1,1.9984756E-2,-9.746273E-4,9.434667E-4,-4.0204027E-3,-2.7955563E-3,3.1693354E-3,5.6795417E-3,-3.3167906E-3,-5.672115E-4,-1.308821E-3,-9.999343E-4,-7.273732E-4,-3.866539E-4,1.1591345E-4,5.7721615E-4,9.1872906E-4,1.3554655E-3,1.9636978E-3,2.619667E-3,3.1839106E-3,3.8917006E-3,4.496215E-3,5.266374E-3,-4.5666886E-3,-3.8003046E-3,-2.528467E-3,-7.4360304E-4,-2.1052943E-3,3.2762957E-3,5.853095E-3,9.2026545E-3,8.735086E-3,1.1109476E-2,1.418554E-2,1.7807333E-2,4.1359127E-3,-4.344414E-3,1.2293308E-2,1.7865347E-3,7.2398856E-3,8.019837E-3,8.785926E-3,9.338942E-3,9.854327E-3,1.0435573E-2,1.1196203E-2,1.197148E-2,1.3026846E-2,1.39128035E-2,1.4777799E-2,1.556586E-2,1.6654542E-2,1.7576504E-2],"split_indices":[12,0,0,12,12,2,12,2,2,12,12,8,2,12,12,5,2,0,2,12,12,12,12,7,2,12,2,12,12,12,8,0,0,12,2,12,2,12,12,12,12,12,12,12,0,7,2,6,2,12,12,2,2,12,12,12,12,12,12,12,0,0,0,0,0,0,0,0,0,0,0,0,0,0,0,0,0,0,0,0,0,0,0,0,0,0,0,0,0,0,0,0,0,0,0,0,0,0,0,0,0,0,0,0,0,0,0,0,0,0,0,0,0],"split_type":[0,0,0,0,0,0,0,0,0,0,0,0,0,0,0,0,0,0,0,0,0,0,0,0,0,0,0,0,0,0,0,0,0,0,0,0,0,0,0,0,0,0,0,0,0,0,0,0,0,0,0,0,0,0,0,0,0,0,0,0,0,0,0,0,0,0,0,0,0,0,0,0,0,0,0,0,0,0,0,0,0,0,0,0,0,0,0,0,0,0,0,0,0,0,0,0,0,0,0,0,0,0,0,0,0,0,0,0,0,0,0,0,0],"sum_hessian":[2.4336E5,1.5552E5,8.784E4,1.296E5,2.592E4,7.32E4,1.464E4,1.098E5,1.98E4,2.16E4,4.32E3,6.222E3,6.6978E4,7.68E3,6.96E3,9.333E3,1.00467E5,1.683E3,1.8117E4,1.788E4,3.72E3,2.28E3,2.04E3,6.171E3,5.1E1,6.344E3,6.0634E4,3.72E3,3.96E3,5.04E3,1.92E3,9.088E3,2.45E2,9.516E3,9.0951E4,1.716E3,1.6401E4,1.248E4,5.4E3,1.68E3,2.04E3,1.2E3,1.08E3,1.2E3,8.4E2,5.9E3,2.71E2,1.7E1,3.4E1,3.38E3,2.964E3,1.5006E4,4.5628E4,1.68E3,2.04E3,2.52E3,1.44E3,3.12E3,1.92E3,1.44E3,4.8E2,7.852E3,1.664E3,2.2509E4,6.8442E4,9.36E2,7.8E2,4.059E3,1.2342E4,7.32E3,5.16E3,2.04E3,3.36E3,1.08E3,6E2,7.2E2,1.32E3,7.2E2,4.8E2,6E2,4.8E2,4.8E2,7.2E2,5.322E3,5.78E2,1.77E2,9.4E1,1E0,1.6E1,1.7E1,1.7E1,2.028E3,1.352E3,2.132E3,8.32E2,4.27E3,1.0736E4,6.222E3,3.9406E4,4.8E2,1.2E3,1.08E3,9.6E2,1.32E3,1.2E3,4.8E2,9.6E2,1.44E3,1.68E3,9.6E2,9.6E2,8.4E2,6E2],"tree_param":{"num_deleted":"0","num_feature":"14","num_nodes":"113","size_leaf_vector":"1"}},{"base_weights":[4.1753788E-6,-4.231384E-2,7.589643E-2,-5.13622E-2,2.9282025E-3,4.4307612E-2,2.3382656E-1,-5.695812E-2,-1.778543E-2,-1.2334367E-2,8.227761E-2,-8.1488915E-2,5.599468E-2,1.8474169E-1,2.8890437E-1,-8.749427E-2,-5.4120596E-2,-4.3820613E-3,-1.1291326E-2,-1.850873E-2,1.6605245E-2,5.7543274E-2,1.0842588E-1,-8.3171554E-2,1.1814491E-1,2.3398562E-1,3.7368305E-2,1.6722E-1,2.1028852E-1,2.696344E-1,3.381176E-1,-4.382486E-3,-4.0796963E-3,-1.1337038E-2,-5.8596775E-2,8.7694764E-2,-2.165304E-2,-2.2322413E-2,-9.318737E-3,7.0378473E-3,2.5039483E-2,4.6854954E-2,7.0841014E-2,9.5871486E-2,1.22435115E-1,-8.533271E-2,-3.6385115E-2,5.4411847E-2,1.4754634E-1,1.8495208E-1,2.889599E-1,-3.650055E-2,6.1662342E-2,1.5208852E-1,1.7816295E-1,1.9854829E-1,1.1306776E-2,2.575127E-1,2.8843063E-1,3.239856E-1,1.8987594E-2,-9.0197334E-4,1.1082757E-3,-3.8138784E-3,-2.6390478E-3,3.3707514E-3,5.609696E-3,-3.1144526E-3,-4.142285E-4,-1.2362635E-3,-9.328369E-4,-6.5870926E-4,-3.4439593E-4,1.3250388E-4,6.021664E-4,1.0244873E-3,1.4102294E-3,2.0168747E-3,2.6647227E-3,3.2499675E-3,3.8267702E-3,4.4460925E-3,5.0636996E-3,5.9150653E-3,6.4489E-3,-4.337874E-3,-3.6106177E-3,-2.402754E-3,-7.068141E-4,-2.0526617E-3,3.122117E-3,5.576698E-3,8.768084E-3,8.584867E-3,1.1068108E-2,1.3114539E-2,1.6269527E-2,3.955875E-3,-4.124406E-3,1.1729437E-2,1.7176437E-3,7.293454E-3,7.9951E-3,8.568543E-3,9.185009E-3,9.671005E-3,1.0298081E-2,1.2547313E-2,1.3357259E-2,1.4039679E-2,1.4788377E-2,1.5822805E-2,1.669914E-2],"categories":[],"categories_nodes":[],"categories_segments":[],"categories_sizes":[],"default_left":[0,0,0,0,0,0,0,0,0,0,0,0,0,0,0,0,0,0,0,0,0,0,0,0,0,0,0,0,0,0,0,0,0,0,0,0,0,0,0,0,0,0,0,0,0,0,0,0,0,0,0,0,0,0,0,0,0,0,0,0,0,0,0,0,0,0,0,0,0,0,0,0,0,0,0,0,0,0,0,0,0,0,0,0,0,0,0,0,0,0,0,0,0,0,0,0,0,0,0,0,0,0,0,0,0,0,0,0,0,0,0,0,0],"id":4,"left_children":[1,3,5,7,9,11,13,15,17,19,21,23,25,27,29,31,33,-1,35,37,39,41,43,45,47,49,51,53,55,57,59,-1,-1,61,63,65,67,69,71,73,75,77,79,81,83,85,87,89,91,93,95,97,99,101,103,105,-1,107,109,111,-1,-1,-1,-1,-1,-1,-1,-1,-1,-1,-1,-1,-1,-1,-1,-1,-1,-1,-1,-1,-1,-1,-1,-1,-1,-1,-1,-1,-1,-1,-1,-1,-1,-1,-1,-1,-1,-1,-1,-1,-1,-1,-1,-1,-1,-1,-1,-1,-1,-1,-1,-1,-1],"loss_changes":[7.8158374E2,6.395996E1,4.3462106E2,2.446286E1,3.1538641E1,1.06742004E2,3.920398E1,9.665161E0,8.43737E0,3.9029377E0,2.7108002E0,2.0830765E0,2.2022838E2,3.4030151E0,6.3964233E0,1.5563965E-3,1.9555023E1,0E0,1.7458725E1,6.306858E-1,3.0976832E-1,3.0382538E-1,3.47229E-1,6.158104E-1,8.941162E-2,1.6909851E1,1.0792426E2,7.2813416E-1,5.357666E-1,1.046936E0,1.0072327E0,0E0,0E0,2.1724572E0,9.5017395E0,7.9383373E-1,8.369746E0,1.1158657E-1,4.9402267E-2,3.952326E-2,2.8813243E-2,4.8255205E-2,2.6992798E-2,3.1580925E-2,1.0733604E-2,1.0309219E-1,6.994364E-2,1.6362824E-2,1.55005455E-2,1.5685883E0,2.7953796E0,7.914464E1,2.1370995E2,7.003021E-2,6.7848206E-2,2.8625488E-2,0E0,1.2277222E-1,2.4597168E-2,2.7770996E-3,0E0,0E0,0E0,0E0,0E0,0E0,0E0,0E0,0E0,0E0,0E0,0E0,0E0,0E0,0E0,0E0,0E0,0E0,0E0,0E0,0E0,0E0,0E0,0E0,0E0,0E0,0E0,0E0,0E0,0E0,0E0,0E0,0E0,0E0,0E0,0E0,0E0,0E0,0E0,0E0,0E0,0E0,0E0,0E0,0E0,0E0,0E0,0E0,0E0,0E0,0E0,0E0,0E0],"parents":[2147483647,0,0,1,1,2,2,3,3,4,4,5,5,6,6,7,7,8,8,9,9,10,10,11,11,12,12,13,13,14,14,15,15,16,16,18,18,19,19,20,20,21,21,22,22,23,23,24,24,25,25,26,26,27,27,28,28,29,29,30,30,33,33,34,34,35,35,36,36,37,37,38,38,39,39,40,40,41,41,42,42,43,43,44,44,45,45,46,46,47,47,48,48,49,49,50,50,51,51,52,52,53,53,54,54,55,55,57,57,58,58,59,59],"right_children":[2,4,6,8,10,12,14,16,18,20,22,24,26,28,30,32,34,-1,36,38,40,42,44,46,48,50,52,54,56,58,60,-1,-1,62,64,66,68,70,72,74,76,78,80,82,84,86,88,90,92,94,96,98,100,102,104,106,-1,108,110,112,-1,-1,-1,-1,-1,-1,-1,-1,-1,-1,-1,-1,-1,-1,-1,-1,-1,-1,-1,-1,-1,-1,-1,-1,-1,-1,-1,-1,-1,-1,-1,-1,-1,-1,-1,-1,-1,-1,-1,-1,-1,-1,-1,-1,-1,-1,-1,-1,-1,-1,-1,-1,-1],"split_conditions":[3.9600208E-1,2.0410781E-17,2.0410781E-17,2.2212096E-1,2.094291E-1,-8.847539E-1,6.2832385E-1,-8.847539E-1,-8.847539E-1,1.4284086E-1,2.9402515E-1,1E0,-7.945798E-1,5.1001114E-1,7.884409E-1,1.4155225E-1,-7.945798E-1,-4.3820613E-3,-7.945798E-1,1.1732059E-1,1.7135201E-1,2.4756826E-1,3.5388064E-1,6.590225E-1,-9.427452E-1,6.2832385E-1,-3.9091575E-1,4.5715383E-1,5.619698E-1,7.05755E-1,9.1812277E-1,-4.382486E-3,-4.0796963E-3,1.5007919E-1,-3.9091575E-1,3.148546E-1,-3.9091575E-1,1.0700864E-1,1.2859172E-1,1.6021425E-1,1.8603988E-1,2.2883148E-1,2.7366444E-1,3.1853315E-1,3.7657705E-1,3.6841294E-1,-9.105625E-1,3.3333334E-1,-9.105625E-1,5.3595495E-1,7.3696446E-1,-6.515263E-1,0E0,4.299012E-1,4.836149E-1,5.3595495E-1,1.1306776E-2,6.7103237E-1,7.3696446E-1,8.3838993E-1,1.8987594E-2,-9.0197334E-4,1.1082757E-3,-3.8138784E-3,-2.6390478E-3,3.3707514E-3,5.609696E-3,-3.1144526E-3,-4.142285E-4,-1.2362635E-3,-9.328369E-4,-6.5870926E-4,-3.4439593E-4,1.3250388E-4,6.021664E-4,1.0244873E-3,1.4102294E-3,2.0168747E-3,2.6647227E-3,3.2499675E-3,3.8267702E-3,4.4460925E-3,5.0636996E-3,5.9150653E-3,6.4489E-3,-4.337874E-3,-3.6106177E-3,-2.402754E-3,-7.068141E-4,-2.0526617E-3,3.122117E-3,5.576698E-3,8.768084E-3,8.584867E-3,1.1068108E-2,1.3114539E-2,1.6269527E-2,3.955875E-3,-4.124406E-3,1.1729437E-2,1.7176437E-3,7.293454E-3,7.9951E-3,8.568543E-3,9.185009E-3,9.671005E-3,1.0298081E-2,1.2547313E-2,1.3357259E-2,1.4039679E-2,1.4788377E-2,1.5822805E-2,1.669914E-2],"split_indices":[12,0,0,12,12,2,12,2,2,12,12,8,2,12,12,7,2,0,2,12,12,12,12,7,2,12,2,12,12,12,8,0,0,12,2,12,2,12,12,12,12,12,12,12,12,7,2,6,2,12,12,2,2,12,12,12,0,12,12,12,0,0,0,0,0,0,0,0,0,0,0,0,0,0,0,0,0,0,0,0,0,0,0,0,0,0,0,0,0,0,0,0,0,0,0,0,0,0,0,0,0,0,0,0,0,0,0,0,0,0,0,0,0],"split_type":[0,0,0,0,0,0,0,0,0,0,0,0,0,0,0,0,0,0,0,0,0,0,0,0,0,0,0,0,0,0,0,0,0,0,0,0,0,0,0,0,0,0,0,0,0,0,0,0,0,0,0,0,0,0,0,0,0,0,0,0,0,0,0,0,0,0,0,0,0,0,0,0,0,0,0,0,0,0,0,0,0,0,0,0,0,0,0,0,0,0,0,0,0,0,0,0,0,0,0,0,0,0,0,0,0,0,0,0,0,0,0,0,0],"sum_hessian":[2.4336E5,1.5624E5,8.712E4,1.302E5,2.604E4,7.26E4,1.452E4,1.116E5,1.86E4,2.184E4,4.2E3,6.171E3,6.6429E4,7.68E3,6.84E3,9.486E3,1.02114E5,1.581E3,1.7019E4,1.8E4,3.84E3,2.16E3,2.04E3,6.12E3,5.1E1,6.292E3,6.0137E4,4.56E3,3.12E3,4.92E3,1.92E3,9.229E3,2.57E2,9.672E3,9.2442E4,1.612E3,1.5407E4,1.272E4,5.28E3,1.8E3,2.04E3,1.2E3,9.6E2,1.08E3,9.6E2,5.849E3,2.71E2,1.7E1,3.4E1,3.328E3,2.964E3,1.4883E4,4.5254E4,1.92E3,2.64E3,1.8E3,1.32E3,3E3,1.92E3,1.44E3,4.8E2,8.06E3,1.612E3,2.2878E4,6.9564E4,8.84E2,7.28E2,3.813E3,1.1594E4,7.68E3,5.04E3,2.04E3,3.24E3,9.6E2,8.4E2,8.4E2,1.2E3,6E2,6E2,4.8E2,4.8E2,4.8E2,6E2,6E2,3.6E2,5.271E3,5.78E2,1.77E2,9.4E1,1E0,1.6E1,1.7E1,1.7E1,2.444E3,8.84E2,1.716E3,1.248E3,4.235E3,1.0648E4,6.171E3,3.9083E4,1.08E3,8.4E2,1.2E3,1.44E3,1.08E3,7.2E2,1.8E3,1.2E3,9.6E2,9.6E2,8.4E2,6E2],"tree_param":{"num_deleted":"0","num_feature":"14","num_nodes":"113","size_leaf_vector":"1"}},{"base_weights":[5.022862E-6,-3.9945506E-2,7.258144E-2,-4.860651E-2,3.3597196E-3,4.250958E-2,2.2292736E-1,-5.4713935E-2,-1.9675488E-2,-1.1717651E-2,7.956927E-2,-7.736337E-2,5.364632E-2,1.762592E-1,2.7447468E-1,-8.313647E-2,-5.2072775E-2,-4.15845E-3,-1.3773479E-2,-1.7694512E-2,1.5266435E-2,5.6007538E-2,1.0586264E-1,-7.897742E-2,1.1253408E-1,2.2312087E-1,3.591113E-2,1.5968691E-1,1.9978411E-1,2.5616378E-1,3.2123852E-1,-4.1670725E-3,-7.902217E-2,-1.2305773E-2,-5.623332E-2,7.678415E-2,-2.3251886E-2,-2.1624194E-2,-9.911433E-3,6.203856E-3,2.3788702E-2,4.558806E-2,7.027197E-2,9.246282E-2,1.1767703E-1,-8.173696E-2,-4.538253E-2,5.1750667E-2,1.4057887E-1,1.8093237E-1,2.801097E-1,-3.4487695E-2,5.906394E-2,1.4695202E-1,1.7044586E-1,1.8863195E-1,1.0741865E-2,2.4464568E-1,2.740241E-1,3.0780888E-1,1.8040186E-2,-3.9816056E-3,-2.9895063E-3,-9.100575E-4,6.502824E-4,-3.634378E-3,-2.5410452E-3,2.6283278E-3,5.1803887E-3,-3.008109E-3,-5.55478E-4,-1.1837996E-3,-9.2316E-4,-6.9852464E-4,-3.601133E-4,1.06151056E-4,5.7209405E-4,1.037361E-3,1.4051921E-3,1.9161989E-3,2.578996E-3,3.2505968E-3,3.7692953E-3,4.364563E-3,4.872108E-3,5.6198044E-3,6.2015415E-3,-4.1373717E-3,-3.741946E-3,-1.024423E-3,-2.7467979E-3,-2.0013452E-3,2.9751936E-3,5.313354E-3,8.354037E-3,8.199308E-3,1.0732974E-2,1.3156352E-2,1.6464468E-2,3.7843056E-3,-3.915492E-3,1.1193046E-2,1.6519132E-3,6.992101E-3,7.656841E-3,8.262027E-3,8.775462E-3,9.187902E-3,9.783891E-3,1.1920296E-2,1.2689953E-2,1.3338426E-2,1.4049728E-2,1.5032606E-2,1.5865572E-2],"categories":[],"categories_nodes":[],"categories_segments":[],"categories_sizes":[],"default_left":[0,0,0,0,0,0,0,0,0,0,0,0,0,0,0,0,0,0,0,0,0,0,0,0,0,0,0,0,0,0,0,0,0,0,0,0,0,0,0,0,0,0,0,0,0,0,0,0,0,0,0,0,0,0,0,0,0,0,0,0,0,0,0,0,0,0,0,0,0,0,0,0,0,0,0,0,0,0,0,0,0,0,0,0,0,0,0,0,0,0,0,0,0,0,0,0,0,0,0,0,0,0,0,0,0,0,0,0,0,0,0,0,0,0,0],"id":5,"left_children":[1,3,5,7,9,11,13,15,17,19,21,23,25,27,29,31,33,-1,35,37,39,41,43,45,47,49,51,53,55,57,59,-1,61,63,65,67,69,71,73,75,77,79,81,83,85,87,89,91,93,95,97,99,101,103,105,107,-1,109,111,113,-1,-1,-1,-1,-1,-1,-1,-1,-1,-1,-1,-1,-1,-1,-1,-1,-1,-1,-1,-1,-1,-1,-1,-1,-1,-1,-1,-1,-1,-1,-1,-1,-1,-1,-1,-1,-1,-1,-1,-1,-1,-1,-1,-1,-1,-1,-1,-1,-1,-1,-1,-1,-1,-1,-1],"loss_changes":[7.0561993E2,5.8871017E1,3.906252E2,2.3110687E1,3.006096E1,9.612509E1,3.459491E1,8.103119E0,8.543283E0,3.5227895E0,2.6710052E0,1.8850021E0,1.9800804E2,2.9158325E0,5.7755737E0,1.1520386E-3,1.6349487E1,0E0,1.7909374E1,5.4667664E-1,3.0577517E-1,3.3581686E-1,3.1223297E-1,5.590172E-1,8.1367195E-2,1.4954407E1,9.721273E1,5.834274E-1,4.834137E-1,9.453125E-1,9.096527E-1,0E0,5.760193E-4,1.3970885E0,7.9634705E0,1.27882E0,8.464048E0,7.6619625E-2,6.589043E-2,4.1038074E-2,2.620387E-2,5.5520296E-2,2.094984E-2,1.6241074E-2,2.2330284E-2,3.2894135E-2,1.08986914E-1,1.519002E-2,1.4071226E-2,2.0160828E0,2.1291351E0,7.127281E1,1.924851E2,6.833649E-2,3.427887E-2,2.5894165E-2,0E0,1.1088562E-1,2.218628E-2,2.5939941E-3,0E0,0E0,0E0,0E0,0E0,0E0,0E0,0E0,0E0,0E0,0E0,0E0,0E0,0E0,0E0,0E0,0E0,0E0,0E0,0E0,0E0,0E0,0E0,0E0,0E0,0E0,0E0,0E0,0E0,0E0,0E0,0E0,0E0,0E0,0E0,0E0,0E0,0E0,0E0,0E0,0E0,0E0,0E0,0E0,0E0,0E0,0E0,0E0,0E0,0E0,0E0,0E0,0E0,0E0,0E0],"parents":[2147483647,0,0,1,1,2,2,3,3,4,4,5,5,6,6,7,7,8,8,9,9,10,10,11,11,12,12,13,13,14,14,15,15,16,16,18,18,19,19,20,20,21,21,22,22,23,23,24,24,25,25,26,26,27,27,28,28,29,29,30,30,32,32,33,33,34,34,35,35,36,36,37,37,38,38,39,39,40,40,41,41,42,42,43,43,44,44,45,45,46,46,47,47,48,48,49,49,50,50,51,51,52,52,53,53,54,54,55,55,57,57,58,58,59,59],"right_children":[2,4,6,8,10,12,14,16,18,20,22,24,26,28,30,32,34,-1,36,38,40,42,44,46,48,50,52,54,56,58,60,-1,62,64,66,68,70,72,74,76,78,80,82,84,86,88,90,92,94,96,98,100,102,104,106,108,-1,110,112,114,-1,-1,-1,-1,-1,-1,-1,-1,-1,-1,-1,-1,-1,-1,-1,-1,-1,-1,-1,-1,-1,-1,-1,-1,-1,-1,-1,-1,-1,-1,-1,-1,-1,-1,-1,-1,-1,-1,-1,-1,-1,-1,-1,-1,-1,-1,-1,-1,-1,-1,-1,-1,-1,-1,-1],"split_conditions":[4.0361118E-1,2.0410781E-17,2.0410781E-17,1.9695716E-1,2.094291E-1,-8.847539E-1,6.2832385E-1,-8.847539E-1,-8.847539E-1,1.4107722E-1,2.9626358E-1,1E0,-7.945798E-1,5.1001114E-1,7.884409E-1,2.6705459E-2,-7.945798E-1,-4.15845E-3,-7.945798E-1,1.141845E-1,1.7135201E-1,2.5634816E-1,3.5388064E-1,4.9833474E-1,-9.427452E-1,6.405625E-1,-3.9091575E-1,4.61345E-1,5.619698E-1,7.05755E-1,9.1812277E-1,-4.1670725E-3,3.03053E-1,1.3549875E-1,-3.9091575E-1,2.9402515E-1,-3.9091575E-1,1.0492141E-1,1.2307774E-1,1.6021425E-1,1.8934853E-1,2.2883148E-1,2.7817777E-1,3.2445502E-1,3.7657705E-1,1.2962638E-1,6.490788E-1,3.3333334E-1,-9.105625E-1,5.3595495E-1,8.0942446E-1,-6.515263E-1,0E0,4.299012E-1,4.8799324E-1,5.3595495E-1,1.0741865E-2,6.7103237E-1,7.3696446E-1,8.3838993E-1,1.8040186E-2,-3.9816056E-3,-2.9895063E-3,-9.100575E-4,6.502824E-4,-3.634378E-3,-2.5410452E-3,2.6283278E-3,5.1803887E-3,-3.008109E-3,-5.55478E-4,-1.1837996E-3,-9.2316E-4,-6.9852464E-4,-3.601133E-4,1.06151056E-4,5.7209405E-4,1.037361E-3,1.4051921E-3,1.9161989E-3,2.578996E-3,3.2505968E-3,3.7692953E-3,4.364563E-3,4.872108E-3,5.6198044E-3,6.2015415E-3,-4.1373717E-3,-3.741946E-3,-1.024423E-3,-2.7467979E-3,-2.0013452E-3,2.9751936E-3,5.313354E-3,8.354037E-3,8.199308E-3,1.0732974E-2,1.3156352E-2,1.6464468E-2,3.7843056E-3,-3.915492E-3,1.1193046E-2,1.6519132E-3,6.992101E-3,7.656841E-3,8.262027E-3,8.775462E-3,9.187902E-3,9.783891E-3,1.1920296E-2,1.2689953E-2,1.3338426E-2,1.4049728E-2,1.5032606E-2,1.5865572E-2],"split_indices":[12,0,0,12,12,2,12,2,2,12,12,8,2,12,12,6,2,0,2,12,12,12,12,7,2,12,2,12,12,12,8,0,5,12,2,12,2,12,12,12,12,12,12,12,12,4,12,6,2,12,12,2,2,12,12,12,0,12,12,12,0,0,0,0,0,0,0,0,0,0,0,0,0,0,0,0,0,0,0,0,0,0,0,0,0,0,0,0,0,0,0,0,0,0,0,0,0,0,0,0,0,0,0,0,0,0,0,0,0,0,0,0,0,0,0],"split_type":[0,0,0,0,0,0,0,0,0,0,0,0,0,0,0,0,0,0,0,0,0,0,0,0,0,0,0,0,0,0,0,0,0,0,0,0,0,0,0,0,0,0,0,0,0,0,0,0,0,0,0,0,0,0,0,0,0,0,0,0,0,0,0,0,0,0,0,0,0,0,0,0,0,0,0,0,0,0,0,0,0,0,0,0,0,0,0,0,0,0,0,0,0,0,0,0,0,0,0,0,0,0,0,0,0,0,0,0,0,0,0,0,0,0,0],"sum_hessian":[2.4336E5,1.5696E5,8.64E4,1.308E5,2.616E4,7.2E4,1.44E4,1.08E5,2.28E4,2.184E4,4.32E3,6.12E3,6.588E4,7.56E3,6.84E3,9.18E3,9.882E4,1.938E3,2.0862E4,1.788E4,3.96E3,2.28E3,2.04E3,6.069E3,5.1E1,6.24E3,5.964E4,4.44E3,3.12E3,4.92E3,1.92E3,8.726E3,4.54E2,9.36E3,8.946E4,1.976E3,1.8886E4,1.188E4,6E3,1.92E3,2.04E3,1.32E3,9.6E2,9.6E2,1.08E3,5.607E3,4.62E2,1.7E1,3.4E1,3.588E3,2.652E3,1.476E4,4.488E4,2.04E3,2.4E3,1.8E3,1.32E3,3E3,1.92E3,1.44E3,4.8E2,4.37E2,1.7E1,7.592E3,1.768E3,2.214E4,6.732E4,1.04E3,9.36E2,4.674E3,1.4212E4,7.2E3,4.68E3,2.4E3,3.6E3,1.08E3,8.4E2,1.2E3,8.4E2,6E2,7.2E2,4.8E2,4.8E2,4.8E2,4.8E2,6E2,4.8E2,4.881E3,7.26E2,1.29E2,3.33E2,1E0,1.6E1,1.7E1,1.7E1,2.392E3,1.196E3,1.976E3,6.76E2,4.2E3,1.056E4,6.12E3,3.876E4,9.6E2,1.08E3,1.2E3,1.2E3,1.08E3,7.2E2,1.8E3,1.2E3,9.6E2,9.6E2,8.4E2,6E2],"tree_param":{"num_deleted":"0","num_feature":"14","num_nodes":"115","size_leaf_vector":"1"}},{"base_weights":[5.764078E-6,-3.7466723E-2,6.986934E-2,-4.5824658E-2,4.323106E-3,4.1196473E-2,2.1322066E-1,-5.133706E-2,-1.458671E-2,-1.064001E-2,8.078601E-2,-7.33864E-2,5.1841754E-2,1.6876377E-1,2.607657E-1,-7.896864E-2,-4.8769448E-2,-3.9570793E-3,-8.585773E-3,-1.6597245E-2,1.6616166E-2,5.8054276E-2,1.06151186E-1,-7.4947484E-2,1.0718895E-1,2.1351628E-1,3.4922756E-2,1.5360306E-1,1.9053674E-1,2.4260925E-1,3.0334696E-1,-3.9588544E-3,-3.7525266E-3,-1.984997E-2,-5.421503E-2,8.420362E-2,-1.8298661E-2,-2.0150691E-2,-8.224725E-3,7.3464126E-3,2.4333986E-2,4.5354567E-2,6.943673E-2,4.520906E-3,1.1465791E-1,-7.696342E-2,-3.244849E-2,4.9217235E-2,1.3394043E-1,1.74076E-1,2.670675E-1,-3.2387502E-2,5.7059783E-2,1.41224E-1,1.6238572E-1,1.7976202E-1,1.02051785E-2,2.3186329E-1,2.5859907E-1,2.909954E-1,1.7140053E-2,-2.2603024E-4,-4.1474807E-3,-4.1236663E-3,-2.3782467E-3,3.1808459E-3,5.2987183E-3,-2.7909065E-3,-2.9779252E-4,-1.120488E-3,-8.4819103E-4,-5.948604E-4,-2.9960633E-4,1.4031392E-4,5.6559884E-4,1.0828865E-3,1.5622319E-3,1.9628317E-3,2.5079742E-3,3.2115148E-3,3.854831E-3,5.339281E-3,6.053047E-3,-3.913564E-3,-3.263376E-3,-2.1747842E-3,-5.7039864E-4,-1.9513116E-3,2.8351843E-3,5.062446E-3,7.95954E-3,7.946833E-3,1.0389145E-2,1.2704216E-2,1.6277267E-2,3.6465656E-3,-3.713933E-3,1.0730908E-2,1.6088585E-3,6.8025934E-3,7.34831E-3,7.8492705E-3,8.358627E-3,8.748213E-3,9.295375E-3,1.1089664E-2,1.1839012E-2,1.25887785E-2,1.3257675E-2,1.4081326E-2,1.4934072E-2],"categories":[],"categories_nodes":[],"categories_segments":[],"categories_sizes":[],"default_left":[0,0,0,0,0,0,0,0,0,0,0,0,0,0,0,0,0,0,0,0,0,0,0,0,0,0,0,0,0,0,0,0,0,0,0,0,0,0,0,0,0,0,0,0,0,0,0,0,0,0,0,0,0,0,0,0,0,0,0,0,0,0,0,0,0,0,0,0,0,0,0,0,0,0,0,0,0,0,0,0,0,0,0,0,0,0,0,0,0,0,0,0,0,0,0,0,0,0,0,0,0,0,0,0,0,0,0,0,0,0,0],"id":6,"left_children":[1,3,5,7,9,11,13,15,17,19,21,23,25,27,29,31,33,-1,35,37,39,41,43,45,47,49,51,53,55,57,59,-1,-1,61,63,65,67,69,71,73,75,77,79,-1,81,83,85,87,89,91,93,95,97,99,101,103,-1,105,107,109,-1,-1,-1,-1,-1,-1,-1,-1,-1,-1,-1,-1,-1,-1,-1,-1,-1,-1,-1,-1,-1,-1,-1,-1,-1,-1,-1,-1,-1,-1,-1,-1,-1,-1,-1,-1,-1,-1,-1,-1,-1,-1,-1,-1,-1,-1,-1,-1,-1,-1,-1],"loss_changes":[6.371125E2,5.5325974E1,3.492058E2,2.272931E1,3.0206861E1,8.63645E1,2.9888184E1,7.9565125E0,7.6700244E0,3.5856006E0,2.485302E0,1.7047462E0,1.7719809E2,2.3873444E0,5.215332E0,1.8463135E-3,1.6166794E1,0E0,1.6330444E1,5.389576E-1,2.8320026E-1,3.2657814E-1,2.6279068E-1,5.0881195E-1,7.405096E-2,1.2915314E1,8.738876E1,4.4685364E-1,4.019928E-1,7.649536E-1,8.9486694E-1,0E0,0E0,1.5737227E1,1.623143E1,7.6279736E-1,7.5953636E0,9.1202736E-2,4.421249E-2,3.23938E-2,3.929031E-2,2.9704332E-2,4.294491E-2,0E0,5.365944E-2,8.203888E-2,6.272709E-2,1.4104277E-2,1.2773633E-2,1.771904E0,1.8920441E0,6.404453E1,1.7301494E2,3.3489227E-2,3.89328E-2,1.7032623E-2,0E0,9.013367E-2,1.9165039E-2,2.8289795E-2,0E0,0E0,0E0,0E0,0E0,0E0,0E0,0E0,0E0,0E0,0E0,0E0,0E0,0E0,0E0,0E0,0E0,0E0,0E0,0E0,0E0,0E0,0E0,0E0,0E0,0E0,0E0,0E0,0E0,0E0,0E0,0E0,0E0,0E0,0E0,0E0,0E0,0E0,0E0,0E0,0E0,0E0,0E0,0E0,0E0,0E0,0E0,0E0,0E0,0E0,0E0],"parents":[2147483647,0,0,1,1,2,2,3,3,4,4,5,5,6,6,7,7,8,8,9,9,10,10,11,11,12,12,13,13,14,14,15,15,16,16,18,18,19,19,20,20,21,21,22,22,23,23,24,24,25,25,26,26,27,27,28,28,29,29,30,30,33,33,34,34,35,35,36,36,37,37,38,38,39,39,40,40,41,41,42,42,44,44,45,45,46,46,47,47,48,48,49,49,50,50,51,51,52,52,53,53,54,54,55,55,57,57,58,58,59,59],"right_children":[2,4,6,8,10,12,14,16,18,20,22,24,26,28,30,32,34,-1,36,38,40,42,44,46,48,50,52,54,56,58,60,-1,-1,62,64,66,68,70,72,74,76,78,80,-1,82,84,86,88,90,92,94,96,98,100,102,104,-1,106,108,110,-1,-1,-1,-1,-1,-1,-1,-1,-1,-1,-1,-1,-1,-1,-1,-1,-1,-1,-1,-1,-1,-1,-1,-1,-1,-1,-1,-1,-1,-1,-1,-1,-1,-1,-1,-1,-1,-1,-1,-1,-1,-1,-1,-1,-1,-1,-1,-1,-1,-1,-1],"split_conditions":[4.1591188E-1,2.0410781E-17,2.0410781E-17,2.2883148E-1,2.1066327E-1,-8.847539E-1,6.2832385E-1,-8.847539E-1,-8.847539E-1,1.4320867E-1,3.148546E-1,1E0,-7.945798E-1,5.126701E-1,7.707762E-1,6.1266672E-2,-6.515263E-1,-3.9570793E-3,-7.945798E-1,1.1732059E-1,1.7400889E-1,2.5634816E-1,3.5388064E-1,6.590225E-1,-9.427452E-1,6.475563E-1,-3.9091575E-1,4.61345E-1,5.619698E-1,6.920504E-1,9.1812277E-1,-3.9588544E-3,-3.7525266E-3,6.234898E-1,-3.9091575E-1,3.1853315E-1,-3.9091575E-1,1.0581217E-1,1.2859172E-1,1.6021425E-1,1.9374411E-1,2.3551922E-1,2.8714797E-1,4.520906E-3,3.7657705E-1,3.6841294E-1,-9.105625E-1,3.3333334E-1,-9.105625E-1,5.453541E-1,8.3838993E-1,-6.515263E-1,0E0,4.421889E-1,4.8799324E-1,5.3595495E-1,1.02051785E-2,6.490788E-1,7.2943974E-1,8.13541E-1,1.7140053E-2,-2.2603024E-4,-4.1474807E-3,-4.1236663E-3,-2.3782467E-3,3.1808459E-3,5.2987183E-3,-2.7909065E-3,-2.9779252E-4,-1.120488E-3,-8.4819103E-4,-5.948604E-4,-2.9960633E-4,1.4031392E-4,5.6559884E-4,1.0828865E-3,1.5622319E-3,1.9628317E-3,2.5079742E-3,3.2115148E-3,3.854831E-3,5.339281E-3,6.053047E-3,-3.913564E-3,-3.263376E-3,-2.1747842E-3,-5.7039864E-4,-1.9513116E-3,2.8351843E-3,5.062446E-3,7.95954E-3,7.946833E-3,1.0389145E-2,1.2704216E-2,1.6277267E-2,3.6465656E-3,-3.713933E-3,1.0730908E-2,1.6088585E-3,6.8025934E-3,7.34831E-3,7.8492705E-3,8.358627E-3,8.748213E-3,9.295375E-3,1.1089664E-2,1.1839012E-2,1.25887785E-2,1.3257675E-2,1.4081326E-2,1.4934072E-2],"split_indices":[12,0,0,12,12,2,12,2,2,12,12,8,2,12,12,5,2,0,2,12,12,12,12,7,2,12,2,12,12,12,8,0,0,3,2,12,2,12,12,12,12,12,12,0,12,7,2,6,2,12,12,2,2,12,12,12,0,12,12,12,0,0,0,0,0,0,0,0,0,0,0,0,0,0,0,0,0,0,0,0,0,0,0,0,0,0,0,0,0,0,0,0,0,0,0,0,0,0,0,0,0,0,0,0,0,0,0,0,0,0,0],"split_type":[0,0,0,0,0,0,0,0,0,0,0,0,0,0,0,0,0,0,0,0,0,0,0,0,0,0,0,0,0,0,0,0,0,0,0,0,0,0,0,0,0,0,0,0,0,0,0,0,0,0,0,0,0,0,0,0,0,0,0,0,0,0,0,0,0,0,0,0,0,0,0,0,0,0,0,0,0,0,0,0,0,0,0,0,0,0,0,0,0,0,0,0,0,0,0,0,0,0,0,0,0,0,0,0,0,0,0,0,0,0,0],"sum_hessian":[2.4336E5,1.584E5,8.496E4,1.32E5,2.64E4,7.08E4,1.416E4,1.122E5,1.98E4,2.208E4,4.32E3,6.018E3,6.4782E4,7.32E3,6.84E3,9.537E3,1.02663E5,1.683E3,1.8117E4,1.812E4,3.96E3,2.28E3,2.04E3,5.967E3,5.1E1,6.136E3,5.8646E4,4.32E3,3E3,4.8E3,2.04E3,9.037E3,5E2,1.6269E4,8.6394E4,1.716E3,1.6401E4,1.272E4,5.4E3,1.8E3,2.16E3,1.08E3,1.2E3,7.2E2,1.32E3,5.696E3,2.71E2,1.7E1,3.4E1,3.536E3,2.6E3,1.4514E4,4.4132E4,1.8E3,2.52E3,1.68E3,1.32E3,2.88E3,1.92E3,1.56E3,4.8E2,1.309E4,3.179E3,1.6456E4,6.9938E4,8.84E2,8.32E2,4.059E3,1.2342E4,7.44E3,5.28E3,2.04E3,3.36E3,8.4E2,9.6E2,1.56E3,6E2,4.8E2,6E2,7.2E2,4.8E2,6E2,7.2E2,5.118E3,5.78E2,1.77E2,9.4E1,1E0,1.6E1,1.7E1,1.7E1,2.444E3,1.092E3,2.132E3,4.68E2,4.13E3,1.0384E4,6.018E3,3.8114E4,9.6E2,8.4E2,1.2E3,1.32E3,9.6E2,7.2E2,9.6E2,1.92E3,9.6E2,9.6E2,7.2E2,8.4E2],"tree_param":{"num_deleted":"0","num_feature":"14","num_nodes":"111","size_leaf_vector":"1"}},{"base_weights":[6.412855E-6,-3.819176E-2,6.1893124E-2,-4.5547392E-2,-1.4132546E-3,3.535088E-2,1.9459347E-1,-5.1319562E-2,-2.7663896E-2,-1.3538781E-2,4.6793267E-2,-7.0205666E-2,4.5157533E-2,1.4964497E-1,2.4467272E-1,-4.7143817E-2,-6.5563366E-2,-1.9706706E-2,-5.4805208E-2,-1.8359862E-2,-1.5854064E-3,3.0348461E-2,7.348637E-2,-7.1567215E-2,1.02096915E-1,1.9471665E-1,2.9506704E-2,1.2503271E-1,1.6684392E-1,2.2638635E-1,2.8497824E-1,-5.277268E-2,-1.5601778E-3,-8.698198E-2,-4.413865E-2,-3.069435E-2,6.924928E-2,-9.608704E-2,-1.350758E-2,-2.1127544E-2,-1.4910534E-2,-5.5412594E-3,9.061694E-3,2.238989E-2,4.1175894E-2,6.339684E-2,8.349943E-2,-7.3326126E-2,-3.0836154E-2,4.6805475E-2,1.2761545E-1,1.4581378E-1,2.4134058E-1,-3.245013E-2,4.988313E-2,1.0615285E-1,1.3392535E-1,1.5858437E-1,1.838858E-1,2.1268095E-1,2.3876056E-1,2.7394518E-1,1.6284835E-2,-2.3104022E-3,-3.6392135E-3,-3.6912027E-4,5.5068993E-4,-4.370047E-3,-3.245268E-3,-4.335594E-3,-7.786039E-5,-9.1461756E-4,-3.4248754E-3,2.523331E-3,5.5112145E-3,-4.5319027E-3,-5.0848685E-3,-4.8121675E-3,3.4617987E-3,-1.0858778E-3,-9.772428E-4,-8.329077E-4,-6.474151E-4,-3.57588E-4,-4.4319557E-5,2.9843743E-4,6.3284236E-4,9.860257E-4,1.2706764E-3,1.7305687E-3,2.3295367E-3,2.856005E-3,3.353079E-3,3.9378307E-3,4.4034333E-3,-3.71078E-3,-2.9464767E-3,-2.0666558E-3,-5.4217875E-4,-1.9025287E-3,2.7017638E-3,4.823386E-3,7.5836726E-3,5.838291E-3,8.013885E-3,1.0749805E-2,1.3739389E-2,3.2798622E-3,-3.5724293E-3,9.823245E-3,1.3367241E-3,5.072762E-3,5.5900863E-3,6.3849078E-3,7.0359968E-3,7.6087727E-3,8.181209E-3,8.921809E-3,9.61469E-3,1.0296973E-2,1.0962267E-2,1.15749575E-2,1.2363712E-2,1.3095978E-2,1.4085628E-2],"categories":[],"categories_nodes":[],"categories_segments":[],"categories_sizes":[],"default_left":[0,0,0,0,0,0,0,0,0,0,0,0,0,0,0,0,0,0,0,0,0,0,0,0,0,0,0,0,0,0,0,0,0,0,0,0,0,0,0,0,0,0,0,0,0,0,0,0,0,0,0,0,0,0,0,0,0,0,0,0,0,0,0,0,0,0,0,0,0,0,0,0,0,0,0,0,0,0,0,0,0,0,0,0,0,0,0,0,0,0,0,0,0,0,0,0,0,0,0,0,0,0,0,0,0,0,0,0,0,0,0,0,0,0,0,0,0,0,0,0,0,0,0,0,0],"id":7,"left_children":[1,3,5,7,9,11,13,15,17,19,21,23,25,27,29,31,33,35,37,39,41,43,45,47,49,51,53,55,57,59,61,63,65,67,69,71,73,75,77,79,81,83,85,87,89,91,93,95,97,99,101,103,105,107,109,111,113,115,117,119,121,123,-1,-1,-1,-1,-1,-1,-1,-1,-1,-1,-1,-1,-1,-1,-1,-1,-1,-1,-1,-1,-1,-1,-1,-1,-1,-1,-1,-1,-1,-1,-1,-1,-1,-1,-1,-1,-1,-1,-1,-1,-1,-1,-1,-1,-1,-1,-1,-1,-1,-1,-1,-1,-1,-1,-1,-1,-1,-1,-1,-1,-1,-1,-1],"loss_changes":[5.7529785E2,4.0709427E1,3.271353E2,1.2943298E1,1.4661218E1,8.012533E1,3.4810974E1,5.635544E0,6.6077766E0,1.154897E0,2.2105818E0,1.5509605E0,1.65769E2,3.433731E0,5.33136E0,1.8810867E1,9.857201E0,2.3132694E1,1.1825188E1,1.3602066E-1,2.4269408E-1,2.6801753E-1,1.8877983E-1,4.6549225E-1,6.739664E-2,1.5261627E1,8.0942924E1,5.500717E-1,6.4663696E-1,8.041382E-1,9.3551636E-1,8.569107E0,5.9006906E-1,9.370422E-2,1.9478718E1,9.874281E0,1.9969873E0,9.6832275E-2,2.3754923E1,6.972313E-3,2.1597624E-2,3.1487167E-2,1.7282173E-2,1.4035106E-2,4.5343637E-2,1.8275023E-2,1.388979E-2,7.57637E-2,5.663404E-2,1.30989365E-2,1.1595726E-2,1.3581085E0,2.9658966E0,6.06791E1,1.63705E2,1.7341614E-2,7.85408E-2,7.978058E-2,3.721237E-2,6.110382E-2,1.0601807E-1,9.4451904E-2,0E0,0E0,0E0,0E0,0E0,0E0,0E0,0E0,0E0,0E0,0E0,0E0,0E0,0E0,0E0,0E0,0E0,0E0,0E0,0E0,0E0,0E0,0E0,0E0,0E0,0E0,0E0,0E0,0E0,0E0,0E0,0E0,0E0,0E0,0E0,0E0,0E0,0E0,0E0,0E0,0E0,0E0,0E0,0E0,0E0,0E0,0E0,0E0,0E0,0E0,0E0,0E0,0E0,0E0,0E0,0E0,0E0,0E0,0E0,0E0,0E0,0E0,0E0],"parents":[2147483647,0,0,1,1,2,2,3,3,4,4,5,5,6,6,7,7,8,8,9,9,10,10,11,11,12,12,13,13,14,14,15,15,16,16,17,17,18,18,19,19,20,20,21,21,22,22,23,23,24,24,25,25,26,26,27,27,28,28,29,29,30,30,31,31,32,32,33,33,34,34,35,35,36,36,37,37,38,38,39,39,40,40,41,41,42,42,43,43,44,44,45,45,46,46,47,47,48,48,49,49,50,50,51,51,52,52,53,53,54,54,55,55,56,56,57,57,58,58,59,59,60,60,61,61],"right_children":[2,4,6,8,10,12,14,16,18,20,22,24,26,28,30,32,34,36,38,40,42,44,46,48,50,52,54,56,58,60,62,64,66,68,70,72,74,76,78,80,82,84,86,88,90,92,94,96,98,100,102,104,106,108,110,112,114,116,118,120,122,124,-1,-1,-1,-1,-1,-1,-1,-1,-1,-1,-1,-1,-1,-1,-1,-1,-1,-1,-1,-1,-1,-1,-1,-1,-1,-1,-1,-1,-1,-1,-1,-1,-1,-1,-1,-1,-1,-1,-1,-1,-1,-1,-1,-1,-1,-1,-1,-1,-1,-1,-1,-1,-1,-1,-1,-1,-1,-1,-1,-1,-1,-1,-1],"split_conditions":[3.5388064E-1,2.0410781E-17,2.0410781E-17,1.6021425E-1,1.7440857E-1,-8.847539E-1,5.9982914E-1,7.818315E-1,7.818315E-1,1.2307774E-1,2.5634816E-1,1E0,-7.945798E-1,4.6860817E-1,7.5422406E-1,5.21221E-1,8.7837964E-1,5.21221E-1,8.7837964E-1,1.0869973E-1,1.4736485E-1,2.094291E-1,2.9626358E-1,6.590225E-1,-9.427452E-1,5.786882E-1,-3.9091575E-1,4.0361118E-1,5.3595495E-1,6.768916E-1,9.1812277E-1,1.3030525E-1,1.1824947E-1,1.9975255E-1,-8.151915E-2,1.3030525E-1,2.5634816E-1,2.1066327E-1,-8.151915E-2,1.0191863E-1,1.1289475E-1,1.3441603E-1,1.6332924E-1,1.8934853E-1,2.2883148E-1,2.7366444E-1,3.2445502E-1,4.2049074E-1,-9.105625E-1,3.3333334E-1,-9.105625E-1,4.5166197E-1,7.169847E-1,-6.515263E-1,0E0,3.7657705E-1,4.421889E-1,4.993814E-1,5.786882E-1,6.405625E-1,7.169847E-1,8.0942446E-1,1.6284835E-2,-2.3104022E-3,-3.6392135E-3,-3.6912027E-4,5.5068993E-4,-4.370047E-3,-3.245268E-3,-4.335594E-3,-7.786039E-5,-9.1461756E-4,-3.4248754E-3,2.523331E-3,5.5112145E-3,-4.5319027E-3,-5.0848685E-3,-4.8121675E-3,3.4617987E-3,-1.0858778E-3,-9.772428E-4,-8.329077E-4,-6.474151E-4,-3.57588E-4,-4.4319557E-5,2.9843743E-4,6.3284236E-4,9.860257E-4,1.2706764E-3,1.7305687E-3,2.3295367E-3,2.856005E-3,3.353079E-3,3.9378307E-3,4.4034333E-3,-3.71078E-3,-2.9464767E-3,-2.0666558E-3,-5.4217875E-4,-1.9025287E-3,2.7017638E-3,4.823386E-3,7.5836726E-3,5.838291E-3,8.013885E-3,1.0749805E-2,1.3739389E-2,3.2798622E-3,-3.5724293E-3,9.823245E-3,1.3367241E-3,5.072762E-3,5.5900863E-3,6.3849078E-3,7.0359968E-3,7.6087727E-3,8.181209E-3,8.921809E-3,9.61469E-3,1.0296973E-2,1.0962267E-2,1.15749575E-2,1.2363712E-2,1.3095978E-2,1.4085628E-2],"split_indices":[12,0,0,12,12,2,12,2,2,12,12,8,2,12,12,2,2,2,2,12,12,12,12,7,2,12,2,12,12,12,8,2,12,7,3,2,12,12,3,12,12,12,12,12,12,12,12,7,2,6,2,12,12,2,2,12,12,12,12,12,12,12,0,0,0,0,0,0,0,0,0,0,0,0,0,0,0,0,0,0,0,0,0,0,0,0,0,0,0,0,0,0,0,0,0,0,0,0,0,0,0,0,0,0,0,0,0,0,0,0,0,0,0,0,0,0,0,0,0,0,0,0,0,0,0],"split_type":[0,0,0,0,0,0,0,0,0,0,0,0,0,0,0,0,0,0,0,0,0,0,0,0,0,0,0,0,0,0,0,0,0,0,0,0,0,0,0,0,0,0,0,0,0,0,0,0,0,0,0,0,0,0,0,0,0,0,0,0,0,0,0,0,0,0,0,0,0,0,0,0,0,0,0,0,0,0,0,0,0,0,0,0,0,0,0,0,0,0,0,0,0,0,0,0,0,0,0,0,0,0,0,0,0,0,0,0,0,0,0,0,0,0,0,0,0,0,0,0,0,0,0,0,0],"sum_hessian":[2.4336E5,1.5048E5,9.288E4,1.254E5,2.508E4,7.74E4,1.548E4,9.48E4,3.06E4,2.004E4,5.04E3,6.579E3,7.0821E4,8.16E3,7.32E3,7.3312E4,2.1488E4,2.3664E4,6.936E3,1.428E4,5.76E3,3.12E3,1.92E3,6.528E3,5.1E1,6.708E3,6.4113E4,3.36E3,4.8E3,5.04E3,2.28E3,6.5254E4,8.058E3,1.0744E4,1.0744E4,2.1063E4,2.601E3,3.468E3,3.468E3,7.92E3,6.36E3,4.2E3,1.56E3,1.8E3,1.32E3,9.6E2,9.6E2,6.257E3,2.71E2,1.7E1,3.4E1,3.276E3,3.432E3,1.5867E4,4.8246E4,1.08E3,2.28E3,3.24E3,1.56E3,2.4E3,2.64E3,1.8E3,4.8E2,4.9138E4,1.6116E4,5.508E3,2.55E3,1.0541E4,2.03E2,5.372E3,5.372E3,1.5861E4,5.202E3,1.785E3,8.16E2,1.768E3,1.7E3,1.734E3,1.734E3,5.76E3,2.16E3,3.36E3,3E3,3.12E3,1.08E3,8.4E2,7.2E2,9.6E2,8.4E2,6E2,7.2E2,3.6E2,6E2,4.8E2,4.8E2,5.889E3,3.68E2,1.77E2,9.4E1,1E0,1.6E1,1.7E1,1.7E1,1.092E3,2.184E3,1.924E3,1.508E3,4.515E3,1.1352E4,6.579E3,4.1667E4,6E2,4.8E2,1.2E3,1.08E3,1.44E3,1.8E3,9.6E2,6E2,1.2E3,1.2E3,1.44E3,1.2E3,7.2E2,1.08E3],"tree_param":{"num_deleted":"0","num_feature":"14","num_nodes":"125","size_leaf_vector":"1"}},{"base_weights":[6.885323E-6,-3.367337E-2,6.3624784E-2,-4.1291237E-2,4.4161016E-3,3.772834E-2,1.9309512E-1,-4.629278E-2,-1.2796698E-2,-9.146199E-3,7.647506E-2,-6.6172235E-2,4.7381185E-2,1.5289289E-1,2.3538472E-1,-7.293502E-2,-4.3817136E-2,-2.5109933E-3,-4.7880728E-2,-1.4779853E-2,1.697061E-2,5.468835E-2,9.7016566E-2,-6.759721E-2,9.7246036E-2,1.9343594E-1,3.209674E-2,1.3922231E-1,1.719789E-1,2.1965821E-1,2.7554858E-1,-3.649351E-3,-5.9995223E-2,-1.6537879E-2,-4.895389E-2,-1.7255936E-2,1.1683348E-1,-1.03010125E-1,7.269997E-3,-1.8141229E-2,-6.959129E-3,9.103506E-3,2.4366854E-2,4.5429416E-2,6.504654E-2,8.478096E-2,1.0672631E-1,-7.003645E-2,-3.8712475E-2,4.450961E-2,1.2158917E-1,1.5951853E-1,2.4386533E-1,-2.8960107E-2,5.2177135E-2,1.2934522E-1,1.474795E-1,1.622911E-1,9.208834E-3,2.0977677E-1,2.3498072E-1,2.6404262E-1,1.5472285E-2,1.0542453E-3,-3.1185576E-3,-9.55516E-5,-3.837332E-3,-3.8147047E-3,-2.1259955E-3,-5.880354E-5,-3.3134427E-3,4.3173186E-3,7.10589E-3,-4.845478E-3,-5.677721E-3,-5.1557994E-3,5.882475E-3,-1.0056406E-3,-7.543293E-4,-4.3065796E-4,-1.1349929E-4,2.568033E-4,6.530737E-4,1.0503501E-3,1.524445E-3,2.023363E-3,2.4662602E-3,3.0663526E-3,3.5529316E-3,4.0311664E-3,4.5733913E-3,5.0098286E-3,5.6539243E-3,-3.5339396E-3,-3.0521785E-3,-2.3891332E-3,-8.043276E-4,-1.8549655E-3,2.5746224E-3,4.595615E-3,7.2255544E-3,7.1293274E-3,9.31818E-3,1.1749372E-2,1.5862675E-2,3.3253506E-3,-3.3466376E-3,9.750764E-3,1.4809592E-3,6.2112315E-3,6.7165606E-3,7.1551986E-3,7.5647533E-3,7.902621E-3,8.385779E-3,1.0114464E-2,1.0776799E-2,1.1436469E-2,1.2049378E-2,1.288421E-2,1.36250425E-2],"categories":[],"categories_nodes":[],"categories_segments":[],"categories_sizes":[],"default_left":[0,0,0,0,0,0,0,0,0,0,0,0,0,0,0,0,0,0,0,0,0,0,0,0,0,0,0,0,0,0,0,0,0,0,0,0,0,0,0,0,0,0,0,0,0,0,0,0,0,0,0,0,0,0,0,0,0,0,0,0,0,0,0,0,0,0,0,0,0,0,0,0,0,0,0,0,0,0,0,0,0,0,0,0,0,0,0,0,0,0,0,0,0,0,0,0,0,0,0,0,0,0,0,0,0,0,0,0,0,0,0,0,0,0,0,0,0,0,0,0,0],"id":8,"left_children":[1,3,5,7,9,11,13,15,17,19,21,23,25,27,29,31,33,35,37,39,41,43,45,47,49,51,53,55,57,59,61,-1,63,65,67,69,71,73,75,77,79,81,83,85,87,89,91,93,95,97,99,101,103,105,107,109,111,113,-1,115,117,119,-1,-1,-1,-1,-1,-1,-1,-1,-1,-1,-1,-1,-1,-1,-1,-1,-1,-1,-1,-1,-1,-1,-1,-1,-1,-1,-1,-1,-1,-1,-1,-1,-1,-1,-1,-1,-1,-1,-1,-1,-1,-1,-1,-1,-1,-1,-1,-1,-1,-1,-1,-1,-1,-1,-1,-1,-1,-1,-1],"loss_changes":[5.214437E2,4.6170837E1,2.8243777E2,1.8897263E1,2.5919281E1,7.041025E1,2.3835632E1,7.436783E0,7.1453476E0,3.284408E0,1.8747749E0,1.3963242E0,1.433876E2,1.8549194E0,4.260498E0,2.0751953E-3,1.4462097E1,2.6948723E1,1.3649222E1,4.825549E-1,2.3025703E-1,1.9278812E-1,2.476902E-1,4.1418076E-1,6.1344147E-2,1.036908E1,7.129605E1,3.2354736E-1,3.2473755E-1,6.9577026E-1,6.67511E-1,0E0,9.7913E-3,1.4404879E1,1.5275467E1,1.0742012E1,1.2858334E0,1.3340569E-1,2.7366E1,7.703161E-2,4.280126E-2,3.0098379E-2,4.1341186E-2,1.8901587E-2,1.7131805E-2,1.9342422E-2,3.8484573E-2,2.7196884E-2,9.424883E-2,1.2167849E-2,1.0526478E-2,1.6284103E0,1.5184479E0,5.2177452E1,1.4099167E2,3.2356262E-2,1.6429901E-2,1.2142181E-2,0E0,8.581543E-2,1.701355E-2,7.2784424E-3,0E0,0E0,0E0,0E0,0E0,0E0,0E0,0E0,0E0,0E0,0E0,0E0,0E0,0E0,0E0,0E0,0E0,0E0,0E0,0E0,0E0,0E0,0E0,0E0,0E0,0E0,0E0,0E0,0E0,0E0,0E0,0E0,0E0,0E0,0E0,0E0,0E0,0E0,0E0,0E0,0E0,0E0,0E0,0E0,0E0,0E0,0E0,0E0,0E0,0E0,0E0,0E0,0E0,0E0,0E0,0E0,0E0,0E0,0E0],"parents":[2147483647,0,0,1,1,2,2,3,3,4,4,5,5,6,6,7,7,8,8,9,9,10,10,11,11,12,12,13,13,14,14,15,15,16,16,17,17,18,18,19,19,20,20,21,21,22,22,23,23,24,24,25,25,26,26,27,27,28,28,29,29,30,30,32,32,33,33,34,34,35,35,36,36,37,37,38,38,39,39,40,40,41,41,42,42,43,43,44,44,45,45,46,46,47,47,48,48,49,49,50,50,51,51,52,52,53,53,54,54,55,55,56,56,57,57,59,59,60,60,61,61],"right_children":[2,4,6,8,10,12,14,16,18,20,22,24,26,28,30,32,34,36,38,40,42,44,46,48,50,52,54,56,58,60,62,-1,64,66,68,70,72,74,76,78,80,82,84,86,88,90,92,94,96,98,100,102,104,106,108,110,112,114,-1,116,118,120,-1,-1,-1,-1,-1,-1,-1,-1,-1,-1,-1,-1,-1,-1,-1,-1,-1,-1,-1,-1,-1,-1,-1,-1,-1,-1,-1,-1,-1,-1,-1,-1,-1,-1,-1,-1,-1,-1,-1,-1,-1,-1,-1,-1,-1,-1,-1,-1,-1,-1,-1,-1,-1,-1,-1,-1,-1,-1,-1],"split_conditions":[4.2100072E-1,2.0410781E-17,2.0410781E-17,2.3551922E-1,2.2212096E-1,-8.847539E-1,6.2832385E-1,-8.847539E-1,7.818315E-1,1.4540501E-1,3.148546E-1,1E0,-7.945798E-1,5.126701E-1,7.884409E-1,3.5690928E-1,-6.515263E-1,5.21221E-1,8.7837964E-1,1.1784666E-1,1.8133448E-1,2.6739183E-1,3.631973E-1,4.9833474E-1,-9.427452E-1,6.554385E-1,-3.9091575E-1,4.6860817E-1,5.619698E-1,7.05755E-1,9.1812277E-1,-3.649351E-3,2.7142422E-2,6.234898E-1,-3.9091575E-1,1.3030525E-1,3.148546E-1,3.5388064E-1,-8.151915E-2,1.0797065E-1,1.3161038E-1,1.6332924E-1,1.9695716E-1,2.4148996E-1,1.7425318E-1,3.3468473E-1,3.8986865E-1,9.3333684E-2,8.840225E-1,3.3333334E-1,-9.105625E-1,5.3595495E-1,8.546619E-1,-6.515263E-1,0E0,4.444739E-1,4.9035105E-1,5.3595495E-1,9.208834E-3,6.6114306E-1,7.3696446E-1,8.3838993E-1,1.5472285E-2,1.0542453E-3,-3.1185576E-3,-9.55516E-5,-3.837332E-3,-3.8147047E-3,-2.1259955E-3,-5.880354E-5,-3.3134427E-3,4.3173186E-3,7.10589E-3,-4.845478E-3,-5.677721E-3,-5.1557994E-3,5.882475E-3,-1.0056406E-3,-7.543293E-4,-4.3065796E-4,-1.1349929E-4,2.568033E-4,6.530737E-4,1.0503501E-3,1.524445E-3,2.023363E-3,2.4662602E-3,3.0663526E-3,3.5529316E-3,4.0311664E-3,4.5733913E-3,5.0098286E-3,5.6539243E-3,-3.5339396E-3,-3.0521785E-3,-2.3891332E-3,-8.043276E-4,-1.8549655E-3,2.5746224E-3,4.595615E-3,7.2255544E-3,7.1293274E-3,9.31818E-3,1.1749372E-2,1.5862675E-2,3.3253506E-3,-3.3466376E-3,9.750764E-3,1.4809592E-3,6.2112315E-3,6.7165606E-3,7.1551986E-3,7.5647533E-3,7.902621E-3,8.385779E-3,1.0114464E-2,1.0776799E-2,1.1436469E-2,1.2049378E-2,1.288421E-2,1.36250425E-2],"split_indices":[12,0,0,12,12,2,12,2,2,12,12,8,2,12,12,7,2,2,2,12,12,12,12,7,2,12,2,12,12,12,8,0,4,3,2,2,12,12,3,12,12,12,12,12,8,12,12,6,7,6,2,12,8,2,2,12,12,12,0,12,12,12,0,0,0,0,0,0,0,0,0,0,0,0,0,0,0,0,0,0,0,0,0,0,0,0,0,0,0,0,0,0,0,0,0,0,0,0,0,0,0,0,0,0,0,0,0,0,0,0,0,0,0,0,0,0,0,0,0,0,0],"split_type":[0,0,0,0,0,0,0,0,0,0,0,0,0,0,0,0,0,0,0,0,0,0,0,0,0,0,0,0,0,0,0,0,0,0,0,0,0,0,0,0,0,0,0,0,0,0,0,0,0,0,0,0,0,0,0,0,0,0,0,0,0,0,0,0,0,0,0,0,0,0,0,0,0,0,0,0,0,0,0,0,0,0,0,0,0,0,0,0,0,0,0,0,0,0,0,0,0,0,0,0,0,0,0,0,0,0,0,0,0,0,0,0,0,0,0,0,0,0,0,0,0],"sum_hessian":[2.4336E5,1.5912E5,8.424E4,1.326E5,2.652E4,7.02E4,1.404E4,1.128E5,1.98E4,2.232E4,4.2E3,5.967E3,6.4233E4,7.2E3,6.84E3,9.588E3,1.03212E5,1.5312E4,4.488E3,1.836E4,3.96E3,2.04E3,2.16E3,5.916E3,5.1E1,6.084E3,5.8149E4,4.2E3,3E3,4.92E3,1.92E3,9.545E3,4.3E1,1.6356E4,8.6856E4,1.3629E4,1.683E3,2.244E3,2.244E3,1.284E4,5.52E3,1.92E3,2.04E3,1.08E3,9.6E2,9.6E2,1.2E3,5.454E3,4.62E2,1.7E1,3.4E1,3.64E3,2.444E3,1.4391E4,4.3758E4,1.92E3,2.28E3,1.68E3,1.32E3,3E3,1.92E3,1.44E3,4.8E2,1E0,4.2E1,1.316E4,3.196E3,1.6544E4,7.0312E4,1.0263E4,3.366E3,7.65E2,9.18E2,1.428E3,8.16E2,1.122E3,1.122E3,7.8E3,5.04E3,4.08E3,1.44E3,9.6E2,9.6E2,1.32E3,7.2E2,4.8E2,6E2,6E2,3.6E2,6E2,3.6E2,6E2,6E2,5.084E3,3.7E2,3.29E2,1.33E2,1E0,1.6E1,1.7E1,1.7E1,2.236E3,1.404E3,2.184E3,2.6E2,4.095E3,1.0296E4,5.967E3,3.7791E4,9.6E2,9.6E2,1.08E3,1.2E3,9.6E2,7.2E2,1.32E3,1.68E3,9.6E2,9.6E2,8.4E2,6E2],"tree_param":{"num_deleted":"0","num_feature":"14","num_nodes":"121","size_leaf_vector":"1"}},{"base_weights":[7.4101695E-6,-3.055938E-2,6.336362E-2,-3.820651E-2,7.6762685E-3,3.8505044E-2,1.8764414E-1,-4.484223E-2,-1.45826405E-2,-8.454519E-3,8.123516E-2,-6.2633865E-2,4.7901344E-2,1.4891532E-1,2.236281E-1,-4.0612634E-2,-5.9270345E-2,-4.939623E-3,-4.747678E-2,-1.3942461E-2,1.7152932E-2,5.972875E-2,1.06100224E-1,-6.4074665E-2,9.26249E-2,1.8826646E-1,3.321208E-2,1.3913989E-1,1.6953792E-1,2.0868433E-1,2.61793E-1,-4.626977E-2,5.199153E-3,-8.080141E-2,-3.773438E-2,-1.895179E-2,1.084944E-1,-9.9502794E-2,4.563193E-3,-1.7184911E-2,-6.3280165E-3,9.149604E-3,2.381505E-2,4.8575375E-2,7.3061205E-2,9.5803775E-2,1.1527955E-1,-6.593888E-2,-2.7305538E-2,4.2324107E-2,1.1584745E-1,1.5862678E-1,2.3615995E-1,-2.6292235E-2,5.2781846E-2,1.300899E-1,1.4555E-1,8.047052E-3,8.851183E-3,1.9829616E-1,2.2186019E-1,2.52627E-1,1.5035129E-2,-1.9817043E-3,-3.3249406E-3,-5.768218E-5,1.7083373E-3,-4.0582493E-3,-2.991039E-3,-4.027918E-3,2.5479143E-4,-1.954278E-4,-3.2404573E-3,3.6628644E-3,7.328849E-3,-4.6260585E-3,-5.784334E-3,-4.9847197E-3,5.4409048E-3,-9.631952E-4,-7.2418543E-4,-4.0350022E-4,-9.518552E-5,3.130174E-4,6.734397E-4,9.978723E-4,1.4923031E-3,2.1011361E-3,2.753033E-3,3.1926588E-3,3.8267416E-3,4.5781857E-3,5.045124E-3,5.9412387E-3,5.5771256E-3,-3.353102E-3,-2.7557209E-3,-1.8680154E-3,-4.0410683E-4,-1.8085914E-3,2.4534636E-3,4.3785996E-3,6.8843476E-3,7.1263E-3,9.225558E-3,1.1408799E-2,1.5527648E-2,3.3349176E-3,-3.16401E-3,9.596459E-3,1.5403217E-3,6.2981257E-3,6.6783265E-3,7.0944764E-3,7.4727507E-3,9.50794E-3,1.01264035E-2,1.0766084E-2,1.1409673E-2,1.2240766E-2,1.306942E-2],"categories":[],"categories_nodes":[],"categories_segments":[],"categories_sizes":[],"default_left":[0,0,0,0,0,0,0,0,0,0,0,0,0,0,0,0,0,0,0,0,0,0,0,0,0,0,0,0,0,0,0,0,0,0,0,0,0,0,0,0,0,0,0,0,0,0,0,0,0,0,0,0,0,0,0,0,0,0,0,0,0,0,0,0,0,0,0,0,0,0,0,0,0,0,0,0,0,0,0,0,0,0,0,0,0,0,0,0,0,0,0,0,0,0,0,0,0,0,0,0,0,0,0,0,0,0,0,0,0,0,0,0,0,0,0,0,0,0,0,0,0],"id":9,"left_children":[1,3,5,7,9,11,13,15,17,19,21,23,25,27,29,31,33,35,37,39,41,43,45,47,49,51,53,55,57,59,61,63,65,67,69,71,73,75,77,79,81,83,85,87,89,91,93,95,97,99,101,103,105,107,109,111,113,-1,-1,115,117,119,-1,-1,-1,-1,-1,-1,-1,-1,-1,-1,-1,-1,-1,-1,-1,-1,-1,-1,-1,-1,-1,-1,-1,-1,-1,-1,-1,-1,-1,-1,-1,-1,-1,-1,-1,-1,-1,-1,-1,-1,-1,-1,-1,-1,-1,-1,-1,-1,-1,-1,-1,-1,-1,-1,-1,-1,-1,-1,-1],"loss_changes":[4.7129385E2,4.7999817E1,2.4467923E2,2.1444458E1,3.2466232E1,6.2725845E1,1.83638E1,6.5151367E0,9.516047E0,3.153922E0,2.625206E0,1.2610931E0,1.2451155E2,1.2587585E0,3.8469849E0,2.140535E1,1.12224655E1,3.6879032E1,1.8413704E1,4.5617747E-1,2.109791E-1,3.8917255E-1,2.0454407E-1,3.7931252E-1,5.5838764E-2,8.083771E0,6.3664974E1,2.3173523E-1,1.0285568E-1,6.295624E-1,6.091461E-1,9.86554E0,1.6708044E0,8.747864E-2,2.2202915E1,1.4245693E1,3.4125023E0,3.7357712E-1,3.697755E1,7.2506905E-2,4.253547E-2,2.2390813E-2,4.968047E-2,5.8923006E-2,3.3527374E-2,1.4130592E-2,2.6578903E-3,6.062889E-2,5.1885515E-2,1.1305347E-2,9.555727E-3,1.4477768E0,1.2269211E0,4.6544525E1,1.2579584E2,9.017944E-3,1.4831543E-2,0E0,0E0,5.65567E-2,4.0351868E-2,4.284668E-2,0E0,0E0,0E0,0E0,0E0,0E0,0E0,0E0,0E0,0E0,0E0,0E0,0E0,0E0,0E0,0E0,0E0,0E0,0E0,0E0,0E0,0E0,0E0,0E0,0E0,0E0,0E0,0E0,0E0,0E0,0E0,0E0,0E0,0E0,0E0,0E0,0E0,0E0,0E0,0E0,0E0,0E0,0E0,0E0,0E0,0E0,0E0,0E0,0E0,0E0,0E0,0E0,0E0,0E0,0E0,0E0,0E0,0E0,0E0],"parents":[2147483647,0,0,1,1,2,2,3,3,4,4,5,5,6,6,7,7,8,8,9,9,10,10,11,11,12,12,13,13,14,14,15,15,16,16,17,17,18,18,19,19,20,20,21,21,22,22,23,23,24,24,25,25,26,26,27,27,28,28,29,29,30,30,31,31,32,32,33,33,34,34,35,35,36,36,37,37,38,38,39,39,40,40,41,41,42,42,43,43,44,44,45,45,46,46,47,47,48,48,49,49,50,50,51,51,52,52,53,53,54,54,55,55,56,56,59,59,60,60,61,61],"right_children":[2,4,6,8,10,12,14,16,18,20,22,24,26,28,30,32,34,36,38,40,42,44,46,48,50,52,54,56,58,60,62,64,66,68,70,72,74,76,78,80,82,84,86,88,90,92,94,96,98,100,102,104,106,108,110,112,114,-1,-1,116,118,120,-1,-1,-1,-1,-1,-1,-1,-1,-1,-1,-1,-1,-1,-1,-1,-1,-1,-1,-1,-1,-1,-1,-1,-1,-1,-1,-1,-1,-1,-1,-1,-1,-1,-1,-1,-1,-1,-1,-1,-1,-1,-1,-1,-1,-1,-1,-1,-1,-1,-1,-1,-1,-1,-1,-1,-1,-1,-1,-1],"split_conditions":[4.421889E-1,2.0410781E-17,2.0410781E-17,1.9224988E-1,2.2883148E-1,-8.847539E-1,6.2832385E-1,7.818315E-1,7.818315E-1,1.4736485E-1,3.5388064E-1,1E0,-7.945798E-1,5.3595495E-1,7.884409E-1,5.21221E-1,8.7837964E-1,5.21221E-1,8.7837964E-1,1.1824947E-1,1.8133448E-1,2.8714797E-1,4.0361118E-1,6.590225E-1,-9.427452E-1,6.7103237E-1,-3.9091575E-1,4.836149E-1,5.786882E-1,6.902041E-1,9.6524817E-1,1.3030525E-1,1.3549875E-1,1.9975255E-1,-8.151915E-2,1.3030525E-1,3.1853315E-1,3.65793E-1,-8.151915E-2,1.0566101E-1,1.3161038E-1,1.6682242E-1,1.9695716E-1,2.5634816E-1,2.988484E-2,3.7657705E-1,1E0,9.3333684E-2,-9.105625E-1,3.3333334E-1,-9.105625E-1,5.619698E-1,9.1812277E-1,-6.515263E-1,0E0,4.61345E-1,5.0465304E-1,8.047052E-3,8.851183E-3,6.490788E-1,7.2943974E-1,8.3838993E-1,1.5035129E-2,-1.9817043E-3,-3.3249406E-3,-5.768218E-5,1.7083373E-3,-4.0582493E-3,-2.991039E-3,-4.027918E-3,2.5479143E-4,-1.954278E-4,-3.2404573E-3,3.6628644E-3,7.328849E-3,-4.6260585E-3,-5.784334E-3,-4.9847197E-3,5.4409048E-3,-9.631952E-4,-7.2418543E-4,-4.0350022E-4,-9.518552E-5,3.130174E-4,6.734397E-4,9.978723E-4,1.4923031E-3,2.1011361E-3,2.753033E-3,3.1926588E-3,3.8267416E-3,4.5781857E-3,5.045124E-3,5.9412387E-3,5.5771256E-3,-3.353102E-3,-2.7557209E-3,-1.8680154E-3,-4.0410683E-4,-1.8085914E-3,2.4534636E-3,4.3785996E-3,6.8843476E-3,7.1263E-3,9.225558E-3,1.1408799E-2,1.5527648E-2,3.3349176E-3,-3.16401E-3,9.596459E-3,1.5403217E-3,6.2981257E-3,6.6783265E-3,7.0944764E-3,7.4727507E-3,9.50794E-3,1.01264035E-2,1.0766084E-2,1.1409673E-2,1.2240766E-2,1.306942E-2],"split_indices":[12,0,0,12,12,2,12,2,2,12,12,8,2,12,12,2,2,2,2,12,12,12,12,7,2,12,2,12,12,12,8,2,12,7,3,2,12,12,3,12,12,12,12,12,6,12,13,6,2,6,2,12,8,2,2,12,12,0,0,12,12,12,0,0,0,0,0,0,0,0,0,0,0,0,0,0,0,0,0,0,0,0,0,0,0,0,0,0,0,0,0,0,0,0,0,0,0,0,0,0,0,0,0,0,0,0,0,0,0,0,0,0,0,0,0,0,0,0,0,0,0],"split_type":[0,0,0,0,0,0,0,0,0,0,0,0,0,0,0,0,0,0,0,0,0,0,0,0,0,0,0,0,0,0,0,0,0,0,0,0,0,0,0,0,0,0,0,0,0,0,0,0,0,0,0,0,0,0,0,0,0,0,0,0,0,0,0,0,0,0,0,0,0,0,0,0,0,0,0,0,0,0,0,0,0,0,0,0,0,0,0,0,0,0,0,0,0,0,0,0,0,0,0,0,0,0,0,0,0,0,0,0,0,0,0,0,0,0,0,0,0,0,0,0,0],"sum_hessian":[2.4336E5,1.6416E5,7.92E4,1.368E5,2.736E4,6.6E4,1.32E4,1.068E5,3E4,2.244E4,4.92E3,5.61E3,6.039E4,6.36E3,6.84E3,8.2592E4,2.4208E4,2.32E4,6.8E3,1.848E4,3.96E3,2.64E3,2.28E3,5.559E3,5.1E1,5.72E3,5.467E4,4.32E3,2.04E3,4.92E3,1.92E3,7.3514E4,9.078E3,1.2104E4,1.2104E4,2.065E4,2.55E3,3.4E3,3.4E3,1.296E4,5.52E3,1.8E3,2.16E3,1.44E3,1.2E3,1.08E3,1.2E3,5.29E3,2.69E2,1.7E1,3.4E1,3.536E3,2.184E3,1.353E4,4.114E4,1.8E3,2.52E3,9.6E2,1.08E3,2.76E3,2.16E3,1.56E3,3.6E2,5.5358E4,1.8156E4,7.446E3,1.632E3,1.1895E4,2.09E2,6.052E3,6.052E3,1.555E4,5.1E3,1.326E3,1.224E3,2.38E3,1.02E3,1.7E3,1.7E3,7.32E3,5.64E3,3.96E3,1.56E3,1.08E3,7.2E2,1.32E3,8.4E2,7.2E2,7.2E2,3.34E2,8.66E2,6E2,4.8E2,6E2,6E2,4.788E3,5.02E2,1.76E2,9.3E1,1E0,1.6E1,1.7E1,1.7E1,2.184E3,1.352E3,1.976E3,2.08E2,3.85E3,9.68E3,5.61E3,3.553E4,8.4E2,9.6E2,1.32E3,1.2E3,9.6E2,1.8E3,1.08E3,1.08E3,8.4E2,7.2E2],"tree_param":{"num_deleted":"0","num_feature":"14","num_nodes":"121","size_leaf_vector":"1"}},{"base_weights":[7.872E-6,-2.8647214E-2,6.1032176E-2,-3.6025275E-2,8.243048E-3,3.7353035E-2,1.7941587E-1,-4.1644916E-2,-9.3313465E-3,-7.8038997E-3,8.005954E-2,5.3352557E-2,-1.7233487E-2,1.4509383E-1,2.1500468E-1,-6.74599E-2,-3.924618E-2,-7.1468584E-2,-3.5560438E-3,-1.31499935E-2,1.730352E-2,5.7791334E-2,1.02295995E-1,2.5027618E-2,2.8268284E-1,-1.1695282E-1,8.2488194E-2,1.3437432E-1,1.67056E-1,2.0037048E-1,2.4872434E-1,-6.716535E-2,-3.4947675E-3,-1.3360535E-2,-4.412054E-2,-3.6517126E-3,-6.5928675E-2,9.016301E-2,-1.3365701E-2,-1.613812E-2,-5.36535E-3,1.0070918E-2,2.4102407E-2,4.718073E-2,6.941399E-2,9.1022484E-2,1.1068209E-1,4.975772E-2,-5.037262E-2,2.21058E-1,3.3772588E-1,-1.19137496E-1,1.1514588E-1,-1.1770325E-1,2.8265718E-1,1.2643822E-1,1.4106455E-1,7.963296E-3,8.734576E-3,1.9133666E-1,2.1212159E-1,2.3828158E-1,1.3974606E-2,-3.3715E-3,-3.2067734E-3,3.3888304E-5,-3.557381E-3,-3.5356667E-3,-1.8931254E-3,-3.3111274E-3,-1.872517E-3,3.316064E-3,5.220304E-3,-2.4978886E-3,-6.64438E-5,-9.062375E-4,-6.642484E-4,-3.4268378E-4,-2.261289E-5,3.2482645E-4,6.8174145E-4,1.0266267E-3,1.5304809E-3,2.0473541E-3,2.6155722E-3,3.033502E-3,3.6356251E-3,4.349657E-3,4.793392E-3,5.6957267E-3,5.298733E-3,7.319736E-4,7.1559595E-3,-5.8148773E-3,4.0736496E-3,1.026768E-2,1.2609703E-2,1.5652036E-2,1.9769054E-2,-6.078708E-3,-3.6128003E-3,1.7341704E-3,7.0391963E-3,-5.9831752E-3,4.4735204E-3,1.1050777E-2,1.6883392E-2,6.133156E-3,6.527657E-3,6.847744E-3,7.21604E-3,9.315881E-3,9.834893E-3,1.0384278E-2,1.0960834E-2,1.1629455E-2,1.2292541E-2],"categories":[],"categories_nodes":[],"categories_segments":[],"categories_sizes":[],"default_left":[0,0,0,0,0,0,0,0,0,0,0,0,0,0,0,0,0,0,0,0,0,0,0,0,0,0,0,0,0,0,0,0,0,0,0,0,0,0,0,0,0,0,0,0,0,0,0,0,0,0,0,0,0,0,0,0,0,0,0,0,0,0,0,0,0,0,0,0,0,0,0,0,0,0,0,0,0,0,0,0,0,0,0,0,0,0,0,0,0,0,0,0,0,0,0,0,0,0,0,0,0,0,0,0,0,0,0,0,0,0,0,0,0,0,0,0,0],"id":10,"left_children":[1,3,5,7,9,11,13,15,17,19,21,23,25,27,29,31,33,35,37,39,41,43,45,47,49,51,53,55,57,59,61,63,-1,65,67,-1,69,71,73,75,77,79,81,83,85,87,89,91,93,95,97,99,101,103,105,107,109,-1,-1,111,113,115,-1,-1,-1,-1,-1,-1,-1,-1,-1,-1,-1,-1,-1,-1,-1,-1,-1,-1,-1,-1,-1,-1,-1,-1,-1,-1,-1,-1,-1,-1,-1,-1,-1,-1,-1,-1,-1,-1,-1,-1,-1,-1,-1,-1,-1,-1,-1,-1,-1,-1,-1,-1,-1,-1,-1],"loss_changes":[4.2555664E2,4.507332E1,2.1797482E2,2.0701187E1,3.1808996E1,5.6595413E1,1.5800446E1,7.056671E0,8.612778E0,3.0285141E0,2.490219E0,3.2551526E2,1.4607971E2,1.5315704E0,3.0890503E0,2.2583008E-3,1.3160965E1,1.2888908E-2,2.0191088E1,4.326005E-1,1.9453418E-1,3.0762386E-1,2.2826195E-1,8.317546E1,1.8611969E1,3.7380676E0,2.9436298E2,2.1796417E-1,1.0071182E-1,4.3086243E-1,5.5062103E-1,2.6245117E-3,0E0,1.3410534E1,1.4605713E1,0E0,1.369834E-3,6.9974136E-1,8.756566E0,7.59449E-2,3.773558E-2,2.438265E-2,4.6783686E-2,4.010749E-2,3.0227661E-2,1.2765884E-2,9.85527E-3,1.10125854E2,9.576828E1,1.2205276E0,4.014984E0,8.224945E-1,1.3745725E-1,1.5023651E0,1.2380341E1,1.5693665E-2,1.2363434E-2,0E0,0E0,3.1188965E-2,1.4930725E-2,4.9057007E-3,0E0,0E0,0E0,0E0,0E0,0E0,0E0,0E0,0E0,0E0,0E0,0E0,0E0,0E0,0E0,0E0,0E0,0E0,0E0,0E0,0E0,0E0,0E0,0E0,0E0,0E0,0E0,0E0,0E0,0E0,0E0,0E0,0E0,0E0,0E0,0E0,0E0,0E0,0E0,0E0,0E0,0E0,0E0,0E0,0E0,0E0,0E0,0E0,0E0,0E0,0E0,0E0,0E0,0E0,0E0],"parents":[2147483647,0,0,1,1,2,2,3,3,4,4,5,5,6,6,7,7,8,8,9,9,10,10,11,11,12,12,13,13,14,14,15,15,16,16,17,17,18,18,19,19,20,20,21,21,22,22,23,23,24,24,25,25,26,26,27,27,28,28,29,29,30,30,31,31,33,33,34,34,36,36,37,37,38,38,39,39,40,40,41,41,42,42,43,43,44,44,45,45,46,46,47,47,48,48,49,49,50,50,51,51,52,52,53,53,54,54,55,55,56,56,59,59,60,60,61,61],"right_children":[2,4,6,8,10,12,14,16,18,20,22,24,26,28,30,32,34,36,38,40,42,44,46,48,50,52,54,56,58,60,62,64,-1,66,68,-1,70,72,74,76,78,80,82,84,86,88,90,92,94,96,98,100,102,104,106,108,110,-1,-1,112,114,116,-1,-1,-1,-1,-1,-1,-1,-1,-1,-1,-1,-1,-1,-1,-1,-1,-1,-1,-1,-1,-1,-1,-1,-1,-1,-1,-1,-1,-1,-1,-1,-1,-1,-1,-1,-1,-1,-1,-1,-1,-1,-1,-1,-1,-1,-1,-1,-1,-1,-1,-1,-1,-1,-1,-1],"split_conditions":[4.5166197E-1,2.0410781E-17,2.0410781E-17,2.4148996E-1,2.3551922E-1,7.818315E-1,6.332135E-1,-8.847539E-1,-8.847539E-1,1.5007919E-1,3.5388064E-1,5.21221E-1,8.7837964E-1,5.453541E-1,7.884409E-1,1.8242799E-1,-6.515263E-1,4.2100072E-1,-7.945798E-1,1.1928915E-1,1.8419361E-1,2.8714797E-1,4.0361118E-1,1.3030525E-1,6.2832385E-1,1E0,-8.151915E-2,4.936596E-1,5.9278345E-1,7.05755E-1,9.1812277E-1,7.573941E-2,-3.4947675E-3,6.234898E-1,-3.9091575E-1,-3.6517126E-3,2.682004E-1,3.2445502E-1,-3.9091575E-1,1.0869973E-1,1.3441603E-1,1.6682242E-1,2.094291E-1,2.5634816E-1,2.988484E-2,3.7657705E-1,1E0,-3.9091575E-1,3.9091575E-1,5.3595495E-1,7.707762E-1,6.590225E-1,7.945798E-1,1E0,6.2832385E-1,4.7470817E-1,5.126701E-1,7.963296E-3,8.734576E-3,6.7103237E-1,7.4559695E-1,8.3838993E-1,1.3974606E-2,-3.3715E-3,-3.2067734E-3,3.3888304E-5,-3.557381E-3,-3.5356667E-3,-1.8931254E-3,-3.3111274E-3,-1.872517E-3,3.316064E-3,5.220304E-3,-2.4978886E-3,-6.64438E-5,-9.062375E-4,-6.642484E-4,-3.4268378E-4,-2.261289E-5,3.2482645E-4,6.8174145E-4,1.0266267E-3,1.5304809E-3,2.0473541E-3,2.6155722E-3,3.033502E-3,3.6356251E-3,4.349657E-3,4.793392E-3,5.6957267E-3,5.298733E-3,7.319736E-4,7.1559595E-3,-5.8148773E-3,4.0736496E-3,1.026768E-2,1.2609703E-2,1.5652036E-2,1.9769054E-2,-6.078708E-3,-3.6128003E-3,1.7341704E-3,7.0391963E-3,-5.9831752E-3,4.4735204E-3,1.1050777E-2,1.6883392E-2,6.133156E-3,6.527657E-3,6.847744E-3,7.21604E-3,9.315881E-3,9.834893E-3,1.0384278E-2,1.0960834E-2,1.1629455E-2,1.2292541E-2],"split_indices":[12,0,0,12,12,2,12,2,2,12,12,2,2,12,12,12,2,12,2,12,12,12,12,2,12,8,3,12,12,12,8,7,0,3,2,0,4,12,2,12,12,12,12,12,6,12,13,2,2,12,12,7,2,8,12,12,12,0,0,12,12,12,0,0,0,0,0,0,0,0,0,0,0,0,0,0,0,0,0,0,0,0,0,0,0,0,0,0,0,0,0,0,0,0,0,0,0,0,0,0,0,0,0,0,0,0,0,0,0,0,0,0,0,0,0,0,0],"split_type":[0,0,0,0,0,0,0,0,0,0,0,0,0,0,0,0,0,0,0,0,0,0,0,0,0,0,0,0,0,0,0,0,0,0,0,0,0,0,0,0,0,0,0,0,0,0,0,0,0,0,0,0,0,0,0,0,0,0,0,0,0,0,0,0,0,0,0,0,0,0,0,0,0,0,0,0,0,0,0,0,0,0,0,0,0,0,0,0,0,0,0,0,0,0,0,0,0,0,0,0,0,0,0,0,0,0,0,0,0,0,0,0,0,0,0,0,0],"sum_hessian":[2.4336E5,1.656E5,7.776E4,1.38E5,2.76E4,6.48E4,1.296E4,1.14E5,2.4E4,2.256E4,5.04E3,5.0112E4,1.4688E4,6.6E3,6.36E3,9.69E3,1.0431E5,2.04E3,2.196E4,1.86E4,3.96E3,2.52E3,2.52E3,4.4604E4,5.508E3,7.344E3,7.344E3,4.44E3,2.16E3,4.44E3,1.92E3,8.67E3,1.02E3,1.653E4,8.778E4,1.581E3,4.59E2,2.08E3,1.988E4,1.344E4,5.16E3,1.92E3,2.04E3,1.32E3,1.2E3,1.08E3,1.44E3,3.3588E4,1.1016E4,2.601E3,2.907E3,7.276E3,6.8E1,3.672E3,3.672E3,2.04E3,2.4E3,1.08E3,1.08E3,2.52E3,1.92E3,1.44E3,4.8E2,7.954E3,7.16E2,1.33E4,3.23E3,1.672E4,7.106E4,4.53E2,6E0,7.8E2,1.3E3,4.92E3,1.496E4,7.92E3,5.52E3,3.96E3,1.2E3,9.6E2,9.6E2,1.32E3,7.2E2,6E2,7.2E2,3.34E2,8.66E2,6E2,4.8E2,8.4E2,6E2,2.4408E4,9.18E3,7.344E3,3.672E3,1.734E3,8.67E2,2.04E3,8.67E2,6.915E3,3.61E2,1.7E1,5.1E1,3.638E3,3.4E1,1.734E3,1.938E3,1.08E3,9.6E2,1.08E3,1.32E3,1.32E3,1.2E3,1.2E3,7.2E2,8.4E2,6E2],"tree_param":{"num_deleted":"0","num_feature":"14","num_nodes":"117","size_leaf_vector":"1"}},{"base_weights":[8.394099E-6,-2.7214786E-2,5.798329E-2,-3.4224167E-2,7.832094E-3,3.548677E-2,1.7045447E-1,-4.1751157E-2,-1.5911657E-2,-7.413633E-3,7.6062806E-2,-6.012464E-2,4.4369567E-2,1.3532542E-1,2.0186137E-1,-3.7841856E-2,-5.5086464E-2,-7.2993077E-3,-4.5290943E-2,-1.2492598E-2,1.6439244E-2,5.490626E-2,9.718917E-2,-6.1762933E-2,6.622452E-2,1.7930794E-1,3.024819E-2,1.2644531E-1,1.5301499E-1,1.8778169E-1,2.3488176E-1,-4.2934533E-2,3.3990492E-3,-7.460948E-2,-3.5558473E-2,-1.9628227E-2,9.251729E-2,-9.128854E-2,7.1659416E-4,-1.5607536E-2,-5.7526547E-3,9.964369E-3,2.3310032E-2,4.4825222E-2,6.5948844E-2,8.647981E-2,1.0515561E-1,-6.390889E-2,-3.7236683E-2,1.9787226E-2,9.427042E-2,1.515829E-1,2.2452241E-1,-1.4410281E-1,3.642578E-2,1.1971787E-1,1.3236709E-1,7.2613643E-3,7.989831E-3,1.7899655E-1,1.9957395E-1,2.2681947E-1,1.3588659E-2,-1.8396842E-3,-3.0827383E-3,-1.03342136E-4,9.088069E-4,-3.7487675E-3,-2.75104E-3,-3.7177466E-3,1.6222021E-4,-3.095192E-4,-3.0296787E-3,2.8778012E-3,6.912938E-3,-4.158329E-3,-5.450442E-3,-4.5714956E-3,4.6431394E-3,-8.7528786E-4,-6.6556054E-4,-3.7801985E-4,-8.265915E-5,3.086022E-4,6.6632486E-4,9.780185E-4,1.4349868E-3,2.0354649E-3,2.5964247E-3,3.0365547E-3,3.552843E-3,4.132536E-3,4.5542205E-3,5.411279E-3,5.0342367E-3,-3.2406193E-3,-2.9104834E-3,-2.3325537E-3,-9.454735E-4,1.2643039E-4,2.7970567E-3,2.3155648E-3,5.755382E-3,6.733908E-3,8.681501E-3,1.084111E-2,1.4718558E-2,-7.2587947E-3,-1.967747E-3,1.2990454E-2,1.3858752E-3,5.805896E-3,6.1596627E-3,6.469786E-3,6.7608E-3,8.543987E-3,9.122843E-3,9.595204E-3,1.0180454E-2,1.0992974E-2,1.17890835E-2],"categories":[],"categories_nodes":[],"categories_segments":[],"categories_sizes":[],"default_left":[0,0,0,0,0,0,0,0,0,0,0,0,0,0,0,0,0,0,0,0,0,0,0,0,0,0,0,0,0,0,0,0,0,0,0,0,0,0,0,0,0,0,0,0,0,0,0,0,0,0,0,0,0,0,0,0,0,0,0,0,0,0,0,0,0,0,0,0,0,0,0,0,0,0,0,0,0,0,0,0,0,0,0,0,0,0,0,0,0,0,0,0,0,0,0,0,0,0,0,0,0,0,0,0,0,0,0,0,0,0,0,0,0,0,0,0,0,0,0,0,0],"id":11,"left_children":[1,3,5,7,9,11,13,15,17,19,21,23,25,27,29,31,33,35,37,39,41,43,45,47,49,51,53,55,57,59,61,63,65,67,69,71,73,75,77,79,81,83,85,87,89,91,93,95,97,99,101,103,105,107,109,111,113,-1,-1,115,117,119,-1,-1,-1,-1,-1,-1,-1,-1,-1,-1,-1,-1,-1,-1,-1,-1,-1,-1,-1,-1,-1,-1,-1,-1,-1,-1,-1,-1,-1,-1,-1,-1,-1,-1,-1,-1,-1,-1,-1,-1,-1,-1,-1,-1,-1,-1,-1,-1,-1,-1,-1,-1,-1,-1,-1,-1,-1,-1,-1],"loss_changes":[3.8408875E2,4.0681297E1,1.9674564E2,1.9021118E1,2.871186E1,5.503795E1,1.4272491E1,5.096451E0,1.0171514E1,2.733424E0,2.247795E0,1.1444359E0,1.12978325E2,9.421692E-1,3.1363525E0,1.5885094E1,8.449173E0,3.8260895E1,1.9285324E1,3.9042878E-1,1.7598271E-1,2.7768326E-1,2.0598793E-1,2.8388786E-1,9.060332E-2,7.0072784E0,5.7819103E1,1.4673615E-1,8.45871E-2,4.6165466E-1,5.454178E-1,7.7367096E0,6.715591E-1,7.531738E-2,1.668776E1,1.5232671E1,5.4580364E0,6.4678955E-1,3.8701748E1,5.5217028E-2,4.357034E-2,2.5941059E-2,3.8261056E-2,3.6507368E-2,2.7694225E-2,1.153183E-2,8.881569E-3,2.1972656E-2,7.5035274E-2,1.7329609E-2,3.8639963E-2,1.2754822E0,1.0834122E0,2.0077133E-1,1.0083825E2,9.731293E-3,7.9345703E-4,0E0,0E0,4.637146E-2,2.4093628E-2,5.3016663E-2,0E0,0E0,0E0,0E0,0E0,0E0,0E0,0E0,0E0,0E0,0E0,0E0,0E0,0E0,0E0,0E0,0E0,0E0,0E0,0E0,0E0,0E0,0E0,0E0,0E0,0E0,0E0,0E0,0E0,0E0,0E0,0E0,0E0,0E0,0E0,0E0,0E0,0E0,0E0,0E0,0E0,0E0,0E0,0E0,0E0,0E0,0E0,0E0,0E0,0E0,0E0,0E0,0E0,0E0,0E0,0E0,0E0,0E0,0E0],"parents":[2147483647,0,0,1,1,2,2,3,3,4,4,5,5,6,6,7,7,8,8,9,9,10,10,11,11,12,12,13,13,14,14,15,15,16,16,17,17,18,18,19,19,20,20,21,21,22,22,23,23,24,24,25,25,26,26,27,27,28,28,29,29,30,30,31,31,32,32,33,33,34,34,35,35,36,36,37,37,38,38,39,39,40,40,41,41,42,42,43,43,44,44,45,45,46,46,47,47,48,48,49,49,50,50,51,51,52,52,53,53,54,54,55,55,56,56,59,59,60,60,61,61],"right_children":[2,4,6,8,10,12,14,16,18,20,22,24,26,28,30,32,34,36,38,40,42,44,46,48,50,52,54,56,58,60,62,64,66,68,70,72,74,76,78,80,82,84,86,88,90,92,94,96,98,100,102,104,106,108,110,112,114,-1,-1,116,118,120,-1,-1,-1,-1,-1,-1,-1,-1,-1,-1,-1,-1,-1,-1,-1,-1,-1,-1,-1,-1,-1,-1,-1,-1,-1,-1,-1,-1,-1,-1,-1,-1,-1,-1,-1,-1,-1,-1,-1,-1,-1,-1,-1,-1,-1,-1,-1,-1,-1,-1,-1,-1,-1,-1,-1,-1,-1,-1,-1],"split_conditions":[4.5166197E-1,2.0410781E-17,2.0410781E-17,1.6682242E-1,2.3551922E-1,-8.847539E-1,6.2832385E-1,7.818315E-1,7.818315E-1,1.5007919E-1,3.5388064E-1,1.5382704E0,-7.945798E-1,5.3595495E-1,7.707762E-1,5.21221E-1,8.7837964E-1,5.21221E-1,8.7837964E-1,1.1732059E-1,1.8603988E-1,2.8714797E-1,4.0361118E-1,4.9833474E-1,5.326913E-1,6.768916E-1,-7.044058E-1,4.9035105E-1,5.786882E-1,6.902041E-1,9.6524817E-1,1.3030525E-1,1.2307774E-1,1.9975255E-1,-8.151915E-2,1.3030525E-1,2.9626358E-1,3.5388064E-1,-8.151915E-2,1.0388174E-1,1.3075127E-1,1.6682242E-1,2.094291E-2,2.6739183E-1,3.1853315E-1,3.7657705E-1,1E0,1.2962638E-1,-9.105625E-1,-9.105625E-1,-9.427452E-1,5.4822975E-1,9.1812277E-1,1.699358E0,-6.515263E-1,4.703885E-1,5.1001114E-1,7.2613643E-3,7.989831E-3,6.475563E-1,7.209534E-1,8.3838993E-1,1.3588659E-2,-1.8396842E-3,-3.0827383E-3,-1.03342136E-4,9.088069E-4,-3.7487675E-3,-2.75104E-3,-3.7177466E-3,1.6222021E-4,-3.095192E-4,-3.0296787E-3,2.8778012E-3,6.912938E-3,-4.158329E-3,-5.450442E-3,-4.5714956E-3,4.6431394E-3,-8.7528786E-4,-6.6556054E-4,-3.7801985E-4,-8.265915E-5,3.086022E-4,6.6632486E-4,9.780185E-4,1.4349868E-3,2.0354649E-3,2.5964247E-3,3.0365547E-3,3.552843E-3,4.132536E-3,4.5542205E-3,5.411279E-3,5.0342367E-3,-3.2406193E-3,-2.9104834E-3,-2.3325537E-3,-9.454735E-4,1.2643039E-4,2.7970567E-3,2.3155648E-3,5.755382E-3,6.733908E-3,8.681501E-3,1.084111E-2,1.4718558E-2,-7.2587947E-3,-1.967747E-3,1.2990454E-2,1.3858752E-3,5.805896E-3,6.1596627E-3,6.469786E-3,6.7608E-3,8.543987E-3,9.122843E-3,9.595204E-3,1.0180454E-2,1.0992974E-2,1.17890835E-2],"split_indices":[12,0,0,12,12,2,12,2,2,12,12,7,2,12,12,2,2,2,2,12,12,12,12,7,6,12,2,12,12,12,8,2,12,7,3,2,12,12,3,12,12,12,6,12,12,12,13,4,2,2,2,12,8,4,2,12,12,0,0,12,12,12,0,0,0,0,0,0,0,0,0,0,0,0,0,0,0,0,0,0,0,0,0,0,0,0,0,0,0,0,0,0,0,0,0,0,0,0,0,0,0,0,0,0,0,0,0,0,0,0,0,0,0,0,0,0,0,0,0,0,0],"split_type":[0,0,0,0,0,0,0,0,0,0,0,0,0,0,0,0,0,0,0,0,0,0,0,0,0,0,0,0,0,0,0,0,0,0,0,0,0,0,0,0,0,0,0,0,0,0,0,0,0,0,0,0,0,0,0,0,0,0,0,0,0,0,0,0,0,0,0,0,0,0,0,0,0,0,0,0,0,0,0,0,0,0,0,0,0,0,0,0,0,0,0,0,0,0,0,0,0,0,0,0,0,0,0,0,0,0,0,0,0,0,0,0,0,0,0,0,0,0,0,0,0],"sum_hessian":[2.4336E5,1.656E5,7.776E4,1.38E5,2.76E4,6.48E4,1.296E4,9.78E4,4.02E4,2.256E4,5.04E3,5.508E3,5.9292E4,6.12E3,6.84E3,7.5632E4,2.2168E4,3.1088E4,9.112E3,1.86E4,3.96E3,2.52E3,2.52E3,5.438E3,7E1,5.616E3,5.3676E4,4.08E3,2.04E3,4.8E3,2.04E3,6.7319E4,8.313E3,1.1084E4,1.1084E4,2.7671E4,3.417E3,4.556E3,4.556E3,1.272E4,5.88E3,2.04E3,1.92E3,1.32E3,1.2E3,1.08E3,1.44E3,4.999E3,4.39E2,2.7E1,4.3E1,3.484E3,2.132E3,1.836E3,5.184E4,1.92E3,2.16E3,9.6E2,1.08E3,2.76E3,2.04E3,1.68E3,3.6E2,5.0693E4,1.6626E4,6.069E3,2.244E3,1.0878E4,2.06E2,5.542E3,5.542E3,2.0837E4,6.834E3,1.938E3,1.479E3,3.128E3,1.428E3,2.278E3,2.278E3,6.96E3,5.76E3,4.08E3,1.8E3,9.6E2,1.08E3,1.135E3,7.85E2,8.4E2,4.8E2,6E2,6E2,6E2,4.8E2,8.4E2,6E2,4.306E3,6.93E2,2.89E2,1.5E2,1.9E1,8E0,1.4E1,2.9E1,1.976E3,1.508E3,1.924E3,2.08E2,1.817E3,1.9E1,1.944E3,4.9896E4,9.6E2,9.6E2,1.08E3,1.08E3,8.4E2,1.92E3,7.2E2,1.32E3,9.6E2,7.2E2],"tree_param":{"num_deleted":"0","num_feature":"14","num_nodes":"121","size_leaf_vector":"1"}},{"base_weights":[8.698185E-6,-2.5004778E-2,5.7077844E-2,-3.192713E-2,9.606897E-3,3.5591103E-2,1.6449998E-1,-3.757159E-2,-7.4245445E-3,-6.6018775E-3,7.803249E-2,-5.690791E-2,4.4184763E-2,1.348776E-1,1.9587198E-1,-6.25062E-2,-3.5254687E-2,2.5282442E-3,-4.1375868E-2,-1.1868076E-2,1.6717134E-2,5.398673E-2,9.558147E-2,-5.8301207E-2,8.359672E-2,1.731671E-1,3.068651E-2,1.23566315E-1,1.53482E-1,1.8291494E-1,2.2598675E-1,-6.2031373E-2,-3.3144297E-3,-1.084415E-2,-3.9851304E-2,-1.2437046E-2,1.23669304E-1,-9.695235E-2,1.4214437E-2,-1.4529692E-2,-4.7056023E-3,1.1494697E-2,2.6711883E-2,4.516611E-2,6.373657E-2,8.2163855E-2,1.0264118E-1,-6.0109388E-2,-2.5042469E-2,3.7730355E-2,1.0479666E-1,1.501771E-1,2.1971197E-1,-2.6279625E-2,4.942156E-2,1.1693234E-1,1.284011E-1,7.269452E-3,7.999423E-3,1.7538644E-1,9.704832E-3,2.1775427E-1,1.2911108E-2,-3.112137E-3,-2.9347043E-3,1.2829404E-4,-3.3022854E-3,-3.2816571E-3,-1.6892077E-3,1.6256543E-4,-3.0130607E-3,4.337977E-3,7.4568796E-3,-4.3291175E-3,-5.5924165E-3,-4.8753666E-3,6.2963353E-3,-8.168105E-4,-5.947989E-4,-3.0335985E-4,-1.7353812E-5,3.4914236E-4,7.8114215E-4,1.1771782E-3,1.64932E-3,2.0101068E-3,2.5027462E-3,2.9899485E-3,3.4262014E-3,3.9262525E-3,4.3269824E-3,4.877735E-3,5.3534037E-3,-3.0678427E-3,-2.5814306E-3,-3.25204E-4,-1.7616584E-3,-1.7848368E-3,2.2074701E-3,3.9192233E-3,6.269341E-3,6.6112126E-3,8.5421605E-3,1.0576822E-2,1.3986151E-2,3.1482354E-3,-3.088878E-3,9.020524E-3,1.4367149E-3,5.672875E-3,5.970885E-3,6.3014114E-3,6.668021E-3,8.49811E-3,8.966693E-3,1.0643098E-2,1.1353805E-2],"categories":[],"categories_nodes":[],"categories_segments":[],"categories_sizes":[],"default_left":[0,0,0,0,0,0,0,0,0,0,0,0,0,0,0,0,0,0,0,0,0,0,0,0,0,0,0,0,0,0,0,0,0,0,0,0,0,0,0,0,0,0,0,0,0,0,0,0,0,0,0,0,0,0,0,0,0,0,0,0,0,0,0,0,0,0,0,0,0,0,0,0,0,0,0,0,0,0,0,0,0,0,0,0,0,0,0,0,0,0,0,0,0,0,0,0,0,0,0,0,0,0,0,0,0,0,0,0,0,0,0,0,0,0,0,0,0],"id":12,"left_children":[1,3,5,7,9,11,13,15,17,19,21,23,25,27,29,31,33,35,37,39,41,43,45,47,49,51,53,55,57,59,61,63,-1,65,67,69,71,73,75,77,79,81,83,85,87,89,91,93,95,97,99,101,103,105,107,109,111,-1,-1,113,-1,115,-1,-1,-1,-1,-1,-1,-1,-1,-1,-1,-1,-1,-1,-1,-1,-1,-1,-1,-1,-1,-1,-1,-1,-1,-1,-1,-1,-1,-1,-1,-1,-1,-1,-1,-1,-1,-1,-1,-1,-1,-1,-1,-1,-1,-1,-1,-1,-1,-1,-1,-1,-1,-1,-1,-1],"loss_changes":[3.4739868E2,4.0539894E1,1.7116898E2,1.9500702E1,3.1278109E1,4.912844E1,1.1460846E1,6.6184235E0,8.921275E0,2.8002195E0,2.2739487E0,1.0334225E0,9.844678E1,1.3196411E0,2.3002472E0,1.3381958E-2,1.1765488E1,3.7015743E1,1.8492119E1,3.5453653E-1,2.1897233E-1,1.9328642E-1,2.8720093E-1,3.1138992E-1,4.6608895E-2,5.6993713E0,5.4636642E1,1.12033844E-1,1.0316849E-1,3.196106E-1,4.2170715E-1,2.4604797E-3,0E0,1.2301721E1,1.3800949E1,1.363508E1,2.0974236E0,4.5264816E-1,3.736699E1,6.432676E-2,2.9913954E-2,5.1316142E-2,2.786994E-2,2.7133703E-2,1.6280651E-2,1.0416985E-2,3.5512924E-2,4.9030304E-2,5.0779E-2,1.0059964E-2,9.205729E-3,1.3089828E0,8.087387E-1,4.0142323E1,1.04384514E2,9.689331E-4,1.0032654E-2,0E0,0E0,2.3490906E-2,0E0,1.738739E-2,0E0,0E0,0E0,0E0,0E0,0E0,0E0,0E0,0E0,0E0,0E0,0E0,0E0,0E0,0E0,0E0,0E0,0E0,0E0,0E0,0E0,0E0,0E0,0E0,0E0,0E0,0E0,0E0,0E0,0E0,0E0,0E0,0E0,0E0,0E0,0E0,0E0,0E0,0E0,0E0,0E0,0E0,0E0,0E0,0E0,0E0,0E0,0E0,0E0,0E0,0E0,0E0,0E0,0E0,0E0],"parents":[2147483647,0,0,1,1,2,2,3,3,4,4,5,5,6,6,7,7,8,8,9,9,10,10,11,11,12,12,13,13,14,14,15,15,16,16,17,17,18,18,19,19,20,20,21,21,22,22,23,23,24,24,25,25,26,26,27,27,28,28,29,29,30,30,31,31,33,33,34,34,35,35,36,36,37,37,38,38,39,39,40,40,41,41,42,42,43,43,44,44,45,45,46,46,47,47,48,48,49,49,50,50,51,51,52,52,53,53,54,54,55,55,56,56,59,59,61,61],"right_children":[2,4,6,8,10,12,14,16,18,20,22,24,26,28,30,32,34,36,38,40,42,44,46,48,50,52,54,56,58,60,62,64,-1,66,68,70,72,74,76,78,80,82,84,86,88,90,92,94,96,98,100,102,104,106,108,110,112,-1,-1,114,-1,116,-1,-1,-1,-1,-1,-1,-1,-1,-1,-1,-1,-1,-1,-1,-1,-1,-1,-1,-1,-1,-1,-1,-1,-1,-1,-1,-1,-1,-1,-1,-1,-1,-1,-1,-1,-1,-1,-1,-1,-1,-1,-1,-1,-1,-1,-1,-1,-1,-1,-1,-1,-1,-1,-1,-1],"split_conditions":[4.61345E-1,2.0410781E-17,2.0410781E-17,2.4323057E-1,2.4148996E-1,-8.847539E-1,6.475563E-1,-8.847539E-1,7.818315E-1,1.5007919E-1,3.5388064E-1,1E0,-7.945798E-1,5.4822975E-1,7.920377E-1,1.8242799E-1,-6.515263E-1,5.21221E-1,8.7837964E-1,1.1938573E-1,1.9224988E-1,2.9402515E-1,4.0361118E-1,6.590225E-1,-9.427452E-1,6.902041E-1,-3.9091575E-1,4.993814E-1,5.9982914E-1,7.169847E-1,9.6524817E-1,1.841936E-2,-3.3144297E-3,6.234898E-1,-3.9091575E-1,1.3030525E-1,3.5388064E-1,3.9600208E-1,-8.151915E-2,1.09209485E-1,1.3441603E-1,1.7400889E-1,2.2212096E-1,2.6739183E-1,3.2445502E-1,3.7657705E-1,4.299012E-1,1.589735E-1,6.022977E-1,3.3333334E-1,-9.105625E-1,5.786882E-1,9.1812277E-1,-6.515263E-1,0E0,4.8046264E-1,5.2074057E-1,7.269452E-3,7.999423E-3,6.768916E-1,9.704832E-3,8.47421E-1,1.2911108E-2,-3.112137E-3,-2.9347043E-3,1.2829404E-4,-3.3022854E-3,-3.2816571E-3,-1.6892077E-3,1.6256543E-4,-3.0130607E-3,4.337977E-3,7.4568796E-3,-4.3291175E-3,-5.5924165E-3,-4.8753666E-3,6.2963353E-3,-8.168105E-4,-5.947989E-4,-3.0335985E-4,-1.7353812E-5,3.4914236E-4,7.8114215E-4,1.1771782E-3,1.64932E-3,2.0101068E-3,2.5027462E-3,2.9899485E-3,3.4262014E-3,3.9262525E-3,4.3269824E-3,4.877735E-3,5.3534037E-3,-3.0678427E-3,-2.5814306E-3,-3.25204E-4,-1.7616584E-3,-1.7848368E-3,2.2074701E-3,3.9192233E-3,6.269341E-3,6.6112126E-3,8.5421605E-3,1.0576822E-2,1.3986151E-2,3.1482354E-3,-3.088878E-3,9.020524E-3,1.4367149E-3,5.672875E-3,5.970885E-3,6.3014114E-3,6.668021E-3,8.49811E-3,8.966693E-3,1.0643098E-2,1.1353805E-2],"split_indices":[12,0,0,12,12,2,12,2,2,12,12,8,2,12,12,12,2,2,2,12,12,12,12,7,2,12,2,12,12,12,8,6,0,3,2,2,12,12,3,12,12,12,12,12,12,12,12,4,9,6,2,12,8,2,2,12,12,0,0,12,0,12,0,0,0,0,0,0,0,0,0,0,0,0,0,0,0,0,0,0,0,0,0,0,0,0,0,0,0,0,0,0,0,0,0,0,0,0,0,0,0,0,0,0,0,0,0,0,0,0,0,0,0,0,0,0,0],"split_type":[0,0,0,0,0,0,0,0,0,0,0,0,0,0,0,0,0,0,0,0,0,0,0,0,0,0,0,0,0,0,0,0,0,0,0,0,0,0,0,0,0,0,0,0,0,0,0,0,0,0,0,0,0,0,0,0,0,0,0,0,0,0,0,0,0,0,0,0,0,0,0,0,0,0,0,0,0,0,0,0,0,0,0,0,0,0,0,0,0,0,0,0,0,0,0,0,0,0,0,0,0,0,0,0,0,0,0,0,0,0,0,0,0,0,0,0,0],"sum_hessian":[2.4336E5,1.692E5,7.416E4,1.41E5,2.82E4,6.18E4,1.236E4,1.146E5,2.64E4,2.28E4,5.4E3,5.253E3,5.6547E4,6.36E3,6E3,9.741E3,1.04859E5,2.0416E4,5.984E3,1.86E4,4.2E3,2.28E3,3.12E3,5.202E3,5.1E1,5.356E3,5.1191E4,3.96E3,2.4E3,4.2E3,1.8E3,8.67E3,1.071E3,1.6617E4,8.8242E4,1.8172E4,2.244E3,2.992E3,2.992E3,1.356E4,5.04E3,2.76E3,1.44E3,1.2E3,1.08E3,1.08E3,2.04E3,4.933E3,2.69E2,1.7E1,3.4E1,3.588E3,1.768E3,1.2669E4,3.8522E4,1.68E3,2.28E3,1.08E3,1.32E3,2.52E3,1.68E3,1.44E3,3.6E2,8.137E3,5.33E2,1.337E4,3.247E3,1.6808E4,7.1434E4,1.3684E4,4.488E3,9.18E2,1.326E3,1.768E3,1.224E3,1.496E3,1.496E3,8.04E3,5.52E3,3.84E3,1.2E3,1.32E3,1.44E3,9.6E2,4.8E2,6E2,6E2,6E2,4.8E2,6E2,4.8E2,9.6E2,1.08E3,4.295E3,6.38E2,9.6E1,1.73E2,1E0,1.6E1,1.7E1,1.7E1,1.924E3,1.664E3,1.56E3,2.08E2,3.605E3,9.064E3,5.253E3,3.3269E4,7.2E2,9.6E2,1.56E3,7.2E2,1.08E3,1.44E3,9.6E2,4.8E2],"tree_param":{"num_deleted":"0","num_feature":"14","num_nodes":"117","size_leaf_vector":"1"}},{"base_weights":[8.961522E-6,-2.3115011E-2,5.5833045E-2,-3.0558478E-2,8.115168E-3,3.5343345E-2,1.5826994E-1,-3.554811E-2,-5.609866E-3,-6.158072E-3,7.9469554E-2,4.5562793E-2,-4.460371E-2,1.2985662E-1,1.8608874E-1,-3.139922E-2,-4.9701415E-2,-1.1099931E-2,1.8329944E-2,-2.9918402E-3,-1.1459869E-1,5.9010178E-2,9.6630044E-2,3.2982137E-2,2.2976786E-1,1.7516202E-1,-1.1787913E-1,1.1881261E-1,1.4581425E-1,1.7377567E-1,2.147068E-1,-3.673633E-2,1.1820252E-2,-7.008566E-2,-2.9313384E-2,-1.3682913E-2,-3.7906854E-3,1.2324458E-2,2.8940333E-2,8.144757E-3,-3.9590668E-2,-5.1718615E-3,-6.2733903E-3,4.849944E-2,6.852145E-2,8.7870836E-2,1.02417484E-1,5.2781582E-2,-1.9719329E-2,1.7516202E-1,2.8423727E-1,1.2005544E-1,2.2896191E-1,-1.2036277E-1,1.2315179E-1,5.7284688E-3,6.197916E-3,6.906315E-3,7.599754E-3,1.6662405E-1,1.8439758E-1,2.0688184E-1,1.2267342E-2,-1.5133816E-3,-2.8228487E-3,1.6233121E-4,2.229836E-3,-2.686327E-3,-3.5213835E-3,-3.4905858E-3,5.594707E-4,-7.776083E-4,-5.6066597E-4,-2.6658E-4,2.0633144E-5,4.061691E-4,7.9961953E-4,1.18103E-3,1.6733299E-3,-3.4826636E-4,6.2711546E-3,-4.758659E-3,8.002246E-4,2.1454163E-3,2.6081083E-3,3.1677552E-3,3.7302666E-3,4.111083E-3,4.575885E-3,4.9047647E-3,5.260277E-3,1.7704219E-3,1.1016051E-2,-3.121052E-3,5.418315E-3,6.002772E-3,1.1448096E-2,1.1453233E-2,1.6898688E-2,5.0080437E-3,7.694022E-3,1.019457E-2,1.40647385E-2,-6.143523E-3,-3.8250608E-3,1.2513924E-3,8.504845E-3,8.073598E-3,8.51867E-3,9.010133E-3,9.486656E-3,1.0191267E-2,1.1062759E-2],"categories":[],"categories_nodes":[],"categories_segments":[],"categories_sizes":[],"default_left":[0,0,0,0,0,0,0,0,0,0,0,0,0,0,0,0,0,0,0,0,0,0,0,0,0,0,0,0,0,0,0,0,0,0,0,0,0,0,0,0,0,0,0,0,0,0,0,0,0,0,0,0,0,0,0,0,0,0,0,0,0,0,0,0,0,0,0,0,0,0,0,0,0,0,0,0,0,0,0,0,0,0,0,0,0,0,0,0,0,0,0,0,0,0,0,0,0,0,0,0,0,0,0,0,0,0,0,0,0,0,0,0,0],"id":13,"left_children":[1,3,5,7,9,11,13,15,17,19,21,23,25,27,29,31,33,35,37,39,41,43,45,47,49,51,53,55,57,59,61,63,65,67,69,71,73,75,77,79,81,-1,-1,83,85,87,89,91,93,95,97,99,101,103,105,-1,-1,-1,-1,107,109,111,-1,-1,-1,-1,-1,-1,-1,-1,-1,-1,-1,-1,-1,-1,-1,-1,-1,-1,-1,-1,-1,-1,-1,-1,-1,-1,-1,-1,-1,-1,-1,-1,-1,-1,-1,-1,-1,-1,-1,-1,-1,-1,-1,-1,-1,-1,-1,-1,-1,-1,-1],"loss_changes":[3.141498E2,4.0002335E1,1.4960619E2,1.7298294E1,3.373285E1,4.853353E1,9.366882E0,6.7983093E0,3.044279E0,9.476408E0,1.932682E0,1.2204864E2,1.08445015E2,1.0191116E0,2.077301E0,2.0657372E1,1.0906891E1,3.5565972E-1,2.7497983E-1,1.0931382E1,8.201218E-2,2.4870205E-1,1.4313316E-1,5.144674E1,9.9648285E0,4.9651146E0,3.0379257E0,6.1805725E-2,9.309387E-2,2.883911E-1,3.810501E-1,1.0166641E1,2.7661495E0,6.964874E-2,2.1529663E1,6.408906E-2,3.187552E-2,4.2415023E-2,3.6795974E-2,3.644027E1,1.9336391E1,0E0,0E0,2.2356749E-2,3.6794186E-2,1.7217636E-2,1.1381149E-2,1.04308304E2,7.3653244E1,4.9651146E0,4.915268E0,5.4581356E-1,1.059166E0,5.4045105E-1,2.3527777E-1,0E0,0E0,0E0,0E0,2.1186829E-2,3.4332275E-3,1.8211365E-2,0E0,0E0,0E0,0E0,0E0,0E0,0E0,0E0,0E0,0E0,0E0,0E0,0E0,0E0,0E0,0E0,0E0,0E0,0E0,0E0,0E0,0E0,0E0,0E0,0E0,0E0,0E0,0E0,0E0,0E0,0E0,0E0,0E0,0E0,0E0,0E0,0E0,0E0,0E0,0E0,0E0,0E0,0E0,0E0,0E0,0E0,0E0,0E0,0E0,0E0,0E0],"parents":[2147483647,0,0,1,1,2,2,3,3,4,4,5,5,6,6,7,7,8,8,9,9,10,10,11,11,12,12,13,13,14,14,15,15,16,16,17,17,18,18,19,19,20,20,21,21,22,22,23,23,24,24,25,25,26,26,27,27,28,28,29,29,30,30,31,31,32,32,33,33,34,34,35,35,36,36,37,37,38,38,39,39,40,40,43,43,44,44,45,45,46,46,47,47,48,48,49,49,50,50,51,51,52,52,53,53,54,54,59,59,60,60,61,61],"right_children":[2,4,6,8,10,12,14,16,18,20,22,24,26,28,30,32,34,36,38,40,42,44,46,48,50,52,54,56,58,60,62,64,66,68,70,72,74,76,78,80,82,-1,-1,84,86,88,90,92,94,96,98,100,102,104,106,-1,-1,-1,-1,108,110,112,-1,-1,-1,-1,-1,-1,-1,-1,-1,-1,-1,-1,-1,-1,-1,-1,-1,-1,-1,-1,-1,-1,-1,-1,-1,-1,-1,-1,-1,-1,-1,-1,-1,-1,-1,-1,-1,-1,-1,-1,-1,-1,-1,-1,-1,-1,-1,-1,-1,-1,-1],"split_conditions":[4.7470817E-1,2.5634816E-1,2.0410781E-17,2.0410781E-17,2.0410781E-17,8.7449664E-1,6.475563E-1,7.818315E-1,1.53241E-1,1E0,3.7657705E-1,8.1174487E-1,0E0,5.4822975E-1,7.920377E-1,5.21221E-1,8.7837964E-1,1.2038902E-1,1.9695716E-1,7.818315E-1,3.8986865E-1,3.148546E-1,4.2778948E-1,3.4148622E-1,-2.8925583E-1,6.475563E-1,1E0,5.1001114E-1,5.9982914E-1,7.169847E-1,9.6524817E-1,1.3030525E-1,1.4540501E-1,1.00010656E-1,-8.151915E-2,1.0869973E-1,1.3549875E-1,1.8094948E-2,2.2212096E-1,5.21221E-1,8.7837964E-1,-5.1718615E-3,-6.2733903E-3,2.7817777E-1,3.5388064E-1,4.0361118E-1,4.5166197E-1,2.0048441E-1,6.8624157E-1,6.475563E-1,6.475563E-1,5.619698E-1,7.884409E-1,6.590225E-1,9.934108E-9,5.7284688E-3,6.197916E-3,6.906315E-3,7.599754E-3,6.768916E-1,7.5181645E-1,8.546619E-1,1.2267342E-2,-1.5133816E-3,-2.8228487E-3,1.6233121E-4,2.229836E-3,-2.686327E-3,-3.5213835E-3,-3.4905858E-3,5.594707E-4,-7.776083E-4,-5.6066597E-4,-2.6658E-4,2.0633144E-5,4.061691E-4,7.9961953E-4,1.18103E-3,1.6733299E-3,-3.4826636E-4,6.2711546E-3,-4.758659E-3,8.002246E-4,2.1454163E-3,2.6081083E-3,3.1677552E-3,3.7302666E-3,4.111083E-3,4.575885E-3,4.9047647E-3,5.260277E-3,1.7704219E-3,1.1016051E-2,-3.121052E-3,5.418315E-3,6.002772E-3,1.1448096E-2,1.1453233E-2,1.6898688E-2,5.0080437E-3,7.694022E-3,1.019457E-2,1.40647385E-2,-6.143523E-3,-3.8250608E-3,1.2513924E-3,8.504845E-3,8.073598E-3,8.51867E-3,9.010133E-3,9.486656E-3,1.0191267E-2,1.1062759E-2],"split_indices":[12,12,0,0,0,3,12,2,12,3,12,3,2,12,12,2,2,12,12,2,12,12,12,3,2,12,8,12,12,12,8,2,12,12,3,12,12,6,12,2,2,0,0,12,12,12,12,3,3,12,12,12,12,7,2,0,0,0,0,12,12,8,0,0,0,0,0,0,0,0,0,0,0,0,0,0,0,0,0,0,0,0,0,0,0,0,0,0,0,0,0,0,0,0,0,0,0,0,0,0,0,0,0,0,0,0,0,0,0,0,0,0,0],"split_type":[0,0,0,0,0,0,0,0,0,0,0,0,0,0,0,0,0,0,0,0,0,0,0,0,0,0,0,0,0,0,0,0,0,0,0,0,0,0,0,0,0,0,0,0,0,0,0,0,0,0,0,0,0,0,0,0,0,0,0,0,0,0,0,0,0,0,0,0,0,0,0,0,0,0,0,0,0,0,0,0,0,0,0,0,0,0,0,0,0,0,0,0,0,0,0,0,0,0,0,0,0,0,0,0,0,0,0,0,0,0,0,0,0],"sum_hessian":[2.4336E5,1.7208E5,7.128E4,1.3896E5,3.312E4,5.94E4,1.188E4,1.158E5,2.316E4,2.76E4,5.52E3,5.2668E4,6.732E3,5.88E3,6E3,8.9552E4,2.6248E4,1.884E4,4.32E3,2.6818E4,7.82E2,2.52E3,3E3,4.9302E4,3.366E3,1.683E3,5.049E3,3.48E3,2.4E3,4.2E3,1.8E3,7.9709E4,9.843E3,1.3124E4,1.3124E4,1.392E4,4.92E3,2.76E3,1.56E3,2.0562E4,6.256E3,3.91E2,3.91E2,1.2E3,1.32E3,1.2E3,1.8E3,3.5838E4,1.3464E4,1.683E3,1.683E3,8.33E2,8.5E2,4.998E3,5.1E1,1.92E3,1.56E3,1.08E3,1.32E3,2.52E3,1.68E3,1.44E3,3.6E2,6.0023E4,1.9686E4,7.803E3,2.04E3,2.72E2,1.2852E4,6.562E3,6.562E3,7.92E3,6E3,3.6E3,1.32E3,1.288E3,1.472E3,7.2E2,8.4E2,1.8216E4,2.346E3,3.128E3,3.128E3,4.8E2,7.2E2,7.2E2,6E2,4.8E2,7.2E2,7.2E2,1.08E3,3.2472E4,3.366E3,1.0098E4,3.366E3,8.33E2,8.5E2,8.33E2,8.5E2,5.27E2,3.06E2,5.78E2,2.72E2,4.726E3,2.72E2,1.7E1,3.4E1,1.08E3,1.44E3,9.6E2,7.2E2,1.2E3,2.4E2],"tree_param":{"num_deleted":"0","num_feature":"14","num_nodes":"113","size_leaf_vector":"1"}},{"base_weights":[9.356457E-6,-2.0888431E-2,5.5887695E-2,-2.9030617E-2,8.761399E-3,3.631546E-2,1.5373671E-1,-3.37708E-2,-5.3292657E-3,-5.3952257E-3,7.953425E-2,5.1565263E-2,-1.5713247E-2,1.3056166E-1,1.812947E-1,-5.7984833E-2,-3.1520884E-2,-1.0457134E-2,1.7816372E-2,-6.51285E-2,1.5581428E-4,5.7783537E-2,9.618911E-2,2.3653736E-2,2.775407E-1,-1.1089708E-1,7.94731E-2,1.1692028E-1,1.4529413E-1,1.6982666E-1,2.0675202E-1,-5.7417296E-2,-6.212718E-2,-8.328504E-3,-3.588814E-2,-1.2959119E-2,-3.3161396E-3,1.2088854E-2,2.7495144E-2,-3.4376972E-3,-6.10173E-2,9.618713E-2,-9.894998E-3,4.784419E-2,6.858203E-2,8.827324E-2,1.0219622E-1,4.7286257E-2,-4.839964E-2,2.324441E-1,3.3109367E-1,-1.1332635E-1,1.08604714E-1,-1.1531723E-1,2.7423805E-1,5.6755133E-3,6.223335E-3,6.850975E-3,7.509003E-3,8.142001E-3,8.915789E-3,1.9865608E-1,1.1655672E-2,-2.8784466E-3,-2.6563802E-3,-3.0471308E-3,-3.306845E-3,2.2840349E-4,-3.0708627E-3,-3.0513168E-3,-1.4986251E-3,-7.3418836E-4,-5.2389095E-4,-2.3867741E-4,6.010203E-5,4.0833684E-4,7.5966556E-4,1.1570808E-3,1.6267559E-3,-3.0802963E-3,-2.7552184E-3,3.5671596E-3,5.344391E-3,-2.2961823E-3,9.778578E-5,2.169884E-3,2.6993372E-3,3.1457543E-3,3.6534914E-3,4.1561965E-3,4.5700856E-3,4.9572126E-3,5.276147E-3,1.6728583E-3,1.43137E-2,-5.495064E-3,3.7299728E-3,1.0303261E-2,1.3041483E-2,1.5333945E-2,1.8729126E-2,-5.8674347E-3,-4.1910503E-3,1.6663725E-3,6.6286842E-3,-5.8748117E-3,4.033146E-3,1.1492415E-2,1.646251E-2,9.777239E-3,1.0511915E-2],"categories":[],"categories_nodes":[],"categories_segments":[],"categories_sizes":[],"default_left":[0,0,0,0,0,0,0,0,0,0,0,0,0,0,0,0,0,0,0,0,0,0,0,0,0,0,0,0,0,0,0,0,0,0,0,0,0,0,0,0,0,0,0,0,0,0,0,0,0,0,0,0,0,0,0,0,0,0,0,0,0,0,0,0,0,0,0,0,0,0,0,0,0,0,0,0,0,0,0,0,0,0,0,0,0,0,0,0,0,0,0,0,0,0,0,0,0,0,0,0,0,0,0,0,0,0,0,0,0,0,0],"id":14,"left_children":[1,3,5,7,9,11,13,15,17,19,21,23,25,27,29,31,33,35,37,39,41,43,45,47,49,51,53,55,57,59,61,63,65,67,69,71,73,75,77,-1,79,81,83,85,87,89,91,93,95,97,99,101,103,105,107,-1,-1,-1,-1,-1,-1,109,-1,-1,-1,-1,-1,-1,-1,-1,-1,-1,-1,-1,-1,-1,-1,-1,-1,-1,-1,-1,-1,-1,-1,-1,-1,-1,-1,-1,-1,-1,-1,-1,-1,-1,-1,-1,-1,-1,-1,-1,-1,-1,-1,-1,-1,-1,-1,-1,-1],"loss_changes":[2.84182E2,4.275982E1,1.2685414E2,1.5611908E1,3.8234116E1,4.379882E1,7.0277405E0,6.306961E0,2.7491136E0,1.0544642E1,2.2987518E0,2.692466E2,1.1337912E2,1.1890411E0,1.4365845E0,1.9573212E-2,1.0731865E1,3.3872652E-1,2.3255157E-1,3.6108017E-2,2.8086132E1,2.930565E-1,1.6220856E-1,6.470368E1,1.1256897E1,3.348709E0,2.3741174E2,6.6185E-2,9.5897675E-2,1.7742157E-1,2.8684235E-1,2.58255E-3,1.5459061E-3,1.1497141E1,1.3258057E1,5.993271E-2,3.2409716E-2,3.2032847E-2,3.349805E-2,0E0,1.0466576E-3,7.253151E-1,1.1247208E1,3.70152E-2,2.8998852E-2,1.7550468E-2,1.0259628E-2,9.455592E1,7.10024E1,1.8563843E0,2.160492E0,7.2467804E-1,1.2007958E-1,1.3456802E0,7.565262E0,0E0,0E0,0E0,0E0,0E0,0E0,2.166748E-3,0E0,0E0,0E0,0E0,0E0,0E0,0E0,0E0,0E0,0E0,0E0,0E0,0E0,0E0,0E0,0E0,0E0,0E0,0E0,0E0,0E0,0E0,0E0,0E0,0E0,0E0,0E0,0E0,0E0,0E0,0E0,0E0,0E0,0E0,0E0,0E0,0E0,0E0,0E0,0E0,0E0,0E0,0E0,0E0,0E0,0E0,0E0,0E0,0E0],"parents":[2147483647,0,0,1,1,2,2,3,3,4,4,5,5,6,6,7,7,8,8,9,9,10,10,11,11,12,12,13,13,14,14,15,15,16,16,17,17,18,18,19,19,20,20,21,21,22,22,23,23,24,24,25,25,26,26,27,27,28,28,29,29,30,30,31,31,32,32,33,33,34,34,35,35,36,36,37,37,38,38,40,40,41,41,42,42,43,43,44,44,45,45,46,46,47,47,48,48,49,49,50,